function [y1] = myNeuralNetworkFunction(x1)
%MYNEURALNETWORKFUNCTION neural network simulation function.
%
% Generated by Neural Network Toolbox function genFunction, 09-Aug-2018 12:24:55.
%
% [y1] = myNeuralNetworkFunction(x1) takes these arguments:
%   x = Qx100 matrix, input #1
% and returns:
%   y = Qx100 matrix, output #1
% where Q is the number of samples.

%#ok<*RPMT0>

% ===== NEURAL NETWORK CONSTANTS =====

% Input 1
x1_step1.xoffset = [1.42243432998657;1.42001175880432;1.4216148853302;1.41756248474121;1.41605412960052;1.41237425804138;1.41455602645874;1.40098130702972;1.40718877315521;1.40014612674713;1.41318309307098;1.40955936908722;1.40674221515656;1.39530622959137;1.40363645553589;1.43059837818146;1.42564356327057;1.41943967342377;1.42269432544708;1.42223393917084;1.41740870475769;1.41227996349335;1.41362547874451;1.42536699771881;1.42484319210052;1.41942882537842;1.41689240932465;1.41575837135315;1.41144788265228;1.40924656391144;1.40387201309204;1.41401171684265;1.40636098384857;1.39659345149994;1.3905074596405;1.38337743282318;1.37829196453094;1.37221670150757;1.36670410633087;1.36722445487976;1.35635948181152;1.34564638137817;1.33473777770996;1.32353484630585;1.31162869930267;1.30290699005127;1.29406201839447;1.28906762599945;1.27207183837891;1.25666475296021;1.24056279659271;1.22787952423096;1.21407961845398;1.2015129327774;1.19143986701965;1.18327343463898;1.16365230083466;1.14742839336395;1.13238942623138;1.11734342575073;1.1053786277771;1.09528434276581;1.08592474460602;1.07902896404266;1.06480503082275;1.0522209405899;1.0428386926651;1.03483831882477;1.02866947650909;1.02331984043121;1.01858973503113;1.0166722536087;1.01095354557037;1.00700545310974;1.00432288646698;1.00222182273865;1.00066637992859;0.999640226364136;0.998677611351013;0.999165415763855;0.998491108417511;0.997795581817627;0.997704088687897;0.997519135475159;0.997255206108093;0.997022032737732;0.99700653553009;0.998076736927032;0.997868120670319;0.997961163520813;0.997904002666473;0.997868239879608;0.997980356216431;0.998057186603546;0.997887194156647;0.998569130897522;0.998573303222656;0.998592913150787;0.99839323759079;0.998505055904388];
x1_step1.gain = [12.1562137037319;11.7861974635098;12.4764287993051;12.3784752913261;11.8694399637773;12.2322144127854;12.580716664942;11.2975070654805;12.2691320159745;11.3593278061959;12.2770956850337;12.6184708508577;12.6448528114971;11.2425976184254;11.9738387445795;18.4168092797481;17.8631908228866;16.7095922800427;17.0860810878246;16.4849380484018;16.9419938320101;16.786213410388;17.712451132233;23.3012681715469;23.8527198461116;23.8702313861686;22.4961396225707;24.67161455308;24.2795125346779;25.1304152449199;23.5499114977169;34.1745636316601;33.674380142066;32.3825089993148;31.7226398826181;31.9186035671819;32.769024032001;31.5417527566013;31.7403443585324;41.5315660097583;41.6904997974768;41.6543751800026;41.5595492592106;38.8392049374256;39.2823483409937;39.2147703872342;39.4623387314916;46.1325692790796;45.4140346698139;46.6172334554993;45.8161043841108;45.3899530333528;45.7412816772769;45.1879895280061;46.9101178260067;54.1740509088091;55.3327308826343;58.5808920577945;59.360428541607;58.7513648476869;61.3164240525991;60.27013259474;64.1620302735944;77.9936590581563;82.2400454895271;86.1111932331444;91.8001729062476;95.6413594956048;100.219923060381;106.561924784522;109.161993870819;144.874711800009;156.289565614316;172.346228915415;186.450801271365;193.792706733046;198.120214449352;213.103546387562;221.099036649491;300.715455897905;310.215245227199;309.880053933248;336.624885883687;345.950511382382;343.429460411037;319.158711739304;326.697355610079;501.044244351864;480.110346406444;483.799988465309;486.091816482927;463.030510439234;483.507190408946;503.313963430183;464.916686295429;697.655355954757;686.016355904482;709.081211301536;664.957729731872;670.538798185488];
x1_step1.ymin = -1;

% Layer 1
b1 = [1.6033604440612487796;-1.3363148714180961285;-1.2995553682075426938;-0.3817848471156562451;-0.66332066011484702717;1.4295947610871282407;-0.29870955181290465008;0.23511716118504885631;-0.54068819402695189602;0.057697158927020826547;0.49325870863352488938;0.48716347388609709812;-0.51671878800050519143;-0.055216949741161876208;0.49022700050461337495;-0.5581340817217399497;-1.522774527245146281;-0.69412134849385220825;-1.3754879638011610066;1.3074199505529970899];
IW1_1 = [-0.073159277422240140409 0.07145546771343032344 0.18151758103663731547 -0.12044085468776316583 -0.016668395958467308038 -0.041318053500211324169 -0.054130869331364607488 0.14573410492237309777 -0.054110059845518768129 -0.088940506414271064406 0.07607872381424707342 -0.073039130665323748204 -0.14508368031135190912 0.031680338971248472868 -0.004249170325826818681 -0.1655716864546959155 0.11671093539812218975 -0.18672472005115453575 -0.12417156289443939676 0.016387656261187936307 -0.17246113971196391779 0.15308977470884843619 -0.1338851383242168902 0.17589351029726488229 -0.039640101939396370223 -0.041990922115868370423 0.045840601721596312135 -0.18407579470907925456 -0.15468298294674301396 -0.11116914407626592165 0.033790059141059383685 -0.16879525551905902314 0.16004421407047955683 -0.10748784985560191907 0.14730367700986973789 0.083326363242585188562 0.051376507776816932038 -0.014144614324593718022 0.096521850833550332238 0.013654537349484562395 -0.011303531707017311358 -0.010762080834066786381 -0.025966294099747759538 -0.056546601951932742858 -0.018649796351735296873 -0.13797547003006513378 -0.048481773874115854928 -0.1753028559884975135 0.036151273392250875272 0.052356856845822773161 0.0013062176464741681765 -0.086393466521117734391 0.021137034856589843185 0.14018214766116110503 -0.10843534584839170654 -0.14747326021234385962 -0.018269631510061428575 0.016531672135776658006 0.15380782453059471671 -0.10507333132156924937 0.20680929176733844899 0.10805834473416879582 -0.018587435487692812591 -0.22070952391482803745 0.028263961139228639674 -0.022117100280195728379 -0.13073410101289090202 0.1295905247639874136 0.13784194290296114538 -0.1296842056055777237 0.15263521494710524662 -0.03514143219870810575 -0.092836320463674390502 0.081569899092677963792 -0.0051603196124309731393 -0.023640581322037956119 -0.10404722847166374133 -0.096605174632576423788 -0.080779508189592202916 0.094795060406790310203 -0.18682079554022501533 -0.10613425683223301488 0.1485626470724336623 -0.13011415007301033175 -0.14240038607536115167 -0.075058585671698638264 -0.10096092290602029506 -0.10372884200488921569 -0.073702815230930834867 0.086455670311019514052 -0.21154814020758347382 0.14677226920999980608 0.14177654325495800403 0.16790143779618935116 -0.060370863256962524479 -0.076604598097960385772 -0.11583910529733561223 0.14710271525098775336 0.024777159633038971925 -0.14410155529591273105;0.075578657277697136596 -0.012504803572171232368 0.00031387180679792931783 -0.019910087098045311377 -0.05678702074138621686 0.0061386875188087237226 -0.11147710640681830763 0.096812653484133481818 -0.0075765874956459488415 0.054376871017975850209 0.16858712027019084889 -0.1113398223059625658 0.085182241746314363295 0.1547767982938786091 -0.12505721941019012911 0.0064531655020067342152 -0.089732114936599535748 0.0049199356273417161819 0.055773289048218169239 0.16400436532155429625 0.10042115603160485515 0.085259331522930859038 -0.15280946164381989383 0.12947831873824480753 0.0086749829133044298324 -0.022865029794884379061 -0.14395186935385706484 0.044760708895688866571 -0.015768272618570101234 -0.10209809597686969607 -0.013774879607345398222 -0.050441439486773029244 -0.12556183985240193524 -0.13586460394840724208 -0.023682108829090317559 -0.031009223630725057941 0.065468467751798362086 0.053395085870874749168 -0.039470591778000191363 0.084579484433988438852 0.16100648529844879819 0.018049649463927425197 0.064310417507944514504 -0.1080429376592429852 -0.013050729250191159952 -0.21294294061019905517 -0.12748146032953722173 -0.19510996565856181251 -0.048829499723711908277 -0.050312648670775866888 -0.009911639871015178252 0.0540478157553077182 -0.051453116703218379491 -0.13378670264223288533 0.0025878528453702289748 -0.095527447088136915876 -0.21177963383021702892 -0.1467748240561405626 -0.03823387595671649819 -0.18899378984202683252 -0.023460403960358915121 -0.035099331025257522743 0.1050528533261096964 0.052583324651103525993 -0.047798838284642146401 0.16345620319624043493 -0.026679079963649137558 -0.18892534734123744844 0.048988090411336671082 -0.0036781391425072169389 -0.19758440963601756057 -0.11588112345031530148 0.17126626977239456373 0.043037189299330334824 -0.093780958266539884982 0.082603131798961754173 -0.1478358234909862845 0.15444091138075571878 -0.17724614905446328672 0.097015897904008885355 -0.072510945826042436102 -0.13357079252672510172 -0.13634408555132512819 0.041512390362121072418 0.078943049460567488174 -0.12416854857270899493 -0.12401261797348304972 -0.060723471636841573618 0.037007442745546174911 0.016254764716365336513 -0.11568613670297452078 0.018372378888180721651 -0.12659721672557075478 0.044645305900904964924 -0.11897398466531777794 -0.0082669784531919296433 0.031806491788117445541 0.022713892100786656214 0.13260206002947239057 -0.12881687946490047447;0.019582722479157321782 0.013475008740626726739 0.056710124326349566071 0.080519026339381807866 -0.12031356709478442657 -0.039075045123691823368 -0.085076684242781738798 -0.083240447367806058576 -0.065570860176232578787 -0.023186422619543584772 -0.026617189114857671417 -0.036128202043171686597 -0.020983587332660862124 0.011920488484122152006 0.015919662994197184003 0.054585545295342541294 0.0065213110922867660244 -0.028252721179907715199 -0.0019983757705359915004 0.039642683680633991616 0.011065213421425027646 -0.017441613178853378197 -0.093607234784438012043 -0.11848412219825367464 -0.05379085167034360071 0.0020269304542809042646 -0.0383712464020736152 0.058772463712982905837 -0.022256239054228865032 0.038182988678393890714 0.075018491312980842278 -0.012169745976374915855 -0.095661162746555936098 -0.099458734388436165208 -0.011980719749925958922 -0.108753962278172564 -0.1153802910600299908 -0.12987451196920216101 -0.032249103118044429583 -0.15214182003853227165 -0.019209936068996329855 0.01632118220014228821 0.015591617914883820067 -0.0054770258105137342025 -0.083123757232079320545 0.048853294446598277689 -0.036949815966229981878 -0.076702223397259905457 -0.066134491671368145216 -0.2667423737964548236 -0.12332170647813568698 0.10760353380652039335 0.12192685902989326696 -0.070660581137321473721 0.12529676181810031621 -0.15196625963150348082 -0.21717658729177835575 0.11693032653195019333 -0.05481912820370558187 -0.060375092713957759227 -0.11898534682845225696 0.098665825590108710563 -0.15097955822368425149 -0.09958144742457711307 -0.19864684877209654035 0.049960915993131037316 0.0065183417107207534957 -0.040797904267536953815 -0.047256314701330640049 0.013476889304538070685 0.012390175365393012522 -0.11110190969237218606 0.15223598623611661607 -0.019161210470670826667 0.081238412982001184659 -0.094360387740284670799 0.074562681021208249144 -0.049027411907676531067 0.024103718843982248343 0.088212065840072434453 -0.10921413919672912085 -0.010434008190430825447 -0.049475552571367965859 0.017546980539208788946 -0.045850099192642615464 0.014711710329215595128 -0.082080848429197758587 -0.027136126093535238579 -1.9005879814393267496e-05 -0.027770277059226321226 0.051476583643537576762 -0.030656284296049531035 0.051833654437181263253 -0.072272405855529728291 0.074617259435367053189 0.059929188269399455424 0.05870764712923634554 0.035164333658609284172 0.09128710291331254556 -0.051429038500175640325;0.0039896801610052410464 0.019783850024748663582 0.012028520614207380279 0.038570963984157727311 -0.043035178010929674153 0.0094045411820028561312 -0.0091124588780645884162 -0.02037231241330277054 -0.0090797602216132547448 0.032965511234936219209 -0.030475598530096202621 0.0087273558287971151476 -0.0063779713101178650558 0.0068030604895357752945 0.058412882842323078647 0.0084873480454993027039 0.022738259516307271491 0.02075811171832962071 0.0050302012159399132896 0.030304138489557593678 0.041951329261962530537 0.0097319559636056766211 -0.020479336684688462938 -0.018926883635446249687 0.013598031753698051893 0.0039758958838904167113 -0.06217601470164277333 0.0061536544311582052139 -0.013568983721782402682 0.049957945913151870221 -0.005147105309912063803 0.050720957189368004459 -0.02549035368435518048 0.033348253352195288135 -0.010857526018698264447 0.013776071742795442318 0.039634648177531615898 0.019996352993631373585 0.032331410796068771329 0.052503182649519829217 0.052885573281760668574 0.026745849299164063673 0.0062423779603853375708 -0.035666829162448641932 0.036821470851993484685 0.033340751866601098241 0.050169532154203957952 -0.016459118806309781108 0.028998647349125890316 0.10651636206645176408 0.17779107798339899293 -0.016023649952977756655 0.034098197824051823535 0.012173915957297866408 -0.031672673252583154191 0.16473198086420220987 0.10773667932754366072 0.05681022063759068319 -0.014165337598753734161 0.03102284084412845061 0.0076156514256260085874 0.01873377459783162266 0.066497852905863685802 0.16396776848594377118 -0.074277525308780720237 0.082945531798381016975 0.063364301452471821774 -0.0096158343749678607676 0.058140672732485666752 -0.012345221796183102059 0.047923108715041538852 -0.0099308977285596129747 0.035821237427148641674 -0.028424287995246953764 0.015698548256614295454 0.018782427305958127733 -0.025436101198763765019 -0.024986157637800782833 0.035953324744570330784 -0.049930456898426837931 -0.015073033302111462153 -0.0011777218079940773073 -0.034258930988452590549 0.014986448911793645231 0.0058434239115143686918 0.049049367033943178096 0.0030112907491998902945 0.018622445862636505254 -0.0033170460595420771417 -0.036405940687412326195 -0.0039571718784279369396 -0.013519945115348507014 0.0095850978455732267769 -0.042133906221815793647 -0.029554842233921883171 -0.022664331676632322454 0.037464358994700915073 -0.029957876565682012987 -0.035583173368179024654 0.014359721323845203028;0.013073814790906678265 0.0045781276414592550483 -0.022139776392420183054 -0.020255154811339437515 0.0052702739830818492311 0.031003746371345734106 -0.01050607417500146884 -0.00015395549366157851995 0.0043683415134821781955 0.017240945127826905886 0.02432869779947213762 0.010494826320868913538 0.033843582824582635338 0.01330290682457574078 -0.0041227402588515111442 -0.0056093878316870009193 -0.019918323927406229867 0.0013012278592166475529 0.020330857601987079031 0.045017629122567043298 0.041626812026843325321 -0.014317054420764628933 0.0087482228005441985824 0.0040588615317440623897 0.015991602474153945868 -0.0022900424142603260751 -0.036968149330616602299 0.0083474942898072966579 0.0022711593516288796843 -0.0092426339557573934658 -0.014979897148406997459 -0.0053858155712488073319 -0.042065054764614369376 0.010175766062451969962 -0.030442778059622758319 -0.0054901153046611524816 -0.03535569993759698354 0.026424039496182580994 -0.047171131498654692016 0.018049622554415993558 -0.0047244652193479605429 -0.034666393089870309319 0.005412618418552410729 0.00094178878500858443854 -0.057642751995549822153 -0.038792456221913504399 0.007880127180759338712 0.00072985688986564392633 -0.030566594642410776367 0.017735506126351392731 -0.042536149755530626437 -0.054474780050701727963 0.01351707554420099669 -0.047158494583720719784 -0.069189649908316094851 0.068737887705292585738 -0.1128422735667651694 -0.058599968780066319374 0.012832867945078714478 0.073297734593194857622 -0.0099602969827770615474 0.023668026605045321131 0.090410666806574710441 -0.0090939100234299838355 0.019875363406573968994 -0.014276334344865040937 0.035147844934049751742 -0.041878476687938689937 -0.014289817223661634149 0.0051420530739702922929 -0.039255743160489076082 0.03088396369239676531 0.056848541896096289883 0.045272270509049854226 -0.038040942824690476831 0.0088090972736817006739 0.0010267455227942169031 0.035805195795486841059 -0.008283608405456645285 -0.0016987309732725390261 0.019787037515390008824 0.023136229983222730139 -0.020740976925968792471 0.028985505618385146859 0.026849787973640702743 -0.012794265729254248112 -0.025056954456569035389 -0.0081580737382263915358 0.027318584095741893503 0.00038520066056664786086 0.0018158926439865185655 -0.039159733602887714099 -0.0030825978634022935254 0.027672612947609875195 -0.015277418969310053304 0.020681638772874155752 0.0030571609993669383344 -0.028991726120226171681 0.004047148539960737125 0.011260567160508980211;-0.017437478030878084123 -0.10172320182285839174 -0.15521818642659412912 -0.09949100921390624519 0.013844593362034791559 -0.084773963753473041693 0.008590592839690535179 0.071230813633493761383 0.086350528132856790853 0.12302946192134828207 -0.02810147784791673653 0.12022976773768964676 0.12525145935571224687 0.086822822005925601174 0.12408233526142321834 -0.037189206519259769557 -0.019276399191632584418 -0.09079959025875207479 -0.0053894276269408252292 -0.070688461029435364913 0.064334082149711535603 -0.065312408840662097842 0.13131808862610463984 0.14172829248711657502 -0.13917403213377402271 -0.077131028529361475576 -0.04513070334550989271 0.059834081470921514356 -0.029643383982650279435 -0.10827982645168431064 -0.079710568805365797362 -0.085275916994434847185 0.017037330510382524273 -0.039538181855717072222 0.048146918027601459666 -0.068039872483017627136 -0.038633809417563419464 -0.0063994627449849078235 -0.11927321754866919423 0.1236688446973992217 0.0063035714816467337818 0.047435837128993262046 -0.14100789149886350238 0.066506378595306656076 -0.055513735184449276849 0.11072503894469885866 -0.065790781315264473816 0.096758121287146281464 0.035503104319464309779 -0.12752462289959481945 0.087561675564721219711 0.0035110886058694634228 0.081708760918577191812 0.021585998076071803708 0.06880113326311843025 -0.079159964704412777436 0.10394675419247341452 0.18720509778015559377 0.20710931652977854212 -0.059565392276900067103 0.069614039677771299974 0.1407552435954331771 -0.12049578517362088959 -0.12912478008132571849 -0.093813192526632394053 -0.11606754259301706178 0.16777905358440672878 -0.11463157717355144938 -0.032306378356365274274 -0.0044723901313403879171 -0.083968119215088843355 -0.053576084150847039234 -0.04138152305740750575 0.052397958620037980715 -0.084059297461618137648 -0.078392336674778323458 -0.019799522740481103472 -0.069848611438417529396 -0.12541151352702123445 -0.0083961027122770488795 0.086541016982894111709 0.07703997160472662864 0.09694264126687456018 -0.20222586638161046957 -0.039371286832638525965 -0.023198930417289567035 0.10187407525578714984 -0.024476159643292492996 0.054364893072552794573 0.12490218264703834006 0.037721011525600596503 0.066965685277280168064 0.012230483526736822888 0.04535158352813667415 0.080391561942469824675 -0.058861818788508865619 -0.065799351446619816497 -0.015844463046217283075 -0.0085210106137832766771 0.042982798794918564145;0.03695922909011348928 -0.002520187838021595815 0.0026925756112671827072 0.037353074818075746033 -0.04830183848065235791 -0.016347723152584248824 0.0085725851985493043556 -0.043273813235260485954 -0.002963967559533663837 -0.041014592443810025946 0.019814845023656591644 -0.0097774651624942393591 0.0066080340235634953822 -0.013407432757986269614 0.053450070584445764921 0.023588651061604713061 0.038802198358413406143 0.036448788691377416449 -0.020804736544349340666 0.025238087500570865335 0.015139706763081593743 0.0052863202164304861144 -0.018397553021016449515 -0.0077925230252401346195 0.015685249103268451148 -0.003899839489140619498 -0.00063818817885864993246 -0.016928967025040625449 0.004977621657175843907 0.044513336931273753128 -0.020557489256428220642 0.035025246875225971022 -0.032525218458447149872 0.0034300160233883868546 0.014166520539310101939 0.049510109784442785097 0.054138666443812412388 0.031926863416079045987 0.031540242969595996825 0.058595434437514977433 0.012893292947837151421 0.06813843372593703096 0.045810881067056628824 -0.047403131340252424586 0.05490026876620117402 -0.0069130008267451348997 0.065666822796186199995 0.050555350379134979255 0.058858187316496717034 0.021708525895801383809 0.10633861283207661497 0.20662828482411738085 0.062184998535410686282 0.046656637539887739485 0.10410167568006289951 0.12194951215129765099 0.026002683364853344111 0.027307349756944734182 -0.019346011750601396773 0.036852411760469654112 0.0075028094573500389575 0.082148636975160657658 0.076218106739107061021 0.077523090857660584274 0.036030221085378670576 0.034560990412871479827 -0.049397070959125884138 0.011712470059395786032 -0.077964731513976703869 0.046214297784197840013 0.023122326132581822594 -0.046918798304572961744 0.053411073469185339768 -0.014705483926766392891 0.0030383126602819094872 0.012458877460904215981 -0.011401195339481279278 0.011089049379549052038 0.056100955670037262746 -0.069297941835031282021 -0.059636647015090048229 -0.035497994106412231186 -0.035282914237734573637 -0.010772719294279718694 -0.0072335769243197477196 0.010972161845102716346 0.018413993487907447111 -0.0036366446394346507026 -0.024446160359662683081 -0.047245401730615435576 0.010995057400537067843 -0.019085045043078091576 -0.0088559243270330181147 -0.017365647510717886065 -0.02470167947831218222 -0.0073276442194946901296 -0.0029468823699048923674 0.0041676889300865322188 -0.010512839097538194053 0.0020807510744106768805;0.00088861864018317218879 -0.006599403595096739461 -0.033142778876313033765 0.015013257142524671223 0.041487532161309584322 0.026773925099106934966 0.028484136224825314793 0.0031341564640533191299 -0.0024079889080512286229 0.063513005746614850655 -0.031554751076602959026 0.020289272620549938381 -0.0029889462231645533806 -0.0030357853661293369638 0.028714204505370329035 0.0055346324912897027631 -0.023525237326690387474 -0.0046961788233731236591 0.028955536205665724503 0.0078272979991195323207 0.054120288283490705639 -0.016249951498567543479 0.0089162852140095213982 0.018252560710155203011 -0.015686503488932072858 -0.014635999723149998447 -0.024736835940458907351 0.017343744204692444766 0.013932487572132799813 -0.0080122549924943088639 -0.041626325384921010475 0.0053833415286658591742 -0.026575674350358235998 0.036104194094771412116 -0.035633420766730414253 -0.0085802917455795411211 -0.013071660136668794908 0.0028144457299385527982 -0.046051771958139336993 -0.027613597701422087222 -0.025722271302742582416 -0.075033115350823256784 -0.065736995490605840131 -0.013801439264048790193 -0.039430610436610231961 -0.033323807795549324762 -0.069748688045320167417 -0.078442108776340696563 -0.035032015347864722821 0.051290583876980690159 -0.093940187307544720241 -0.13283016880598519371 -0.15152386606278792081 -0.094835715022956568188 -0.13954641037504050827 -0.15790225424066692272 0.0061392451583606464163 -0.065489676883106723304 -0.057669354445123000019 -0.0138764582087576617 -0.00035584326232888756347 -0.043456050117440012115 -0.023156715081237289056 0.047511627740532164088 -0.0027161840866510873066 -0.0083254855782630803052 0.062083842677228780194 -0.0067139367442991598409 -0.01618997739752090978 -0.016932352700600832029 -0.026408310627408084631 -0.059226561694721784057 -0.077705364278087010743 -0.025162989846738825078 -0.014824854828212006078 0.023061791948651988449 -0.0037194857640383792441 0.0043472163278558823007 -0.0045144302607872674807 -0.034119156048079427035 0.067984762779178350978 0.023704268119409028365 0.0064037096609786906681 0.0065400391225419176808 0.03725817806434866819 0.024197493690895095081 0.039267216161523579854 0.022740975257325893311 0.025343415564329705575 0.012530784618624153312 -0.01537962635679671064 0.0049564812324523607398 -0.017149607298495597035 -0.015431133827697555982 -0.020090356112556276985 -0.014098209773718282586 0.018911108501104938184 -0.021313260590373094699 -0.044657073066071098499 0.016181991149520787848;0.044858593800789617334 -0.019499489263624648211 0.024613166549433223435 0.030337784208618961967 -0.025842487102746170002 -0.077216480414980623315 0.072789333443217085762 -0.067108261845637409704 0.024037953856304659916 -0.099543641160074247676 0.058126698367933778144 -0.0033454233784851379087 0.011720660473422546757 -0.012249167443300698274 0.060571577187971493983 -0.0078538317537202497615 0.03745409338110327474 0.012810965383989177807 -0.04282111070676623138 0.010478151786099470025 0.0067407108590765568712 -0.072497498711895036472 -0.038709700850837011621 -0.01913886282764265534 -0.010384758258723730817 -0.029645157458872299638 -0.0024364105364648208814 0.034638784906449483769 -0.045755226738376654494 0.01891323887975501078 -0.041841140395309721345 0.028883487104420547953 0.0031017001149770172599 -0.045104775113899486794 -0.055253015647052552972 0.041218278349357762025 0.057043610280683394731 0.02672489603609433037 0.045228681265789612287 0.0036790765778430840199 -0.10192474801906373227 0.017641552047981554074 -0.030147003972004340205 -0.036657843965983802348 0.014318772235995754633 0.0089925022907159143232 -0.02363267503463268096 -0.068995645020757570554 -0.014991759741176311632 -0.11305295043030307023 -0.081702008250081420426 0.12366495050134354572 -0.038616136611728281436 -0.038854295164773441917 0.084405995582901419128 0.10755417274852578646 0.089863664942164245275 -0.079783052646580060463 -0.080641678839038527515 0.013951242794081497589 0.0061851809426676177678 0.17633888317002316404 0.080285555436610464564 -0.027614298000307853365 0.034200523497319099131 -0.0081688465785794382723 -0.16141301866875962245 0.0011679897840225286765 -0.082269638782386259046 -0.025628027552123663901 -0.065425274696694943333 -0.020340313914004922585 0.10616901455244547037 -0.078470335455681258785 -0.030266392371884866253 0.027891668138555480994 -0.0033883631212110278987 0.041828620207523481422 0.04124142681540859251 -0.07032825068345971431 -0.02212005939040718322 -0.042981671486119067682 0.0033714869990710614849 0.021125739463168594773 -0.012823128989791116733 -0.0096097865028365175855 0.00043384720684617642623 0.0085421637781431802861 -0.018107396345505264584 -0.010491391465316631665 0.052389067029441196977 0.060460250576472925055 -0.025326986110923089407 -0.019904666808593669131 -0.00057228771817794928459 0.013855944779445265522 0.021225164388475104005 -0.021805132536834338775 -0.011442108099300756299 0.031832668003296260562;-0.013657678006256276232 0.0067590356511706686446 -0.015075280240247715749 -0.042824570064348435605 -0.01504840270444669087 0.027220888088683923428 -0.050028106452414046468 0.01893395956873288738 0.03121562915612447614 0.023453300506995591185 -0.0099488564504746600237 0.015322257538549729702 0.0098875422509362032725 -0.00033024576377978177768 -0.0093774747160655074624 -0.011740422682654922532 -0.005011762758566747078 -0.0022007804878291358647 0.016540914938196617928 -0.039316364081697544042 -0.029459090520966155907 0.030471458845911583713 0.053737396685025813625 0.028219977138968975472 0.044607667428909127116 0.0011096489751040296105 -0.016325673575118562764 -0.007586204781201731813 0.011805704011735666456 0.0076277328777552104444 0.044885342183634331648 0.017442238311182488297 0.064220594280497880768 0.054070790632710981349 0.024854487653306979456 0.0092908721265123495742 -0.00089494794303890130415 0.040676413978001528526 0.071810994661854296583 0.064274792878624670278 0.050463132284644419967 0.069028578078717622857 0.029996273510472123286 0.0577560658608637853 0.10133210307328331667 0.056698795391293903279 0.14422200576688939955 0.12024978327574720183 0.086572178483685049977 0.062597540700747036913 0.146188254990588129 -0.015469139172353284228 0.15516932675256422947 0.12355052214250643317 0.020179088208476247956 0.27683499873787348333 0.0038160637799881796939 0.061663682942035211165 0.086140065635648174758 0.044015907342574864258 0.01634143957488610327 -0.0585528417960619052 0.017522611843896581524 0.017161145642060303407 -0.0012576509695192816113 -0.067497266505779404677 0.076603667785995449568 0.023529370202699254055 0.042920447818706117249 0.0032077373483106867182 0.019548927760045266971 0.17753811260917842785 0.022590284745015464657 0.077162256497416814582 -0.011448730873379827505 -0.063617850166172412729 0.024107834110138642858 -0.0056944742219307217801 -0.012090406349733514441 0.0073135580120279458649 0.040244267235596167809 0.05774729109371583291 -0.015299776875010511271 -0.006329337786116870368 -0.0064088503481260841732 0.0040658054049565652693 0.0022789499011955267893 -0.012951245817836869526 -0.023714330841963185414 0.012684842161871094646 -0.013259249946557031402 0.0023293887083976690285 0.021510291544257525292 0.023163130371737575275 0.0023710728125415857746 -0.0011508965859973983858 0.01562043166446949044 -0.031665650455913602057 0.00051088258035420289205 0.021657404104531745997;-0.011165925357713414601 0.021584908931777949809 0.02785590215496559427 0.008250557518512436489 -0.017486793335856655462 0.033946912317813056348 -0.033882095418286448107 0.0065139087076569327298 -0.036493791711277381862 0.040987408316810455822 -0.043043438103991776833 -0.0037452391583583698534 -0.03197630097433994123 0.0065053486029820212916 -0.0092759186612655693954 -0.0023167822071543647117 0.0093353656719628985011 -0.029284478028096239816 -0.022119295897292640118 -0.026557951830908713142 -0.037891134394856570977 0.041492911175799382373 -0.014575140423522887217 -0.012358522667143672161 -0.0029801186277502444977 0.018777527205179587316 0.019435819613595608363 -0.0044975082634880272914 0.014734735195642677946 0.016226767706544423242 0.036726440256033193732 -0.018269127980593168753 0.048699780022326298601 0.056296922248800236599 0.060514650218791404823 -0.027853488420985322155 0.0081535938912276149232 -0.0040777100077015494828 0.063046827983632175441 0.0072068600397470110666 0.048038358913653878002 -0.0089143207018477360615 -0.0206013683428221267 0.045193980842940892351 0.051562270324211241512 0.081487543248235955184 0.015032983848381819419 0.073184510957332665759 -0.011331189975853226543 0.03216943931707087756 0.11965533674280355581 -0.016575122803189075438 0.1148964090773550023 0.023838419934465213124 -0.085161822836842274165 0.071874078355240886284 -0.060384674234799547154 -0.010163985485833717387 0.0098688473944145253813 0.030428996836474573456 -0.019990266092382000945 -0.1578806730604688513 0.03311429079549530613 0.049382812317601498808 -0.13617655282398447025 -0.023709752211948858375 -0.0022207531906533678825 -0.055344105282799385681 0.012149025363183013973 0.0034654101671363745502 0.072766651360103393187 -0.05874389453683710044 -0.08120651369897813332 -0.03471749278926638399 0.022808656577682887706 -0.058901221260509568911 -0.030408473678884159058 -0.0610132803863527029 0.009320827118611069162 0.047944911054853815713 -0.010284585789839137404 0.010985173335027886496 0.00017779924616591856468 -0.014709173140074121439 -0.03003400475621853527 0.021903653609834042998 -0.016427831074278257534 -0.006570942109160279529 -0.0056514318170296671748 -0.0037402686315133951145 -0.013008406779807541592 -0.020273905013011222359 0.011968656402243935469 -0.023555364387159546252 0.029897769575877430198 -0.015735401373922073415 -0.0015495121395263746801 0.0080461861691034017308 0.019760139570753756239 -0.025279121684122718428;0.020341200248412554669 -0.00088405370157517196815 -0.022637239547005978679 0.0057495283317392925637 -0.080990753171815144107 -0.013919641979618223304 -0.00996959081371798575 -0.067817168800058558187 0.0016223340636168765393 -0.031681150276480399275 -0.028140468272541775685 0.021860071227912680064 0.0370216527958245889 -0.017868781543062720041 0.045958661287355345726 0.050561024507242820214 0.059472767146170862906 0.01400212834312561036 -0.075712783101326966428 -0.068582542349144501315 -0.0523287793194090467 -0.006816376022604636771 0.032941902459104360767 -0.0018852720986035193494 0.02199421617418391775 -0.035964456535386914171 -0.067449419325671514103 -0.062628716066379444549 -0.0060083845940750481296 0.039050461976792606722 -0.018450548437594731926 0.022483229263073112314 0.039021743506742742613 0.013105186374293040577 -0.035363697729354923172 0.02606515237357888079 0.040556074012165127529 -0.019701398886385571019 -0.0089438679192530186335 0.055820545771628232723 -0.01206734341197676294 0.041463743303050748512 -0.060982220089936658991 -0.12132369349432883809 0.032155947311544315348 0.033499672390516120613 0.053877509728387860954 -0.024745939911068343814 -0.003953237121392176763 -0.090166593937219569055 0.17771485195614483699 0.10397453808456133539 0.00065360854513049648253 0.082054395820606404466 0.079604585158748450424 0.048706024126427410748 -0.042007887409103834842 0.01656846744700327459 -0.049732522100381343355 -0.0567195013023875233 -0.087598068209126175865 -0.086478240038721745919 -0.076434002766334468992 -0.02550837856019360847 -0.10025410642571112863 -0.1008136854773137997 0.07056331741663766921 0.046996464198552891089 -0.00057984380295131787361 0.075916761868143806113 0.12210321907782673012 0.079367365865100500399 0.068618942749856609575 0.03250971200754779189 0.012862856498725901491 -0.070729660306354733001 -0.00019880726158626941917 -0.02819430891821907148 0.088149343720981085393 -0.058986962049568193722 0.00029447049088883632539 0.049998953434083150127 -0.019828307809138662199 -0.029653726301244721919 -0.024173043183537412659 0.033212712025337522148 0.053995398387317164457 0.021556062572727654331 -0.084009958625784406094 -0.069615398114144702579 0.032797815998598711662 -0.023180065540608890684 0.026585992504870616798 -0.013964089872228604289 -0.012754563893429124097 -0.0050105748675269724118 0.00043844681547030537336 -0.049829949228597208988 0.0067804503067957645063 0.048313153253147098076;0.0068756955096166676861 0.042296870818849807705 0.00086057520400982827 -0.010083964767937643112 -0.043033828544919758285 0.024198981010507079198 -0.0011537845045653150229 -0.046490016990751482917 0.015858164642412502648 -0.027355498847708090149 -0.039284698686717703375 0.0039460343179065805741 0.026859002590770279795 0.0047672771183092611455 0.0012393826277674992523 0.027620098751044156599 -5.786817993916467881e-05 0.015401196633433977823 -0.03044854203156721964 -0.05758647217801051571 -0.018155077731348921027 -0.03041501126710294961 0.067597195670801718537 -0.053111464810391938174 0.052332138133465273822 0.018466538147493390121 -0.051424765695998991832 -0.022983256058042241671 -0.0037287028392572526408 0.051315553893025084298 0.0060887735629168056317 0.041417570552651578053 0.062798170469768987978 0.028764609598372105348 -0.048593783966039375 0.0054764484148907372971 0.047886437508465336255 -0.0029859593141246931064 0.013617448978942287355 0.015181118682959954605 0.040561557352495239415 0.034440018150671575237 0.0084947140185749753227 -0.039722747309873407406 0.09223231575357460077 0.021437735372884101498 0.020000729864072634701 0.0089147735147693998176 -0.051449967655247196008 0.045562402047726976995 0.12659457897992751341 -0.018019577039643443206 -0.040242490826464520637 0.050992080517475266155 -0.026435353912282640032 0.07760390163575202338 0.2261007422475780626 0.0271756037865919578 -0.0043699138029878355216 -0.007720658015182926999 0.025941390577135594459 -0.033014666139559591118 0.04177631695012876123 0.058888019882839842678 -0.1072192284439070914 0.024898000275282571037 0.058210005208480491978 -0.037520936914323566036 0.072524141036296146945 -0.0082102947696096086061 0.11994145254780101684 0.091222781302379596369 -0.037621650717029275768 -0.023964550301485910283 0.050629118856718620389 -0.036660497640791607499 0.033292658577864821245 -0.015350907533681649661 0.076334503612007803541 -0.063610055395545386792 0.04987126800546580474 0.057629567837001967334 -0.016845749130493300333 0.01312987408162774941 -0.0078632607435207540342 0.054904903351610273576 0.040621659809074263381 0.010912945701981270272 -0.052277688981508599331 -0.059042978430354664532 0.038714765178932471212 -0.041915612848920272282 0.0096369261936370149285 -0.018732223617789277303 0.017489148341201233433 0.01351772671721523239 -0.0055633429431892157321 -0.06218507628275143917 -0.048892446627190583319 0.062425571026335779923;0.0037367173007721889155 0.0074629922531329129579 0.040053351719588792257 0.019439317310159496405 -0.01866303750385905208 -0.018368992076496611782 0.018702893288223061685 -0.03333466799885051457 -0.031431812931131196398 -0.02437266116994883311 0.0072957171041489344426 -0.024441113002172491775 -0.013385464303583970158 -0.0041567816184523171535 -0.0052540938922411390896 -0.029687920769033548235 0.031966935129205592547 -0.035211036401404598173 -0.037659282686668446583 0.024354587573592975658 -0.0043987577286735734042 -0.022161019669738428461 -0.05598769249954513999 -0.035232818906291721306 -0.032169778850750521682 0.011103986630629968102 -0.012284282402860653358 0.024775551333459950448 -0.020571515890152804185 0.0049193729199150200079 0.0039652312079062664724 -0.0069474439324333555484 -0.0044389670705871769885 -0.033273901016629948979 -0.033382082220070947998 0.0010667442724295473494 0.0015565474990695878782 -0.071876510851584266004 -0.0039349602143063794335 -0.076463755360084637025 -0.050900386883767557988 -0.043508038288633088531 -0.059418486545108464836 -0.049907330466469342067 -0.059156109807434895109 -0.012797090372146519011 -0.081169889360551514268 -0.018370719878832784955 -0.086305304773925270445 -0.076680345857011833477 -0.068139061944134368676 -0.039777652679623208554 -0.026358635172058483831 -0.072991464973968717134 -0.02535678136316964551 -0.06259548295489071601 -0.097935659487048520866 -0.037590090292930741778 -0.023090024192793802416 0.018731984125078142422 -0.035052787051099119908 0.043474388832999082133 -0.0084225026214270228009 -0.027471693323628025574 -0.04346506761519243478 0.045496000291413096761 -0.045313579112933453918 0.0088283889177290051503 0.014666667896444928257 0.029995509765275717856 0.0019897585189660397381 -0.063671995845914042267 0.0035321072487652445566 -0.016863277925746916058 -0.013686596118802796251 0.018078310116204181907 -0.014067438869711129321 0.0029507573005345547404 0.0045575897278611644803 0.024498939652181424276 -0.03357997100885350833 -0.011785547193381099712 0.020648798359479782205 0.0087525348529885263482 -0.016302444864803641161 -0.0044479421203617941841 -0.04836744890506829847 -0.014342576331039788573 0.022331275491425751911 0.0046075933110575149204 -0.001794089972533265305 0.012634466442178155648 0.0075899691338457810422 -0.0088905740807664803554 0.0092543160837797386331 0.003178793661341325523 0.0040535214922465334988 0.0060826249420671309187 0.020610343159014221648 -0.0081065925112609755337;0.02774860207608221413 -0.0235889089100526049 -0.024258539165696174633 0.012652586007808004631 -0.072130819197964032852 -0.027500989289843714991 0.023381967665209418827 -0.027931055294468008776 0.00033104983800106982991 -0.024912297070026269419 0.0023817003627712917888 0.027746450356062317411 0.020993756796741001869 0.0097247931104135279523 0.060626322517783257093 0.032193542968451192843 0.054905918879623996642 -0.0010003496204048659222 -0.074571359785125829189 -0.052813594710517962338 -0.031259149393743294876 -0.0041070970332642755402 0.0088602289976071474387 0.045729886999776328538 0.003629807801492627127 -0.040420697592900158013 -0.062937828536389295309 -0.043431437244646743656 -0.024529210098542277713 0.010068719340155048506 -0.048404496385930313729 0.01351071325514168267 0.026145567062364677424 0.0040827466076643181142 -0.042908773894187943188 0.057364749589701342913 0.066014511278607662659 0.02576132546095198303 -0.0043149754527423908601 0.093245537217954269082 -0.029984967697214908594 0.029042158669711246738 -0.054043975804634103444 -0.099221103604298671597 0.018992066458465441114 -0.03552192269302351102 0.037812316534617154695 -0.11563438051806614049 -0.025095368474465983705 -0.082934286010758834218 0.073052197384459671703 0.10271226870217979588 -0.00065119128089952127425 0.061472701509839799972 -0.0074727834608020616419 0.11610283963872927715 0.031207344218181564538 -0.070880459538985904344 -0.057392853230305511392 -0.05482187454125241749 0.0077164717410565988182 -0.033109289513062731269 0.11281512929722539718 0.039196274382797637037 -0.042386481964137058542 -0.057119309463430953389 -0.060572682737038967271 -0.014296284252578584165 -0.035622984466944930537 0.027963609419404646811 0.054514441879538022562 -0.0012498188769344718493 0.075047110783542536616 -0.012074479182864064977 0.031545907866979867873 0.00058298296576259501373 -0.011570627462663858609 0.011550054446094254121 0.0650551818439795565 -0.056432231688989115126 -0.016489663240231839519 0.012786202306131349421 -0.0017951599410660661667 -0.02903297503626399434 -0.019388776734266494756 0.0040505719271938609577 0.054969110459927382484 0.027108501544323235916 -0.076969490842523136109 -0.034566344173824557762 0.016762870422723931407 0.028551138236257909281 -0.011095815686523256838 -0.0079051537235482367827 -0.035400364081748444955 -0.029740617044661139812 0.0019646861204424197027 -0.048441955894969634944 -0.00037872560836432669212 0.032912834358433777637;0.057316628671930089367 -0.024690071549648237581 -0.0070094977420211094371 0.023141800666789908575 -0.032667391180830562813 -0.019536964636777145315 0.0096494844481924777618 -0.021931357108326925837 0.0083581336369046212859 -0.0068828714408664358471 0.070540152937232147856 0.0025378202912883941061 0.032531787208696469338 0.0047961296624971410177 0.036282874655671308595 0.0090936604626033479271 -0.0065886391956851263901 0.017248155545027878122 0.0075008915749113554833 0.074462294478027865607 0.061926262917032542932 -0.0070137505849610188788 -0.046386380372557468876 0.032578983637186011146 -0.0082707795079621313633 -0.0053780121006730650934 -0.045560122095592729685 0.070819650116523316652 0.0012446606637183787319 -0.0064602411450264234094 -0.015622151796735810059 0.036402916894160947114 -0.041526902372458637802 0.01112784076778504383 0.00083385068575825369713 0.03048707671858739976 0.065640686680995805058 0.050869980276087085891 0.045157595410806446179 0.078238264442077876115 0.0068675314554231554204 0.045011255411709562291 -0.028317838344415133256 0.0037133115767344080163 0.036122742833395400652 0.017049603524277087002 0.062709040201829505112 0.005818004725741897018 0.098058073670950846035 -0.029629796967842549071 0.077180121282161118224 0.1398002630620599207 0.048551560437474688969 -0.082642640638954267818 0.11659802615900241585 0.12311734357752365798 -0.12822048623665677214 -0.062388049398923749178 -0.073247090535396811029 0.040434259484345397295 -0.037505524307222613822 0.10652707649277097512 -0.061855203126200783426 -0.044732918873590307718 0.078442712627600233444 -0.039830459813841097294 0.053888311529474985928 -0.0017311999261783437599 -0.08851733574201932353 0.059179973868304522333 -0.18755567157642283327 -0.0042160048542161463608 0.1585349266694286996 0.024365546567550581264 -0.076182080687048778223 0.039676320255394421921 -0.036020517033339992385 0.066401553936600035688 -0.0012318879866694658343 -0.0053774545067024380821 0.0090641952391178268189 -0.013731093065121099256 -0.044926340405272290057 0.020852427894227601457 0.014070994287702157099 -0.01367528088977088517 -0.029435958806891374812 -0.010774729067984571348 0.020861995710297946693 0.010233818205487639486 0.004653555700145605746 0.036143852345232888035 -0.073305287861948925654 0.011250046793794094349 -0.041189736008162405878 -0.016711567878685197608 0.029598023173713603612 -0.033434587050281398823 0.019762353045316233269 -0.0037035233839628773495;-0.08487084567073785446 0.10333309596973569433 0.069102583631246591866 -0.066223614613342321467 -0.003817194638154874746 0.13582424229629869172 -0.065466722844730193542 -0.00063275039323729131979 0.094516800948494378298 -0.0087535011875202635434 -0.042688188547337829748 0.0038799945361896455258 -0.06703864133652637225 1.4099841013934764911e-05 -0.090756929630868121706 -0.029436600961139515464 -0.072613434484670918989 -0.059794079472988460877 0.14778428337994187203 -0.10494020719219772364 -0.036312115276488525495 -0.055779464338684872637 0.093465959056507064151 -0.13506396529526637496 0.17132268767047645341 0.1385942753637407765 -0.12984355959268703562 0.03617109560128754786 -0.10096832062894110782 0.078311889057656305924 0.154618353188591795 0.027529476029306998441 0.10693724117158659448 0.087861957808617524579 -0.12531718859281831824 -0.066818637469950120655 -0.094509299221793255374 0.075534353602111692361 0.18679109251630629518 -0.16385301019527623301 -0.12109280368603389522 0.023769983478080437822 0.14178823844760840567 0.12293805998202560203 -0.0024593583567336495949 0.025691118781765689277 0.13505067409572540926 0.16665454657850528597 0.078611158668940347982 -0.085537186756291100354 -0.021354868237645638351 -0.1636188568677132138 0.10180256628794473461 -0.078964703739268296556 -0.12602251869381031479 -0.060002284425626183084 0.076281826742293182275 -0.16026631882027728149 -0.028350275685323597652 -0.10957224038962876111 0.086053700474071750937 0.064615591595602941966 -0.13303758587213529441 0.044906623428957591349 0.13462134465691255603 0.094319301237039826491 0.15773097734161403705 -0.051643142073296025019 0.11412076166192067217 -0.0054393924006850167749 -0.15667033434318550222 0.15980786031688087867 -0.029358055872195525093 -0.043725564145890620515 0.10111564452482781074 -0.12339009232017819628 0.10082582728670497207 -0.088080565926360737672 0.063693363737907682243 0.036653804597887792993 0.13954406550428838374 0.17329893158973194711 -0.029548012666817745353 0.093617019121919761715 -0.078783955679596243127 0.12465201081437962682 -0.1055583131719283474 -0.10307192530067664504 -0.0042356106848896570363 0.11156517810137356328 0.032093124868473793532 -0.0053806063917848029679 0.016948363665959566282 -0.058680877700315638157 0.058950248288776228855 0.015485802416435157092 0.17106976293469450257 -0.1296235984382921036 -0.14140998026182108327 0.078601040410191239105;-0.013683696035563564647 0.020466614330013524481 -0.033545019866243967754 -0.0092539585564786804722 -0.079078919645409348482 -0.0052258957335091227314 -0.036139461639664187398 -0.036107715610240578852 0.017391515513349917882 -0.0084127460892981648088 -0.018387265710647915373 0.035499916862953478924 0.054378475007900987925 -0.047933165978197814217 -0.0026709621708754676707 0.043317180367509332262 0.051165692593744482863 0.071959574355890551511 -0.023027035576329936417 -0.050621741782737719739 -0.026168145786429071464 0.036123297374321197695 0.070067629225770547419 -0.025503180108631996054 0.052993636527760679122 -0.017029924273857719591 -0.04483241352056330925 -0.085478224051847045972 0.012904270840969865597 0.035471628922528287975 -0.0081368913551785933963 0.06479587320095146763 -0.022517963306909988958 0.033371627838494705154 -0.047360548321478568301 0.003758585234270833686 -0.034171414062682807511 -0.049768985902360632356 -0.062398231810606816228 -0.0031757305102210792343 -0.013282159606378320799 -0.009838976815489650779 -0.018152404354313075863 -0.10307885451945615618 -0.045726777885466238227 -0.072130491594937354294 0.07789227296266468259 -0.074830416452809411787 -0.02991054995495484245 0.091169288264803208244 0.038259755412102143535 -0.044856033763716697538 -0.079661210358102182982 0.10646434941123701645 -0.140923784712311706 -0.13300929560215371539 -0.079052350365298007517 -0.047414846383621318815 -0.085330264485653603557 -0.052479829522237300687 6.5575664962358188453e-05 -0.16365794394653965238 0.062009680680826524679 -0.092635998261737337311 -0.11629998504912522628 -0.14435148333925620912 0.042425068281400177272 -0.032872906564015313968 0.029499612986944652449 0.010268742052464283759 0.12141349847288432362 -0.07694335481557690315 -0.042603503599658393286 0.046352738193547411705 0.031838943352066155501 -0.033261879617122222519 0.021968958409020283157 -0.024897838475133302755 0.068366111151364303278 -0.10628338284731550512 -0.0066356203875885585303 0.016970431377235976195 -0.06128779383232481337 -0.018675547338791745333 -0.028109018634481452992 0.031563892491855781441 0.030719921649455785018 0.025209727903062098542 -0.054689602960584220159 -0.075934433750415267217 0.016271289211651301931 -0.085572573332781232125 0.026587318880838803348 0.020303694063118438162 -0.061119925948652231718 -0.017369127650538634944 -0.0028402999984105006641 -0.052942684104291926062 -0.012584586693419479858 0.073807341756782191;-0.080050139417302892952 0.034226563425540694474 0.04986190919046643022 -0.12962500516046385202 -0.13177233985405908956 -0.055623110106314037349 -0.015440708550016361486 -0.10845795856734236073 0.12914487576117616996 -0.10265219546246784343 0.10118925969709278989 0.00070872545409402518731 0.093586221186213403023 -0.15773975492633429685 -0.1048649121204967144 0.11365957085298716844 0.066445492332403710556 0.045719709367542694933 0.073002348002216804757 0.0089189098246947162013 -0.0083464121455231153612 -0.037147808457246321578 0.1108251523545755457 -0.02907559838974915073 0.18696019117258164122 -0.026593054058476443824 -0.019749151392989765241 -0.12492651885065599038 0.00099414976852541664387 0.032670719507423826022 0.15776314021313583846 0.040739680221125319781 0.014233832178151314962 -0.073704080494417789637 -0.21487899997921616757 0.052824805559356834139 -0.085373497874301179644 -0.16753365162224462259 -0.070809480840663407974 -0.15237061403654564296 -0.16775566987582776757 0.1213885523730662136 0.080180718071843251615 -0.087464804723192166036 -0.16152372273675638659 -0.070232649420842091503 0.00058005893927890459557 0.048908553672884574892 -0.11533603944732498392 -0.074270246625378649741 -0.10311067981258824344 -0.049380055468427476451 0.088629967539531409604 0.10802563761812267185 0.1118691216035294228 -0.032298731288196172451 -0.1366008829671023217 0.14033521438238252821 0.14996348092355987758 -0.042626605486164613479 0.071106909821921415737 0.15802187083536686774 0.0065136219599921550347 -0.042840046460139433182 -0.084828177176321711839 0.1425476040286665913 -0.22538944268775082391 -0.12718402352731719707 0.042238725007823177404 -0.16380129503820128889 -0.029629456893687254604 0.19092232485423685229 0.14097578518948253312 0.17053523495935385412 -0.13148860818684066087 0.058242215198865313064 0.075803281233718572407 0.11965156343062571809 -0.072508622071267139764 -0.235341883304212518 -0.077902964058596840813 -0.077430594911300484884 -0.11231723291761851191 -0.0038240614098783275859 -0.070629210525203461879 -0.046065799629120357528 -0.082805819161979571374 -0.080777125239783253985 0.078116614918146337621 -0.015521211846645980789 -0.043302833301046027292 -0.078624691943593394416 0.15694375659517403876 0.12273846713385339058 -0.17287087043166335376 0.14571303128372023461 0.0007960692181609947465 0.044081128455044200909 -0.0070789498119619856734 0.12421867900177487043;0.094119223518835504194 -0.03315750284290826938 -0.055261945360137211536 -0.19847032426740282562 0.13505066070733373618 0.18399868068030100776 -0.093425308417738772704 0.13546269399098673225 0.051363334526328220664 -0.11411497644189284861 0.011739106733689250867 -0.027930723327847156723 0.050376212634942581226 0.027709198243438894899 -0.17886553108074787488 0.013039060520638494009 -0.17850360855591421161 0.065078613897481596418 0.010655897684469846365 -0.1291094166178753111 -0.16984548402730059724 0.0949468783956411988 0.18716128749743654591 0.099515421784461238763 0.081524761076655460901 -0.025003608250060652823 0.18303302076298502699 -0.12571164938382328735 0.20042616868855511747 -0.088436452821488792386 0.0073977190789354177469 -0.19150729045466896583 0.036854619161728510712 -0.040367070084335841818 0.17285164217530890607 -0.12722731032361062065 -0.036376174404254738026 0.11882296278275085444 -0.10346900659841688774 0.026575366027960029697 0.073039744431692241178 0.01251152086648163117 0.17764131995428542043 0.15486062625544466664 0.15590397284672469214 -0.12798727473497520379 0.047818398312230163405 0.042690778891107443449 0.061543908802313612716 -0.13338035760335603674 -0.12935105404454211309 0.14566483570518065638 0.013749605374811379663 0.20183714357336474121 0.036687667842428044185 -0.078008219301019240954 0.057941553117130069339 -0.11409230520761733108 0.17488265139203187926 -0.12026516016106372775 0.074433871747685426135 -0.24061667824639210167 0.10627508203473894077 -0.23427544539853628613 0.014488442323372732051 -0.14369015563496653765 -0.038382686554059082529 -0.091400848393467723496 -0.14619451937253333251 -0.11322436805709322483 0.16830728917329490502 0.13319879799900008477 -0.18760487648082843637 0.091275464976673867379 0.16806702061460607189 -0.06854393931284330499 0.18028323793686423793 0.15993426695361440126 -0.051518792810604209509 0.15972013536056628435 0.08745676185987776019 0.050293213378782224143 0.029169026358760147266 -0.040026688334131484137 0.11915156803277937581 -0.15479574575322130325 0.15362585877632009557 0.00408333140120392072 -0.01316704491307124289 -0.039831929329669182871 -0.040714068444542637903 -0.063498853359413340303 0.054801287430627329544 0.059044337040566267916 0.13156920810150951606 0.20050477016449197443 -0.19058409475749696349 0.089677326332885554105 0.14486485206257004865 -0.048016433722931656236];

% Layer 2
b2 = [-0.43022673970724661929;-0.51228978180947759569;-0.52844350794103922553;0.21433354491030007227;0.86753653532507657431;-0.29094123949472350255;-0.27124802691273558475;-0.2754152305741331408;-0.95198864532451954457;0.39906689489432678464;-0.1926521632527066763;0.58970424883871364052;0.49588172853027828735;-0.40694263050720858033;-0.9104564329270314893;0.78707465805984389018;0.67313074408054407449;-0.44218533366754070313;-0.33093301611644554416;-0.067807440510764233066;-0.1742892369414991427;0.34213351869698777064;-0.43926040685683415132;0.76063751953803104833;0.74339717610341027321;0.75124462153346105442;-0.51549267602689097245;0.35645828962615105917;0.1074349938090201767;0.95348157053482340828;0.32987006287943981819;0.41808099491220124255;0.024772412184336744384;-0.32570190988461011905;-0.77754899145272882155;0.44844696818670132243;-0.60597218267227248578;-0.037859650582971512978;0.19682967230744316534;-0.21965777027625293938;0.12942425837122437104;0.010371791757616240573;0.040836246203667471433;0.041766522408563641622;-0.41364827778263801861;-0.028297742136630155835;-0.83000623396669315213;-0.63174442906002892251;0.13812652386579557517;0.69566674882072521147;0.01894570836624669824;-0.018718456378056892719;0.88223807522974229123;-0.73749672408796451695;-0.24847085386264874951;-0.80087115207893455615;-0.51696138726635643135;0.53209207135799618804;0.42539693791981991744;0.10895425621696273877;-0.40595128155708404272;-0.15340348237393791608;0.87807860012936334027;0.14274582372079736015;-0.24107488769630847081;-0.013347906076919081875;-0.31447562503415521507;-0.50955548514620241374;-0.75701489092812745962;-0.17628986792127845917;0.14635292163751406624;-0.32360059138247315724;-0.95892254112682484557;0.5100095912581025237;-0.73887310567901609559;0.09488165264641719443;-0.15931532985117982659;0.39441338496881495068;-0.40370573992593267176;0.78637612652507682398;-0.061780597963935986183;-0.10802417676332426444;-0.032645602802719712876;-0.69310852112657705959;-0.97203894867556117632;0.97747193974836665831;0.85407773047534252253;-0.89959812757754697987;0.21051149501070343106;0.49618527808737683538;0.19463453618601328499;-0.25836205825349467524;-0.52057338595218172195;0.40485191690892247118;0.60116969807622444577;0.28283655471464824727;-0.55928826887073768148];
LW2_1 = [-0.98902428222212346309 -0.36679081137270408419 -0.17581375590415854182 0.75468731529984978135 -0.32127204996895175615 0.88782637096601124682 0.7961933883150564828 0.020788034622331637985 -0.2739716658547337591 0.87198147846820028839 0.40790880051655520333 -0.39612069077642420023 0.31533980538024769524 0.87150424592249109423 0.23310357654514246573 0.26751739883151753885 -0.63496662849621743341 -0.84367973542201757375 -0.10367883954884785092 -0.2513698250915813448;0.62080221981147654109 0.58271436494108297399 -0.62979325406525454856 0.20406745939417098024 -0.59926773061813187748 0.16521884102279599249 -0.75839451682284531042 -0.31926561469985992314 -0.82886943457550488201 0.25741551930585049313 0.81846084793710505156 0.49094858739984464924 0.073060657770131556821 -0.74703043600602025975 0.61621868612347197036 0.57496336043859253007 -0.4968630961794242018 0.97559504135474961473 0.065090773164242610171 -0.71801388698363866059;-0.29758321979640217636 0.55252120808842231092 -0.56930739464359414459 0.62284795507454926433 0.10918506135321849604 -0.82341138923734680244 -0.022919908155278678058 0.064859991260393115575 0.052894240111810292282 0.44312651526874596852 0.47224525204506978548 -0.36842260937477427918 0.05808314004745886161 0.16686031485846533617 0.7730590959881331603 0.59421451862525853649 0.50110337627378620518 0.70429369981694212033 0.90149370345563439866 0.75934334736346398298;-0.29621092548875965766 0.54508068015956789854 0.96969567181677540635 0.12110397085061397338 0.17496073399057512909 0.97409910952766032288 0.6831317974219851541 -0.88723638655626546612 -0.047897590386071504931 0.23717935123265049269 0.1164158987198768147 -0.70736385280810143428 0.47062106820853999434 0.23497385296412046096 -0.79864703335483788749 -0.45223595902571672722 0.064242098907720479595 -0.16296442154854412498 -0.83475670837653570544 0.53326988315541778984;0.72720996220724321013 -0.20663302211244283235 -0.80101774733701636144 0.89116308742361582951 0.16514428915490944605 -0.35493760071400004552 0.024950755089851544416 -0.5723795717784915249 0.70572819676816500589 -0.38445831757321347055 -0.9595186128593149455 -0.90456520091454184485 -0.084096098191478410588 0.4841462990325584026 0.52435016378489862632 -0.47528138036822875634 -0.033201880530537901393 -0.96002143353774960222 -0.58732233447865878073 -0.82727632186392507929;-0.2208738163376507968 -0.59314014886294308404 0.72627521384579307728 0.2270553533923532763 -0.17209773395277061514 0.026458497606963934934 -0.13192473015201905406 0.06678497519028084306 0.37982059850663735245 -0.49882431179893915729 -0.45259769573304897694 -0.89101405889799789595 -0.50914777779237641031 0.57752175384520121337 0.79641350676265254549 0.37336766096776796697 -0.80436834818836366878 -0.3387110180987847885 0.34291523060930045874 -0.53909232490034320051;0.1023655344411982665 -0.43293699057273116182 0.61711869358810733655 -0.51522825185882137333 0.79495647777105404863 -0.84737312292161159899 0.43467993596508675003 -0.68052916547276243175 -0.77189651621688826211 0.30167139467785542006 0.0093615891762817877997 0.40367895648046170365 -0.88525797664775585094 0.21470007436452115401 0.86827707118809760445 0.76811613804331646538 -0.68430286029133646775 0.52770587328091711488 -0.27472130075679457306 -0.23280960455254454122;0.7621718093333960109 -0.14503671846209995056 -0.79969715971520138886 -0.47954754574433788861 0.23445213398840453189 0.64058205336702334076 0.99702842240549061081 0.47736739008436779308 -0.078177206866164680732 0.62715379702895224234 -0.82906908680238244891 -0.17637780436703606735 -0.051722272987847213443 -0.2570457597544825723 0.12988170303721119359 0.55654954876200046776 0.28434881345322715607 1.0298602559512415322 0.15607207024666380768 0.77317430385372953872;0.70210195892665439032 0.091991307516916628884 -0.16280317975347061155 0.093239105175955905302 -0.35385785353525306407 -0.83399060309283734593 -0.45571052107554677058 0.34749646899593328309 0.96530009572764308157 -0.6281189910830400347 -0.35484794748054959701 0.35521333364740431682 0.47413276305558693657 -0.1151512915514358304 0.81034772548489797384 -0.67767156360158486983 -0.6601468435411964597 -0.023841107388489237578 -0.27793425862918935687 0.59625874495171582446;0.19855891790549012876 -0.050246980449660652579 0.47334607048022914189 -0.67601351711151536072 -0.73514639500984424458 -0.53881447130515303101 0.77346780639047074679 0.19287133189522334686 -0.5080662342690805966 0.82257529166646825569 -0.89830185022893949132 0.1929728523155802844 0.010996934724753621576 0.25457174507147573017 0.52380442394663295769 -0.22740243435453993959 -0.64154257887989840636 0.51575609588124238236 0.30387823116790624312 -0.44739335398879298555;0.16906289426319323632 0.91445361944535830112 -1.0299615008997951016 0.13402792156205006746 0.32498887611786153595 -0.44356874927992173685 0.31856361506667102423 0.64786620804661776418 -0.41131097936088673039 -0.2800906400566343657 0.39107906481082871375 -0.023161163413137411671 -0.81545476538100103436 0.64995352709783427159 0.42326838594848426034 0.18002210782860988969 -0.0073376030571629859839 -0.28425050235280635569 0.37878764291509320339 0.26553959331365101226;0.83147243877294174652 -0.33844812405644303377 0.094618214058574040548 -0.13340411307737612412 0.014686073597857791928 0.40566700016223256053 0.4805836688652909694 -0.044950988535497539422 -0.20437448288845566635 -0.15858630799867060035 0.55687451089184647479 -0.47283847872355261321 0.82747335410020173008 0.26147508715399103707 0.18863755295941900259 0.10132009009750213291 0.85587493545618686941 0.7221329536165833618 0.066079634310545129483 -0.00051957787625062003961;-0.66662663719564874132 0.83465781509687675399 -0.23689595423691989229 0.30916465451135827225 -0.68447992454653727723 -1.0525393691727926715 0.18131759791977064555 0.28603047245163354395 -0.20612691235653954336 0.71443408731158686287 -0.5270914973436406914 -0.28634759404700477203 0.89114175868786704715 0.92752462980157124317 0.25866966704265009769 -0.39937151447330315746 -0.25719939172174155484 -0.58955526925361600998 -0.83232927607368745182 0.61864407780834895778;0.16416482705274482168 0.32981510230915211945 -0.55423367051466598809 -0.1964120086395816922 0.20249130676442053667 -0.67216822869461079204 -0.86346140321513376037 0.44702076424206593774 0.95856718550520725319 -0.27804889120024706139 0.21048081609196367392 0.75360455400231729506 0.20101658091791846372 -0.56749817184339101939 0.1146720166621610637 -0.033654524019094911313 -0.41951521921506584878 0.39384158501961558096 0.12560383683085857287 0.5709443163543044264;0.55512300487323207321 -0.72765205575204650046 -0.43604284855200747817 -0.023793958639227993923 -0.093204202450809861547 0.21830360807728885209 -0.23446930372652435848 -0.62320266906741705881 0.27574771554479776681 0.42259292009887494679 0.28552339490309880388 -0.86968327140957701893 -0.75945286961054259134 -0.85452112054501072613 -0.41941208679109026614 0.62833689593824493258 0.44599741248022894968 0.036048900482398046896 -0.43550702636714871963 -0.20475425578252223757;0.29899715849545621671 0.73831320911732922774 0.87258684889766247039 -0.59841931745727972025 0.26321934622871123732 0.47649767250288310727 0.22444124064703710464 0.20177269495292823875 0.55104716256808805586 0.73394572969299809451 0.74993688318018947303 -0.18270901660140739797 0.71673025198236861577 0.3525878277443029174 0.48116909373815586193 0.21939627276594339533 -0.77905968883937048997 0.61749055483031423108 -0.26756589630667326762 -0.40258609334028488957;-0.80570213532326873107 0.50348503060397986619 -0.32474933740046291186 -0.55712713326298590744 -0.62917143941805553364 0.13154965988400799115 0.14614355940031448222 -0.033297563723563079752 0.75214497905413746359 -0.22401925151198748276 -0.12746681592837164065 0.26337059027692760749 -0.36787520870574846876 -0.45888898796008686931 0.092409484026806126833 0.31945284860282729955 0.034327486516815615414 -0.072208849285173154486 -0.52125828568603660429 -0.41124199125233623642;-0.48919662893317472641 -0.78322823890411563674 0.88106357597294460149 0.33332340749252992174 -0.72440471614409140955 0.33686854874338950649 -0.14555646223950310936 -0.011809197572912603219 0.30830348876902441413 -0.77880798755279767587 0.58876108247933478523 -0.71707410827840090128 -0.01083547937477650526 -0.4932812686490480325 0.29110666068497564885 0.65429721424898634741 0.61339204261021074149 -0.51332954392551122247 -0.75017475304216951759 0.56377422007086042122;-0.85488024727973332961 -0.73781675825471615404 -0.091014933413385637473 -0.82334408848998563712 0.14228819162388772757 0.15047997336428911574 -0.18576918315322371589 0.15125017630946060998 0.72374023077886917577 0.12551001835108169247 -0.21074143177957449513 0.058548085743802130709 0.96452335938099253987 -0.14296382791369632859 0.77406399291296279497 0.81573557861826984094 -0.80854230901373524976 0.11292122642302937496 0.047637555186791961936 0.50889069411050791292;-0.76787058623313475536 -0.87419570242987554298 -0.36261637873981461544 -0.87805305494781882292 -0.11707434605492404722 -0.45973004070464251747 -0.21488960183301264451 -0.93247335725526503403 0.38360954701758542829 -0.043900370960482291982 0.89225800723041581719 -0.084892140908941940425 0.16096730880504098171 -0.043104132571759129489 -0.26392117221865579735 0.64005902210225606996 -0.39967263444038403364 -0.54178749713018770073 -0.36974880166158202721 -0.54352352514642110481;-0.034562266179585923731 -0.92025363915107261104 -0.95661388767701438507 0.34959621203532609268 0.83864071574934473396 -0.69289222156330776414 0.21478442644203726841 0.92992573868694439199 -0.79772652515012076879 0.43206324890315928045 0.50371666745968801671 -0.86449749179898571771 0.24828018263108286856 -0.27930105730427040589 -0.085950492712864590139 0.86986247315947762271 0.33215898548222688724 0.54758132592396246974 -0.76372817414790294954 0.087662571591425944573;0.95380263649209773291 -0.83731674024022284542 0.62716612252734138533 -0.20626694666584821647 0.60381755802791814425 -0.7271042154418265735 0.75904652822264628842 0.085749706394305638679 0.47258420190468042321 -0.24095383203606987599 -0.37813830756920757681 -0.0084135073012010178767 -0.45339569450148142771 -0.17187901444820824493 0.78075694286517149934 0.86581850427053519414 0.21009829155898390729 -0.97158730904672685469 -0.81051127845538206707 -0.85391267307145601873;-0.18024214163759405549 0.17136159883408663696 -0.79358784933525461369 0.60428101115427679257 -0.031991878017257911748 0.44392062744110605266 0.51380396771623138008 0.25796376947271665303 -0.50829409479389398019 0.57609661099016440389 -0.81125831006257953515 -0.92984432009342254943 -0.34306605254750938139 0.55202305547132646257 -0.44033773111826940427 -0.93282532765520265183 -0.13089287537727073429 -0.1974876346690215001 0.62129603738004135494 0.70934900603598471935;-0.36135015653099078481 -0.65707146446020325836 0.089762454936041541353 0.90467777151463246721 -0.15380367102558664683 -0.68392828467046717922 -0.78547400419585433617 -0.28373956253276960693 -0.85114926834925552779 0.091269622053894106095 0.94084314968065840823 -1.0019408211281020105 -0.53750050254068504341 -0.24261232661855142156 -0.014103305400881270895 -0.23789675734028853382 0.20292412526507871973 -0.33726805579878588182 0.79767902586226790973 -0.099567347142419146411;0.61475429536890657811 0.65710347497295351626 0.023184719664265957678 -0.31558844559210819103 -0.88464779610683264011 -0.62025698776628723774 0.30759933176414011591 -0.33107895556420724459 -0.25273416209401661225 -0.057540114684176260629 0.1168256367465989598 0.18558598475597873345 1.0584779584791692564 -0.60581459210866084319 -0.60183068083126345371 0.50668060059509789639 -0.66546622717906034339 0.36563476029650787691 -0.59733767407672333505 -0.89041700954077440677;-0.011771632692980805307 -0.41644146962805694834 -0.099814394608033915612 0.55316278959277409566 0.77190453347446963406 0.66968195747608283419 -0.65463148907714452385 0.35254937985113243837 -0.59382066466359395562 0.13375372342591648755 0.95551613273915914082 0.13013509514971938197 0.79261307166246464107 -0.77606153577482739347 0.079501208395727815392 -0.39017530736728406326 0.82282058509276179148 -0.17498500350117496271 0.88813932308044285513 -0.5341526860599560278;-0.46460939187023597707 -1.0782699761243885739 -0.88405192592220938064 -0.84936790260240579986 -0.10707340440287807515 -0.8354507553206897974 0.97284287619573572847 -0.77330952289135113098 -0.58293265649279146778 -0.59883120296834824181 0.87929749696021097805 -0.53317337482636151247 0.61349459599962630207 0.15384748678310047887 -0.17448085865097223701 -0.43519775965844886834 0.34650146643465440377 -0.66668400833632723845 0.19173830588926313312 0.31917038453211221682;0.84660778410250625559 0.70780840805983569197 -0.27882454354783947625 -0.35998672159185535202 0.82936060823239032835 -0.88833557270086727087 -0.72011796974405140048 -0.13510913051703382637 0.420657094002587717 0.72397238318614998143 -0.1382172856812791395 -0.74662335921307587672 0.69665449773502619024 -0.68274541168286351223 0.76600754046480656889 0.36854912324432403947 -0.0020331036190304949129 -0.28394749052216400331 -0.75356811220059027878 0.44505305214344353937;0.64085420160570039094 -0.39886594953880100123 0.73271226799993394163 0.37800718757573575912 0.24524727145995919853 0.55545702117496398298 0.8600288100985977735 0.8930243529658090651 0.12810703211327392759 0.1646234946255269449 -0.045081385205377737246 -0.26530334337622618612 0.31973131530603998707 -0.84883315680924942281 0.242049069629699104 -0.87347791773651317637 -0.22365518366340733647 -0.22561822216042634603 0.7634295740976839717 -0.42534121493544324588;-0.2104706602752257627 0.16280685965712377028 -0.82617915601347258203 -0.24625373478741943711 0.2601952356942842659 -0.48303052445276917215 0.23846587632569843374 0.080782985149917038714 -0.45254291083448505706 1.2174989815417645023 0.63142320256126938105 0.3361313490619770028 -0.16032657513194903398 0.26478909670148925715 -0.41014029349949959746 0.69497735518826830869 -0.67100624397761154949 0.50000442398465472227 0.82608968342694855114 -0.65993300282443856375;0.38696683063468073627 -0.46749079024133688431 -0.10184367417498042807 0.35279199388444049124 0.69810463354504947997 0.0094370666583479985434 0.37935351698041847035 -0.88822956491944515811 0.41547648988792540425 -0.45433449704398942703 0.77025145124214922099 -0.35348438871721571397 0.29989569638338664515 -0.21790904290575052737 -0.26186163664836559217 0.5196508403365991402 0.41704098754209439903 0.46747783564667810818 -0.78040311420306229806 0.46442941500547529898;0.53314617749239734401 -0.22767854984922791806 -0.48941737032879095715 0.61271244259601442828 -0.48104910368293374301 -0.61201605987758711525 0.80427273443931157626 -0.38608768188494096973 -0.47555139249190447881 -0.82125796984124488365 -0.81099831948001088744 -0.28345211746925502716 0.16545071752443579749 -0.24986912330862884324 -0.79903817765460505296 0.46798368453041866433 0.26902743562592817961 0.34109459943041076091 -0.68764014751411695059 0.2491321112361777057;-0.59292768798593198376 -0.80200164968476717053 0.89237061757057301037 -0.063725387617646511718 0.2113100160297279595 -0.77945482376701413774 0.95936334678750390115 0.71802204305695793707 -0.385121850933416221 0.4313674502119902443 0.32685708594620088707 -0.16185596229726925688 -0.69342007190995202937 -0.7977307137327012132 0.566118014056957497 -0.46735181658379176817 -0.57416154281019171624 -0.75567729806292882611 0.53205737776972783504 0.054145133117319048377;0.25218251562675614297 0.0083078478017235574821 -0.9086803959702003386 -0.38197837759612074393 0.31618515199280822214 0.096530393256492555421 0.66343269290664053095 -0.096382567574674476996 -0.72378893052870629798 -0.29560362807805729002 0.60170268501643831005 -0.36377639658047655757 0.64152751530811369385 -0.88233160622450790278 -0.76128438999699354905 0.63084723389928210047 -0.99383427435009963347 0.45455167049456424166 0.20086025340415480933 -0.4452713496304182561;0.05129078826317221701 -0.68476289160402015188 -0.7892542987738098148 0.45322069517334151456 -0.031996515985703480323 0.87504790479008187631 0.32445960797323497582 -0.25504242945829808109 0.72821373748148465754 0.27072011785248845106 -0.58075246460729168518 -0.22713156141760085238 -0.66226813478374990662 0.34016877572473053215 0.0036414219425616170187 0.71893240944302394535 0.80902303330656788471 0.25143613688553817509 -0.46246703943008893312 0.53161593327711520462;-0.061756830397663720067 0.13477341396647904426 -0.27280588924556392616 0.53637389758804754347 0.38747938801352849181 0.015968988388009273949 0.76253181204916498093 0.29414817804065601647 0.27641188550257150824 -0.097021206644521892914 -0.12300766905865598289 -0.2346120412721486026 0.24493359936794195653 -0.35124267553279658882 -0.090911274272044081957 0.28677952640657944361 0.017101968313940341115 0.00063222582635715570288 -0.21809110418513147356 0.6370601786441431047;0.57451463030058846915 0.72525382426378148804 0.23584834063795637182 0.95044945917285106329 -0.70803474838006008607 0.47823319754727672271 -0.14007157471282882799 0.34093495005363072536 0.0053375541297959530618 -0.20605710098003440778 0.66348514888991516614 0.18537467014895037121 0.28024534148297236547 -0.98207186778268584781 0.52875201312237785078 0.76459930133449460765 0.16954035943906364814 -0.31979159248238775426 -0.15785510547951073224 0.0065551897856871094508;0.56617888557188456033 0.2359344390363752042 0.30736790191764490343 -0.76262221770287763611 0.18275196670428359158 -0.38691778140129062802 0.86043150046781924356 -0.034834327794052051541 -0.30777700582073291846 -0.072063398150972526879 -0.41887814360084679732 0.74163085046439924941 0.35995503860785715844 -0.76646362271714629788 0.094266798768065943048 -0.48527881584523663294 -0.15657366667854541453 -1.0755011318044007673 0.26472098647754549461 -0.53716735383719005359;0.62980111114633596792 0.46659937443506588339 0.58458114311488784676 -0.074430722718403091731 0.23818232279072903967 0.76078268039518814891 0.68334134913748911799 -0.50291290968107704717 0.45336073930502546192 0.021746970873221076193 0.14867666989354469398 0.53587767571071898143 -0.51409796982700706192 -0.82372109221542577639 -0.80179878088827671867 -0.41430368889976332269 0.96900766763760126654 -0.24530434491209843206 -0.68143453670214060303 -0.17772786150425956553;1.1314572506621265457 -0.16149802250853625973 0.3789749407972100026 0.82573218632423983632 -0.059476322571396150751 0.076966362458836465321 -0.24320917278073395096 0.019187375066482749431 -0.086309631339676284867 0.72411305290555794123 -0.73240221172011388262 -0.50673473603175145374 -0.10854768094078415253 0.17330691442303611249 0.31045003044516383817 -0.42952113092272797834 0.71404193121282810708 -0.15030928515200792095 -0.25828587808556452421 0.034557748897550776002;-0.35932901134798889142 -0.1197304228907267315 -0.11759791624602522475 0.88372154893957832744 -0.17389897393047556995 1.0858727986009384381 0.63943374088975668545 -0.73533210181858921217 0.68716397704651199785 -0.28333472815963944846 0.75368933814487704126 -0.6928378141421367431 0.18832740842526213276 0.40597373868757941073 -0.78724919523635916718 -0.052443517543196475905 0.36806586723234679948 0.25860789172819187431 -0.16243426834822358162 0.90599658981159936211;0.60369717461400362879 -0.26009375837911408169 0.093098373868122058505 -0.14487852725959457501 -0.38851394360910707082 0.13790396877063759717 -0.39730268543540775417 -0.12943364055529821277 0.7141013891274599068 0.61104882546639305296 0.66893308635668369266 -0.1267044496342174531 0.76711593029483182704 -0.41048951201886235696 -0.74706007150189490673 0.40946204435789490539 -0.61412836173278106955 0.070078772840172359748 0.43827665540041504944 -0.31550313036824734203;0.30344587300660941231 0.1823120451973168632 -0.73529796923460732927 -0.38984468568019847723 -0.2682493014241586482 0.0454033513296206101 0.63165835498557865169 -0.22361041759868102718 -0.65402683491283120087 0.18501691148298382572 -0.56392517360062444087 0.012719606694253815515 0.54857494391915762044 0.29665952151806690429 -0.30167482323286931578 0.24791530279995357966 0.62437202872254693453 -0.21056708829678047468 -0.25779284017174347587 -0.13043870909528731961;-0.59662590554410732668 0.66233775768525371408 -0.9903033992216526693 0.042193824337741006603 -0.41003034738913946011 0.056128115164255566738 -0.21632946751144893627 -0.34852664587244946981 0.6558234631512848134 0.26876476027232087951 0.39179122672675525951 0.7775223517953339103 -0.42434945079772629084 -0.75342900782128852111 -0.60287501484137329122 -0.47374202466903797548 0.27645716416072746435 -0.662755280202234065 0.12457355571407212336 -0.44929456308491760863;-0.094312652585105127834 0.56697039549259431457 -0.39860210550979874311 -0.059469718036116975268 -0.098572382046900330899 -0.26047109128653711529 0.66219501488801724154 -0.5731336330341597618 0.22557779521488097174 0.28308514150694774614 0.13808861197674288102 -0.10762960403544692689 -0.21945143976544614905 -0.36220947340130627001 -0.26018227551477091097 -0.73532380208266689969 -0.2958343225890814332 0.10235994801972682355 -0.50629632275401426078 0.20708011177901017308;-0.90593505943258334501 0.1338171536902308667 -0.30521994129794105532 -0.7258320800248796445 -0.61911247078427578128 0.15862848223404726888 0.53314376958313602906 -0.42805684926762144205 -0.47450572315278366498 0.7317693698633920274 0.42727408492279261853 -0.88787123340082707568 0.70565803355329093094 0.57340191575607502017 0.57799100717570328634 0.54100537042295360202 -0.73110851197214843378 0.15774704728746880011 -0.18757613863499592033 -0.23044808772793357043;0.38675930328915097967 -0.6456832222016295475 -0.028308770874277914414 0.87161305352537965518 -0.011753457772306684023 -0.82115315575851000052 -0.080736607411931338163 0.53662059654972837919 0.3740522812219748694 0.81417018411654473731 0.45429118335463863909 0.31470865556999810808 -0.2176137887182519326 0.51900432313948008378 -0.70389044144832890737 0.57619119504526228326 -0.57103636323502582339 -0.36008887044634307895 0.32132781800928422733 0.88119959522604929258;-0.58530411659330716656 -0.66505142089944146999 -0.84291874374283182192 0.8856654174406612956 0.14162202055275063817 -0.035487498604432232696 -0.53380553077821590868 -0.85585034959295858137 -0.43541433985507194127 -0.12361386895530526719 -0.35809046308873793141 0.12204932178175312285 -0.63310733414487041504 0.36260381269853120267 0.56400580842877645615 0.66436717407475909258 0.13946521011835033566 -0.35801310689464677095 0.83320550258870262894 0.92338732064874318173;-0.58529173369716058772 -1.0570429162664423117 0.46606493446921076762 0.54233911017577640656 -0.86853930378116961375 -0.085755123041285574725 -0.65322020575180184121 -0.7049073263762999364 -0.69471150415383964294 -0.51733561901411917461 0.10897319050725957912 -0.80835931385943426974 0.13673751159970168323 -0.81556164968692046457 0.59215018590598367254 0.79653693086580346083 -0.37130216194044174394 -0.55472233354582767273 0.66363970865621024764 -0.24269623034527224026;0.3803060635487310881 0.10156147436396391337 0.34180667833341160655 -0.31155901865015073193 -0.75523132360983247224 0.81707026410904604052 0.81847515373847390396 0.00079602549046068867347 -0.063621384006872255812 0.49442785545172340811 0.053034354655908090559 -0.73135091111765127003 0.57855056761508627527 -0.22879463660500146127 -0.14422474296779558278 0.49330864858416328955 0.66258239194909351877 0.30645543149592130439 0.30126382346662389233 0.19237647752240982779;-1.0420700866480689939 -0.40048640047157380017 -0.10392850907549187889 0.80840907000155803885 -0.66979917623567997165 0.20850675056434617161 -0.088241813758294498915 -0.7389892998954767922 0.024520315780152700247 0.58572600861337453804 -0.55315075279743164405 0.040829746423660918941 -0.79001810278150874645 -0.1788262889407102596 -0.76034404418333245701 -0.25843147800670723813 -0.7060155352003956164 0.89101904231216710883 -0.71327585456093445249 -0.35833769781826579903;-0.5749784743593466807 -0.23940040659981326465 -0.67233597494594343758 -0.21639562924251617981 0.8870895365449665837 0.42997554522476333361 0.13849511572621095445 -0.88259688160596705409 -0.24948718764911598234 -0.094266604468036974129 -0.090038794384284026595 -0.33348321211154641208 -0.091201017675789572414 -0.59468941450447110331 0.16112156416699838224 -0.5169658962292544846 0.20704891453489346342 -0.25614402202547326137 -0.70483927802111767669 -0.9166127707819994308;-0.35699494956960736713 0.41717095103279111523 0.60301418937830075784 -0.87195555102883903764 0.38528282177812167575 -0.11565706197497278851 0.26475889017971265815 -0.65592258751233623038 -0.024507259431274897726 0.70939784913763714869 -0.311855866539874238 -0.46644988792642244624 0.7130317099867432562 -0.6593611798509061428 0.1864813742845048139 -0.1938338960902169783 -0.84607668150564496745 0.084593081857598298456 -0.73917340467582859365 -0.47573901267841067764;0.66253766152096638109 -0.84891623763375589906 0.01781920038297244227 0.45782877211422562391 0.81121832456319253879 0.44803078992190564778 0.11072910802661943552 -0.54395394232445992699 -0.27456579203005571088 -0.68121628384511212495 0.62727320428252253404 -0.12845860881837717349 0.52395948704949957264 -0.80292836981548754149 0.016203068772686259752 0.74457484105602722568 -0.53512300099617926552 -0.500592138425826505 0.5993134628691145771 -0.22307838891225223454;-0.32814765227160935801 0.013105913517618097974 -0.82697925061893451382 0.55185648073897453081 -0.48984314927915051374 -0.81865888619591642428 0.46258442414256262243 0.28527869310658188207 -0.15091716570482005544 0.43460360275511489281 -0.33047729927988561682 -0.58006197446985574562 -0.19157196366053586001 -0.046566241165006065639 0.30789928974026553599 -0.46274649213854984753 -0.42540441386314553629 -0.28963194701765659911 0.11830178489623299765 0.0046406805029526373291;-0.71584572082684583272 0.30104126814046683336 -1.0487618827581770553 0.83844673071207753701 -0.54120234095334618374 0.95613234902096300161 0.70130271565336188555 0.13846795942806008894 0.19110045306360645689 0.51812299732443711786 -0.27635996937735118895 0.58913953923843109806 -0.53428331757614255793 0.55451054457089543615 -0.54007277457404012644 -0.41883593011252212568 0.84754066318354892573 -0.060333716344572914381 -0.3092382990638632978 0.39286392643410406045;-0.68134024074387056213 0.12330186090229781903 0.50145855899654945276 0.66990192867046993719 -0.086677087071833927578 0.5507987229461194234 0.22275468917964444393 0.31922520772623863561 -0.33001289612399886675 0.67730140969048135968 -0.73253706401601226261 -0.03315738274006506392 0.56083086035875695519 0.5019339250581941192 -0.36812325845580040617 -0.46331415507280737653 -0.95646746643410718303 -0.77433102529037745043 -0.15204361652187425857 0.30245918527162546363;0.39758493886453338817 -0.43917551143712690864 0.69211827435450568036 0.43045416540646752601 -0.4525404386552205338 0.3311814675803204655 0.81816809381011634805 -0.49417410230701847018 -0.43146232139724843835 0.065780336898395921907 -0.45098961419179772747 -0.83302674744111027128 -0.11036859141361013426 0.036355768806646635016 0.24667870683510012553 0.12757037349138619642 0.41617927209455130022 0.079537474127782697986 0.11734789834942913056 0.042339433274484465641;0.85371542620059137629 -0.17195134962727684491 0.36006270711750648639 0.26489801231638743229 0.79965108916217653157 0.11623220794235608611 0.72440282120610866023 -0.11281829859617625855 -0.33628018824578487234 0.48085020795295702056 -0.55623670298849126059 -0.31209531069997958896 0.49323179817534718028 0.68336981238368588176 -0.4138281332643198307 -0.073873512645066044535 0.030464407766531843846 -0.50123142883531923708 -0.50894376334186952615 -0.51573901268416322274;0.55507602478378226252 -0.52545638112624271088 0.42313255708137659239 -0.58755582261707584024 0.47586283298023152044 -0.19519169158716578871 0.81337743158438668978 0.57643857712896173773 0.43522756995595274221 0.88007287373610965098 0.32809691477338664978 0.051719531519544115206 0.35057539269314469399 -0.17274263127202968415 -0.37657164546140170502 0.13984572474639331285 -0.68882802077478499925 -0.76374108807621288175 0.52532062176046467883 -0.67277263903676143286;0.12341111558000300574 -0.95480219887261830181 0.038862210147219786172 1.0057239356252904994 0.57722048728893193825 -0.67581045040453224804 -0.31840095143039165437 -1.0078772337687884608 -0.3018464413822142256 0.011052516058047676117 -0.87355592190348163584 0.42439631519918030733 0.27568628112124193841 0.55215337349108983833 0.19970826765870783315 -0.088556415667172858064 0.4380273357159956138 0.027238626292228507175 -0.90347540476654142338 0.73300379672843996026;0.21404545244771849832 0.16725796660605624089 0.30579517742720158102 0.73015315362346056016 0.94318460441741203137 0.64625546779372122774 0.75811829884769088572 0.37750089773168021834 -0.78652218837534737528 -0.05234818171483120175 0.32435966931991250251 0.34478759149679422125 -0.27055754413284699433 -0.67691199833597859303 0.65182091606297398734 -0.62614738957817539511 1.1617628914353983482 -0.87348786407107237295 0.16787363094784266138 -0.13913279939321013257;-0.74063357753819369922 0.63612472034590861192 -0.98603513632021899671 0.95435836577486832244 0.10131805978379979094 0.33156574492462431714 -0.33670512461357077205 -1.1662074876486983044 0.37577231438357999727 -0.16374404528866176589 0.11152523536521341541 0.035326466419230088956 0.26176604926216923142 0.38651459501149015852 0.45402061463143711384 -0.52977644068014473344 -0.53248470900168187736 -0.59521717975442334225 0.97907753977096234621 -0.51383587155548315906;0.063155709534562232133 -0.39969421671297494791 -0.49405784531184165909 1.1319331599109083708 0.6676002217885029788 -0.258159070736352525 -0.059789842231189570254 -0.58892940974108898278 0.85713653647968246485 -0.31679121155622652628 -0.44749745309837868357 -0.17022192988722742446 0.17237951211409943686 -0.6804191165329965818 -0.83889151774369263848 -0.0044849867180635034566 -0.11402035981209618365 0.1870430359006459986 -0.71619133521441646906 0.77923340530595275322;0.90494449699519730057 -0.97709947103660288459 0.61667249933161716324 0.23801609052624880802 -0.35983459580920590382 -0.26691177494695467187 0.0032518143390798874386 0.26705246604327564919 0.79249624473830337923 0.59234404636847448611 -0.22261935331896226531 -0.84807154525406580614 0.28234646732524459889 -0.88130854000864944364 -0.24986696219932508223 0.4311501957706046495 -0.5810894014885532588 -0.24137767928877526535 0.89058176886630913138 0.5961254577166358315;-0.71641731460089574934 -0.54766200611896753703 0.087256694120993238961 -0.072448832607614380152 0.071270322127044621885 0.37927707492924728205 0.41079331546514846751 -1.0489903603408630151 -0.20847704991222640314 -0.16974408102879079419 -0.3531155371270041643 -0.4625565645866826503 -0.39570496196904259012 -0.33600253448945094359 -0.39843504966037718296 -0.19798626352473730483 -0.046482603313108480925 -0.67117014206671887777 -0.297666611377815582 -0.36495797156119097471;-0.19251716586382028318 0.56176453303392281935 0.71068799596412735031 0.14931503941946747127 -0.099530464982735794566 0.062884363897743850158 0.97220396610603654342 0.28545618360722974094 -0.82350575524623292889 0.76235861968795015642 -0.75313761024098457852 0.18005821598381321902 0.14973808559005355456 0.46011803212210028446 0.23287454988040701132 0.2195185171096769583 -0.41313024666272341046 -0.65487477217513812011 -0.67038680404212125374 0.17111646268547342498;-0.47309264169346565421 -0.14679224892264750024 -0.56514129781387067997 -0.078575295430815011999 -0.6221614105074622092 -0.39040340169271997572 0.4396217368253900748 -0.010885847326585514419 -0.55229217863635338137 0.067349477837052237894 -0.61309634594453610301 0.092958459765575207623 0.88847342455954125828 0.1838854228873143537 0.26712927797459873336 0.11929300266760842208 -0.44099499330389335672 -0.94049557316861398526 0.55373080862008172698 0.28572411822488247291;-0.46762280587243931773 0.050517111007705901848 0.085296454431002990959 -0.043075292384110848432 -0.58836863637250125247 -0.81568753491815593204 -0.088201631574993333285 -0.42823095574103159366 -0.77230636022266618834 1.0257525865385650476 -1.0012588566022497805 0.61576270129746335513 -0.46265561517282000059 0.56817564353630356511 0.54341274844225284646 -0.49124196395814767602 0.13717732601249987834 -0.92139190915438851093 -0.85000233245856604558 -0.38364573113174454955;0.71629616424247521955 0.44540823026273407281 0.050062471885560580476 -0.22024671165863493605 -0.13336205967231606895 0.7718057466648400311 0.63498953287944992496 0.25777977343654145947 -0.7695696051797769055 0.095795751212243429595 -0.46353948248784404562 0.85838189725433400312 -0.53119441451035553925 -0.42528414114872203911 -0.86494306788088803906 0.57475076136224900747 0.76937526351617091525 -1.1904424628172853851 0.53133324375238843995 -0.4522652141663429104;0.69849696777068892573 -0.12131810029959694264 -0.80806030474572443367 -0.28490984120634360588 -0.55347450332058234501 -0.70726551821710204049 -0.24071036649794547158 0.13319795904800701969 -0.10980491111501777812 0.58329391489116144687 -0.8359107480589919037 -0.023610706615083441179 0.16829907123155651849 -0.83718422812032378122 -0.186748068385582916 -0.56767507421810170509 1.0001962427474486717 -0.055876259986784547473 0.41671273401320635399 -0.22704495168085075951;0.42200310693981085697 0.19234233195042996223 -0.87212766369878458317 -0.41590662779352793876 0.69822162781252639085 0.17907560286388238269 -0.014333400631197314515 -0.15677326743328473535 -0.76082652462018518502 1.0114540057655909688 0.41137851021695331921 -0.69649268201253788924 0.23993193054363992633 0.61765795984255611462 -0.19976664601251034603 -0.32080683915853747123 0.71817736917346308712 0.73716189221211625426 -0.38570950919428020898 -0.1637883132203865888;-0.82660128769684881878 -0.9352846390306003288 0.98230558907903675614 0.73901730389215858352 0.049412814530798945811 0.90717830666146281882 0.5226894427309244362 0.52705308733260591847 0.55331197550071509195 0.066192359539670717061 0.41623301997993200629 0.40458914069919887924 -0.61724127913221793484 0.72818537441726649551 0.7096213332115434147 0.33267381056474437662 -0.47549075180126770812 0.25760704106436621563 -0.39628973786910032251 0.03494874241014998828;-1.1015787694140195541 0.19226728752190938576 -0.55605967133084377441 -0.43318983865161947433 0.29899947476565852389 -1.0278995558218522177 0.28540334215371077065 -0.55196725637872612324 1.0184588834766867826 -0.066741481731562496416 0.43763966399245124439 0.70345479597394666715 0.13489569551964239458 -0.28709771754740387451 -0.34235664113541602882 -0.38223418317189977733 -0.44613108046036215049 0.18264592161987672214 -0.5874599942681093534 0.38108352182216104209;0.77886952387427776934 0.20529748772264955203 0.67833575797970047105 0.38564491301508785348 -0.64135466567376930858 -0.15017348516143880222 -0.24446189628904499425 0.51498013930785735415 -0.65857652063879035254 -0.82154956928853595244 0.79886703636698441766 -0.62874801997041185331 0.65812707815977922188 -0.6822325676617539969 -0.038588282940166029888 -0.36262218847008997891 0.35490563765314253608 -0.46814298912902346794 0.46988184969693597148 0.85281063646283050694;-0.14360393089377848641 0.57419406029150121817 -0.14560301091015800945 -0.40517114990019698073 -0.15090581471850603168 0.0072386497634523870245 -0.42701635611661487024 0.075554184883525096761 1.0053639667915328371 -0.86450423022049516231 0.5287492278086284303 0.17156548378569116964 -0.57907796855061854924 -0.17486385807781898438 0.71893473624868986516 0.09883698871135074282 0.89988879510609320889 0.27579918023442095976 -0.85656762173380252001 0.032098718242323888428;-0.13564690394274978025 0.4819644238333435915 0.59322245394018735531 0.1819343087299227224 0.26315442517539971989 -0.8533759752584929581 0.25639558252645971992 0.54162432869433196903 0.1044922166758825155 0.2004072069265406264 0.41061181526412410259 0.94260758993883952961 -0.71086279840309551936 0.83378266792130895091 -0.85023898694358879258 -0.42664826504793357254 -0.74952440240993456477 -0.64438833242409054858 -0.48295919101012524388 0.80708939550673464147;0.35691322001434105937 -0.59045209738835502389 -0.35788820884565475389 -0.75495329891681428602 1.0130646534519904822 0.19833524744528255312 -0.37449092567045755287 -0.95842329809225568216 -0.77502447267137808407 0.35108883233460558282 -0.900186461632875079 0.51031385013811725315 0.21329627598158831803 -0.86568739985369280721 0.64883277989069343406 -0.33433772741520800809 -0.48172315219172734402 -0.79290582287248001503 0.14356958253267768089 0.12127028642636465683;-0.37868748077834413213 -0.53825800303745530151 -0.73736055669581046512 -0.34555160119632377658 0.031014758034708555384 -0.73883636115954232082 0.79363547852491933554 -0.56844849222996962634 0.32496500145498685708 0.69639679303362567175 0.40711356817244348516 -0.2775827125564021558 0.74450560518130937115 0.51699059700259475392 0.37971797575814397741 0.25651097008777912212 -0.11304274462624493147 -0.76785911972882125998 -0.59514145136410756542 -0.72843336139355818748;-0.5694533797667306052 -0.84201436811492935686 0.2733527310895435547 -0.37580648960339380071 -0.55925981572716987333 0.84310084757642489439 0.6494361547408620261 -0.066516697034141161748 0.56751481256214575399 -0.60960640710200575398 0.023090624532372996947 -0.41339680083096530527 -0.35232495362205951128 -0.039778571220996504498 0.72506394663744755391 -0.18306617583492401646 0.96557809631996949218 0.29418857270787523994 0.35349818592005566309 -0.42584841795875993942;-0.80680782787382687715 -0.38652687613908343067 0.53554760224463482388 -0.41220387053799439903 -0.59920314425935528035 -0.64817842474048770196 0.68137169202748626429 0.87719987383107944634 -0.42304991289743454352 -0.030417563414326012627 -0.070858172853962148041 -0.14733460371160039815 -0.57388116412452661041 -0.16076865504032045173 0.46674873141548811617 0.79806134293026487203 0.69626591805269000268 -0.79828133744639417912 0.91037524625068844131 -0.95015683275919460282;0.1485586989624013976 0.22647529187387940852 0.69603291096672181837 0.58767764226466279176 -0.12917058104738590729 -0.77894673014091386776 0.47356969664805498299 -0.60133603750274511324 -0.46729520456388429217 0.34894634503224192246 0.072345472829697041184 -0.30521774193670014874 0.79594024588016065724 -0.32530303118282971608 -0.18254604059952178607 -0.57508995663002215881 0.92079108505209994462 -0.36665271158626427939 0.17299533322532562041 0.97791113217759895182;0.62003934267616722664 0.60422478011111524498 -0.34683136032194400444 -0.92784585146965603553 -0.030353507964410528924 0.47197387099914128727 0.87773974024314294073 0.57341473360887640354 -0.32197267124348577516 -0.064103996589081543855 0.94534814266464017862 0.59322411374452410637 -0.7921238033012693025 0.93494819519313854261 -0.11680770938216467059 0.86993268229760956078 0.43757156667444813136 0.032681911523023333965 -0.506331597010644896 -0.70841924215025486866;0.74744862019821678434 0.062655165922168826187 -0.23670451282407711791 -0.46805288379124682097 0.28005735218429150812 0.17898866547672787064 -0.67171819262668130968 -0.27102962941071151448 0.96518494329628656825 -0.93649606914085514742 0.45735384047902349902 0.039338954676686674339 -0.54331259605402881796 0.018380956575275265302 -0.79670395800388538188 0.97120991434607639725 -0.15340676161834057578 -0.91443994512537118968 0.31633267630870498532 -0.67347386209291071335;-0.48400550851748019854 0.68299687840621947643 0.62432509079253006856 0.16935178015892218828 0.92440247077686032995 -0.89975270269653861988 -0.26273571978699833407 -0.99715419141976813222 0.27296348937726438999 0.18805322420820144713 0.33903339760432993355 0.14388822299641781943 -0.91741872175354821639 0.55734992252947324065 0.99469695502841604107 0.31396764799638710031 0.65965662684491177536 0.42455270210440926304 0.36477143304807546631 -0.91123712736000328505;-0.28922429563870516445 -0.71020818758287984629 0.9521654174058631348 0.16756325507481642512 0.98093602941064750311 0.11384857212522055125 -0.85674651597848716644 -0.38797084498078582282 0.082618682594515671647 0.073175298727019569278 0.83901554889141150007 -0.69031211081915289096 -0.46675273463453836875 -0.78113432449503028554 0.18735832002446403677 0.63671800264864997221 -0.39369392445579631801 -0.72592108062457672002 0.79050830455997778135 -0.72986642224027731274;-0.074368480952491863856 0.79121217145005418026 -0.85572610881680000183 0.76838009881382329791 -0.65477454219096520305 0.95463648405232737204 -0.45440048418500872396 -0.041233637538577769255 -0.14228456748201737114 0.016526340953774365516 0.76860020361807801503 -0.2870639877233870374 0.36630678887828177492 -0.71283076612592521926 -0.31998094949335659232 0.60923504686548313192 0.9393807552403391492 0.45290717879578079597 -0.12655798157155037642 -0.13073244288909841027;0.016718142113741903121 -0.4345716985369373897 0.7233474009660206816 -0.37754005918472388625 -0.32053382559943766061 -0.61478068980771094498 -0.3510924190453865168 -0.89385308629261572833 0.65808367375089105167 -0.84640437614313601689 -0.095197053560055908128 -0.48835702993070495559 0.061105304098374571553 -0.55800031650317927223 0.16528353731493433676 0.26658909622079784985 -0.15871540487057800295 0.81402067626769369912 0.093977438340102109615 -0.75083241687216384364;0.91111534911408775805 0.64132971241766378867 -0.0034187533302221352963 0.93086126302279359468 0.39396207126023818912 0.095875038707539453342 -0.19509435191561236289 -0.33250810864897678565 0.82513337546832887792 -0.86701372508108942583 -0.55510891480764956718 -0.38254555721467614626 -0.46824261776681774805 -0.14641203846801364996 -0.9471776183306170882 0.61131609420702093249 -0.36857056257210701888 0.24619111757699077558 -0.36072521808950808175 -0.65937976262627218116;0.89256613967440845414 -0.89839821786472118248 0.60993360210133296118 0.46333299289855162106 -0.75353434901365157206 0.12075898128515535901 0.2315182584384466169 -0.91896759030898533815 -0.56458543126847349214 0.49938848737487950835 -0.043900155452611187845 -0.46890511122506395303 0.84863406191439993975 -0.69560322143160024932 -0.2000855219321156786 0.94343939466882009715 -0.29569243146766316377 0.56337531279855912469 -0.42712503727622636029 -0.81309273050062613741;-0.30577093497530200006 -0.070849131846223017961 0.87105245812843934416 0.079049612025701515572 0.96948551223939849475 -0.08454669416166560314 -0.23511677265591157671 -0.92903608053515840393 0.083365571524906798007 0.71361693995151342929 -0.96910782395417405244 0.01401495106899845397 -0.33210976457707208631 -0.35284840767016728558 -0.29598254315163857742 -0.27386610009422607259 -0.21650158364911320508 0.78456695383763852547 -0.092871077149637631942 -0.94062554055279978815;0.28583467552170327419 -0.91676331455227100253 -0.48603004180136272216 -0.46859126850492938132 -0.19518050703106384902 0.96765020867645390457 0.81737028230797936779 0.52527850202221537668 -0.96668354052688110212 -0.60445620523392751267 -0.57614561462723234975 0.82206177552822434773 -0.15111027088295164722 0.47750043790014640166 -0.46215176025328630338 0.75232430273060202364 -0.46592881681091624646 -0.084102211020531739138 0.65354937784136457601 -0.074819017598466777685;-0.89531476362336692709 0.55381381088484793462 -0.4351162883773813661 0.94486209341151106145 -0.60911206427070840874 -0.85454684455166107782 0.88152313739021226358 -0.8372162423131032094 -0.65387455766921620537 0.88243773432697358849 -0.15709729684187076493 -0.56358575740212035754 -0.83653154421262543305 -0.63124574591789039957 0.048989286741234178146 -0.42321037858124349595 -0.70101568841258943277 0.53276633135104800587 0.29380846877556865415 0.16330050240710097809;-0.53816535624416883543 -0.53835331813768383391 0.9807912920876977747 -0.82942660636645804129 0.93101937512129906427 0.044159185719559942984 -0.74606477604666932013 0.42701758212527363145 0.56231477625000947373 -0.0055632101372395928104 -0.47447677366903101559 -0.9712210347991823145 0.25611656283296202474 0.2475702579817408433 0.018141999193693306852 -0.25135986789427022803 0.11790602037617116393 0.49846538056523925775 -0.48799349473405778665 0.16893696272732655617;-0.88810584493852773313 -0.73727493891286788319 0.86952274978791577187 -0.60720893082406468544 -0.38100665301620301184 -0.87917195758007382622 0.26445270366604239909 0.92210099506710507811 -0.33539946779139284683 -0.23989113615541135527 -0.059902221669687401306 