function [y1] = myNeuralNetworkFunction(x1)
%MYNEURALNETWORKFUNCTION neural network simulation function.
%
% Generated by Neural Network Toolbox function genFunction, 17-Aug-2018 12:12:42.
%
% [y1] = myNeuralNetworkFunction(x1) takes these arguments:
%   x = Qx100 matrix, input #1
% and returns:
%   y = Qx100 matrix, output #1
% where Q is the number of samples.

%#ok<*RPMT0>

% ===== NEURAL NETWORK CONSTANTS =====

% Input 1
x1_step1.xoffset = [1.47874879837036;1.46784150600433;1.46593058109283;1.45601177215576;1.45031070709229;1.44481945037842;1.43752491474152;1.43130552768707;1.42555570602417;1.417196393013;1.41177666187286;1.40216159820557;1.40062391757965;1.39341866970062;1.3880330324173;1.38612568378448;1.37681984901428;1.36192333698273;1.35541832447052;1.34395182132721;1.33538269996643;1.32604467868805;1.31738471984863;1.31084704399109;1.29666566848755;1.28172874450684;1.26619756221771;1.25544762611389;1.24224579334259;1.23144960403442;1.22100281715393;1.21386790275574;1.19470071792603;1.17905342578888;1.16510796546936;1.15062367916107;1.1382063627243;1.12897384166718;1.11853444576263;1.11020183563232;1.09554028511047;1.08284366130829;1.07154786586761;1.06181156635284;1.05367481708527;1.04629194736481;1.04112839698792;1.0359799861908;1.02778828144073;1.02168369293213;1.01648426055908;1.01230609416962;1.00949025154114;1.00692164897919;1.00453591346741;1.00438749790192;1.00214064121246;1.00041878223419;0.999726057052612;0.998885750770569;0.998430192470551;0.998248398303986;0.998146057128906;0.998737454414368;0.998585641384125;0.998334944248199;0.998388350009918;0.998418748378754;0.998176157474518;0.998451292514801;0.998508453369141;0.99888688325882;0.99883759021759;0.998491048812866;0.998768985271454;0.99888551235199;0.998880684375763;0.998838126659393;0.9989093542099;0.999221980571747;0.999229669570923;0.999178111553192;0.999138832092285;0.999270439147949;0.999125719070435;0.999088644981384;0.999236822128296;0.999469220638275;0.999445796012878;0.999394059181213;0.999415218830109;0.999447524547577;0.99942535161972;0.999360620975494;0.999414682388306;0.999548137187958;0.999591827392578;0.9996018409729;0.999565124511719;0.999571979045868];
x1_step1.gain = [45.3776763207149;40.5923302121894;44.7009786289603;39.4308048462343;39.1676222848925;40.7990350570017;38.1254439806114;37.6534633244234;35.5809824356022;33.4408001610527;33.4963493302613;29.802002287923;31.0046699524504;31.2147027413215;30.2523297077407;33.4992921650963;33.3781951297151;30.203966413665;30.5352861201557;28.853305266344;27.2942722949702;27.5432770446643;27.2837969475456;29.4647277836319;28.460995350147;28.2931985557619;27.3996488735373;27.6318263418812;26.9611393051935;27.5464426682779;27.323165518241;29.2735295811167;30.2813237191925;31.2216153446765;32.320562216811;32.8065092031858;33.7986611252914;35.9405233448656;37.1133006233769;40.6650394719939;44.8831079888068;51.2513013514504;56.2925821041753;61.0784649941933;67.6768077708127;74.7521186251882;85.0327465877356;97.4314933650803;119.274112938199;146.235986297907;166.157112862972;187.028627485954;215.015327831035;231.371579876434;234.830300655058;344.727870469302;398.395136778115;382.00359753182;413.018291031732;411.902874960104;413.920088817616;434.266012657409;439.309138517937;646.246908824776;637.420109800346;593.726125807308;608.763439104483;635.681197309842;572.064308243117;645.19068586921;667.059600015904;895.572957535965;866.994780631492;763.086327663058;816.310229899039;915.986896702337;859.070431910699;840.352425555361;872.722430295464;1183.95370664408;1267.83163303862;1239.95536011234;1171.18436300175;1339.28442564062;1175.69838822705;1100.4339498885;1253.1532715865;1720.29900025634;1801.87047578133;1565.47690585052;1760.3710193589;1847.8127650201;1752.83038186282;1673.12051857392;1646.27769600628;2227.31045469632;2505.55794504182;2406.71582269402;2391.96122041631;2414.85656711047];
x1_step1.ymin = -1;

% Layer 1
b1 = [-1.7188493707749563644;-0.032927666591835172416;-1.0714253443866759152;0.025009221288576081316;0.073713264911410197877;-0.23890011474216293896;-1.3377024642386983189;0.24999026146023470285;-0.10325786601230667328;-1.6978200775435139391];
IW1_1 = [0.049404005558899115325 0.048490655203407916074 -0.02499373928131550654 0.063293861475871432409 -0.13289147868816125753 0.084311006817703856853 0.063426024827643090465 -0.071937600346926575123 0.12800085576159239698 0.037993311854950785611 -0.12821159596954614934 -0.078585991112670908199 -0.016410769560680084356 -0.031472692874662790141 0.088488515401492981449 0.0097591508611668074252 -0.11499822816440739837 -0.1506794763411344884 0.13720424459749661072 -0.046508610713328700503 -0.23965885836902306449 -0.20363379034326631323 -0.12801952069326902328 -0.017791139209038034363 -0.12640994594651430716 0.12640994080155995571 0.11036790507875407497 -0.065625488684238064696 0.13319739530401872307 -0.21931000775381753742 0.12842461487070902515 -0.23183900392976627969 -0.071801365466461958276 -0.068297613742466553588 -0.20356629417828625561 -0.22695022678176668407 -0.030091951665215561917 0.04285305434084752535 0.039214095849543058325 0.007248238476028416935 -0.074430194931342022469 -0.01776945934959273804 -0.070983032077441471364 0.16842656305058509303 -0.038116923554237062965 0.15400424571958287734 -0.081360660043734517322 0.0097896316189420382742 0.082570589620447443213 -0.062745401579450812979 0.15932275116559327377 0.15168058745160031831 0.13278896538395010274 0.095501132551500181322 -0.08522361533257702404 -0.079440026494532786638 -0.028393423320952678596 -0.015025243876371493362 0.017443235604737025723 0.095438560039793410295 -0.075976006241784826978 -0.028984749945063642551 -0.054427695168542164494 -0.013022749747990666064 -0.0068557383046659479617 0.024497370953012811978 0.058386430050960370919 -0.048909410774060163574 -0.018391660143918464598 -0.023947281424104824993 0.0098283776484239127741 0.048780153259121689091 -0.016019255695305465587 0.015543003544925182782 -0.035677704599013537745 -0.015078281244073218903 0.071040331793171457297 -0.065308866997590628301 0.035904050209593911525 0.057339877120046151004 0.022486296537287748382 0.040222842340325956623 -0.089563607017208626826 -0.051542764407957436523 -0.051471875959707688586 0.0080068684260504729977 0.017636194138528609593 0.050411102746606588354 0.043724434974864195835 -0.053026287789176493326 -0.06370447785671551344 -0.0085535293406199183752 0.088538826509904827722 -0.12496907626972167393 -0.0054715919427907851527 0.012489322051176591361 0.037253009996313285468 0.01915111486549429809 -0.071741801597795640255 -0.085807199483591431455;-0.002834301825556747971 -0.0066227435183401498278 -0.0011193737146086833213 -0.0045024912840115095813 0.0054688131673604955738 -0.00091908035535074835472 -0.0053374285022497851283 0.0017844579784756561119 -0.0069803480128996691148 -0.0091167879642308526089 -0.0074795400176803014669 -0.0063715067244104108685 -0.0020962739426403707681 -0.0035851710198298719634 -0.0063445675743120247617 -0.0088475640980829311361 -0.0086635566133079679879 0.024039791422788961417 -0.034365920446775909125 -0.014654444713925920962 0.035290322099181418991 -0.023385761156040799774 0.020370119986941773865 -0.069899510877593676317 -0.013788801937266653014 0.029132076864349227413 -0.056667936169862799523 -0.014036717487667790469 -0.058677181529865417298 -0.049517883527873347849 -0.034376354983833075363 -0.11085897901765943974 -0.084961638241387124615 -0.079949921785531313789 -0.084676677297350566587 0.049614387660185541029 -0.048698130640305148376 -0.021992391098136429561 -0.086454361547673261312 -0.059789912818278272144 -0.077336734195782894097 -0.092549389812700930125 -0.083071061273751509169 -0.082732472335103807159 0.023548732711869968526 0.033164547990450377046 0.0051578623426875329014 -0.015612593633540748639 -0.0016503465680486511039 0.002416752026545449742 -0.0013825188540434409003 0.0023621358548046780118 -0.0064957227638173676426 -0.0020476378084033630689 0.0058895012860450748904 0.0023489929509459888876 0.0077622595750764565928 0.0069410641914264825658 -0.0046366935552099751081 -0.0076855668920770281449 -0.0044028489348641964771 -0.0032363676100707690526 0.0018382285785518476164 0.0028114605144711965479 0.0013155343342305075675 0.0020489450023956972888 -0.0032254662162632717973 0.00015248014314481607261 -0.0024895478746121894702 -0.0011262488487577910958 -0.0014443137819796535767 0.00028597933068505605996 -0.00078749299866348707218 -0.0068326528160360068195 0.0012170163588905876222 0.00097334198712230833583 -0.0023929390879687370726 0.00079577723122206916843 0.00031501180174100970556 0.0022801003542896455464 -0.0031675874794825456017 -0.0057260701450531047152 -0.0080125957650108419611 0.0043665619380377461434 0.00093317223129497570144 0.0044448199248470696143 -0.0017375321481456738621 0.0043267801455653840878 -0.0056315618032135184717 -0.00049224292186744364984 0.0014034542626530364159 0.0025871356179783637497 -0.0099621957951038543622 -0.0036428665789549090001 -0.0051811139031328412932 -0.0020619691010411375642 -0.004492258113218952284 -0.0015782052637653800394 -0.00024675372301673160948 0.0075014785068489306732;0.0070345800919145856644 0.0046049412128890488197 0.00075914419915834813277 0.0035302796615632992504 -0.012258886183676619142 0.015670941967191213268 0.0017866206494052238717 -0.0063916870662306859291 0.024644481876587243097 -0.0058821357708425401137 -0.028799862489884264088 -0.010963948252372405362 -0.0092800320554951663127 0.010516135206678848754 0.032339602062565871166 0.020182619872773876341 0.043049626729452700191 -0.016394599811675698159 0.061540616783941660961 0.04501092602979558932 0.044976771710054402886 -0.019844612565269339338 0.098337518844821183994 0.051317433651803225081 0.11432861478004671674 0.12546941738648348386 -0.072053501623846979984 0.014315133664229703209 -0.0909409410075686514 -0.01724725959446622367 0.075353514444409130935 -0.026405573906874597878 0.013351278907417524211 0.08095052524130548488 -0.11259840939168344609 0.096638804739423697643 0.0085101628419135214726 0.052547232048306524721 -0.017250473417961081218 0.14147325646938752053 -0.11281913489248535098 0.073545304202601691212 -0.031482013865528402086 -0.043819036129348842845 0.029845918759749071741 0.025560279842465460226 0.026858800640591536796 -0.014577141422724603642 0.0039745032196702861915 0.055185643162262099093 -0.00719584303391378622 0.017059009597286844961 0.0013694109411404296363 0.022238596709372827204 0.0056481993756202697118 -0.0073134367323090324065 0.00090670823428045884979 -0.00094437440200360401113 -0.0038504184597482724213 0.0050475390556189124458 -0.0042164585383202817653 -0.00066338524449291935096 -0.005207615788342789126 -0.0041072960100577322884 -0.00099873225500254360874 -0.0034144819059238034481 0.0059126800662089862293 -0.011968089313237619334 -0.0084410844152190030176 -0.0037123016850572998319 -0.0055319248256176425244 0.0086753711009738190135 0.00036396538687939061383 -0.019246481433484792511 -0.0073696908297178186781 -0.0014446154243091225648 0.0052072679817415793227 -0.010579651213703855639 0.0042347039778183612549 0.013936554922517361416 0.00016130567464878121844 0.0051728776269440559024 -0.013065560541327170957 -0.0076677432756049011819 -0.0083852629069300511216 -0.0034476803815256611661 0.0049060775591105833596 0.008001813193775556346 0.005712109024802608688 -0.0065398687668368465226 -0.0078059418603377249413 -0.0037975622038101362887 0.0039181408596685712159 -0.013651270703744436061 -5.3735679746175375997e-05 -0.0097607217277757910012 0.0015106701893298100578 0.0082301399272855287753 -0.012904604156768258172 -0.012701782018925798431;-0.0010064584572648570607 0.0023905392651566432886 -0.0031548494587339400916 -0.0032168904184200846318 0.006162744757472716009 0.0028831936432506285843 -0.0045620801404322747913 -0.0014887677020747941328 -0.0019474014779136837507 -0.0048931890645882575308 -0.0040913206099252646605 -0.0075612980780835120295 -0.0046963475736011934744 -0.00096985784320472302571 -0.0056174444530291004277 -0.0078312059668116367622 -0.010939566402640453491 -0.001472457006095122603 -0.026494280344797133814 -0.011587758845362632412 -0.0056016077968085798214 -0.016205715060218710971 0.017552013658386777378 0.010855886265013846292 -0.061613530747123841647 -0.064685258405798209957 -0.04932933809816761328 -0.025880857302714409263 -0.037970676770128643229 -0.0088318759546047991699 0.010268105427649909869 -0.072295465895634458686 -0.015577061613022802344 -0.044561879052297449777 -0.078553499037537347083 -0.034615267156835896611 -0.063835404841497481176 -0.079451831512027448756 -0.033295331032630277879 -0.075073620431941462394 -0.094040615418715056695 -0.018480665078014338332 -0.0034530985635942467241 -0.0046263437547901450908 -0.035656336595952492496 0.038820415658530227354 -0.0013778466536931103376 -0.019484457137179066882 -0.0057945648145898169187 -0.0030027280409994972811 -0.011437578047023583272 -0.015410110762807710527 -0.00077046691889497186459 -0.0014067809463838738815 0.0001881701010833016505 0.0015992465450134609253 0.0019119655863874924443 0.0055489005991289147221 -0.0040176566524119158158 -0.0037875466735938097783 0.00030517590235331081049 -0.00066371758181024752363 0.00059540966976121391472 0.0014459186043856320659 -0.00091705561624284587675 -0.0023587591428290833988 0.00056852823982586132064 -0.00044254511954737013038 -0.0033492617192329319706 -0.00032982839186885745935 0.0011710393939647885473 -0.00078172604341324170019 0.00042764247795074148036 -3.1055617698191986852e-05 0.0043741515050099381151 0.00081037876127172865127 -0.001137053995967758635 0.00060370417804507937702 0.0035963496912183160782 -0.001421520645088662077 0.00071847680135864308223 0.0011527943233562119862 -0.0019440048543435243557 0.0025960162608511302279 0.00019793306840673572408 -0.00015240798317834095259 0.00063424672492712796858 0.00033849227848260082796 0.0019247849201817679356 -0.0025730688217189667116 0.0018902472038539585176 0.0026268467719664555585 0.0013392847454248870114 0.0006196772361557940402 0.0020600690869645743065 -0.0025856610829848836706 -0.00067683426003457489162 -0.0013354097449569360574 -0.0028348656238268293839 0.0013139549419280039007;0.0033558666716514392106 -0.0002160040075605668651 0.0019095022436576723681 0.0034548847960013213607 0.0067977378763358587907 0.0055425145323207605091 0.0040924479217176543827 0.0042358033003776990669 0.0080088392349169316292 0.010438723693629987227 0.019172827376745461142 0.012164266639948524695 0.0095016795336372861236 0.010227260558686591951 0.014078972458676822579 0.0054586791703273504495 0.02419208615817994637 0.010217649985318856543 0.020676430929410301307 0.030916083449224546903 0.0055686037557605401818 0.035355833619956776592 0.018388231132652119865 0.049613841588366437707 0.039884917515775011876 0.041993596250869617836 0.05434567837918086175 0.051540720414654170312 0.092878807929620249562 0.02683596809360469515 0.059319866574748518484 0.042925735655308945582 0.013230651411883589258 0.066860951409342866958 0.059876819565091894682 0.039640422375511880082 0.016632320930364860589 0.0015621716231967956029 0.046373035426217915078 -0.0091638685098658460848 0.039288884973103337106 0.00093775690308729806998 0.021502641682533418094 -0.011837833410470106552 0.0006678943820830722522 0.0037509583399998646172 0.0017546614893870328758 -0.021556731749458189068 -0.010618279663034819321 -0.002479326769372626818 -0.0014460154472636828349 -0.0026859224686980875951 0.0016297977840561048667 -0.0049029956953428400004 -0.0074283101707926998958 -0.005969452231241748931 -0.0016167629167866317402 -0.0037106267932649292934 -0.0049137815539414229915 -0.0095645258243749180921 0.0046456544017204459002 0.00094785771041924434845 0.00064005667304883808334 -0.004446665763320918445 -0.0014426612428305762067 -0.0032864336405499352048 -0.00048197865956703563051 -0.0014318818719393892631 0.005445509121466693761 0.00016448055790854357967 0.0025607339229163248936 -0.0027193353138157605117 -0.0019975695897669690226 0.00060908566768900162212 -0.0023105852367166133075 -0.002315726444351750863 -0.0014582048318546182285 -0.0018949912075161938485 0.0006160100371537921473 -0.0015450980193137048898 -0.0014671908073482799705 0.0021604465648412864848 -0.0030101832642533189223 0.0037030744447043668563 0.0026337610256709892941 0.00076368633679798985335 0.0020451949474214062633 -0.0023996663054994976129 0.00026146949360606624481 -0.00093138888235394208873 0.0031146545120182334877 -0.0014979036544095812936 -0.0014121207423390947071 0.0027792839332419242912 -0.00083176605411774170561 -0.0029531519243810862123 0.00057758252637530097234 0.0016974199929335968134 0.00067127110551166795614 0.0026787687794066605135;0.0054911021940720851006 -8.527371347953426441e-05 0.0022241820477829315865 0.0032259778964660750823 0.0026084309322905283209 0.0078621397132651021228 0.0020988744879833530835 -0.00088300431623227404118 0.016839295056687696855 0.0025079122086306094783 0.011990980216518148938 0.0094940289722363173375 0.0047376726683117185296 0.0033798138487941883218 0.017892372583469467323 0.013107554413920427874 0.025973526575277090106 0.0066570646748806295429 0.02975609040894826654 0.035152998760708611958 0.038171251423498919753 0.015634993268749473871 0.016319588611435786873 -0.0094138917628540687288 0.052774136460200869736 0.10990765455319605193 0.060625281053809959575 0.027107518631014852067 0.054848295813478213645 0.037993467000442558701 0.046582316366054754564 -0.0042999264324328108355 -0.050106116073731554739 0.026460368806548794501 -0.0084298151645396165316 0.090480501135110982802 0.036226629232752820264 0.020781713496972633454 -0.0050374348459059411359 -0.020398887007327625581 8.8114715823441378375e-05 -0.051450178763082089761 -0.088020532653153557567 -0.029781928778008337488 0.027305456296403053662 0.0040645720031004632655 0.0050090754926404778766 0.0079669268540692814856 -0.016843084132781134532 -0.010513136084221955113 -0.0061688952618565865219 0.014824278190630060109 0.01415348061383546463 0.0037553170974820118157 -0.0093655646606226675144 -0.0052472820669915041722 -0.0023524001134168047444 -0.0024301999219811030832 -0.0029948135040733874467 -0.0034175292452858370938 -0.0022968440721227410817 0.0035458265901704938243 -0.0065886430108099769756 -0.0022152433070438087674 -0.0014498307930830285455 -0.0024663627564037154255 0.0063037116906410088288 -0.0060659523664146099142 0.0024502877078120214455 -0.0020963874924212156856 0.001675314560595863797 0.0053243089948539629175 -0.004212329145067594989 -0.0029315328889410090588 -0.0017319952584649203186 -0.0051884157251321939147 0.0051998899146370076985 -0.0092815627622117452544 0.0045213583013996496568 0.0020149797411544499541 -0.00744343423860656557 0.0022243367330292444436 -0.0041976313855226383975 -0.0011475298561572765815 -0.00031843230207539448664 0.00032607805673894128123 0.002028064333024032391 0.00081548046088070257151 -0.001920484833436205763 -3.5356266483626457367e-05 -0.0016635460553359431978 -0.00041038378662737093859 -0.0037333477643175334501 -0.0031082583049211400146 0.00062694426708545698823 -0.0017067624274426785973 -0.0027836207995930589698 0.007809958399272547841 -0.0016026270390430840014 0.0013017706915194765006;0.026741535354551017323 0.016370201489733927913 -0.0036300942969652960461 0.020565283030979163853 -0.051810484308644995377 0.024319026768880154521 0.02553556000243796531 -0.038078691690577259887 0.026477728126634993144 -0.021406957203026728137 -0.097534901258123779533 0.0058604357515982547638 -0.032167009273476480924 -0.056721022126735819169 0.035018279977556555915 0.0091450828642056468387 -0.072597892485872395074 -0.2133086415217106957 0.028828654251699014494 -0.0063892579696506364428 -0.20664198638040565115 -0.038284754864178649481 -0.036760815152583260768 -0.042223024676811896083 0.11030810022559489614 0.098763046932965170566 0.073651216348837783565 0.054522126329620244911 -0.062806774576671400845 -0.19803164050350299807 -0.091176663870508711796 -0.14387173752047716091 -0.18288106090309994012 0.068715790068053825279 -0.19801561513039472873 -0.070377144904657365498 -0.048001633112160178862 0.13206867512358214101 0.13230875289264745764 0.15376705130582071779 0.0047272192980758265604 0.045695375747413752299 -0.10247135921952504889 0.039262012300952768562 0.042244018295719484857 -0.10589209954536453473 -0.13414478295886972381 0.0073506586561461638094 -0.064912636766898512697 0.12930035703367037669 0.09322579358439452013 0.022860147276274795508 0.039322850285671701043 0.045631935400296329275 -0.029568971978270436329 -0.012402461828473035008 -0.0083550251270252950953 -0.0017251052198706154188 0.011317793324481316419 0.03729096982851689418 -0.039975896663841735401 -0.023128681108634731312 -0.018737983416918648633 0.0029915706357683865407 -0.0012525002575313128224 0.0096057198941992740643 0.017796981161127663207 -0.020756589649176978435 -0.012264897569726302892 -0.018587816646942107585 0.0023003715603261581414 0.019666605380066825431 -0.0069890273349939302516 -0.0061349930850669543922 -0.013307439973963500895 -0.013716712659129624841 0.033512372660126799051 -0.021325515004169955796 0.0091838553665901170864 0.031204565494961734873 0.014232727804144992487 0.0092480321943514149502 -0.031532033378179794014 -0.031314829043473969838 -0.016764369290089529974 0.0075754670453351841825 0.015589328717355801016 0.023511948001421277554 0.016016546895771862496 -0.010972239928751568658 -0.028841211389189103098 -0.0040982271058915345496 0.041347419109343495902 -0.049213655307267019368 0.00088704426919240212009 0.0033315326920843948977 0.0032808368142176269969 0.0075405785386424284411 -0.025570602666806004077 -0.037737945363191804926;0.00039825631281621362307 -0.0006743903989938151728 0.0023599820182140843726 -0.0032000875869572387861 0.0049389686615573958478 -0.0055750917535802432465 -0.0028748880244974864273 -0.0071845426391134890529 0.0013955187603214673497 0.0029413819281997265719 0.022149303255850225081 0.012384296540640830214 0.013700646383399368161 0.0051984030761552191616 0.0071942703673227737654 0.011395322290017096539 -0.00039905315467251992537 -0.012992266295912668211 0.02174269519438170109 0.008057003078568087881 0.024660913106628455649 0.020712913153738167493 -0.011883209715059735861 -0.025024586224787735006 -0.018021057041814000227 0.054890024750446464452 0.095979655265217442284 0.075209256557582107594 0.04395210345345277464 0.026854280065994197424 0.035237331348432585076 0.11891862696399760346 -0.068411488718645857565 -0.031978975805847575931 0.11694631017708129184 0.10446918396028576081 0.080435466834747310072 0.095525684739499558407 0.021386511129892375044 0.020190960840926364117 0.019493047966058423687 -0.018176116267246411606 -0.030997741689503359452 -0.046779066925860805781 0.033978579584405692315 1.149213572423446808e-05 0.010489568470156439284 -0.00069891649440525409689 0.0055451469233097046632 -0.029533012362216989888 -0.026018534159392456978 -0.019305279635222938328 -0.010546695455539290345 -0.0038720652550790499516 -0.0019415104494427723025 9.7171846785306271056e-05 0.0025943097179287511085 0.0014224398312224818559 -0.0052998030918523899094 -0.0024637020409821208146 -0.00091619745725962816168 0.0046752829923706112555 -0.0013055975594463754309 -0.0013842321818567033045 -0.0018207993205166788514 0.00064549051154139374525 -0.002773440891534157543 -0.00045653499138278167075 0.00014658074385468379108 0.0004079927846824119627 0.0027674074672729689559 0.0043479603443441110569 0.0061763452779777334653 0.0067347578023622123311 0.0024434062387447223058 -0.0062341313606201530576 -0.0072813545859756016732 0.0036690446369287846654 -0.0022573299308829390675 0.003015717767917884453 -0.006816015954488580976 0.0010136166454560915223 0.0013527509139040379531 0.0040364120806010810039 -0.001927523382311578876 -0.00010698189985709996466 0.003418959947507794507 -0.0020824237743664775376 0.0022871660753752656899 -0.00084804427196268181328 -0.0029531793476575219151 -0.0018951165369815144504 -0.0069609960555032830698 0.00012727727227934549476 0.0010847722987086408451 0.0018831097116980648459 -0.0047754687407508553468 -0.00030574922249992594371 -0.000253373931422378395 0.0016823952718871240837;-0.0026829490054740686919 0.0031506176461034269241 -0.0059782710868242546626 0.0010150928666330868988 -0.0049693694443174746961 0.0051546194980055509011 0.0037525903844558418203 0.0043695351742829872596 0.0030615075472277880272 0.00086709945661122861827 -0.002165077558618853492 -0.0081841530401483859186 -0.0030401111874424073707 0.0042340163855749566799 0.0092233446837695944043 0.0051441256682052812974 -0.0051937100305938909556 -0.011471278649810118591 0.014775298436896905016 0.001861377800441422559 -0.017787468015430664414 0.010347346460334335208 0.019418733979653164667 0.059233833935267266035 0.055520538304160128862 0.0010480080244145168616 -0.02616927591707983794 -0.00014134006713281037707 -0.0058784776010560556292 0.024960751249383256872 0.050291943531213662011 0.074621677201307953786 0.15363675288674533137 0.045165592469649233631 0.034862156329830529256 -0.007597042646602623038 0.0078577328064307009475 0.0066244151222445164101 0.079515671015572969571 0.15943344682698498693 -0.050116995730921390373 0.14557448151343657661 0.094202745045579613925 0.074794135565309421976 -0.011940380195784316281 0.00567371589897534747 0.0017160254960500169637 0.0020199468865102271006 0.013368799347881004172 0.0065911548364138610248 -0.0017209455846816882479 -0.0074010682179230348823 -0.002463437879788514355 0.0024586282541310968373 0.0035673772838277712297 0.001432988003560805787 0.003518113864456724315 0.0017598269879312300207 -0.0044061908722504037825 0.0024801266693101836971 -0.0044659506109295411119 -0.0024312119711385614569 0.00047479385214953983467 0.0036463507406532206373 -0.0023425867862246394467 -0.0013615247047484289097 0.0010292377469976405138 0.0016405654634648379839 -0.0026742328189532406368 0.0026367331772755514888 0.00058105838303971839819 -0.0027295996635517982311 0.0043316448701608547753 0.0070707195355197913211 0.0019704550928699455375 0.005585638317676299737 0.00060131043971609478109 0.00043158037800445557498 -0.0013715588682831848701 -0.0052859252463988972912 0.0091933905404391943333 0.0028528553124088761733 -0.0027525286464441041552 -0.004447794862347919341 -0.00010553216365332123306 0.0010131006238705247535 0.00079952954899132743644 -0.00069629774600968037234 0.0016999999262917737507 -0.0029447930866269419678 -0.0011724333113544726549 -0.0052053359658337751067 0.0048262107251585851381 0.0021956972437749732244 0.0045468485338489867537 0.002935920009232959732 3.1127282150018100197e-05 -0.0029156052834152486677 -0.0035878028929420074065 -0.0029852208326981220614;0.012229873099230008371 0.0064755548942104198054 -0.0056723405100469461923 0.013650546576922731323 -0.045266292969056522166 0.027197099537188108853 0.049776962399467765408 -0.00355363358848183623 0.048356017798902625748 -0.0071551325545832454578 -0.077632696189688668587 -0.071504931942116961574 -0.047841082991810272851 -0.024608110100782756152 0.050353455305807766351 0.021748037680119746556 0.00043817379594023102242 0.0057233489165588883121 -0.028753119445520832625 0.079228787791937635432 0.030194806082528419244 -0.067575295931108961267 0.11359796091166453336 0.065970295283643051731 0.073202520826487524341 0.06945233008816410758 -0.053749957201767957493 0.19332529680712820519 -0.17516703039123368568 0.015162372196187981141 0.1357253295082853084 0.089399838639285550412 0.17340532896822924425 -0.015583875469489607418 0.0046832769485609122145 -0.15530633691548209607 -0.021636935851238790762 -0.022567187042626963428 -0.07896313387465478395 -0.001427557481537343291 -0.083021582024584580917 -0.070066170000209926361 0.23034967329446787154 0.15279224865283236312 -0.0041620469638000874568 0.07101990667213453623 0.0051300165198569242647 0.12598399387884581802 -0.06933212889448274463 0.09169423791464005602 -0.052157675857694756061 0.047752510676545983914 0.012492779356679646618 -0.014412924768490395153 0.0027904604505968231241 -0.019500792613387770563 -0.019067429665549428391 0.0035351358941183288684 0.023459387676287340313 0.038069839517652817595 -0.020174252098606713229 -0.0023536947011910951295 -0.028938380465182038381 -0.011605714537289342839 -0.0016451714473075934857 0.005386116931210009097 0.021575772437822406807 -0.022541390987290497311 -0.011293348450994351168 -0.010311886779311997889 -2.6292201334455250132e-05 0.020392078064908867457 -0.014403700200086957603 -0.0026757149552288795463 -0.027785450762177987122 -0.006809570070478744401 0.020959818663630933044 -0.026819004132744961311 0.0083776990029248536718 0.019059679589327863797 0.0071856266477929951059 0.02129494067990562664 -0.02521054296444435322 -0.012698819825221651508 -0.0076077119623190010353 0.016036744289632230004 0.0049575937144291197523 0.015397182547905549632 0.010876384117688965569 0.0007539575643671763425 -0.017889074525408849708 -0.0063586475480303114929 0.032217008229044025169 -0.042706638749420773593 -0.00020768728319542508311 0.023575956042277732005 0.012076235377411145139 0.0039112217832135681012 -0.012042151879306092419 -0.033749508258190279164];

% Layer 2
b2 = [-0.28834697379709317566;0.59501660304274206492;0.087823905837466770263;-0.53691365687906222881;-0.2490162898733196406;-0.47817227124491396006;0.39487262551511992381;0.86299490977402038006;-0.24429766269792252409;0.032804183846668721891;0.18139100873875410591;-0.35333856220761183931;-0.53264410880437562668;0.096698613753267603776;-0.65320720868876580578;0.18554495610664481497;0.090035098537309052324;0.89964196029424348122;0.33100805007630834664;0.40257983048178247465;0.085800685231952458776;-0.46335770906664464075;0.7564054772325652376;-0.031283891446495896982;0.57233838089781186032;0.51349676032016755567;0.35809116495024517768;-0.076691974777549146158;-0.14032421398172106874;0.29479899192608516323;-0.20932314639767241049;-0.086155032869184439148;0.072516154914883834692;-0.3556135050676846876;0.56862706123835726757;-0.1337178199825890812;0.30622573859426055476;-0.19879143087525061317;0.32653136467611232341;-0.39433097021406748883;-0.12369867597633013578;0.49673964828767758206;0.75385678552914170414;0.89539328651539862314;-0.6294055820207191676;-0.19206052571382556393;0.040428700036225874437;-0.28000166258669517694;0.1446438679643126668;-0.10406104078086067521;-0.69847308435267607685;0.035560814542793077464;-1.1202251715433944046;0.10964584228380629127;-0.5373096755673250069;0.49643596391487720965;0.83280591542747695044;-0.77776260584835521517;-0.87551024434089730342;-0.67055055606033575621;-0.0036784779241993579776;-0.44314410771506379527;0.2240800735349283701;0.73842558662247748114;-0.93017545092076348023;0.91991147220153046682;-0.97513091750680302994;0.82436654444416179732;-0.47156260652986942139;0.10085989995304053823;0.68506834032741592555;0.27418453475078791159;0.13280313971781865234];
LW2_1 = [-0.81811932692830602321 0.092590507892151202585 0.13826153364352433695 0.24756538121497784211 1.0481403205437911375 -0.77051585618475604278 -0.60520122224529837585 -0.35300953101102278131 0.022849373483028265902 0.85645611257828424545;0.33237307940596977351 0.049438033930008666583 0.51543630424758790642 -0.18219380137754323523 0.29094048966670149614 0.66841345439620514224 0.17622847887923814847 0.64575817388395695406 0.1511906710793253783 -0.50997006509304088073;-0.92510953944497531509 -0.84625611939334932643 0.78884339315392315584 0.5669819567714906583 -0.028065191309290551253 0.32601041440859812592 0.82813122243648173981 1.0501940644391063451 -0.1871926837094982643 -0.34706812671254255731;-0.08706365452754127876 -0.45582649477519393555 -0.87873239911500622412 -0.56657172336878225405 0.10842156406166544858 0.078316241512301043581 -0.39292175167140958036 0.40659646497507190288 -0.08466575573796637777 0.52290994140344204677;-0.63321284829939206151 -0.22718008965223268625 0.41420150015184475922 -0.73307905988157051613 0.72829131640075650544 0.36736206995225834104 0.34891750960750272936 -0.93929139388043247916 0.10644616540047710518 -0.75422011133819921724;-0.13650631903150695079 -1.1165355693193939057 -0.39730446424520110549 0.54589367932072707656 -0.24621100005394055965 -0.046294537519687171956 -0.31516516728337007347 0.62243468662436496341 0.42180064588950461069 0.23078181509219866663;-0.6711684855175669151 -0.31774837784733750423 0.51528876397862399816 0.11594105011253486026 -0.084720063779079382571 0.66286209311776100872 0.51832944247239276514 -0.38846433453825435222 0.92232414177454524751 -0.32753912343446972555;0.11070592918617071232 -0.6056108946619155331 -0.45524731104157933892 -0.64112993586803923574 0.4066345047443485905 0.37521072203003719148 0.47692724042588674482 0.082330846330076673523 -0.42087372269870182429 0.60001391049727759164;-0.08862639941273790789 -0.023170918340170362781 0.17474309364587070625 -0.66387081643912237983 0.39221182170531238009 0.53336279643613837553 0.092139968109641742777 0.1243188256487850335 -0.037221714670987053608 -0.64449856976014874288;-0.46137617202541642003 0.31690412243927484903 0.11032941942229987364 -0.45964732840717625884 0.35871013148899588696 -0.52763893067563638617 0.015862771056171832279 0.31723197128801111644 0.76636763637963223328 0.34788850385839920065;0.12848593147238676626 0.79917698228781530734 -0.52189135084346782723 -0.54303366133057906495 0.19713960942564676126 0.91981130720954351609 -0.0046794357006149714384 0.31322343407507813318 0.91972274092271577572 0.11247210626846454451;0.034528333937497740491 -0.43815793951451464938 -0.13674627197929131728 -0.7703564020662034828 0.083153305205667646383 0.31626440931830773762 -0.37978341168501267289 -0.65661289422482194134 0.3106035802476318497 -0.37955663438421666234;0.0051069756055745563553 -0.93773532190860664493 -0.2083206342783645304 -0.86448443790644535767 -0.43348944288991403395 0.90402469364901583138 -0.82941219230538565377 -0.58682347820320246434 -0.29367312094582131987 -0.1451129355614469707;-0.64640848005856832437 -0.4344602990951697552 -0.59121291950021859218 0.25850216409843895793 0.037707280430273652783 0.76279277768270059568 0.45762855182175965485 0.38701033483777697031 0.49349430007806710519 0.56304503404556316415;-0.90657006297345843482 -0.28518790268496047036 0.43826950382549956231 0.20260330816008745303 0.31626694112176961804 0.82241719642885446895 0.053076963268161324316 0.14718193258909087473 0.18302295950041885808 -0.48543846256031947251;-0.73494164871959766216 -0.80796876683263540997 0.58075340487615068064 -0.50175338154339155228 0.17545094213177642173 -0.17429743790015519989 0.44438695235088071511 0.092995918913014702367 -0.37595848277039950469 0.024535024604048105701;-0.61284667006070026041 -0.33450834505529347673 0.86448321733195043759 -0.3809593086314624899 -0.62431101929352428304 0.41522635461101864429 -0.51245744103452472995 0.5180117018286766184 0.060647840923555546011 0.31377210645663916599;0.12836802802789520905 -0.35155172539462753445 0.28613304862605160039 -0.93182353963313291345 -0.18369710286330714899 -0.44005949691046475358 0.44622466853263625941 0.58330580614077875978 -0.026429143742800257494 0.27568803834229743677;-0.57306877114359155989 -0.76844971015976282214 0.80905403545257548181 0.40911273584654644919 0.23503115581612096796 0.42263069933999170003 -0.39365581861496001803 0.608977846822570279 -0.47071147128727852671 0.6663640453732763147;-0.12424400229013708719 0.023599790666413565654 -0.14373143621770095857 0.26380312333134525726 0.85933303636084301669 0.49055664239083890399 0.2904973844545262196 0.45612425576923476545 0.29336674427455333714 0.34658900109370804898;-0.58043930345791072689 -0.42404504426603512046 0.10131444716156573493 0.27477297099160286065 0.80363915012099740309 -0.4751190961601690077 0.16960288005310586446 0.78506837493096737202 -0.059938354869664665914 0.71640371632718213846;-0.42357735304485061301 -0.81130043589298217466 0.20567571712243984394 0.23702743361035519265 0.36765115834996436872 0.25138670814604596737 -0.16072371745892116701 0.25391032727978657402 -0.087597069915438821597 -0.13113330648760121444;0.43973740976278585801 -0.70128137435895798735 0.24112480531453020505 0.20337111564423931975 0.76721512645099310124 0.17276557517688831411 -0.37444318898996375999 -0.237132999695979646 0.0022385101517664665605 0.41394055055135942078;-0.27731639792375689657 -0.39306796079990696802 0.13684908762149491923 0.059690893762880621598 -0.24668632028891615549 0.26770644004282412309 -0.63107595424407270102 0.062696489033463698171 0.71436785446225781193 0.48996620690890302363;-0.43831323627568913315 -0.47450514566468876554 -0.18462905624802625204 -0.17358041320839975863 0.33574989282132755575 0.44284854019672742487 0.48465117030573839907 -0.15509010136223938536 0.23116287783559683056 0.54234125235379659902;0.54537511188860399169 0.54907291925971690727 -0.077216663209234204235 -0.71733096319236422378 0.84868481988905941638 0.32370711481432501433 0.32825807839751319772 0.11183542059593890028 0.42277507425381605222 -0.36430525319611584134;0.65776088840952007253 -0.28520431195010464975 0.59559187372138544525 -0.72889285959021032912 0.45032350656396052946 -0.51635407599690674729 -0.46716502549571464753 0.53744779652743346343 -0.37900890626124594807 -0.086557270229838736975;0.054020589805579652398 0.51670376294358477676 -0.014214191444185807212 -0.67497451954676879193 0.83259565721823225459 -0.58994226412657213565 -0.44573752818657513819 0.39400130917749620618 0.38979782821467229281 0.46054553819327642694;-0.57288078753864069004 -0.35509230581853817865 -0.2517543537799432074 -0.67349764530182898437 -0.42762487137011356841 0.92686962723834942501 -0.49924848000012783666 -0.41431538663609407402 0.28957412954633410251 0.64549987683670462246;0.35059809498649779913 0.16673753899295529202 0.081418346439690175709 -0.49457684123421941091 0.36435136025506748014 -0.50320987755807711217 -0.69370026680518515061 0.65886587173185984234 0.28582531770221830669 0.76070348613987870401;0.25663673048247798159 0.26817829775302226558 -0.30846896202193302416 -0.70661056267395505603 0.32936477416705906007 0.055731210600720802739 -0.45213311699028907453 0.095785216887060722901 0.56882262539301742255 0.097506616940781248859;0.18599294116204556637 0.36396914315789480332 0.32024693163579870392 -0.88326527840775737044 0.29748876076970204307 -0.039997931828667454557 -0.57872496971708864422 -0.17779734195394264473 0.5703852370358174495 -0.14971724709456446512;-0.4218078473502624437 -0.47114020016580171468 0.76854129978223917341 -0.16243096394297520946 -0.67016940570766703189 0.64450408478275011959 0.0032637164226015265289 0.5381116250449071714 0.25293600383941844401 -0.25942504916506398116;-0.65957654856771141816 -0.72684376117161542119 -0.085367659975154622232 0.093078057365507366194 -0.47942857925817039533 0.41185598508261350714 0.31267676744544031786 0.31504250078985568395 0.60072087809671304015 -0.068170261501779141899;-0.66340677712274542799 0.26870776681236108185 -0.42344823582992147104 -0.47153807629245031441 0.49866534339984947 0.13172748047250359971 0.77517593215856150923 0.086878228520351000186 0.6491054343172519836 0.84162115065621090348;0.023214838363908064933 -0.54906882502691012338 0.7666908606911253532 -0.26377036258983027617 0.88057595027912471952 -0.49721520592203871658 -0.0074418864634347610398 -0.10731887580521891346 -0.13779327463924739838 -0.61521129653381723124;-0.83629779711947216381 0.53486467221344413669 -0.16174591992424533493 -1.2276451355593629433 0.99113162933112985975 0.0033272840478217645746 0.48429138090828904861 -0.55416356992181992069 0.1710566254608550385 0.73940222874700956002;0.5794116863304726861 -0.16430483501208648089 -0.52500735125617647991 -0.31876167686221928976 -0.63738143167195882022 0.67507605084145916319 -0.21923028430434970959 0.44445899783998138455 0.96527678922342485812 -0.34149799262749397366;-0.053474899778246751114 -0.51280479991824523545 -0.47068124850267700765 0.50644395051035318023 -0.0059081282619921271157 0.50786004890252567368 0.22671180695631099056 0.61601064535826954849 0.64288068589194158342 0.59845545654855025752;-0.70016233835292018828 -0.60383180936425473462 0.95200541810169969636 0.23070546798655341969 0.31640328898461067553 -0.30481822168934774586 -0.12105342024267325141 -0.080425324634641567889 0.42804716349517679674 -0.32438069096973032313;0.05582688951245338288 -1.1188082548432540797 -0.10518429797442765961 -0.66319352708083045833 -0.45364565302490539311 0.71228249499036799808 -0.68062718710867708971 -0.062570132333814407199 -0.61455980585613045886 0.42654830949248490057;0.29149814944434782049 0.11403178808082850559 -0.045031243423669750636 -0.92615704847284763268 0.22462699653146928069 0.64121512270126745925 -0.092380394634266810305 0.27325136444255015977 -0.21376600512481722105 0.34589792165643867827;0.85455367628096567945 -0.14537069290302701008 0.85463055259698228472 -1.03488131851657994 -0.10084503136722258732 -0.27012148803505642292 -0.70812554479318112755 0.14554839785267703611 -0.093757725113310250165 0.031733642386103273758;0.35620692888056987302 -0.86246890293468747579 0.11613240326658423596 -0.75766695636309366879 -0.72584973765424787295 0.03126509358547492623 -0.31693535538411110597 -0.38726190125691339894 0.32220313393172117511 0.65152710672943503489;-0.22152733205944100114 -0.45783521929384540794 -0.45047437968585701817 -0.9663486608471034689 -0.51211219165562282818 -0.71773777524559145835 0.22266695697535773824 0.68647511912124348221 0.34004068127259101662 -0.0039464401648898915151;-0.31840447276496469664 -0.86121602773351091376 0.28042479111945173287 -0.61899704714635717107 0.40450426793395183322 0.38377473715233784146 0.47876329227018260548 -0.75187404581815253657 -0.2643694781264046556 -0.72675300468300696455;0.12976714785608498004 -0.59725537057286992582 0.35879551871688147857 0.022181888003543315246 1.3921812820584988923 -0.1754307874540525225 0.096543473186685213605 -0.2677712798163201513 -0.340560912260042703 -0.28303313346730474276;-0.36832912138394868773 0.35733436273930713201 -0.16068804423212826316 -0.41244086888695791204 -0.41544640967344931282 0.3406982145140490803 -0.42005528226140398385 0.85079847652875006947 0.60346934445480793219 0.67288447876678281201;-0.78145237547644330611 -0.42376573128693378889 0.079121774776805334217 -0.89844688169711262038 -0.53889271498690394235 0.25558759753497417577 0.68825645256119827309 0.28337083470437862687 -0.068257526965094073024 0.25456366605980557116;-0.37559611006214721485 -0.012543929108558065852 -0.71616702912614749188 -0.91867461703502151238 -0.40873764494217051935 0.78119095946037286904 0.15301042107729559416 -0.36526194867554173662 0.55413750582888787743 0.4215794784091397851;0.77817391895394971701 -0.47059638317592461521 0.14980024382279533146 0.074094034725315352508 -0.18424417125988493127 -0.57701252505731659426 -0.86487347762436594945 -0.22561448086623042686 0.88857674569835798373 -0.85551058969611015748;-0.63520439767948666532 0.88663348612279269112 1.0573773634392420462 -0.60475399794615170013 0.51497692462773614341 -0.36024141824180100357 -0.12772355516903191597 -0.56251275867481120851 0.36323673383879240273 -0.16705954828632960107;-0.67618187368978954765 -0.57847924798636873867 -0.27325286192206327263 0.033301229698665828216 -0.44777406225242044613 -0.081914173063189668622 -0.74989230579267618371 -0.68904471158180635726 0.50520511667650491727 -0.020543024176856002072;-0.54585391511429015576 -0.43385326830704451506 0.48894935011451551299 -0.94272945991884427031 0.26993012618960593452 0.25235323882657173522 0.62767481191783758288 -0.029573298487950386293 -0.10693934967878311604 0.23577317241012113458;0.30295603223294292894 -0.92506296882514360558 0.54205088630287134865 0.75853508478921849445 0.46691430128883704143 -0.33507160111399902913 -0.52336972440489815117 0.1511296086037191011 -0.91882772544219581956 0.22782761047673258381;0.84962273288211265232 -0.35204718807773405231 0.87204319767240523475 0.089428201994240424932 -0.23723589172374612288 0.29147897255148591533 0.16607582811276533352 -0.60025171288138656767 0.99663353157941725335 0.52446886961390859483;0.25924377603153064831 0.86951681248889578502 -0.39532221735912020932 0.17196962532308832095 -0.41626055701651021312 0.81023199713506166564 -0.21634108376616054126 -0.28485853108756004071 0.47836363861003916575 -0.73890105204037148656;-0.73918384737086051395 -0.43711559355953449879 0.29276282550451743214 -0.19762302788624006022 0.2739215072792633987 -0.12743155487163579376 -0.11156636352424313674 -0.20489380456158184929 0.3145766414038705383 0.89372798115116447448;0.80714052738806008058 -0.12796539437253098836 -0.95132302653909672774 -0.53474724308577570309 0.34786466917784047981 0.3094444324781351896 0.35847311872887283046 -0.028704120074571390364 0.30443969784109509158 0.85513311668362912421;-0.76496627820572493661 -0.11427700703442716934 0.77818734759436292148 -0.35652720743216170796 0.50162506778848481304 -0.19563878053821898151 -0.56186434661225037601 -0.33673280390131399287 -0.81750726496412251532 0.55475332684720601861;0.95719175812699397454 0.70414407536253986741 -0.28922399541326260231 0.19500926344337984886 0.97073388988955822132 -0.57130176754920591886 0.80668385796617025907 0.71080228236939191344 -0.33388918878215106956 -0.026319293012256435998;-0.29406089626778797452 -0.53123572043017541766 -0.90383577080319954522 -0.68193342053282390847 0.42496703670779406581 -0.46876993661401633595 -0.8249205876749035049 -0.41308034672677218513 0.77807528517952673219 0.63283935902507126858;0.49687953604786305739 -0.70576417597820373384 -0.82612826931065774794 0.20514330397737182143 -0.16962367164037514544 -0.98811990749406997114 0.56917572079692557718 0.32231202550792975581 0.6960789746234206099 -0.48782226404554601684;0.15437788752143402626 -0.023491410965617395834 -0.82743828588018630832 -0.95795320353090829268 -0.96121577450936701581 -0.044268228451942920332 0.26340642545532411134 -0.89476215441465645206 -0.73380784636547757849 0.60515380796073159342;-0.11113336213802346708 -0.47134581531049429826 -0.44825479440925664054 0.68391895706282512801 0.99282762603867147355 0.90754899581694525867 -0.62517612684714651827 0.31231196810658023999 0.76718971454664453002 0.92906248415797820783;-0.41558009801492562518 -0.28692054524465243626 0.52761170343204133459 0.87105482631496466972 0.67415413266533974479 0.44585656561335951231 -0.058054916049218086016 -0.9417424948284497388 0.89092083053257897785 0.33133417692793670772;0.45368141646901649633 0.29093764968884089361 0.70115004410721748496 0.060286196111581966117 0.29206816390748552292 0.56632199097053814718 -0.02320900835419425004 -0.34139868301016940144 0.36540959655357413416 -0.54893057928855415462;0.1404188720055105366 -0.8366012713858147487 -0.99063067270029026012 0.79432868680008328344 -0.44674280555185846842 0.86659160652263944602 0.62416489342631320536 -0.62954016741355911524 0.40486246225026123469 -0.79610308421681985624;-0.89098495219562334757 -0.85099142231234736755 0.047850000051626949416 0.56709910194615764656 -0.54873997105861849199 -0.54374284517306092912 -0.95755476619893664658 0.30939428743130342747 -0.62037207535354232935 0.43641762290658620005;-0.27681874876004131103 -0.1400677146646797655 0.92083427505526349588 -0.32591196450489173797 0.26719183889620023997 -0.57288591527257581859 0.44378269592046398762 0.18920578660229930845 0.52281682415725549973 -0.96542455848237718197;-0.60462693290466640317 0.53705541246688548451 -0.64880941700819971807 -0.84241088818589093812 0.46940422230624839761 0.96242823827270385095 -0.094881029780173514743 -0.28450042110472595347 0.56503384078376761579 -0.73774521385142188823;0.057227882015738577859 -0.82051387829018007647 0.37841761720779582001 -0.82366592169309926774 -0.62039786140324026942 -0.98025705571185195453 0.94266778662775929654 -0.50259808016173901368 -0.30231510630653224414 0.35469095847698955959;-0.44095270239286404879 0.71365989192912548944 0.44289114568728971122 -0.021984871610902921579 0.83076047290575605331 0.46220938353215657024 -0.60437957896166993876 -0.36099891655887794695 0.96914034617028932406 0.68324992984149546249];

% Output 1
y1_step2.ymin = -1;
y1_step2.gain = [588.240805020862;301.819058412938;206.361820418204;158.603303050642;130.053921644626;111.054437619148;97.5204082818912;87.410925573762;79.5649097514014;73.3186613409315;68.2261351898693;64.0156288156288;60.4662803102384;57.4448089078197;54.8527785679022;50.6271078011274;47.3555416306784;44.765146764928;42.6803429240123;40.978708541253;39.5784268857131;38.4192283735756;37.4544934990713;35.9763605952738;34.956975782339;34.2732797698938;33.8447522851016;33.6201930976991;33.5626884213517;33.6381236516453;33.832603667353;34.5164041846255;35.5265084860613;36.8150690342231;38.3522177341005;40.1209471836543;42.1124372789546;44.323429797262;46.7538993593263;52.2886011880645;58.7740048274147;66.2952882229282;74.9658888819382;84.9092362973835;96.2796820751198;109.249426963951;124.01478371426;159.846948303131;205.931213943783;264.89643956738;340.170640713706;435.873736717674;557.123464169489;710.537692698628;903.993534134382;1451.94426655128;2309.32085340674;3639.30932754881;5681.41415509651;8788.48402304872;13486.5080385852;20535.1481028152;31011.4898336414;69327.3388429752;149796.571428571;310689.185185185;645277.538461538;1398101.33333333;2396745.14285714;5592405.33333333;8388608;16777216;16777216];
y1_step2.xoffset = [1.49175465106964;1.48373293876648;1.4759236574173;1.46831381320953;1.46090292930603;1.45368123054504;1.44663965702057;1.43977212905884;1.43307089805603;1.42653131484985;1.42014634609222;1.41391241550446;1.40781950950623;1.40186893939972;1.39605367183685;1.38480591773987;1.37404298782349;1.36373555660248;1.35385382175446;1.34437084197998;1.33526563644409;1.32651340961456;1.3180947303772;1.30218458175659;1.28740465641022;1.27363801002502;1.26078546047211;1.24876391887665;1.23749709129333;1.2269150018692;1.21696412563324;1.19875013828278;1.18250226974487;1.16793930530548;1.15483236312866;1.14299190044403;1.1322603225708;1.12250685691833;1.11361825466156;1.09806513786316;1.08498215675354;1.07390248775482;1.0644656419754;1.05638611316681;1.04944026470184;1.0434455871582;1.03825509548187;1.02982103824615;1.02339518070221;1.01845622062683;1.01463258266449;1.01165342330933;1.00931859016418;1.00747966766357;1.0060248374939;1.00394666194916;1.00261580944061;1.00175213813782;1.001185297966;1.00080919265747;1.00055718421936;1.00038695335388;1.00027084350586;1.00013589859009;1.00007021427155;1.00003743171692;1.00002062320709;1.00001180171967;1.00000691413879;1.00000429153442;1.00000274181366;1.00000011920929;1.00000011920929];
y1_step1.xrows = 100;
y1_step1.keep = [2 3 4 5 6 7 8 9 10 11 12 13 14 15 16 17 18 19 20 21 22 23 24 25 26 27 28 29 30 31 32 33 34 35 36 37 38 39 40 41 42 43 44 45 46 47 48 49 50 51 52 53 54 55 56 57 58 59 60 61 62 63 64 65 66 67 68 69 70 71 72 95 96];
y1_step1.remove = [1 73 74 75 76 77 78 79 80 81 82 83 84 85 86 87 88 89 90 91 92 93 94 97 98 99 100];
y1_step1.constants = [1.5;1.00000131130219;1.00000071525574;1.00000047683716;1.00000035762787;1.00000023841858;1.00000023841858;1.00000023841858;1.00000023841858;1.00000023841858;1.00000023841858;1.00000023841858;1.00000023841858;1.00000023841858;1.00000023841858;1.00000023841858;1.00000023841858;1.00000023841858;1.00000023841858;1.00000023841858;1.00000023841858;1.00000023841858;1.00000023841858;1.00000011920929;1.00000011920929;1.00000011920929;1.00000011920929];

% ===== SIMULATION ========

% Dimensions
Q = size(x1,1); % samples

% Input 1
x1 = x1';
xp1 = mapminmax_apply(x1,x1_step1);

% Layer 1
a1 = tansig_apply(repmat(b1,1,Q) + IW1_1*xp1);

% Layer 2
a2 = repmat(b2,1,Q) + LW2_1*a1;

% Output 1
y1 = mapminmax_reverse(a2,y1_step2);
y1 = removeconstantrows_reverse(y1,y1_step1);
y1 = y1';
end

% ===== MODULE FUNCTIONS ========

% Map Minimum and Maximum Input Processing Function
function y = mapminmax_apply(x,settings)
y = bsxfun(@minus,x,settings.xoffset);
y = bsxfun(@times,y,settings.gain);
y = bsxfun(@plus,y,settings.ymin);
end

% Sigmoid Symmetric Transfer Function
function a = tansig_apply(n,~)
a = 2 ./ (1 + exp(-2*n)) - 1;
end

% Map Minimum and Maximum Output Reverse-Processing Function
function x = mapminmax_reverse(y,settings)
x = bsxfun(@minus,y,settings.ymin);
x = bsxfun(@rdivide,x,settings.gain);
x = bsxfun(@plus,x,settings.xoffset);
end

% Remove Constants Output Reverse-Processing Function
function x = removeconstantrows_reverse(y,settings)
Q = size(y,2);
x = nan(settings.xrows,Q,'like',y);
x(settings.keep,:) = y;
x(settings.remove,:) = repmat(settings.constants,1,Q);
end
