function [y1] = myNeuralNetworkFunction(x1)
%MYNEURALNETWORKFUNCTION neural network simulation function.
%
% Generated by Neural Network Toolbox function genFunction, 09-Aug-2018 13:22:51.
%
% [y1] = myNeuralNetworkFunction(x1) takes these arguments:
%   x = Qx100 matrix, input #1
% and returns:
%   y = Qx100 matrix, output #1
% where Q is the number of samples.

%#ok<*RPMT0>

% ===== NEURAL NETWORK CONSTANTS =====

% Input 1
x1_step1.xoffset = [1.09133088588715;1.07442629337311;1.08995652198792;1.04646253585815;1.05991947650909;1.08391404151917;1.05603766441345;1.05896496772766;1.06652021408081;1.06644570827484;1.07407689094543;1.04326200485229;1.01756179332733;1.05233597755432;1.06453597545624;1.13312137126923;1.13918054103851;1.16785967350006;1.16153991222382;1.15535116195679;1.13942313194275;1.12896430492401;1.13563108444214;1.18962180614471;1.16410350799561;1.18631279468536;1.1736204624176;1.16510248184204;1.13925874233246;1.1301577091217;1.11128318309784;1.16870355606079;1.16211211681366;1.12926733493805;1.12864100933075;1.10857033729553;1.10197472572327;1.07047939300537;1.08304011821747;1.11099243164063;1.08852446079254;1.07616746425629;1.0566588640213;1.0474499464035;1.03830409049988;1.02566933631897;1.01406598091125;1.03506541252136;1.01783740520477;1.00863814353943;0.997732281684875;0.986109256744385;0.979195475578308;0.979793608188629;0.973615825176239;0.987412869930267;0.980116486549377;0.974994659423828;0.96829754114151;0.96626091003418;0.967440605163574;0.96601927280426;0.963361978530884;0.973133027553558;0.972531676292419;0.972456514835358;0.969890296459198;0.970414757728577;0.970840811729431;0.971913933753967;0.970668315887451;0.979566514492035;0.979935169219971;0.978603482246399;0.978388667106628;0.979105234146118;0.979308843612671;0.979654729366302;0.979589462280273;0.984714329242706;0.986308872699738;0.985722959041595;0.985598981380463;0.985132992267609;0.98503577709198;0.985318899154663;0.984379410743713;0.989794492721558;0.989295125007629;0.989425361156464;0.989478170871735;0.989431858062744;0.989444971084595;0.988918721675873;0.990423679351807;0.992781758308411;0.992470681667328;0.992999672889709;0.992738902568817;0.992902398109436];
x1_step1.gain = [2.48891462941359;2.37779648268661;2.51900051454394;2.28157141769205;2.42003207435203;2.48366931102417;2.38122499866584;2.4718075830786;2.40106603268768;2.53771829435822;2.31791452549818;2.3354187155432;2.29718262264034;2.53783230434233;2.45056443906795;3.38764684847093;3.44650538672592;3.43896817114719;3.64566670599773;3.57496918794247;3.45439361420004;3.4574183719122;3.45536972824506;4.76098094752432;4.71682171784902;5.01641249048802;4.77371618933913;5.13572156464078;4.7265128970979;4.63430329173001;4.61565947617603;6.47368039252911;6.46111519330336;6.3053206118604;6.38108390692113;6.27287886922878;6.55653251161164;6.19851011562989;6.63795387320433;8.89849156677628;8.86857529496342;8.64643607739174;8.35405562593115;9.10471673282882;9.25877038798919;9.04875542786196;9.33752979683885;12.8354887475748;13.0664795414914;13.8685853348852;14.292129165041;14.0360580744152;14.2709636370287;15.2876556298753;15.3792498759052;20.6810928282759;21.5550696223511;23.3900186956019;22.1693141898566;23.0856457210164;23.4941779944294;25.0952686521844;22.9660967994075;32.7686720137815;33.2391915077406;34.7507257333713;33.2482488761;33.7831438840953;34.4973125465215;34.9052657859149;34.4563617245005;47.5792142455047;50.0764583681559;48.2899026270267;45.9093809687994;46.9985573138585;46.5868135773947;46.2319171655518;48.9461299008954;65.8714038080618;70.8756196837105;70.6720051559528;68.1838505883763;65.9604918371158;64.923035249229;64.6144863682404;67.5852045214673;96.4030523122184;96.343817295379;98.5350377202797;99.2355935160841;97.2282228854568;91.7178688184035;95.6934563447361;102.517008548575;137.929691867539;136.127322074055;140.372794283754;137.612349435884;134.329490135793];
x1_step1.ymin = -1;

% Layer 1
b1 = [-1.6736645549166200286;1.5220657035177573846;-1.1573764471945244825;-1.7216995966573926946;-1.2190461181297769233;-0.18486512531552740102;-0.16789127635364159419;0.7861719634409489732;0.73776259219253470523;-0.22866957449917660328;-0.65119242593686610387;0.067633801958468020565;0.17987360486565948103;0.40251020875267451427;-1.2633469591420245504;1.2830222523375753862;0.88265762410390380399;1.4115535960141278871;1.5193970471883810891;-1.968702159100705007];
IW1_1 = [0.027998204828921222087 0.0078686417321608189551 0.0270475717660282923 0.10673690993860687759 0.013345643631234634791 0.087975179630406630249 0.044575399357301676018 -0.029703849316935773683 0.062200394313790395573 0.049899349730178427231 -0.056649652236007354278 -0.072181267021805425865 -0.053546001105416879406 0.048345338351916913866 -0.0097609111105147246951 0.018426982614904417052 0.0094502266561126424538 -0.061826557148997859925 -0.025436647204380741227 0.10671593904940043784 0.046131484074396766903 0.067822120531344093353 -0.053350509961431383243 -0.033499913647911695735 -0.084404573578944638856 0.022628759764464299181 0.1315265252764974413 -0.1238536272981764913 -0.21809041438171919425 -0.13448737532942744988 -0.088967785921645864411 -0.067388865067664782682 -0.13384316363314927023 -0.089783722287624670444 0.025197494620031402057 -0.083324953187276562527 0.013706930860442528841 -0.1903201923993887712 -0.057932878125251073553 -0.099142766802373355484 -0.052816532851190929609 -0.04556243544753835889 -0.13531628869500453294 0.014381364372300985827 -0.044937662978954524828 0.052479566833557200756 -0.078166952445468618205 -0.11247786275197949046 -0.025249643203405693764 0.013143107572092310384 -0.18330203325600818998 0.068396426311303326617 -0.09833874030539982436 0.10000530911912715315 0.033864215260207414238 0.072963792823972722923 -0.036698949966818932011 0.014862013341636967287 -0.027992726814345687131 0.055388764580108953983 0.12236469482847225909 -0.14546114537597987226 0.14178962671392933426 0.070918527064530348381 -0.0072753401388733337715 0.092926814348260319831 -0.057908053553121612012 -0.037152371939644796006 0.078824982017252853694 -0.071673531765942780081 0.0053245937297466397128 0.073074639915068698159 0.024648108961507392972 -0.024575791210832979156 -0.080926919985692111204 -0.0082930827102341703183 -0.13418892274909841045 -0.094904963493662578 0.024261970926930498393 -0.10351429411906858113 0.02363748718335527757 0.026471029838886415281 -0.031568889079319567559 0.030357922392655049826 0.16511515386810252104 0.063255903161149831804 -0.068886763372655299142 0.15599768439828046174 -0.16232054253132643939 -0.095833891910979074336 0.012071248988569323324 0.039182865140368228207 -0.1136284130689363403 0.010165070691438514092 0.028295640646305710714 0.0045395138729667772193 -0.089777126793014472295 0.037431427008336314033 -0.022036037923832886565 0.058754095545011167379;-0.027592994605276904146 -0.1315523688392226942 0.010071367483354246725 -0.020955135631249014599 -0.06519026076474354614 0.065088854035517410002 0.020296147121770490018 -0.025787407184578892139 -0.046141331085003518819 0.011258904188051381892 0.045512688452822067098 0.037695336247120972417 0.11881847300923017996 -0.054492113902770943079 -0.078363510967591865075 0.14020476970633644065 -0.049471117730136938972 0.14031649043741689642 0.013413112805744441258 -0.084348222201023059785 -0.032332645554396861887 0.056618540435830401469 0.066184621700092871599 0.0069698841246654194559 0.060065295237985996679 -0.032195684615178542243 -0.056840865648863092563 0.12748360171192690826 0.16034652553574238465 0.10017569842252861678 0.17971463492023123654 0.039795141943486968261 0.16730736810651827828 0.073359543551915845638 0.051459663692390543444 0.15948449043271026304 -0.00038029531755461205844 -0.057966173179937782733 0.1058928649730389443 0.11674856883395379192 -0.021370882318483563206 0.14587104101171799453 0.052910981252238670214 0.10997210975485534334 0.20808361551663331901 0.096326991406842948917 0.14252120552333630288 -0.028989485628481630186 0.18287851800438939542 0.18916969600903119075 0.053423358114705506161 0.091519924182783637945 0.0560718466606604099 -0.034207889707948066493 -0.079718484016407714643 0.047544760039723243938 0.13132541582715684392 0.09671452451511680648 0.123358752856396095 -0.02107913149900221203 -0.1156038645828647432 0.092388772094976728821 -0.10899820001923087032 0.057301948958023159186 0.037387351098026190555 -0.039812124067992386844 0.042561248175279967065 0.1017384752281085547 0.021684689043720350304 0.051753475319081976291 -0.060737505909033977225 -0.041151023801576584737 0.068404329671373442778 -0.017869822098921711584 0.031680265164427671987 -0.045613097454524811902 -0.053392130536655049711 0.0032945749761028124934 0.053179787467440765847 -0.0036707043601890893859 0.12310227639497281493 -0.078175171457191383606 0.034748514962503675163 -0.10330631857462736767 -0.057010345450098094677 -0.057391600667168765626 -0.036623278191250559221 -0.08770741464088306627 0.11162300729858350146 0.014339249636899550552 -0.03781097564812697237 -0.027314042475470038523 0.11391145081752590551 0.040422218643703322627 0.070688792601955749428 -0.11438729405846588538 0.13758474601096348788 -0.06951178026947436861 0.080796588622451037676 -0.093888750238163551365;-0.0057552431895582728885 -0.014834295615114550387 -0.016109262195697197223 0.0073945055071405509095 0.027809829463273167544 -0.014967911976705538038 0.0077894356681383492697 0.0026993333498282912758 -0.014013581401090808784 -0.0094706719052556915389 0.02372974357706480325 0.010093911494333012574 0.0056415288005678965177 0.012991407099291042357 0.025055970890141610052 -0.00063325700941666007715 -0.0012763503510645527426 0.015937804204403487052 0.022847755106019128346 0.021511561740364278789 0.029272217419525629195 -0.0010505828841422923565 0.0059435400072932950688 0.04174246749503212478 0.0084618693283963850732 0.033539330696312680269 0.043005648117341588321 0.014670474264447740803 -0.0022921006900000632026 0.00038667809031859163562 0.010058866014407258013 0.043865129117759048272 0.047113442374739696039 0.017514160627188232744 0.055526406457033793129 0.046427882521961241769 0.033386294221382006864 0.050939488966379162238 0.034650859369717450231 0.079165931239732062474 0.044742517563037959016 0.045409697692967571081 0.092457192708077992616 0.026804507631191062944 0.035833553998158601539 0.021408460728228207587 0.056679202283005797325 0.03383567554679201006 0.025967334758609211809 -0.0073200505755317514175 -0.015941517226125943157 0.010494868898051689515 0.017905184441977476523 -0.013341231536452244008 0.01190349011605439794 0.021113975023501090067 -0.0031510175414764945989 -0.022903956469124079481 -0.017671432538778588522 -0.009661814639730023635 0.0026822153913161868657 -0.011700804160405286689 0.002575189492730711998 -0.0070488283358434372997 0.013156192670360588801 -0.009032286407645240961 -0.0062862869473689249322 -0.01375108520633061375 0.0048197869725193675031 -0.0054484597520490741715 0.01067129215156809377 0.0069946900924343913264 0.010724656643568523939 -0.001801027361932268844 0.0013508822984604012228 -0.0053858233285467285376 0.0039255274157489212367 0.0099104832297336100527 -0.010561986530975026738 -0.0094115546308155290794 0.0025709188673097250685 0.0085729821310540806067 0.0061473661459822042177 -0.0039569471589084945912 0.013533630149241936136 0.0035520204814280349412 -0.0067072362728257828995 0.012225972941722102957 -0.014012958316510424478 -0.0094008706340313087646 -0.0001249805093319881653 -0.01094045818225728578 -0.0053882575101381292512 0.0021001289954586895882 -0.00029606435107371856155 0.003140167367689897758 -0.023516429569263311988 -0.0031502842400885720103 -0.0071202205117445668825 0.014435358980748743199;0.068107039242950556668 -0.13005476193853177103 -0.14658832254213566282 -0.12224115897807599773 0.085768972605534066211 0.074842479953931381753 0.016156945868377740189 -0.012020179924447611103 -0.013119102354815621869 -0.039167696717576375165 0.049061086521945330985 0.072930963633938389323 -0.010323589454538484311 0.078431705310093816075 0.042051090515017562621 -0.090293900931838866342 0.067753617688160142074 0.060718799858535649205 -0.022463438661263001456 -0.042708737407229240002 -0.076898528983119843194 0.028474706864490977737 -0.058052951857089259147 -0.018471630001809763444 0.11265447357455952992 -0.062288334891229778234 -0.084847866632820206911 -0.13684197975139500425 0.075779706377310324106 -0.029985651579526657884 -0.1482906665764581744 -0.12103133614243548333 0.018645847446012983606 -0.022609814877952057188 -0.14491876624831212528 -0.12499985068972636892 -0.010628954732763129173 -0.18993361105615821915 -0.028173101532278747861 -0.07946239998015269812 -0.043982577886388277144 -0.041734094028698903722 0.078083954876023556335 -0.090241414560090216224 0.10082872352662182458 0.020349829044325622868 -0.084269618327779696743 -0.082541917785078661174 0.014297388287151586647 -0.1331339128222327195 0.016948996692734405456 -0.11436023932021194272 -0.15138279626556352953 0.088043724093110453666 0.076584919699936485071 -0.024423770480084535522 0.036247985088281989285 0.0022049219898006475714 -0.10817550988693216962 0.032931359061338136285 -0.017418387223440495726 0.071136182994574165273 -0.037274434130300009016 -0.064015402432401197208 -0.032446460019356367088 0.1469195057427762352 -0.032168359979842992002 -0.042594528581380686205 0.15128059670681015536 -0.014665773146240720926 -0.0063972332906296561911 0.031807465497950659916 0.014034589742540437216 -0.061335951205008801268 -0.052418359641334580368 -0.019846197169185855746 0.10748939058412107506 0.21382991209621593498 -0.081998068493845471805 -0.021763738509219091727 -0.037612227185059347867 -0.0083306617006127983011 -0.013405100937198875452 -0.051473941338614007113 0.10392907941143317285 0.094154096571341411304 0.0017075362500108882437 0.10233000839040036489 -0.036204878192407308202 -0.10240979897582552782 -0.016693220681882729034 -0.085760391517815171003 0.024368711797142610098 -0.10908436036612054187 -0.12103997321343623605 0.052509422569346070331 0.027058597493928783495 -0.04343384087284514472 -0.08545054063896373453 0.091777572657720130067;0.0023087979599161695746 -0.014519439245054308746 -0.041495158048994201794 -0.023408859785663847092 0.029054749439195084321 0.00082467710832607120895 -0.0046185202376092084411 -0.018079070348961542858 0.0075045686252403999081 -0.015204128154594128211 0.020878246485273296851 0.029394860206611198722 0.0079454510134443559477 0.032304121261786181152 0.036632072474752787328 -0.0480811861340516844 0.019621502663415377188 0.0041579318596956750184 0.013510373866809980564 0.015077875469507218825 -0.010573063459187277344 0.0030363071783321158095 0.003708544114702849899 0.012696567068438463846 0.024163885357400438636 0.010720606660004688634 0.010482654048804723387 -0.040855023183213455551 -0.0097115375436275328674 -0.0018345122964428643448 -0.05782924701476808288 -0.012611370599100781356 0.018340221653765850784 -0.0064840429323163714312 -0.002343887266927740555 -0.012147251611543187153 0.0091279808523478511012 -0.0038546583266704011889 -0.0057063389987221987271 0.0057395208790214837652 0.0011377751379256755958 0.017569609874552128553 0.061587814299032976606 -0.03789222142020051004 0.006615743413661939222 -0.0020976320940736098951 -0.037246259202939883959 -0.0058303501143435066539 -0.026812879068464596372 -0.078912775791306427609 -0.030523784187647694244 -0.033560648229676540155 -0.044967259781914910299 -0.0023905661675633444949 0.0010847727536201340857 -0.020917986838865990085 -0.048228692456609711936 -0.043313170586815552543 -0.065868736258236512682 -0.016441340814383975655 -0.00066138075167977857481 -0.012277107198366441973 0.0067137475719205811503 -0.029253214692601451491 -0.014201274767281488187 0.02774485950375397969 -0.012010959880032217109 -0.029144939759633819304 0.030572668556615875679 0.00422089861111459453 0.024738244409318287109 -0.002399299316897526152 -0.010125424938457177476 -0.017939936855105229757 -0.023184714675504657783 -0.0070507134088742002415 0.030104572192466459019 0.04520692910307429202 -0.025695404281761910492 -0.015861940237048538505 -0.024090091416906871113 0.0097172528578367434876 -0.0091458201145869361115 -0.0019624637506256551768 0.019674981628470759182 0.051316217294198621102 0.01248593397808987239 0.042158822622587424633 -0.043351917047799656824 -0.018434035583849435469 0.010122115482705269091 -0.013284355460822308559 -0.023938423040968936917 -0.02908164927814273909 -0.021668820088270882018 0.038925378213103371816 -0.00025362576847671851072 -0.0068437615763798902851 -0.033741265379329414553 0.032171506891818593687;0.0069178567538072154378 -0.014237631204495844461 -0.0082010528498752018056 -0.0067268914424452562473 -0.0028558493071098411779 -0.0030793719379566338208 -0.00024037321081731287701 -0.0028979452573748474241 -0.016650087177025867102 -0.010058844770528910587 -0.0070923205021855128399 -0.017659333891468932676 -0.014323889561309293555 -0.013454660943366714837 -0.016953316181568867105 -0.018552731181855561249 -0.025844502081595163018 -0.014887678824832356606 -0.027598058064614197638 -0.035707640808027373003 -0.028358288788728432117 -0.027557224432060756919 -0.04333410575595124381 -0.051447741138155173024 -0.047454786341852399356 -0.062314731850608144625 -0.068941170549507241327 -0.058595763453932400711 -0.055556490904230731998 -0.072741424942002835818 -0.065807637458201270753 -0.10405246615086569117 -0.10855289642788470972 -0.10290905293839050505 -0.11279646854830188696 -0.10669148691138648222 -0.10531911332452274788 -0.13028347355543745678 -0.095570072707953965252 -0.14876349014196260656 -0.14516521494450182472 -0.15539823257196905271 -0.13789545380681417219 -0.11594534494728402085 -0.10286584394251277463 -0.10923645546656848837 -0.082041711050913790348 -0.13620272976347180816 -0.10274471258328234102 -0.080762203127573345407 -0.067980652992980297733 -0.060981132912185140316 -0.055810569956672065328 -0.030721179809372899799 -0.027937700529011698369 -0.035318410308310871359 -0.014139947931885745586 -0.0089581446335923308605 -0.010420691283801289048 -0.0015645399361885676311 -0.0084257572175666095582 0.0021355616553058753317 -0.0065524355687236390464 -0.0032154052621963576802 -0.0042246392559082213483 0.0013824083593772097493 0.0054339547306744336724 0.0050565923867416356224 0.0085201176848528695218 -0.0038211048965136155953 -0.0069223652034490872065 0.0081443556936592383794 0.00086791667960784031621 0.00063854267910974074531 -0.0031347406375816099129 -0.0034426304673396564658 -0.0038992691709712314421 0.007059065534223532383 0.0033513464283556589421 0.0014392084307007205115 0.0023697571155020138826 0.0019619842486853864699 -0.00058172426613525190023 -0.0050387591557422319044 0.010505975179467793787 -0.013625844980502907836 -0.0045188737739077517591 -0.0026279027263020619982 0.002023460102507804257 -0.0093089339709993591809 -0.0059366073447010246633 -0.014619913027760868263 0.011121259812130796299 0.00035611465931050911415 -0.0075447442943849356289 -0.0088314262288989951039 0.0010782227317226546811 -0.0028304588912010796194 -0.00013817004650490863457 -8.1597019477375805786e-06;0.0037076898125451202871 -0.0018371821023616791667 -0.0023653244958803843097 -0.0082539624484485197425 -0.0043053797822716535076 0.008867302097687280657 0.0018692113288281816605 -0.0090005548521251959454 -0.011922964823993451033 -0.010762054771385322002 -0.0042253901457859795177 -0.020884732634543424351 -0.0079920213061521732517 -0.029602839666159633247 -0.022404275748099163751 -0.015907138660115192896 -0.02427057277728547971 -0.01631252917144651246 -0.035748437917768584315 -0.041770865899851919445 -0.036990654172898415619 -0.038613804182375234542 -0.039423701497371961555 -0.08269355291672622621 -0.061588837235484757138 -0.083599128104717215781 -0.083803204124443475553 -0.074700473941308853654 -0.066048556035937219799 -0.073422852395595344932 -0.076239605079741812332 -0.15127793269685532729 -0.1321083210991708945 -0.15103619747387161953 -0.15569095003747529526 -0.13407158562638113453 -0.15979660326881908738 -0.20133831263820536894 -0.14227728878640369392 -0.21449728116828695179 -0.20388216476320830672 -0.20677320603473237082 -0.20736170792965116783 -0.16851512952363134623 -0.16408797765051114093 -0.16804016514610503608 -0.13149507423982767507 -0.20794440692951257632 -0.16262300576823446319 -0.12557189822203454477 -0.1135292043034899917 -0.10152384339440563565 -0.1051844681292363054 -0.074470296864522930735 -0.061782231736102234676 -0.087140924195235225369 -0.035830973864463475098 -0.041590835041716428533 -0.032775896651162851614 -0.02331959963070793368 -0.03012036578937131448 -0.00026577947806375292264 -0.02110691048688028218 -0.00074869670409971654859 -0.00085384142396944162547 -0.0094534855401767533406 -0.017343713933712770481 0.014504131495919709779 0.0038273573802652472234 -0.0087296580523422012687 -0.00809378976088495454 0.0085357497309961945925 0.012227614262548244795 8.9484649701955076406e-06 0.003912534842128358864 -0.016636674918384861815 -0.016817949295951650779 0.0052554910406081168511 0.00050652100161255005691 -0.0063320784125649228619 0.020413901919545038993 -0.003428367314641674133 -0.001985867098900117797 -0.01721429529039649603 0.014554890739444501305 -0.011770001403666982207 -0.017496088444506608522 -0.013606708689354492237 0.012243130368983282802 -0.0024699702263551045166 -0.0077348185787543648206 -0.022098347650351242433 0.032737882127402806454 0.012733691380301118828 0.0045434459004033431531 -0.019078180752230319839 0.0076736377199482855294 -0.0062749249524938262995 0.0018560859895875392398 -0.005269282521506285337;0.0078230359252407077192 -0.010668836864302101361 0.0005708594950742798069 -0.017311503439604941645 -0.0031382667243103198537 0.013198033655522413768 0.0012302066221529504332 -0.0024635793583204904957 0.0086451644587968445865 0.0078074485958036952613 0.0055986050208936795694 0.0058768426539620643653 0.0096582863387027467067 0.0037956143206428869137 -0.011552589264226168983 0.014082946669993457248 0.0062983417145359510761 0.034862179118037725511 -0.00021761975825650376002 -0.0048161689147464426669 0.0027513347965911205684 0.022369748807700352844 0.013137212127625225166 0.01560422397705434408 0.043294069052373623796 0.010373429499151298402 0.0091916510516274804038 0.025418203305494619509 0.049395734169107995137 0.034872695932739151969 0.035615196905856065512 0.034272282414823940222 0.037527363577830992469 0.060558737724217145959 0.043879027921950204683 0.063395535057422930381 0.04431363523022218559 0.029626917189937332364 0.045145733402118151667 0.057795271591876869188 0.048778701284959653794 0.061197841940914175785 0.045125291842152269461 0.044014425188537847911 0.06261292666149782804 0.048544682299090105571 0.046075848274507141822 0.030172459369125388673 0.059293864615494844272 0.053360586966836633105 0.050947220573216142614 0.033700168520803638894 0.017678919068084893162 0.037263131172364231947 0.012064986495581452378 0.030034253055445492286 0.022293353241441465906 0.031530949020331607013 0.012563057436281518595 0.0057347212533833480733 -0.004133409145296751408 0.014316380822336117681 -0.007475527412053100014 0.002483637987536089272 -0.010867159534587621933 0.014383557787507670125 0.0087437548762944999198 0.01209756213849757199 0.010394588266709645433 0.0033840950350245593663 -0.018962287960061854214 -0.0011198936050555901092 -0.00015179253205692831339 -0.0021979786410196242713 -0.0060329505533442823184 0.0062266677062352083008 0.0080871765815975285574 0.0062732445604145306225 0.0023465602205449192716 0.0095717886612510551247 -0.00071665762454438137335 -0.01369229379434040543 0.00050571516028316857924 -0.0044333668430610170472 -0.0027648800183008065585 -0.00066787308636654806222 -0.0062651636493932134908 -0.00082130697326531182205 0.0072124939627352113725 -0.0075396667262767119375 -0.0063397443386599260789 0.00021922587336899483027 0.010508629907245081378 -0.012505570845204250913 -0.0094880807092836885047 -0.0027380339354374869792 0.011220825425460019889 -0.00096623872123043172844 0.0034126593591275351802 -0.0096552191734213463348;-0.0055239606334658332421 -0.01140787752347966269 -0.0034472118570443121936 -0.013922040789820197201 -0.00093982606233919472986 -0.018602631777737188568 -0.0089194655312636924455 -8.8715457464480854122e-05 -0.031088461528462549288 -0.010939169576367419393 0.0074736002470182577931 0.0066396048445290806878 0.0020146114534354869936 -0.013001218783926508926 -0.0081552606549744940251 -0.0013717853002053683083 -0.020400851419961143346 -0.0015816082307190167805 -0.0032450313043731336855 -0.035086776576643385894 -0.028018886526210082244 -0.032677667033608290281 -0.013483917807929407182 -0.019989603989010555629 -0.017197794220246431091 -0.033172603355096974553 -0.053311973103260461293 -0.011605064156505216777 -0.00029018187551796946217 -0.022117557424146967043 -0.018874455912608681385 -0.049011282048299964487 -0.033089620047710315009 -0.053382398017531279555 -0.060846386317274951672 -0.05028956389550981454 -0.058288423614528114824 -0.036450358897026663429 -0.039957277547571591614 -0.064181880197968346757 -0.077670718604014185593 -0.070255933314323976147 -0.060098535578070974572 -0.063519383351499258961 -0.042036144803280141302 -0.058903215001470977941 -0.022469334024448790743 -0.048150241546775371382 -0.047338625053177270374 -0.042910207076118270231 -0.01776613964240361318 -0.038112750025791723718 -0.0081576255381821897311 -0.040913220606800713985 -0.02150617042738076079 -0.029047426209713515105 -0.0017687835196221687612 -0.0016112791501302896769 0.0089358531450365197984 -0.0089614847868616336057 -0.027702045858862375111 0.031448983041923714299 -0.023283091674164719392 -0.0051944929028439300323 0.012443182580676146604 -0.016930276238384160681 0.011894138149183578965 0.0070164986404229971045 -0.0065811961516705468761 0.016271468291316492499 -0.0015060572459825269809 -0.013995450369770977284 -0.0021565835354862726223 0.0014413861734670790384 0.015292916388566600919 -0.0064715169026565199165 0.0097894265229553027036 0.014053437825964987598 -0.0027715595373111055928 0.020274382456992253582 0.00052566264798950220784 -0.004486308681632718634 0.0048911916150615759175 -0.001658748149899756056 -0.024009562223454343488 -0.017103420961851464183 0.0094044476603226748179 -0.022580702566655740798 0.01743256706519212898 0.015832363842985301694 -0.0041830124972988321636 -0.0048515898097862449057 0.022846971768653585866 0.0025658652866269266932 0.00049773676642607682548 -0.0026965134904592758316 0.018815659864103558008 -0.013500393351754283108 0.006450512123662579568 -0.011589531357951477625;0.0029563189323092973516 0.0051477082663256594139 -0.00067683712885528712899 -0.0013697300195599940251 -0.010946214436470340023 0.010359245990490753217 -0.0099463351958683880738 -0.016308948787769200761 0.0039192340721881744475 -0.0033108813446248983904 -0.015866304847084164442 -0.014180908920064632869 -0.014285045788654041066 -0.010743478121721274435 -0.020189832930988076132 -0.029727696443798110743 -0.023933494715265873909 -0.018781016386785052974 -0.028230918089975146068 -0.022330390378446696165 -0.031282621143219509208 -0.028180147070855612185 -0.033028156009202037924 -0.058128827322084929141 -0.051085038572793554923 -0.057860897040646487588 -0.0570609375499631713 -0.060464615416276124016 -0.073014566109117731707 -0.070787461412796612303 -0.084242728431558444591 -0.11243080412156902792 -0.12292456411267638217 -0.10742457063993318678 -0.11018927463012596901 -0.1085015770451217415 -0.10563413015135983408 -0.1221200615968019848 -0.11426883999732395658 -0.16314800934732309745 -0.15932394059391263852 -0.13561820075880048897 -0.15415359254968677427 -0.13195735149777507167 -0.11724311309695696626 -0.10341811501921670258 -0.11965050597057876047 -0.15162948554252991817 -0.11351432885583719046 -0.085576981531746962317 -0.078109527204491990826 -0.057341223220287083906 -0.063623111634541193449 -0.028098609145481966837 -0.036339092152441195005 -0.042025816213242354891 -0.042192401495813040835 -0.017447408649223249133 -0.015592100550678727675 -0.0014473061914042372779 0.00040600701242351816458 -0.02018158712674752997 0.0063748330501606298784 0.0011013470072155180299 -0.0050664118755635962829 0.010400148537151664846 -0.0049057399428389580551 0.0032681144865163774468 6.5078906349481092345e-05 -0.0028099751467911306124 -0.0035370631582691369581 0.0030557454648097353081 -0.0031780181197724843671 -0.0001165673531942749714 -0.0046611765160517650702 0.0047350828433016948008 0.0034070947721941578432 0.0031245001776347663784 0.0015796495999670680244 -0.0045881371314585384438 -0.0078165364506010102941 -0.0023798747119820684928 -0.0018917055991375228332 0.0049723620717476296749 0.0090554539358597887361 0.016083448776459972895 -0.0083245077196843226403 0.012475297118114842335 -0.0089977891332255859058 -0.0086210738439556795776 0.0010189694918856563328 0.0082692588002185492269 -0.011090745503097729219 -0.011166112298891223142 0.0023724108745836742888 0.0079266403494600689433 0.001207794433999503968 0.007886813602998124853 -0.010941910708186973478 0.002730305282148039886;-0.0098353120614813969308 0.0089507845826310543369 -0.009240870828540746415 0.019565377114660401081 0.0091759689759581195001 -0.015252283982373163879 0.0037953045048220827862 -0.0027079550867783385923 -0.0020405458498428184592 -0.0066977663588947342066 -0.0092074395124595864726 0.0023119498862983500244 -0.0087168169332913006397 0.003663357536449985026 0.01520553979816773732 -0.018631526911715271672 5.9303925591845123755e-05 -0.047598793841453684861 0.001507376557659115008 0.010027406250610179303 -0.0073800889951212509527 -0.020144670398794195521 -0.013661409035285112731 -0.018727677474127422952 -0.053297371022416994979 -0.011402187893206988667 -0.0045365855201667804053 -0.040139677685432473275 -0.071722689994494603916 -0.039938123961494480241 -0.051629709246067190254 -0.039841182465016361514 -0.046520490295751677767 -0.075876531032615518457 -0.052629819233155412939 -0.078909976285080035696 -0.049856023393914081221 -0.035665488417241049401 -0.056041399128280267039 -0.072797797037600087133 -0.060878833088282680031 -0.064100992224037187106 -0.05776275777169102843 -0.049450581569188051256 -0.071897384629923996591 -0.053299514914816367717 -0.059079264345074815334 -0.030937893743891040077 -0.067501081747678062794 -0.073166777540309757555 -0.064426899711424831518 -0.043951338426168495843 -0.025531050823923668452 -0.039753905245038689831 -0.010949858992163236798 -0.033961486464125320572 -0.031858720735622708675 -0.037683981956026978144 -0.023205509974944926038 -0.010041495939886275687 0.011623695948520015864 -0.024200307651405891796 0.015986266645908301515 -0.0052090595010888512267 0.007537637806402931219 -0.0057498892142706127528 -0.0069683055349244035423 -0.017974669025499215996 -0.0032156041320879893627 -0.0058714280772995284738 0.02824137649129231098 -0.0014741615765094401042 -0.0026119834035996680223 -0.0034901291339027966376 0.0016042247605371699314 -0.010809105907959880299 -0.0090332700843145409542 -0.010091879899511404378 -0.00078509076583847911979 -0.019844001462697432453 -0.0079621760759585463729 0.022186514161912307408 -0.0090253480976001578678 0.00053193579057427941691 0.0022856587336109266545 0.01298134696251154567 0.013633540157992684455 0.014517376324575960098 -0.022316792959619136116 0.0030087630507291442117 0.0080187302517876254265 0.0068848369631098818577 -0.025672524408851017663 0.0086214823748785255481 0.0068044978207266312506 0.0093851686426503419525 -0.015331400910880027891 0.003754839850525969365 -0.0075614597768226066501 0.006070023286557617824;-0.00044619177783838823376 0.011980746649861390846 0.0010716218668402927201 0.0024639445073120561092 0.0031293592756599214987 0.0042949831663116238081 0.0054560747807954491223 0.0059958230086514189422 0.017050886238929113814 0.0065207090159776805172 0.007235741887015944597 0.0011189910980293304825 0.0023772379590091654092 0.012594985116841192485 0.013008917323252261813 0.007481994332831821623 0.024154671849072762574 0.011708164745847493213 0.015281381517645272264 0.029918674279035967212 0.027966749387343673577 0.031769136045165673188 0.02721684907440652737 0.038785588060659813292 0.049698156465285830974 0.04596094124468876746 0.052901043118332075066 0.047154901422168868375 0.052341136817007770377 0.061679142700725476944 0.052733041945085622204 0.084598869111102717455 0.081080998354906980152 0.10485798077242938775 0.096843884510676145339 0.1021906653207474841 0.10023804840678723904 0.10460629334559630454 0.096677022030646750372 0.13379224407562062549 0.14549037092171640539 0.12434087762376869191 0.12674507885907726479 0.11182961360996120093 0.096660477753430382175 0.10152458348758400253 0.090598884060895681913 0.13175848140269647013 0.11142513184586989861 0.094580538038856493133 0.091152865116104042631 0.074302354323147315474 0.056960578270928416411 0.063714273108904193044 0.053982072530300455326 0.057614110955669019243 0.035039702746788838061 0.027648335943864173897 0.017254165525937528031 0.018179742797518931574 0.020017264813481861624 0.0021129148488727468591 0.013135652452932862488 0.0026617441087766636337 -0.0059343659109438954419 0.011359179524972364689 0.0010716518437532377046 -0.0035970116435035987164 -0.0017196088762654754018 -0.0016400741279565889466 -0.00096868579038361722448 0.0047130005677339641829 -0.005870195529238753443 0.0057382237477779521675 -0.0057509076960136620502 0.0066055785279985597749 0.0015762880494497944275 -0.0017239537409654689601 -0.0027449115026171532448 0.00080262676045791243006 -0.0074380540861270190781 -0.0018017746752469611209 -0.00085632741201841563062 0.0043394706166434253436 0.0046372807074574005221 0.0003896044617363095524 -0.0015976755473905385023 0.005652842660266798637 -0.0058139686965723485004 -0.0044277095807522710846 -0.00035800295519311921364 0.002679910107183608968 -0.004835361402475048774 -0.00073158910207753473018 -0.0030002930941964152216 0.0081688167315534451762 -0.0072309637342119767803 0.0089023934340707235741 -0.0055736693174991509478 0.0022007085170578518339;-0.014456289424917386638 -0.0089714209704655246969 -0.0072007800906426456741 0.0094772208599940566121 0.00027732997373286375018 -0.016483089844379000127 -0.0094442035673043614463 0.0024546859138942327128 -0.014346886576544891356 -0.015455189709713513038 -0.0076773638833834961098 0.0057013855165911984241 0.0025299399839459045004 -0.0053261073840085090825 0.0018614021825425887489 -0.0065239328193593248278 -0.010590220165473590574 -0.029004679950213690942 -0.0039378622874898456044 -0.011681037526143368474 -0.01939879027420176455 -0.02471247628262941004 -0.011508315991589589816 -0.010939597349392805176 -0.040803587720275535933 -0.016561999583979847978 -0.022480000562353823212 -0.01899037740632281146 -0.031421872175218967804 -0.024623708376188543218 -0.023329867186634770798 -0.028526513062981821017 -0.020631614281964725383 -0.051932380559831889388 -0.047401205234807716749 -0.054127370884638634219 -0.038730713387214274479 -0.01586760705184277892 -0.042405574915937729874 -0.039512751651464707303 -0.049206152115049042739 -0.035552422710592446187 -0.033735158107095250535 -0.037824144588605758399 -0.026703728351635237781 -0.028771122013260635314 -0.02550258550301980412 -0.015333569728993601614 -0.039975139916543341034 -0.034934554152397573334 -0.018038533610639759935 -0.020898189947391718202 0.0075048697257423888779 -0.02794750232909266538 -0.0098929647980114127775 -0.016964657058417830643 -0.00051033890547980728224 -0.0070587394419029548392 0.011818611429379961841 -0.0019956525313630335376 0.0040369273137869539358 0.0077904451318256077302 -0.0026459630046401917507 0.0018411762655581120993 0.014475894473951521693 -0.01095955002773431157 0.0093885876805206280177 -0.0062250605272696742445 -0.00763767335840100179 0.0082865092727488365992 0.020248633833106509383 -0.013305985279049059242 0.0028344948703139501503 -0.0016492280362546372918 0.012658599778651503931 -0.0017195674232269009783 0.0019858769836144703896 -1.919263120919414067e-05 -0.0022875395441909075062 -0.0051543003475148204198 -0.003749781310086710423 0.0067038189709937657038 -0.0024097863777666145638 -0.0062730874933517935532 -0.015594219147066268327 0.0024222496734740400076 0.019212363681820346373 -0.010836571299165261711 0.0097272941927724673045 0.012956601672665813557 0.0034866028740303681502 0.0099287406082557306403 -0.0087750395217765300715 0.0089868181975541906042 0.0092236696994338375488 -0.0018863266193976965628 0.005046023015863486047 -0.0081561863117387591038 0.0022575543485795360535 -0.0036878891655720879086;0.005200800905261926399 -0.011915873300933280468 -0.0012515126275445150311 -0.0028753091581901735717 -0.0072148334939456763848 0.0045710557203748735516 -0.011249383424169628193 -0.01130987288364900846 -0.0050071500790982654064 0.0051446586988423952808 -0.0074157605512382047952 -0.00098855013363792531081 3.5873186028964761628e-05 0.00010374175468535847184 -0.013735873982911487451 -0.012030620273919425886 -0.01698985786801478215 0.0092627174100092021097 -0.011932710743027987246 -0.015751617656993587013 -0.020723077347087084238 -0.014344068505761940757 -0.012784863012407369012 -0.01701219763881997582 -0.012291169233254127177 -0.021652721972708423998 -0.025361562849855624063 -0.015252333369576692029 -0.01142213158975770651 -0.024040580251339815909 -0.03041705528074226117 -0.035775810888122240583 -0.033921442884296645892 -0.01834556744523004046 -0.031462980258029002445 -0.02015025359556367815 -0.022509250102144783695 -0.02690438054665831788 -0.034872351866875622717 -0.033212053628027440877 -0.047620460528066899109 -0.021953439039815062644 -0.030123907673842511418 -0.039887146970832024206 -0.0046222475647496033199 -0.0090922860190066623343 -0.021510892853030153665 -0.036211340500793359753 -0.021538042685432294554 -0.0082505604794810248614 -0.0050234362601026694845 0.0066095786583754622887 0.00050200070029383816843 0.016224645217136745429 -0.0048410030434816089112 0.0079646311471379769437 -0.0010309074830802487238 0.020011145875546570289 0.010457832133402978139 0.011081841349452803761 0.0023384235755271195155 0.012380318325906972815 0.0086341055702408523592 0.0060508413771224499669 0.0016510887645179177143 0.01121373545885755163 0.006754253008304770059 0.0035161429573782516413 0.0054777493252754798012 0.0087959419252006103979 -0.0071126900144301763093 -0.0073614418750709295983 -0.0054798049343616987011 -0.0039462457129333687253 0.0014724889862292715216 0.013880945486135814332 0.013671164107922196759 0.014511112727728085747 0.0034713349587499504889 0.0042409155169122938339 0.00048247093104543880508 -0.010692860058093002842 0.0027597594706746087466 0.0058258191105286663905 0.0017747756212555631898 0.01439457278342695136 0.0032375077856879480066 0.007600048972628223494 0.0030838630157774362707 -0.0037641408341865809431 -0.00058706971239869728402 0.011017842216295330518 -0.0053282280508898912166 -0.013942682883163446533 -0.0038617604527237756745 0.0060413175116933622022 0.0095009447113076437447 0.001397668793170979331 0.00057067488712427374455 0.0024602708429101319623;0.009952001527947089074 0.029178290086723200625 -0.0094554395026060916729 0.0067036574241166454677 0.022914825957373478882 -0.026726145750209609475 -0.024550149882352958336 -0.0014927975634965876331 0.013374210585482286875 -0.00461071920660199603 -0.024697075557900908388 -0.029194999258287435834 -0.046453100601385660662 0.0086459659638494449491 0.011315411095862782168 -0.056563631624608465276 -0.0053253662296363522485 -0.049433912938311376506 -0.026818476479040048027 0.017051983490063600535 -0.00042669732465689806959 -0.036569225306990048308 -0.045538575832458585979 -0.012932860352959882691 -0.028955990763043913672 -0.011080022249446633623 -0.00051710423584141193901 -0.070167706652952022139 -0.087691328046151428843 -0.084565883711584952098 -0.099439252684663470561 -0.048599686329630083226 -0.10952083384243067876 -0.060511162951297228774 -0.041554967416868697494 -0.094006308210602212982 -0.027923956425002446208 0.00094164373593307038046 -0.069030825147112256923 -0.086200686192407061093 -0.057353407322816400693 -0.11247126607141559596 -0.061521464969716770088 -0.095594219821188430863 -0.10123089301720834821 -0.063872507661662802914 -0.065029641049309527823 -0.046258452110596308404 -0.095271693983840471942 -0.096764184436237771214 -0.048083564599350953062 -0.028215511764349585772 -0.016271127908112269222 0.020364035761787614709 0.012296016946763769703 0.00084097574518770417708 -0.059066051136025761459 -0.020837123036525549008 -0.035192966756624595448 0.0034230247386396414101 0.045615382007308809265 -0.044788508244182345663 0.04583706620451715591 -0.02156566409432367562 -0.02681913281638209981 0.033159052844102886171 -0.00076868567751024166525 -0.047418599451128903843 -0.0011658304207363939364 -0.0076178332038948221028 0.016287371635081850096 0.007451646303072635702 -0.028017564739906158922 0.0077946144239234961895 -0.027814193863312210858 0.024813251163587398546 0.018744679174204435801 -0.0057779292227136090643 -0.01386731127871115507 0.0099911850424260241488 -0.043956996772372206039 0.013324584566297856258 -0.01675574956355100828 0.043450878404433859736 0.022289366216870061532 0.026710863551106685948 0.012983330628832313869 0.042653115389761117604 -0.04168193539070206427 -0.015395969937456337184 0.023062048297403155844 0.018660517741897131999 -0.060877985871760513514 -0.023654566457482335134 -0.025124449735367045122 0.045666021824841300514 -0.052081230566701240681 0.024297117350070812636 -0.032454946834919659593 0.03582011835007847117;0.024368453008220755662 0.12907790714797537368 0.092985741817138520271 0.039458559851034177846 -0.030046966621641642281 0.010668149246054954224 0.013544601255398455719 0.019616757219263682155 0.066450127257828769944 0.041355456053478914513 -0.028985893721070920409 -0.087345974088753733366 -0.033112317599015131386 -0.040545225923328924444 -0.033802202102328773869 0.026430591653940120611 0.01801923448623837451 -0.00760166133931189196 -0.02308661422259122506 0.036124095927052055077 0.069374913433846469024 0.026906876725277490553 0.019660087878740083872 -0.020360096857860863345 0.013757429356885089028 0.028124702138768560566 0.059930257290570547457 0.054331846000816988451 0.0046651409153854756645 0.049595589574059691096 0.080078657283811791046 0.047767710482388522908 -0.049466314646624043316 0.079227785801109604225 0.088241616550981838429 0.084860271699385189659 0.027761062114894274194 0.046255864500011664719 0.045928901534111762905 0.023884816516755467963 0.098530954792731162417 0.00082551192881682490272 -0.046230447357228969529 0.057519038270895439524 -0.096829200290424438657 -0.019900004562934135721 0.023741286329037176311 0.036427873827261585127 0.0059797758840883490777 0.096756988493803888773 0.022506312837026483387 0.063052811774914702125 0.007451753979376141146 0.034726533381668887868 0.0062381107620357581153 0.0050240691747329598027 -0.011429513140347302008 -0.0087333227518596994593 0.0040227126981496313246 0.0046769928740502224318 0.015691376847451390247 -0.057305273950822743778 0.026291752915242331406 0.038216770308826350511 -0.016945196071120223469 -0.042672859343698077428 -0.035280554018971177488 0.049656489926254959721 -0.060409584716595909892 -0.056809354953729879201 -0.047834381680230242395 0.041900059758568426738 0.00044130369220772634568 0.051297027553655748233 -0.0057854864510976742459 0.012439225272900150329 -0.063900180633192846247 -0.10590281583087754469 0.03144691255004987418 0.012839736633680057243 0.011293328302380006498 0.0140719406571971975 -0.0016649669782212235709 0.034469268479531925409 0.014548469721398095411 -0.061240791960445274678 -0.0593060301122425651 -0.046227102012124383912 0.018399097850195139658 0.013173373622323110085 -0.0097851119964633588577 0.0090603898414373367637 0.018340663110732360885 0.043980296174821548183 0.0044724764822115610149 -0.028474363444766701697 -0.059712423108635566404 0.06136476411337392356 0.027905730013270811651 -0.03133712417716752463;0.018358381463497649988 0.0096375749146872576739 0.017214370203709292162 -0.03057535492126612145 -0.014873326570428807569 0.02691342344435449993 0.016763032811918900794 0.0054951863468268666996 0.0074639421986129345782 0.016541648165313557056 0.018205255214709299 -0.020050423349010759039 0.0099369664734575494092 -0.031215300211837798683 -0.0346536791271027933 0.040319748709858618807 0.0097061468088282514682 0.057775793608060718731 -0.0080125977358608754808 -0.024939903543321442769 0.015011704181509759326 0.029846382576572284134 0.022837717827955090338 -0.016019227725627416259 0.069865070506203622025 -0.0098392852361412399403 -0.012701993444593363825 0.04431407763439968589 0.090206720013502106337 0.060001983364554575817 0.075510802285953929069 0.01287992394073110905 0.027667839525509812376 0.069551631834979144031 0.03973559833478199077 0.09274305347543754241 0.014461863787228681696 -0.026692225536596798224 0.067167700612039041297 0.044866735487600110932 0.05255758368551718962 0.023667977748425189644 0.0094004962227840944966 0.054220910710679477706 0.036997011507001194286 0.005468114771780524519 0.069999036632239580724 0.0037040788624327822785 0.073330242202919462824 0.092688212302034625467 0.062837526595863349432 0.043910548330490517532 0.00014199687673981944373 0.032360173864071598016 0.0079210472546600123323 0.022169343723311328576 0.055442237422232774902 0.031720209212202456206 0.023619569111730735755 0.0021283159812149885816 -0.041374734499898813134 0.026144412752380049442 -0.039984902275079572953 0.019212584845275427342 -0.0074516371527059612617 -0.0069403245582144194523 -0.01072629426309074617 0.043227949375834802404 0.0013378987828718939563 -0.014284151622116226729 -0.04907680371822149834 0.017826314127081528682 0.012180224971779941151 0.016877561427689341533 -0.00044563109330564125172 -0.017092456481839091859 -0.020922860612014121395 -0.0011604138020251115841 0.018025823167672701958 0.019087220370767533223 0.03014406365254508266 -0.021944776709007400572 0.0042595326708388912829 -0.018709437353846336549 0.0076909694839531698302 -0.042651475090368928811 -0.044236602993535323325 -0.042560395940462257547 0.041866100560180245782 -0.0096398104490969874214 -0.026769580907458900842 -0.033235107169464685184 0.068638060466147121641 0.011802764666222206186 -0.0045916496837408084936 -0.042883263634614615656 0.017245953514280563945 0.00670605620132782871 0.019642746143172542389 -0.028364407886526995378;-0.043236952373610519629 0.089989344099098367291 0.045643976224217418236 0.034661722188324556315 -0.05311941553967519658 -0.012474675038537904811 -0.0011706707008237390594 0.021832619454699993961 0.052655913567489651128 -0.0098228511025989333205 0.00048959328877549643504 0.006770626155512000921 0.023903344432930996588 -0.026779380670226594907 0.038307430522521931926 0.025710120930737660055 0.049034789444715114193 -0.091497384520702079724 0.032446846392776305945 0.033470666515718811018 -0.00052654517655264956952 0.019466107038865330947 0.072822833337538001031 -0.019759781472890477344 -0.043656323244629008373 0.045610864003935033817 0.038330802305323458112 0.059458486654554040807 -0.0043512433073567011524 0.1123255190811316695 0.074348204423818634035 0.039011419448571144075 0.048332726014942511972 0.011358924183516548589 0.0094090499483442911755 0.017946149315564076387 -0.013131189062931526018 0.048627702904728203892 0.01406099330040207554 0.015925754880988702428 0.02732734515526919622 0.013435477616660841671 -0.035311722576272464025 0.018646222842966870409 -0.093695063592110661155 -0.037843253024058727541 -0.055892834891503755113 0.053586372243892989309 -0.064602686478305471063 -0.013840129155912952313 -0.00852133118329932715 -0.03413148987430093817 -0.016555739979148574592 -0.11627252610947277911 -0.054573538253382382346 -0.10824712462059130069 -0.059515719616064423347 -0.08010544314484008277 -0.0055130675105803071678 -0.052884952694165210385 -0.017806294292310374111 -0.041769793354398357388 -0.013998555679591141374 -0.0025624433427952498371 0.015298212778122616956 -0.074120751567060244591 -0.015142544518966495615 0.014902305530382665977 -0.083570489004318640469 -0.0064305561773966403785 0.035931296270194583442 -0.028774449055702887301 0.008593548806725479286 0.0074464070366030065892 0.032942556227987002115 -0.032144842390801980914 -0.033342844210806341088 -0.073452144626896101465 0.0254602570583625544 -0.0037158990405420522923 0.00010031935461290761411 0.030412506477828796236 -0.0052679420595057695198 -0.00069441472215729064133 -0.085824508663726303825 -0.0096207633663753858166 0.028153694844723988616 -0.073494213087828941244 0.037846757346873677319 0.079810417365415414759 0.0096805980261311166957 0.026036291726861393592 0.002355227476731840304 0.042299805169370291447 0.07654052771391152421 -0.02946329772308638878 0.019734781477256109483 0.0064341068818453747008 0.032635861135494104168 -0.056016239304459876369;0.017507304981903212826 0.0037337718499270747784 0.063578784835822702015 -0.0049539667283128169251 -0.037129460418351849238 -0.020819863563885303986 -0.024530875452874027071 0.0049308249528743873513 -0.050703915027860639586 0.04377148495987243787 -0.05438989601191526746 -0.037347150984133777041 -0.04679350600241855701 -0.02599334109809889326 -0.10386211342375746558 0.042385233835877889064 -0.077648576752027201331 0.051174299383453317192 -0.046330097266859611438 -0.082197466477966760201 -0.013655975280467072194 -0.047155743433967396705 -0.0528819413431133728 -0.015964137449642666622 0.0057331789215800468829 -0.058834688086239594895 -0.094951137008064456779 0.041610560840297121377 0.049238889766081796184 -0.067389869384100159477 0.015078416288345065574 -0.011805580014661419194 -0.12517705371235626766 0.0080983578790223276211 -0.051244914114830016072 -0.042635815569904152167 -0.035628691653806610073 0.016462927676011672451 -0.050688701799226701383 -0.093573752409923868778 -0.13510247832844643479 -0.14724839423776947545 -0.15040527560504682314 -0.10074036057798178845 -0.068409839391648463724 -0.069118169431527362589 -0.018082622704986957285 -0.14594022467765191409 -0.10299822753504395134 -0.016078476940662909944 -0.010472189411053106287 -0.040674067085959282608 0.022972597610598530921 0.00080894553839523598762 -0.067305162931460466025 -0.029037427927306725534 -0.029907840137135273395 0.075945621206712929374 0.062195062240973791878 0.014584611050268432575 -0.038338344362534124143 0.02561136242300501506 -0.039971930250171150423 -0.013783980701485188877 -0.031464204230385005301 -0.012876412526363045438 0.052829139368554316192 0.031682852607631158126 -0.029137168668052475934 0.037180369302945381893 -0.080421366407240388319 -0.00011422846218339124079 -0.03918782172864090918 0.0420984613822623574 0.032719042228156670904 0.084198548137832368576 0.037053536870894007715 -0.012593227284587860462 0.020407282977823102549 0.094112048667839134919 -0.019445117462319392448 -0.055841336854483204777 0.039329024706835420677 0.059151388972954001277 -0.032435979102220083292 -0.067792409831605171533 -0.01467337329782543616 -0.031580597661355687411 0.042678840650050453576 0.011939669333163130741 -0.0044391612345822620972 0.051490580589390183563 0.021634382331501573332 -0.015642769989616091275 -0.029532517802225648207 -0.0010082830266391529152 0.012560732357424737177 0.018045216063958292863 0.027463831965283548586 -0.035527515769632873888;-0.054908624818349557883 -0.12415511209193139108 -0.13179588003416464748 0.10485721703181936915 0.12048963568039029737 -0.044782008328102078376 0.07342018568528742295 0.13148165344098142193 -0.084537460752964602162 -0.17501053201313954144 0.0095552584964240464688 0.0074731417257965027448 -0.033855935346331779423 -0.013924513398250869256 0.16833487060350790787 0.023757044090467371172 0.044723210516335307196 -0.16632159651395805877 0.057034878315000141213 0.086597470947615495795 0.11697277103376654828 -0.027186317727129944571 -0.11377781664672861894 0.12118393098002569475 -0.1791034531105398786 0.044139730434515529744 0.12482850365002948201 -0.08215645540624698373 -0.13464696331085143632 -0.14135915484987077173 0.012763872400407976632 0.066436266257654016942 0.17795309316760868357 -0.18608312986275232781 -0.068324827707722454728 -0.085211424715764885751 -0.014791794338313048185 -0.11849774673575313999 -0.042578201295026020523 0.046713155226680583287 0.1853170341599154336 -0.018700695290729398707 0.12855793080818675445 0.22934910446391276739 0.015800446183945177775 -0.10064879104412959021 0.1050746611625188176 0.1090623076499855626 0.090157923538867562607 -0.089378532286280495955 -0.14481348729838181 -0.12149095176043306354 -0.012362917457811324617 -0.15187085635173627751 0.068435748867322968025 -0.04792213122582886925 0.16096273412265021951 -0.16473480579301799653 -0.059426235512970201902 -0.037326209507621367634 0.088288240449235874663 -0.021248077753605092155 -0.048920123978814462895 0.009307532429323518014 0.10893512423120413346 -0.098612351108459062043 -0.039945869557945448691 -0.11623195589555415652 0.087265721513742081084 -0.0992187912807503819 0.19666958038917789486 0.046779696904218910636 0.12136883610628726449 0.0088773206703937276862 0.02786806903759409676 -0.13803640811323675264 -0.14669237234562557126 -0.034856896630065282994 -0.068025015626707152627 -0.14816153099827139572 0.061888335211434476746 0.17451156167705758615 -0.090820282216423950383 -0.13181940065242236937 0.15623690161863748593 -0.10337082020882726319 0.063342760170961298627 -0.05897149390731210028 0.0038410120714270383144 -0.080264040854321122564 -0.029008905862843083201 -0.15043585840405371279 0.049226685744575476855 0.14958447821012568757 0.022580151356009374453 -0.091117108773337826544 -0.09422779641679539242 -0.098358919477501555173 -0.032033954853752238945 0.1109508446775932522];

% Layer 2
b2 = [0.15326375800891989254;-0.33786810172101433558;0.47337731918322978331;-0.10147158557841885751;-0.33793755966606403573;0.22816753545731596753;-0.74488659711915927719;0.91528805829484161105;-0.61519679414128769501;0.15656596061456909408;0.90073856642920413496;0.63649476394141957236;-0.3937569770959898352;0.30224773003239124858;0.74374422486230706841;0.12833018435381227107;-0.3904828065491318112;-0.45965264017397078344;-1.0477219941702073935;-0.19972021637832840235;-0.19966692349679548979;-0.3901051995752232715;-0.29962817610531777834;-0.37936445435098553602;0.91954800895553290285;0.68948676710881406926;-0.86559661934019249685;0.7796399478296331953;0.20248292651500440775;-0.11717490156544230206;-1.0231277859142875464;0.49114581215990882335;0.29064599176074745746;0.32308877155851339902;0.6878233848753518842;0.49705185204353569128;-0.56999919448595570692;0.32524502063894833448;-0.35058542387281849129;0.5847479046843200301;0.082258465031730870765;0.5574952227361474888;-0.54265583908314674044;0.80532290563497022085;1.2365165008989087436;-0.37960437534006741256;-0.17791451641665351202;-0.27924895237377128643;0.37431054685323383868;0.88791162555338720708;-0.27702860179668092888;-0.063810448853578949358;-0.45208540372141731156;-0.3079284235248745949;-0.18502720991454424393;0.24822265586494798861;-0.70455507308575404668;0.33228817889301498489;-0.33137627782446832381;-0.46155169529958106622;-0.85813549232625896401;0.50060287367916933565;0.084742333810144773731;-0.62486077292611763578;0.73930070845742490437;-0.59032637943986632223;-0.54425646814659778272;-0.92883260572237158481;-0.66791796098207900645;0.63298764714300048695;-0.37236775906321173402;-0.53319827548724030297;-0.33967674559126503908;0.47555387373123192418;-0.42880655354365154741;-0.41938253102193029376;0.1087246432602032159;0.25768998672330911681;-0.47002303187903760051;0.97431007914256961833;-0.90707318831411487547;-0.73522729196208358449;-0.88715178753430912195;-0.55635480514392587903];
LW2_1 = [0.63271675650838310467 1.0178838676028818533 -0.44601713508070323089 -0.38073065626461394251 0.88647014414279323713 -0.16236340079024771943 -0.094959542718504597048 0.81620630609313882253 0.79599744631785362969 -0.59156472636538182108 0.96722784070062950423 0.49295744783245604159 -0.75949974552361720903 -0.90769142826488702358 0.18975587086321790697 0.74727620772975322794 -0.76237891116524869606 -0.6280424995647697628 0.33653669075723136039 0.062667597138450437111;-0.56783867750801275687 0.141058962220183437 0.27319217253353600405 -0.38340378805453939615 -0.9463691784421097708 0.14345170705450807636 0.23867883866581390828 -0.1797488590956280996 0.42153872347828047484 0.32388131998321217919 -1.0251392103976604275 -0.84108776400115381477 0.75306073036725496017 -0.84810745722135116864 0.10080900481063177765 0.12152496654560562828 -0.73838702840425141094 0.1407196635585154787 -0.61110628566719948918 0.13419477906268309497;0.85767445422741972472 -0.0056576707746428499257 -0.70465597315028527525 -0.41450807127291877663 -0.12591114048125737201 0.63398937866951554643 -0.54315365900869694293 -0.36727463278501359945 -0.41657987263302664882 -0.1110055245243672245 0.10904649190837560624 -0.67699899569746169181 0.73224722555519627942 0.60829792856851461202 0.29487120972265873364 0.0056790726219491088206 0.64989037130762050687 -0.74722350034201534541 0.17535542382846841525 -0.17432229873630922246;-0.35462850601462553302 -0.34426150647992148635 0.43020756256504882886 -0.76421389892595115167 -0.68216006379366800338 -0.42805613135567616157 -0.16515271908485820718 -0.69283592079871392233 -1.010355081380900355 -0.95779361583283006976 -0.34660922976233043968 -0.75047511534752120443 -0.16625618258234148295 0.78142138790970250284 -0.13836711808149171343 -1.020553218956721242 -0.63030913109686592666 -0.2633729337592342068 0.64363168989711672108 -0.69929528655733519393;0.5089078260270507581 0.66055923507490699187 0.45811221577015909245 -1.0084280515735364325 0.72072628119092940757 -0.5212871728701965468 -0.40427874793245305307 0.866884001695093942 0.40013633850185237328 0.68816634903650786281 -1.0058649047354966122 -0.040864533801542202163 -0.60443024019708591066 0.18080221756272618627 0.19331276813650286051 0.093474819158917282769 -0.70456403578717330394 0.64508563434296928296 -0.35709636866263572141 0.47071578514406486882;-0.22920009724306419918 0.017239164499185194446 0.38236531075422963699 -0.023664505044771178693 -0.60663125532881723156 -0.39434689555125168603 -0.82437916995201432346 0.1627286174204287672 -0.50085738950957259252 -0.22181348980547896388 0.74736266975572829274 -0.58910629074235754121 0.33369551825614068852 0.25565000650656172221 -1.1387978485875465129 0.028248690357243946142 -0.58456503436590168121 -0.48896014424543926546 -0.080829441059993470398 0.15671681334325179846;-0.68360980060545029069 0.5081898964736812907 0.91721137211726455618 -0.82565458657742019088 0.8443792883233701696 -0.17326450405821053335 0.50888261029431169913 -0.2854494382561928445 -0.89571611015129704025 -0.061783175327185073378 -0.33305770168315945723 0.63491418192842630219 -0.10756796984504821135 -0.17577560348266818568 0.17630061838484425984 0.9169784750622299585 0.54267168387974629162 0.7050264342626391123 -0.68071711468122997335 -0.30657110100593354396;0.49772974459793822843 0.75087108468447116838 -0.95753496577647279064 0.82972033937927447411 0.027110955036187142642 -0.34770631763522946711 -0.17699674981556060005 -0.2608110829636374195 0.22429705220277451616 -0.89169411102055351481 0.19572929117202392257 0.044346986581020139684 -0.5236545961905534341 0.43205601394600168241 0.10633501838295075781 0.35526968458096841452 -0.45536710061294644047 0.18939640625446221844 -0.75929825018693586358 0.40080747295354718363;-0.053677596125958577933 -0.61603330623929486443 -0.49980536793481356028 -0.18567353636062322586 0.062999020314941950316 -0.35795536462237359521 -1.1370082669051659874 0.69464173483810021104 0.40695665610322895311 0.56452745852382713032 0.20766980993923828125 0.27199348080445889808 0.41229730763733363208 -0.15920651830716406328 0.46290804912355520973 0.016134362379639059087 1.0127576142108984936 -0.33869050929082478163 -0.51283815690790290898 -0.66209080357870042643;-0.65752879409487341444 0.32964670399743684071 0.47670243549541713168 -0.62655329081421573534 -0.80221370148403448042 0.27634409068241438945 -0.42375284369728594136 0.65945749557561983423 -0.49237416505697473301 0.20951304410393492561 0.52362215700096270687 0.60249127333028873466 -0.82837936575568782427 -0.66869041020695263455 0.19351479442205549164 -0.0066261816304417847992 -0.68292669290343621658 0.18276909092177623384 -0.99326628620148882387 -0.35126560136581486127;-0.70485184761015029498 -0.68144033372835099982 0.31669187691149841557 0.767023937656360566 0.24644249330899414829 -0.87166310057928819699 -0.11701356892326865433 -0.75132034725585139512 -0.25065610751851197247 -0.27809628950418951998 0.57723934933295295568 0.25759877718509666122 -0.5422483499666049811 0.49366521912930971805 -0.4506724784157790098 -0.00215385096839678606 0.18171619500715430195 0.70740812451094636781 -0.11899482280873314999 -0.15795359161596875253;0.15877311742058214383 -0.56275088796268990521 0.67260025271610146547 -0.26460513052118289634 0.66876797870890669628 0.15770048793333696358 0.05435032835947364166 0.90740331396269124919 -0.62347751027765241361 -0.83029265867756096853 -0.8418255894103122694 -0.27680643274377331187 0.24173092293953171716 -0.82576466924982838691 -1.1462215336291097234 -0.25988609615771013361 -0.28207288559307541753 -0.21449219594300930614 -0.69232675762115303275 -0.98637197567740275694;-0.38238929529497456272 -0.089976313724043660569 0.42463528845450937421 -0.087525322132528962649 -0.54322931387814721305 -0.89407861689844969622 0.16179174473714119653 -0.52062512322699827649 -0.60033390750886184151 -0.16812992311096039422 -0.32823291332228848871 0.15016983216784468569 -0.33185568796303216432 0.23781523007733296193 0.1111762918802775002 -0.27849298364797259175 0.42910089714397964267 0.36675018364485073574 -0.078266218337851398146 -0.36124416647938800695;-0.30545321579996365102 0.48448085470876073311 0.25237759461807363071 0.4289142644844705643 -0.62094981096870915938 -0.11032846681405408806 -0.80045497389541875322 0.38198964110439009856 0.036688674097413095931 0.48965512136889771666 0.096088525338920954821 0.40391902175876415182 -0.54197012941402578079 0.081317464835187244776 -0.32793420783383131489 -1.1031841527595018793 0.087414602114717146475 0.44638615521844748901 0.26090950312454458393 0.90415588971389826423;0.49671602161977751466 0.39305260031696820366 0.26169987003791922442 0.82161489893376227212 -0.75650318788148751548 -0.10501286660857583888 0.014113557907715174392 -0.015390417803791040657 -0.66194769768074257499 -0.75741799115241381646 -0.83893519265967575471 0.34170855181219461638 0.12382173945815982963 0.59993111855096159513 0.7915882952271915407 0.52027705521421963031 -0.47776107932279016088 -0.54698982079376401444 -0.062663467672507175421 -0.67648245884869984135;-0.40267665063345259302 -0.062107548750562159567 -0.25942068694604214496 -0.87156723218924136987 0.36490259237057026676 -0.46648907975692038841 -0.043914237779729289879 -0.74116638844993454338 -0.2025369800751394278 -1.175483666520091619 -0.7897163578580805865 -0.52675913021151743454 -0.38891571950303704952 0.68517995620473637342 0.18536071044689936271 -0.012824859017830871413 -0.54321751541924623297 0.08105893138611253157 -1.008071637698241263 -0.19529190883248101485;-0.32989716272205227288 -0.4221518901898301257 0.72583693019740880281 -0.74947607834662766102 -0.16577940475759875283 0.64925777964139819165 -0.53269326458249544043 0.74478304795149186113 -0.2678427096251710382 -0.035101831644227150797 0.12963399918151810586 0.7706596052363970939 0.055496720388674897206 -0.7450300783674820293 -0.81708516863392977037 -0.16346055388148772458 -0.39167793197180161835 -0.41859586270340726211 0.65434222074405801184 -0.033503725884565460635;0.47033609035505863361 0.67461188701488328245 -0.51955173300654089452 -0.61365502794372273065 -0.42684550284034028511 -0.51534453140343228217 -0.53292933711445944489 -0.13915441760717309205 0.48850067294994475864 -0.084723640173812522769 0.45267592612629514726 -0.048277925508621699624 -0.72922096655243906493 -0.8639851831379594671 1.0160908894575004791 -0.9254837676054158413 0.63911041431618287323 0.71298063411315071303 -0.43799260798038286424 -0.51031004016242731414;-0.61817926448628690572 -0.59068676673251818698 -0.62010821099950830249 -0.18638663336000504955 0.27471033937124395008 0.27347428810046336967 -0.75395211678650775333 0.20503267991935117398 -1.0102243950592124655 -0.24980866117572048113 -0.74746217315528451497 -0.36408302216995236389 0.081122429119784761342 -0.68639770984546244481 -0.38843550362280510058 0.15064183481734708114 0.057774500979093895703 0.62668015259154918883 0.64128376444023704739 0.60687971155035336235;-0.32874592907502486749 0.62182437755960084935 0.0035910717937701602115 -0.61471352011304347673 0.35349457300885966937 -0.56065692588400883878 0.2833688694857057766 0.21941055125846747886 -0.83851354620891671576 -0.0024449540068321958843 -0.3265607985554191961 0.61862472765582798839 -0.72414631047622357585 0.45117824357170832617 0.50013612797461060033 -0.47742963003461619254 -0.37213046870821619994 0.81331248012765544608 -0.48912346653261384866 -0.23671694648824403995;0.19221315126481075541 -0.58171672807921970261 0.97017730520135758709 0.21293761269189656615 -0.70730191384066010141 -1.1712618468897739721 -0.53895223527920488316 0.1433104233944532957 0.67093295025282229105 0.38984144896439076877 0.58548498148693328691 -0.16924418396998436309 -0.56865770358335288037 0.05507870155458922945 -1.0197651534148555186 -0.42936163014335571031 0.45046576696745432855 0.44500540274585353995 0.4453359729504045017 0.32975476680277271413;0.33056240224601340927 -1.1038926617694984067 0.043900442083225368894 0.31152729749340080101 -0.28486432797533484118 -0.40573334333752336667 -0.31947282370748186775 0.66788720211639540647 -0.34948509704561864231 -0.65440789606705607184 -0.1414792501399842195 -0.53836660461493313079 -0.027877451402429451882 0.55699371199103553387 -0.89181025766156563073 -0.23932156927841338745 0.60279398638526560106 0.1805609460561292956 -0.2673223799702180159 -0.45532746386655736925;0.68414824908698279593 0.90639990695602001836 -0.22008220404059528064 -0.14278758249379897016 -0.84121739464057065927 0.11566070601807966478 0.36439228588267769116 0.22477844049587239472 0.76437455739394721821 -0.8488001993809612955 -0.17293259745037281583 0.93651866235531866511 -0.88052233195557094714 -0.64546510302147697136 0.68404815874280455734 0.080875251157761174348 -0.9859090766361102709 -0.16623690932062315517 -0.7210922014601320873 -0.92660364816576068492;-0.39957613825223187165 0.32669169647430917891 -0.20726732692975644023 0.67370589079819420686 -0.63080417258245169432 -0.54028641526205456458 -0.3307606184484878642 0.10559978720833054777 0.50869184754643403945 0.18741017050698233204 -0.36940383044051039452 0.26141192115116068662 -0.36499616483424868196 -0.60732288261240185978 0.39277745081492154711 0.4891949789571558016 -0.29486401148595842159 0.50550894369593635247 -0.61538363550021513149 0.28826303058463370599;-0.12378816334249967412 0.28973879382866823962 0.18563528926195527191 -0.60566406057010735431 0.87864634567586175073 0.14860677183673745572 -0.79525742368206675525 0.48415297740880663957 -0.15052754873001616964 -0.12240983127496822547 -0.64966028256782937245 -0.30390978613062286096 0.31701974078313033267 -0.33620103730189393465 0.62933836280140320607 0.033776375959458593279 0.39672664420688291687 0.22975704888004441773 -0.61714627359979945531 0.78116086697178122034;-0.25210843124400789117 0.26612410632483529671 -0.70766177092137005911 -0.35467292017910179158 0.85265310259625581857 -0.45331521729131174503 -0.44603155097287228159 0.020809366057558228297 -0.46042509892148214545 0.049215534763673331187 -0.46382914727667079458 -0.32210433908441615802 -0.54054002198023343162 -1.024830987107818947 -0.55508622357394099556 -0.0086589021792032594416 -0.42271280183625592475 -0.70916263947612867558 0.34412744686992341459 0.59050709633791487185;-0.5768491278340266426 0.55625610223481458672 -0.33031467914867707059 0.49025991294682641497 0.22693290527896795017 -0.47331815274029676033 0.31689479768319134267 -0.19956680844474095071 0.14138925389661813337 -0.51910252208946716657 0.63275661580039843646 1.0668039211373436803 -0.038535856127736092813 0.48202067272117815611 -0.62672700989249185977 0.79816326948160853938 -0.49471814621790960453 -0.36531085430237153489 -0.25860628022328013831 -0.16821765063408519736;0.62715811199351034766 0.51161262924901196314 0.66977885039765494568 0.68614120522309329786 0.65673002830853821621 0.18123228623942275184 -0.53724653484740414466 -0.48416250757558909612 -0.066043838755430406273 -0.10288951544957629369 -0.11796107274956382782 0.51184386723296526611 0.54201981439096313942 -0.44422453393954108858 -0.61782466189921947386 0.4983133870900165463 0.24861653201726563456 -0.1644569759809612064 -0.39328485071134744455 -1.0097106063010454768;0.54570960187160322263 -0.55493980239226725626 0.4439209308733689241 0.39248359350411266 0.40089206879286232166 -0.30155910766172644433 -0.56859091356225444081 0.66756618122487643152 -0.65648824193399357707 -0.26962955090798501612 0.22641576093999565833 -0.40415904664835922144 0.49243075564950439249 -0.58556089484733719885 -0.74691219070714343076 -0.7174878759500464831 0.96405804723610677431 0.65580011666570936502 0.31742625061459778246 -0.63759254762870642974;-0.73955442945337623861 0.66755464122718588538 -0.37539983885418609644 -0.36697765373945168133 0.23339043286344579586 -0.8835239452090919432 -0.13646146272580123027 0.64158286222462990178 0.35331488071184075084 0.086751201070426109396 0.35424975099536082368 0.12716909678912541315 -0.67158808333907848986 -0.32049234722028208111 0.30143905920451674607 0.200513883556499517 -0.32095593647392095527 -0.81073694670645801708 -0.071164451844825074578 0.68864864255334201637;-0.65379040845831015716 -0.50873089424937123493 0.36048366729506070572 0.47454092386143098548 -0.25005467585078355874 0.44700900249842767664 -0.96468609511142244806 0.36431401298867710503 -0.19316669440544309566 -0.25122874663365096781 -0.10477069224150574456 -0.36793019873961257948 -0.61204330178862098588 0.74850278140151260686 -0.89995701237663960903 0.69408753854551175078 0.32543327054605569737 0.85411775966333036703 -0.31568806844232322195 0.91607837454086604723;0.29978163083204006911 0.85528653221132133755 0.23778274549772024371 0.195695314768121853 0.66570091903535144606 -0.15220659084275228734 -0.72258062565071567995 -0.79759603640099130395 0.3925084966500747008 -0.57140972124633415685 0.55977952788319640387 -0.1098339761830261635 -0.73570035085421581211 0.13715136932520025081 0.36983457261881280687 0.12644750998190007474 0.10831591900203925427 0.040060946390294491226 0.027070823086546680347 -0.69551243564054743285;-0.640508932155609223 0.13032955635057588695 -0.1339524939664837877 0.047410367053399904425 0.14337483383154658867 -0.68198371088108344917 0.37182513621711610341 -0.68088467508177219489 -0.80685585566566087046 -0.88595590760588716073 -0.16088306523199955023 0.36229596584786555313 0.62375198099322171075 -0.046742712996177555873 0.59867574484382457545 0.14473672087792038843 0.2193000725146249108 -0.84754283601679891724 0.015033247159638827781 -0.73638302607356664886;-0.55333103137992134535 -0.16971695894106342273 0.68537973260965612265 -0.24793766191846841607 -0.6092370678673308948 -0.15119390163610535449 -0.050264498349552523548 -0.67018413493697459593 -0.73068148485273587411 -0.46614128059611187327 0.48015193835862129967 0.64405042325373884626 -0.068841505267116354094 0.53244975829284435509 -0.5995470097115553898 -0.70268971773992794372 0.59313061015978085777 -0.1540712952428859861 0.29342448448905611436 0.33699873385230222356;0.76679094991216634192 -0.30865398967465579316 0.74224464185248395509 0.17129394596524732952 0.54763161837300444734 -1.1947844028061840316 0.055781466998770262711 -0.12711110916528692294 0.58653580599998933476 0.13870473502786972997 0.22998140081304740967 0.66786215201563747801 0.6500156928140849999 -0.3385368227123668472 -0.63065312627344594087 0.28996245703008710626 0.71999947233584526973 -0.70119217870644479085 0.67785161840161778368 -0.087965161231001495756;0.67667700672285790997 -0.067800657280222401124 0.49706071366194187755 0.48787801138088754405 -0.30233272360226781661 -0.39881040937648171152 0.14662900728313854604 -0.61174811514585103467 0.47562227137272550248 -0.52558974426575399974 -0.29438698650751865538 0.76392947290659307669 -0.78137309412134092756 0.35403952395346627302 -0.5614376237740716924 -0.35393274516615713665 -0.4336945444183125109 0.65353308934934162266 0.91207728798406328963 0.58232857851095998214;0.18815562587932579963 -0.18252466768911462802 -0.45370264553832528875 -1.1032333606397117798 0.58819379213407863016 0.13101916392506093856 -0.10967825360369588827 -0.64068984009348062258 -0.54923533301466798129 -0.30553362190859562064 -0.44092890650789889895 0.79747324364512384154 0.23479811236897651927 -0.12251363328729711344 -0.99737790299990591869 -0.56044626289268784092 0.118473221245699048 -0.27246046707479021354 -0.019588801873900715117 -0.40067298340700618908;-0.6583274557239232605 0.35572182098308402498 -0.39697550850167467873 -0.54375753243652680258 0.827539624077312852 -0.51372000574661791372 -0.071909873569361959511 0.3125325493573780089 -0.81807683078107795716 -0.30720045407107837709 0.18435990568224663866 0.065134452923505836708 -0.05610358125763116599 -0.58865879422258526876 0.37241494984517875544 0.10241717951007410503 0.083851928023145241853 -0.70454083458175598143 0.64285188408042792663 0.58533881842095336623;-0.3495817704829923267 0.86282404820124658507 0.0048446716629581528316 0.85875630417215187418 -0.60535324430304560117 -0.5293891455326331652 0.13188187898920616936 0.38031181844513628487 -0.26999012806246319718 -0.070307028926164139015 0.48889081540475598509 0.90801163627839731607 -0.29580327132302525195 0.011874782848475476035 -0.080467142813997069584 0.33635606471639317716 -0.70919615795182389117 -0.11235889085463247883 0.64025539596939196052 0.55874419291009691513;0.60343155727582131753 0.40788253864722312514 -0.42168709914050894749 0.912347778763285433 0.13100129813985847416 -0.79410814511746297129 -0.36239724116763016859 -0.77101064643832950551 -0.31150516515199705436 -0.53860336028955779764 0.18642259696876897768 -0.13555587714178121694 -0.14629166434253937368 0.67506736653314403096 0.56944159710701258703 0.050382361328790627175 0.7852755945306991725 0.64819396044380939159 0.68977501999840662439 0.70794179975502025126;0.45526892396774076843 0.15280316262870399791 -0.63700116176420418235 0.0034151016483437122984 -0.1416880488319290643 -0.77627513054282482052 -0.38808930191537677201 -0.51690583007993073927 0.43725261579585950056 -0.1479530262648318939 -0.64078658605373584045 -0.18135051775797408902 0.10314114912042679495 0.3225509362378999878 -0.29616909848946626482 0.68977136004536310221 0.11559266493809221277 -0.82772293892396464621 -0.78776957425949056812 0.44743509720476642988;0.069304162821718653942 0.26596499081641294948 0.018768171803409901266 0.77683304407341657871 0.026019987913892102249 -0.46947313592727513143 0.30199518116360318798 0.58808466872666542713 0.71253656605753956654 -0.5266415837296813951 -0.32987227482625075536 0.69295079349133159585 -0.29917627043109407126 0.055792934221162313047 0.00034589398299125540025 0.34269476425225020577 -1.0715812165799172284 0.27373906594318270225 -0.62950257304165835315 0.24386319339352238722;0.77085291372091557793 -0.77950415959690633194 -0.015343156439165487118 -0.69451593536988642796 -0.27728631247463281229 -0.17468987604349509035 -0.18095216154859877777 0.72616105276778208921 0.0086190291827311048267 -0.58338183958432143772 0.35568811315365439496 0.42422266330050129035 0.2789137266763157541 0.72110790215219766619 -0.59091001671079756985 -0.49901033619471429903 0.51552347571151757588 0.089606312022657258476 -0.0051069414787737604788 0.16012212506966250203;-0.077041792406529766013 -0.1982777780143329116 0.49739695491156477036 -0.68417974516944812802 -0.052871358112771757454 0.3590342514700655685 -0.24861625798358083506 -0.046284643183002224798 -0.85337299837183533402 -0.047775426265027939876 -0.65127876777261672903 0.32461314733370905117 -0.23362169418930014975 -0.5443989390250493221 -0.9530621284197633436 -0.58814987393311524144 0.085222687067315061604 -0.2760261738799975606 -0.51953011052674991088 0.10043352047389556003;-0.073956124754568669522 0.10373267179486209133 -0.41008286605698685001 0.62333879131618141756 -0.015766221190496362142 -0.55949189885254824173 -0.42213800915134830349 -0.71370359071083966374 -0.20167173447440661649 -0.70205784863006115426 0.68548898186047924064 -0.16720379535177151697 0.091693279408426836552 0.57139365209642656307 0.45545269973763047311 0.075724773887928531479 0.97858807050311247266 -0.60737922940197608401 -0.65556365261310678427 -0.13146372600274500164;0.16140843151265563127 0.58376641454722189017 0.30938688452318091615 -0.34228635907434629138 -0.65681559322199545292 -0.2115698034250307058 0.17971188129377640985 0.63661234988195003481 -0.75519522824234330827 -0.77781539033347713019 0.51808373473694657729 0.072443011617954064518 -0.012753343628778262414 -0.49247362803246641505 -0.17232003823154770639 0.53137200276571605606 -0.70342132904867005205 -0.83164481805045920026 -0.46348273220991526022 -0.90015622829318986398;-0.56743012509527779308 -0.68073442761134217438 0.58724583772580141172 0.25091116285158265864 -0.99254567235289681282 0.084429070968586247825 -0.56706261088808562754 -0.51935991566212891257 0.3034026662663587004 0.20473725234464201783 0.27270061964507014141 0.80859728237607131351 -0.73834625798154540632 0.2306915901791865009 -0.75911492884571507567 -0.15931413223039683769 -0.1859562626538168173 -0.24872563463208899326 -0.43367683117873101484 -0.74020030205489006914;0.12512115181428362654 0.22695446278951103558 0.69580141016831820178 -0.151788173109224378 0.74150091928401640207 0.34204159965821429035 -0.67589371861708513745 0.61599877617895004711 0.55246690090842176524 -0.11777471505341047253 0.52958096734290116547 0.35521931279805990522 -0.34999562049835447608 0.60788587351876366416 -0.62917856421194462424 0.74318133669157582233 0.25749241387971943951 -0.093074739779044082799 -0.87645444497118207838 -0.11434850750464793656;-0.13011604053370584566 0.10590305084562891269 -0.33404712819199328111 -0.42296129363378670574 -0.35192194098850149153 -0.73930035169517249738 0.39079136966509764317 -0.82464911471081936423 -0.80426847940962997718 -0.50012816699034889911 -0.7976395253873629354 0.42443858801576644924 0.13544023773777752462 0.21117061520103086458 0.27032710111750624105 -0.52091506387344821416 -0.1387846480653132375 -0.24226973157111464374 -0.4312136026586701476 -0.13761783612137482025;-0.20756085372149271628 0.41861225281303288126 -0.63908004940567897378 0.81947220780803176066 -0.30508834629199305111 -0.20609425059871527841 -0.31999394946943671147 -0.6088118016598970117 0.30959728284688942113 0.010394757944710836597 -0.95461407550267041167 0.30216045679854414141 0.070363650771007923979 -0.84107630148754364274 -0.0094158681894514501681 -0.17789665179246744176 -0.16241694532557837682 -0.64281279161199711414 -0.90293588977851835242 -0.085346002098461506979;0.54474680804815034385 0.72321585377720709609 0.95570631307840570035 -0.10867901177211600205 -0.48874469742518628079 0.41574441872704359646 -0.88746337671211283915 -0.017991376122454463132 0.42521061784009367424 0.15763180617030142505 0.13869654319992241742 0.61355838818054686534 0.48391207023791854569 0.75587131945541641276 -0.44562148490516823029 0.32394341209564742057 0.12560580919579950043 0.33587175550898995535 -0.80229187733734053101 0.54401499998759483834;0.24590514202588567572 0.25450610550659930054 0.20437075537942875347 0.19770173021662582058 -0.43354385339292039747 0.61746206882476217803 -0.62259979748081684114 0.18028913835712348512 -0.54018761408324822426 -0.16083197072102467517 0.63901780179709022356 0.77832779357388381936 -0.12141628186417437185 0.43906154735655839039 -0.1998048451510540946 -0.60717047847915583958 0.83998562322060077445 -0.06449684068979998075 0.86790405477473420159 0.59028266801374662531;0.84666412324254558541 -0.68799109067541941442 -0.067825004599770269409 -0.20836493289815799512 -0.978592889610023553 -0.4822999134560441159 -0.54919873537372809746 0.68468277229492124913 0.30225491104892787675 -0.48575633452591621131 -0.64715450864238033279 -0.36602248267040571328 0.8684423386728420402 0.03506782073806207628 0.63309474176332092288 -0.54391329070299176962 0.48483009671760640691 -0.66835796806944336446 0.22493001490717770552 -0.42471352654309574293;0.43182147429253403548 -0.29487763976392417087 -0.37269738861489026815 -0.6555691885765468907 0.8612025504877920401 -0.27015449242927391804 -0.35769111002241715802 -0.22720378845217722996 0.37765792512739970732 -0.35989098269666119911 -0.97483020073301174246 0.12460589450034950665 0.39050510320548165177 -0.85188582347306451847 0.094207996728834994538 -0.34059227991825857806 0.07738014097220710652 -0.11031372852233978232 0.39930384585876593784 -0.26350615754390316336;-0.58130492782566367538 -0.80161478044994405323 0.27868035525649825779 0.60124270461118978215 -0.10032770732562305838 0.20631338183541989006 -0.93370556880349464546 -0.49897858200866862521 -0.54854844674534697369 0.21141073378356256551 -0.35394579880445053988 -0.043974743994103455969 0.34837638632668321836 -0.95932738448965859668 -0.8132717508111519944 0.65989851056456627632 0.17566871746583101466 0.58480794148560655277 0.43665404253503681264 0.59409950282998191806;0.60887393800237310515 0.53840635015579074718 0.80411945670418849552 0.49749099387587197851 -0.44003950192626906102 -0.13067718465181923926 -0.32674657608040214019 -0.055005985785321620529 -0.2829895109980994361 -0.21409606992229884836 0.41455962427190201636 -0.067357437397764077791 0.43730938178217981793 0.28597897748955897201 -0.75964701861386374482 -0.35534863332845156858 0.96267625233961318099 0.15742208595374643232 0.41403233972556097164 0.87384189164458203614;0.34237359379019399741 -0.095208718707619544031 -0.62028611005661604683 0.49865360748212134157 -0.77772343664833154531 0.2129454925689180933 -0.21953786348709627974 0.95909947715414822778 -0.27561818558283779357 0.1622621328028113763 0.49453707083691772484 0.58397207824256869291 0.084477396812875221732 0.078694192730802622893 0.81704154926044303409 -0.20426998597581216832 0.89067153662553644189 0.8105264346041538559 -0.90554597784977330921 -0.49639920670759440924;-0.31076177898658602361 0.93471378629586532316 0.35570107639821929579 -0.51716487874276528824 -1.014920600177772636 0.80910520370890925967 -1.1071048093190485329 -0.31409272945799948662 -0.64864002908676043901 0.69213324175811585803 0.38980876090703531212 -0.301870710297210465 -0.60596554433518001748 -0.3062785378516324486 -0.21581092165569035202 -0.03553675858881658739 -0.67456898453935709714 -0.2984681058275312493 -0.51418420715137680421 0.34024488691564303;1.0637656318841555159 -0.65406204268399170676 -0.7658839434960861281 1.0360545858270171493 0.83631029024786085468 0.54575808240368162139 0.50996896615525455498 0.86773109052929020546 0.87515236709522514769 -0.50557984646466447298 -0.4844051350489096408 -0.13238536734382197468 -0.82315456069866499433 0.91821120343620032944 -0.12553018051387754284 0.65155749620327330085 0.8254139822483402833 0.54952864810186297095 -0.36039686640731533052 -0.034196871028888208011;-0.17006875914602154198 -0.67981925655398500741 -0.36589642450009562946 -0.55092074119102629748 -0.098655244578015957591 0.6187385822074079611 0.88128592352771906171 0.45069493543137417735 0.71407924346673734561 -0.61622582687712368354 -0.94079052451968703252 0.95902165702849340168 -0.37146169216703628368 0.005580777372334200237 0.97319442865802996412 -0.38856878517082754643 -0.94455254205006977664 -0.40001764012514012814 0.73490199244312393034 -0.29762615293260441529;0.8220896289189620898 0.24242016722640341575 0.026851397389265747179 0.23308817907539616798 0.19726894569127081946 0.12796935732853539913 0.58869130091381338676 0.15401977451126988572 -0.10438409687571627293 0.56948293758892842842 -0.93562685459711170122 -0.11131249943541436653 0.30945590983853693556 0.17626834746735198234 -0.37470733394878569245 -0.071797490647478187653 -0.32229366970916523139 0.61840983587055697868 0.22516511544298156711 -0.50651816062690235842;-0.82570159713217816666 -0.053553868463993709037 -0.49378120235084754786 -0.54779459654223239262 0.41960060298923429478 0.72432603829106800841 -0.18048456053874159521 -0.84196677119120377775 -0.35573025847060874005 0.19382725136050171777 -0.49101313692262432697 -0.14757229982299341353 0.76299620057215589153 0.77428248529949716961 -0.022055729206160196165 -0.35749952648477134609 -0.44298191064459729871 -0.83823770083020587851 0.32022562328477527371 0.58446875455556490664;-0.23241101239136344181 0.33870004347595961125 0.77700479023905755227 0.14027481802513463993 -0.27285472300122093348 -0.97269973363147022027 0.84617446657924300091 -0.78662500095298892866 0.075268586021502451033 -0.84566183960693019905 -0.42662542583528129114 -0.70812615442866666537 -0.22260036819342429726 -0.61863791721921135291 -0.46741181650263174951 0.43482890666161549964 0.36583727687095346504 -1.0554076648018055895 0.5046452013680993165 -0.058248156666289942207;0.72999788069406357227 -0.35449801770924854738 -0.57940751277264279651 -0.28395431937102522113 -0.2001146818388017945 -0.92076636728231586737 0.314361307560154013 -0.7041225672465607488 -0.054395601190953817017 -0.61449834261216296216 0.91603482505586120155 -0.20482030982842699962 -0.61637818515127684726 -0.68902278803618910441 0.42956680786601231237 0.43049664109289015324 -0.68243571389655111048 0.95946314626793338665 0.3630753140521092992 -0.12477114702668383461;1.0029825760107269339 0.79584411845934110996 -0.75855643323302346381 -0.86612737007979512249 0.14694323604855225041 0.39635734279412188075 -0.29908003408936412182 0.65758630609191959238 0.27319250756704055449 0.45403303524756810639 -0.6157206345862470398 -0.52845808599484689339 -0.1194737845781805724 0.72515689248030812397 -0.34477531549066692262 -0.084789429142813538265 0.73410167604808873598 -0.96074587671837619052 -0.30824194709880398113 0.62349838529537848775;-0.061258307327467891035 -0.43939252856178845352 0.67358512552038707355 -0.43421140061204543947 0.56161810806025569409 -0.28393768502070815263 0.68174786031260126151 0.7803344098728012268 -0.71517433883544068163 0.47797271593214446517 0.78362505714928276657 -0.17193258066698127728 0.4599664844733932223 -0.2130220917585562701 -0.48955276894628296791 -0.40902078600738550618 0.74596690392191300489 -0.87623844057762767523 0.92578369383048320085 -0.28466887119239991932;-0.5870972932182255688 0.32158549704988320661 0.72290651996875321394 0.15294281787386568294 -0.85545754134726625928 -0.8370189460473922427 0.91514458087142269704 -0.77682742920319802771 -0.7456597551491628284 0.0082159429880467385598 0.29134283616083067603 -0.51468031721161389136 0.73028519372740940963 0.25209621620646310847 0.55219518689252822252 0.69645329202543437841 -0.73871751741747315734 -0.053260842382929919625 -0.37451511526567099475 -0.55035023682677297607;0.33217721574284098107 -0.73827037410791096494 -0.54204252556404153296 0.44110292767367015321 0.70096788847905322495 0.49652833667628493153 0.14708577223826016511 0.79425381286827922978 0.34267296468102520501 0.29492343503553064554 0.31887726496720625313 -0.7157882491065863384 -0.94081980849086610519 0.15295655111404457549 -0.70212075739470503066 0.1725334105230817705 -0.15870528872889316796 -0.86935885235736265475 0.041134138523900791451 0.36442535708190926247;-0.14368066995079792347 0.27382353468178283196 0.18333379386015183354 -0.29298859621469303116 -0.159129304292685958 0.63291788160612427738 -0.65800191732370783004 0.8956538081191056655 0.14869793307353715295 0.78675568949826379939 -0.32513221408956077818 -0.83422192197851607887 0.81124174975402452148 0.4906534254938548778 0.20611883067016420479 -0.60509485230855197813 0.42173358221262247092 0.54694951769565236521 -0.88821452525063993022 -0.69220193629236270727;-0.46521228976836437319 -0.57873598047907859332 0.15663183066759100992 0.86906259755830339575 0.91199337698608728964 -0.44745596410495569462 0.14165429156240166852 0.8761652733579829988 0.06918407029175105416 -0.9217735060890817067 -0.70588149409779243904 0.5157244911208013205 0.31919441388209573995 0.23942684972797367848 -0.89785945296385150094 -0.76331958086683715514 0.33620353141576514444 -0.70426229565316833536 -0.77135196366752112329 0.16682058599601246041;0.58931309093595585225 -0.0096322750021202562659 0.94518551790919191902 0.70378713599564668435 0.35449325794976938031 0.3984204461698689359 0.33070887789363084819 -0.72423091427712571466 0.8971476159822986407 0.90003514188265787421 -0.78334393648663691589 0.89772151881761397263 0.0023102659347153083405 -0.28573714649254272624 0.1450307271018443922 -0.04604350246857855794 -0.052713471023922209291 -0.03739059924119794015 0.9467153675045708594 0.93846535114623375051;-0.071231795745592726976 0.39290950943994096267 0.40444915087358862538 0.52605258290243039898 0.75213924550551636283 -0.31870169026980205151 0.054626741615912730032 0.60271413867217771276 0.29530243778439657643 0.14245596511645269855 0.7743221822158991019 -0.83148792874549604104 0.19664742391864475923 -0.81341059262787707151 0.75120242981169749186 0.76325743357619957319 0.28451615938321200838 -0.28196570986465258057 0.69449555686306407853 -0.2973574137515904714;-0.7199605082004242318 -0.0044812693408823791458 -0.65080105155504797132 -0.41828589364849261267 0.81226984682074232502 -0.76161605247557317977 -0.58218564344764744956 -0.46149562291722706631 -0.54424752278931842753 0.30698720320155720165 0.44736178841063517497 -0.38984249697869066686 -0.088983034686483802878 0.64971918867880762427 0.68728235617786037626 -0.60584912535338975026 0.083736411118245868135 -0.98236703447795659105 -0.47621924756063821471 0.63850989280590897401;0.88019943842014469748 0.52643651847093941853 0.90823994519909723167 0.11061615537317509572 0.026530053780967077087 -0.98485582691597151062 0.41136410106659226926 -0.91114246968437184737 0.27066968091264992369 0.40648730562444523873 0.79226763247620646258 -0.48004088556349799877 -0.030873907452052679057 -0.10147009975530867087 0.25243686151532956918 -0.061656234425164178903 0.15228980314614137814 0.043160575899035130698 -0.96419124524426835787 -0.50834667569117386599;0.44906781001781809204 -0.11042390400308048359 -0.72001056754246628433 -0.98348703295654882339 0.21214159712741659236 -0.085664274889626079723 0.14710638471235162883 0.56637154237594045103 0.51426606921350881407 0.45131423018532940139 -0.24254613433215790885 0.27806488946952112595 0.97218306961301148572 0.89799777975438466182 0.56708256546266733178 0.79234198943013345318 -0.66810327735402830207 -0.29547823550896490374 0.82920721707544564616 -0.091396704892918317897;0.5689927426972590796 0.24606864613940421238 0.13650358056768158166 -0.75302338744304586626 0.84098325695240083721 -0.95738873266927060346 -0.59806517848341256283 0.71186911412694331425 -0.15714171511985369767 0.79989835711131596074 0.11804856444794616099 0.050924940636301138652 -0.85275881987754653668 0.97766230313112878481 0.79247801065200551562 -0.31047980849761275257 -0.83493150239147406744 -0.76811561936805961004 0.82637519728186314971 0.96556450015193917569;-0.0023337761025009752351 -0.98117996608607871423 0.90840822274972032879 -0.51477868342914612221 0.3505646362026673124 0.2927352416677443947 -0.16612429251100740979 -0.91921979432069922389 0.80527385491341907375 -0.3373910689657800277 0.37158118418601032706 -0.66162898755876808909 -0.085581934810478182962 -0.86518452394790645865 -0.85297925417958242456 -0.39746147135114601179 -0.27466269306789881099 0.52308046560868393104 0.90221703030357769393 0.11353739475867348496;-0.97065174137777765484 0.4327557505468524468 -0.73959139494592363029 -0.66774942671968129382 0.63278799266395058254 0.8987095901199535497 -0.044402682621501834981 -0.95647886656122260707 -0.82388396069887548379 -0.72290641063910976438 -0.08016207173726261348 -0.32201474661352830209 -0.4148519349437069792 -0.76581749697321788162 -0.11749303957835346979 0.076481032849669144946 -0.66793617040898600745 0.31966879465720549058 0.44660335182798899245 0.39829784640872201162;0.75517267730638415468 0.63546902086887901984 0.013464705190098628235 -0.95346448655156779139 0.58719927604740862481 0.96760390388306016796 -0.42430258582148278057 0.60014428070032133089 -0.22980948265192976954 -0.6606104319979257955 0.76511770107594745394 -0.16829625103158332711 0.80605433596680009511 -0.93563135401708208416 -0.24545759599865729639 -0.42950262246450793269 0.82414397051777943393 -0.28627159019969977694 0.26619085777130824244 -0.76946405365698822276;0.64050099306931596033 -0.23328374852112221394 0.86382567690828693241 -0.48097555427370008996 0.094635484565912766919 -0.75336160006545260792 -0.21348979505187773431 -0.8606362274754998376 -0.32289567138913022326 -0.59286746436179127429 0.92710841648660335945 0.045266338852858106767 -0.1999421173778673233 0.37014768157153643546 -0.81886672051857245513 -0.40354245572972030631 0.19369264325232629642 0.88032499877568892721 0.76042080702649317292 0.16813364530104205063;-0.0038111584492249773494 0.84458847766624334241 -0.60674511089350491311 0.44646101351196326723 -0.53841693517273647718 -0.61477010099845030844 0.80513888186109050515 0.12011193388549537553 -0.086371513742864045038 0.62947163325650856702 -0.74920026769494552088 -0.79841101180357076927 0.25836150099393218049 0.35742350354785545896 -0.63275166107335512056 0.12647840757153502866 -0.78377726172219719381 0.90106365124885834383 0.10390579630185711735 -0.86319914475714021318;0.53010185955608557506 0.59272923343305550237 0.57368175724449488317 -0.50898426597238466407 -0.0038280839675057113172 -0.35771396330418808729 0.25615239694642433221 -0.47828424973123639941 -0.28309236860945952152 -0.33596478739974128258 0.52859654148529966466 0.78705167579724477633 -0.030562859653344279232 0.10858056651487829614 -0.56827803186395020596 0.20501332125504642678 0.34761920967061210597 0.33118062394040548302 0.046382162924076014709 0.51540661323244496561;0.70488923393260705108 -0.52238466630955582293 -0.5597634895552181522 -0.45840489532327532984 -0.13897309448641537166 -0.29274966400572793868 0.025081446545323564379 0.54890982114469022424 -0.35853141717836306546 -0.56920650499634672936 0.56370586156287050272 0.46457456126487689518 -0.58121027354921217523 -0.72534628483106877717 0.3437813777817098071 -0.80759192757020348274 0.014392441707196784381 -0.31674303158860822593 -0.19577579016755172758 0.99921456753010273744;-0.42520075086595682246 -0.82120545032505631866 0.68994814665361980932 -0.05250062540672796596 -0.22424192308303722565 -0.29794767046106146458 0.93727920581049595228 0.39754045464189802228 -0.5512960492889475983 0.22868651901828804252 -0.178459002514220616 -0.74952554832634632476 -0.19283088869013439992 -0.049020334043215978148 0.80475695767197852337 0.29114409904625210279 -0.84182268013320615818 0.35060782334934692539 0.33138053163881109331 0.68510029158321228415];

% Output 1
y1_step2.ymin = -1;
y1_step2.gain = [812.337965428751;411.589617781267;278.436909800017;211.892394351966;171.998154659996;145.371816756059;126.412513750961;112.213173524533;101.159584923635;92.3255593832202;85.1142790466431;79.1128086878204;74.0493626637477;69.7104583039016;65.9619181669137;59.7977516876599;54.9616744143383;51.0679974553081;47.8719853906295;45.2106389285618;42.9568209750102;41.0312236328197;39.3697356533574;36.6633362616422;34.5657569158438;32.9059220874996;31.576540646956;30.4985947958364;29.6197450654991;28.90047319889;28.3100993380277;27.435134900895;26.8694692639459;26.5336747329982;26.3751234082691;26.3585483110762;26.4586463793897;26.6565234316039;26.9397528453614;27.7201681991293;28.7492777216101;29.9904829662256;31.4283659033689;33.0494366086203;34.8534189232703;36.8351146513037;38.99900510465;43.8905745177907;49.5814313620607;56.1409445156454;63.6670246475533;72.2629463881914;82.0554235016776;93.1793194226145;105.798545816859;136.237309881686;175.061730456196;224.327320862694;286.598951126599;365.031570244338;463.484612409525;586.595433726093;740.193064501897;1167.76056239994;1821.63040173724;2809.78328588176;4289.75095883406;6485.20139157325;9720.28736964079;14425.8091143594;21236.982278481;44739.2426666667;91180.5217391304;180400.172043011;342392.163265306;621378.37037037;1198372.57142857;1864135.11111111;3355443.2;5592405.33333333;16777216;16777216;16777216;16777216];
y1_step2.xoffset = [1.49480187892914;1.48968863487244;1.48466408252716;1.47972404956818;1.47486305236816;1.47008383274078;1.46538317203522;1.46076118946075;1.45620906352997;1.45172846317291;1.44732129573822;1.44298124313354;1.43870890140533;1.43450343608856;1.43036079406738;1.42226016521454;1.41440069675446;1.40676891803741;1.39935410022736;1.3921502828598;1.38514649868011;1.37833213806152;1.37170219421387;1.35896527767181;1.34688079357147;1.33539521694183;1.32447004318237;1.31406235694885;1.3041365146637;1.29466152191162;1.28560614585876;1.26865112781525;1.25308215618134;1.23874223232269;1.22549486160278;1.21322596073151;1.20183610916138;1.19123816490173;1.18136012554169;1.1635035276413;1.147833943367;1.13400304317474;1.12174022197723;1.11082065105438;1.10106348991394;1.09231543540955;1.08445024490356;1.07095491886139;1.059894323349;1.05076098442078;1.04317367076874;1.03683626651764;1.03151857852936;1.02703750133514;1.02324879169464;1.01729893684387;1.01296961307526;1.00978910923004;1.00743281841278;1.00567471981049;1.004354596138;1.00335693359375;1.00259947776794;1.00157761573792;1.00097215175629;1.00060737133026;1.0003844499588;1.0002464056015;1.00015997886658;1.00010502338409;1.00006985664368;1.0000319480896;1.00001537799835;1.00000786781311;1.00000417232513;1.00000238418579;1.00000154972076;1.00000095367432;1.00000071525574;1.00000035762787;1.00000035762787;1.00000023841858;1.00000011920929;1.00000011920929];
y1_step1.xrows = 100;
y1_step1.keep = [2 3 4 5 6 7 8 9 10 11 12 13 14 15 16 17 18 19 20 21 22 23 24 25 26 27 28 29 30 31 32 33 34 35 36 37 38 39 40 41 42 43 44 45 46 47 48 49 50 51 52 53 54 55 56 57 58 59 60 61 62 63 64 65 66 67 68 69 70 71 72 73 74 75 76 77 78 79 80 81 82 83 99 100];
y1_step1.remove = [1 84 85 86 87 88 89 90 91 92 93 94 95 96 97 98];
y1_step1.constants = [1.5;1.00000023841858;1.00000023841858;1.00000023841858;1.00000023841858;1.00000023841858;1.00000023841858;1.00000023841858;1.00000023841858;1.00000023841858;1.00000023841858;1.00000023841858;1.00000023841858;1.00000023841858;1.00000023841858;1.00000023841858];

% ===== SIMULATION ========

% Dimensions
Q = size(x1,1); % samples

% Input 1
x1 = x1';
xp1 = mapminmax_apply(x1,x1_step1);

% Layer 1
a1 = tansig_apply(repmat(b1,1,Q) + IW1_1*xp1);

% Layer 2
a2 = repmat(b2,1,Q) + LW2_1*a1;

% Output 1
y1 = mapminmax_reverse(a2,y1_step2);
y1 = removeconstantrows_reverse(y1,y1_step1);
y1 = y1';
end

% ===== MODULE FUNCTIONS ========

% Map Minimum and Maximum Input Processing Function
function y = mapminmax_apply(x,settings)
y = bsxfun(@minus,x,settings.xoffset);
y = bsxfun(@times,y,settings.gain);
y = bsxfun(@plus,y,settings.ymin);
end

% Sigmoid Symmetric Transfer Function
function a = tansig_apply(n,~)
a = 2 ./ (1 + exp(-2*n)) - 1;
end

% Map Minimum and Maximum Output Reverse-Processing Function
function x = mapminmax_reverse(y,settings)
x = bsxfun(@minus,y,settings.ymin);
x = bsxfun(@rdivide,x,settings.gain);
x = bsxfun(@plus,x,settings.xoffset);
end

% Remove Constants Output Reverse-Processing Function
function x = removeconstantrows_reverse(y,settings)
Q = size(y,2);
x = nan(settings.xrows,Q,'like',y);
x(settings.keep,:) = y;
x(settings.remove,:) = repmat(settings.constants,1,Q);
end
