function [y1] = myNeuralNetworkFunction(x1)
%MYNEURALNETWORKFUNCTION neural network simulation function.
%
% Generated by Neural Network Toolbox function genFunction, 17-Aug-2018 12:13:37.
%
% [y1] = myNeuralNetworkFunction(x1) takes these arguments:
%   x = Qx100 matrix, input #1
% and returns:
%   y = Qx100 matrix, output #1
% where Q is the number of samples.

%#ok<*RPMT0>

% ===== NEURAL NETWORK CONSTANTS =====

% Input 1
x1_step1.xoffset = [1.4849728345871;1.48161137104034;1.48269379138947;1.48269581794739;1.47989690303802;1.47652041912079;1.47657954692841;1.4734171628952;1.47329342365265;1.47269332408905;1.4705867767334;1.46780204772949;1.46592497825623;1.46563649177551;1.46396207809448;1.46627712249756;1.46174418926239;1.45953798294067;1.45665776729584;1.45336318016052;1.44939661026001;1.44735193252563;1.44443094730377;1.44395649433136;1.43755507469177;1.4320877790451;1.42682528495789;1.42079627513885;1.4148565530777;1.4097535610199;1.40471732616425;1.39949154853821;1.39026701450348;1.38044416904449;1.37101519107819;1.36201894283295;1.35299432277679;1.34381091594696;1.33550930023193;1.32845985889435;1.31280016899109;1.29790580272675;1.28436934947968;1.27124774456024;1.2588347196579;1.24718880653381;1.2358705997467;1.22625541687012;1.20672035217285;1.18950009346008;1.17387223243713;1.1594465970993;1.14633226394653;1.13456988334656;1.12376570701599;1.11469376087189;1.09730470180511;1.0830534696579;1.07130134105682;1.06113374233246;1.05259811878204;1.04532384872437;1.03912997245789;1.03430569171906;1.02575671672821;1.01965403556824;1.01466703414917;1.01136982440948;1.00876474380493;1.00667381286621;1.00502717494965;1.00409805774689;1.00232720375061;1.00133502483368;1.00055027008057;1.0002189874649;0.999910652637482;0.999743461608887;0.999554634094238;0.99970006942749;0.999610126018524;0.999589860439301;0.999518156051636;0.999524533748627;0.999478816986084;0.999520897865295;0.999538362026215;0.999669134616852;0.999645948410034;0.999659836292267;0.999641716480255;0.999664604663849;0.999639868736267;0.9996577501297;0.999680638313293;0.999779343605042;0.999761998653412;0.999774098396301;0.999764800071716;0.999750137329102];
x1_step1.gain = [71.0029497776029;64.5505948258615;71.4599153242638;77.4346150473316;72.6890575716613;70.7433756683365;75.8038712475827;70.3698005578508;72.7457897566644;77.8442022429161;67.6015440530587;71.7876990749061;72.7536762314454;73.6417729631028;73.9488354872265;108.184266185195;99.3381254070697;107.141043489367;103.179641086825;100.253459856108;94.9705700877973;102.143767770059;104.294410185001;133.013160815653;129.884772005884;131.065856287986;133.540411035229;131.574656304162;122.972169081807;129.043595975756;118.544277770319;139.586794462194;151.879490150637;150.163936773893;143.308043836646;151.824513139796;157.676155747488;151.926251924296;148.51956835424;174.789977600667;187.390021333393;182.323389734729;184.679575100446;197.886532518695;197.355793436066;201.10778672804;202.821794267339;256.058607164115;257.773926403933;291.919821826281;316.431837042625;333.93475448339;338.762564361434;360.087912087912;361.80405857109;503.004617137375;482.964361794001;532.221425625734;610.546817569781;618.514875576037;598.075573934122;659.63733584965;630.793548144528;971.465894614939;913.244570246584;987.185407472786;890.510403397028;987.882941765295;1052.65503827331;1015.93896088168;1006.97533161275;1397.40263201732;1366.89066319048;1461.04815814683;1382.88954830201;1539.90050481872;1444.25739250204;1401.25415518249;1414.36654864272;2076.90220351572;2063.49129819814;2159.09092079017;1977.27943429582;1991.00646769121;1844.66366135239;2051.25516566817;2144.46424234678;3088.30483202945;2833.03208375549;2825.63637894737;2741.15121313618;2991.39092448961;2763.50123538132;2800.40327157403;3134.17074537642;4202.70941883768;4291.39685381762;4271.18533604888;4437.24305739222;4033.95431594133];
x1_step1.ymin = -1;

% Layer 1
b1 = [1.0235383605035077714;1.0365242090138138131;0.50009026119976673908;0.24856948932409250741;-0.35734389039187142156;-0.073611291957920960138;-0.42240867776620744101;-0.42116933266335432329;-1.0587693793017649568;-0.93692144771506735701];
IW1_1 = [-0.17780213535019709359 -0.21536941938456100054 -0.042459674959381771275 0.23492647155926624225 0.093596221876268551054 0.12140536542825967892 0.10912253998206687677 0.17605008032198204981 -0.055729991799038536282 -0.093415071735903715267 0.048736612668794081216 -0.1458456298102023263 0.21007768797975234776 0.086640123839199029154 -0.21032895830021217098 0.085891494739824506 0.1843601787167886974 0.044138659997814536085 0.14629259474422834364 -0.023715526849989579383 0.062592355724494785907 -0.093604855706101317003 0.10192354532347176754 -0.22042182463801204828 0.13076853378331726452 -0.025791149606966191909 0.11045379686228209981 0.18011787974125881284 0.16279267610442590963 -0.21576009617616856429 -0.081433268062234678841 0.19094027275710800939 0.19452085647799624568 0.047148171723949965084 -0.086352048522677415932 -0.21090883309778721277 -0.052220693502739591596 0.11948608712949040922 -0.19083445830634626628 0.041394008661727987874 -0.20957675735779307535 -0.22581742282907527053 0.17738362920428216163 0.10061790033580852999 0.097695516095398310386 -0.16127733954938366923 -0.13412357250345213755 -0.25067965768131994508 -0.22885741613453308707 -0.1441287783327599159 -0.15069053052795980396 0.075937603795800320827 -0.012865697042683466728 0.021159381787791961549 -0.026260194051650670444 -0.16188008089549238422 0.22509175333961423116 0.064647566220356958433 -0.22595404421054218758 0.028825700899695834434 -0.20309047435567750828 -0.034556228652328650763 0.19487948926891426882 -0.065232087495844276459 0.18605936797221356294 0.060570233050595410906 -0.093815577411791459261 -0.23332866871985036283 0.093782175337187384523 0.11346670625181433378 -0.21952463985981207628 -0.039505177514007332185 0.20405397653065918129 0.23335410451793101028 0.045022910272818190969 -0.027084677953897590835 -0.20544983872907982003 -0.035380526943894007041 -0.2000066809360969422 -0.17037083303575398241 0.073322163521590322244 -0.0912337925848207415 0.13545190830086678568 0.019270082474703728592 0.016148661321716731298 -0.056937310843381022663 0.20931761192045786335 0.04835912307902165419 0.11664791264283325134 -0.1400254573805801428 0.15317111407230149522 -0.16039967850203482036 0.10886787566005901029 0.11246363750034645002 -0.00052185969090453405636 -0.14552140886238001949 -0.14297606811414190209 -0.20524057265041620313 0.13863265984355521709 -0.11025939842050187789;-0.10477259546936397439 0.075271323133451667475 -0.14831952520274793716 -0.093933949647905717883 -0.21849059148013941223 0.13196861154868452792 0.07766736576443943052 -0.12568530864259511159 0.057358875148650248499 0.087971494734856173214 0.17825027134303478293 0.16305878989709102211 -0.23126314626725030799 -0.046222463988453442452 0.01180240287449205519 -0.14385179491141691921 -0.2167050581486115457 -0.16006701261710346018 -0.13080659687043819095 0.13339443792633495778 -0.24186064095884107772 0.22003967632333379378 0.17172690045163685468 -0.076637436793664082124 -0.031895245806693311996 0.16660875576114589358 0.15976667481686826489 -0.18767199087112612643 0.11770870725499317511 -0.1296257102379861359 -0.078411215075497892046 -0.26784369200790564269 0.12186486587492631473 -0.23646479250594126809 0.013177468868483813852 -0.0532750589093367935 -0.16421363310841399774 0.053513571752906483048 -0.10734771790938496538 0.07078921693009239402 -0.2724716799542136747 -0.097690351358368149315 0.089680964673884283611 -0.20293293511596555145 -0.26158229116335929287 0.12407564056490920368 0.063108072649064428372 -0.22761867056241077978 0.048944614824961443778 0.091074666370906748325 -0.021665851646585746609 -0.17002370327911300874 0.06555376361711447164 -0.19456311515855534422 0.092825053339783997197 -0.2772763449816836312 0.059547474662110334853 -0.011629994909006527437 -0.10645372353905052654 -0.24839802976500363618 -0.2309090476947759929 -0.082020180045842855376 -0.0024056651364683578551 -0.017051407038864867249 -0.10775576885423360229 0.060141016734474458949 -0.17210030223428032792 -0.19187995082343359265 0.17134185362394710461 -0.1921986071575845223 0.09828367296008225229 0.0020812739575568599965 0.052046167411917851342 0.0050240077193840380551 0.18571482741788022941 -0.20394157201657703293 0.030926542206864054974 -0.12117295591003554578 -0.055760835031850849997 -0.18017802705460192469 0.052598071751538459651 -0.17886196318757693891 -0.16923047810568569993 0.0048500129327147187275 0.052962260734667906958 -0.020578264010894006808 -0.09221087469572578077 -0.19014278955458821518 0.20799092796967832975 0.043773613141463850462 0.013996752082607860981 0.13056536104271912468 -0.034418325968753188393 -0.16916917024180319618 -0.20742765172008514885 -0.1914115074107436143 -0.10878523532429114351 0.0045573056007662191003 -0.044027543193760926288 -0.18488972729436164988;-0.10409283746707150009 0.00038064544179235073468 0.10027000539319641526 0.13583470029774596943 -0.1758450978306485557 -0.14994587088924354878 0.044456625154845101633 0.089547954081210287547 -0.19957444184764086548 0.060162929337526663276 0.066302538481417247485 -0.10033140407354042278 0.18154162727267753041 -0.11809604096646268701 -0.15015346545391469735 0.20290754031486013531 -0.20694454939711820485 0.062326397165612341944 0.15694456391075456425 -0.18184844868604280177 0.21025668027981320174 -0.042371934971703391348 -0.15001076595655382651 0.092615337677806872096 -0.19814540521185930455 0.18377789839734470778 -0.016211468203018192247 -0.11383318644511465634 0.21636856283466013307 0.073819612983592131084 -0.01532647798065971817 -0.076180216090426272624 0.17481593742161291583 -0.0045304604573906757242 0.032630969520873229217 0.1824591926919700291 -0.03907008484486718114 0.17248509633349073944 0.25005636314533308262 0.111372254410555524 -0.13891059639341882259 0.19249656219163191473 -0.085564627525060610314 -0.19969599069788965262 0.17176061080561019767 -0.10172048736980608685 0.17286486458592328908 0.22154991482019320559 -0.12117921711522973427 -0.053061516478306952616 -0.12735329877110934671 -0.18360112210513271358 0.21328769792875770794 0.22979998308162738474 0.031203980694933797224 -0.14453040857672319608 0.12267011953229824128 -0.20679109635319334326 -0.13032659746276262225 -0.15085131062804368884 -0.032692579828241377649 0.0092968371529921836616 0.156906995453678616 0.23497786783596683047 0.20242685858706607749 0.034101696463774117118 0.097089679861747504863 0.017282285053926590285 0.12310664417595340581 0.021952026474644347614 -0.1651920221453904436 -0.068876728614744281431 -0.04986973422424999941 0.10708646778698834023 0.1622344934751061285 -0.044414429492942608668 -0.099592861111338984448 0.030898959301028382923 0.22606379454069755464 -0.093664364189362331325 0.068080289557179735072 -0.13650022082487403563 -0.049899680893903619605 -0.013380951305051524275 0.093190778774806859452 -0.0450026806342807284 0.13573801038991331613 -0.089709183102183551184 0.17531695375868044939 0.036792472416035601479 -0.0097466221897860652601 -0.034569328232762534803 -0.010455583294436281844 -0.083530271095298300188 0.18980217844322322396 -0.17586811527087528595 -0.19594798058482640335 0.18220423965659909848 0.100282400007748837 -0.038264248067000086739;-0.075648006456301361555 -0.17318198251154692802 0.032214495559814732006 0.16309836498482194189 -0.028276615670262874452 0.20302142245281723509 0.11898030262888914521 -0.046451075260010098178 0.15021758924470274277 0.2061922807136036262 0.0025998452918245770239 -0.0098164288209190882217 0.094971768411416440658 0.10370455802722397531 -0.036564436011568883511 -0.096197319498586106312 -0.065130050440785763888 0.08505641239802440301 0.10954083179507156931 -0.20561664121865264043 -0.10607822462041513467 -0.12389683733041838287 -0.012236387704494817996 0.058476794528010418717 0.13126997427765707549 -0.23619777912588876823 0.13324724002115742594 -0.20340694937524830821 0.0090566019372682673994 -0.069591995149482055449 0.13686531388143355348 0.012782293958893291286 -0.24997823829706039556 0.031349899867656537411 0.17267930646215223778 -0.068022028704989329073 -0.22106607296956523601 -0.19011390800964225734 -0.2719577503541469321 0.090739756160784459937 0.12133615561447533282 -0.26200870093598316313 -0.0017409283247200105227 0.11393219360994037703 0.15547490933367957844 0.15804515492947315836 0.069870239079544135818 0.020064964798164934556 0.097325185564897123691 -0.22417377660293083541 -0.06782717775324385856 -0.12688828214899383617 0.01161768068062712933 -0.081981766304953254676 -0.099904904896548130111 -0.025580383194338439379 -0.010564270163345284084 -0.066486572848497668686 -0.014970236992580512186 0.11690830603767049523 -0.15997203869771378648 0.13306091126571678585 -0.053138699487685576994 0.01651287862278543947 -0.13158347715007337464 -0.13621204844366477382 0.099705705619606427303 -0.2135654418274459676 -0.14604698150775657917 0.069203977137869590597 0.21015179370907435819 0.18832981643101542879 0.20121798588117362216 0.0370814079521572873 -0.12786633133502794957 0.054058874470525215827 -0.23379662888894497952 0.10717227948599419851 0.17137046203719796811 -0.1873318313518518019 -0.057041967199412423051 0.19204672279580214944 0.14686539426405270659 0.14497748658519629683 0.107619442075089361 0.033879303950063270612 0.1922133016852895504 -0.086016439388210991224 0.1892672272359962049 0.09658748491292765137 -0.066320437532793444224 0.15459292638156091337 -0.01260934522629618415 0.23382728345893646904 0.19307605190823906582 0.026969277585747235271 0.17559972024514097777 0.10616879764110899453 0.040273746197443019423 -0.0048281521715280804191;-0.16179368786480394227 -0.082764714318212903588 0.047403019126576226294 -0.10862750132859647079 0.047631547752424840958 -0.15281979734584569264 -0.20923137547984588247 -0.057227646933384723749 0.11939680823475086469 0.10167536745694465139 0.2678304253498215437 -0.1398549185821401919 -0.24197206053150108196 -0.058683091957515254311 -0.016788596494686815197 0.039131974010472699022 -0.20243065116155070648 0.044985526870371703168 0.0009094167032811240059 -0.16096015990115813965 -0.23982893762754539657 -0.1918678477428414908 -0.2351978329953217095 -0.13101674912445798737 0.0051357435119512347826 0.12846469521183256912 0.23292926062840202395 0.04946083528870037771 -0.077073802713595263025 0.14564361242601314705 0.14836453197070609278 -0.03985435603637360602 -0.22542631059190595955 0.14070353322477888169 -0.16214228556289742023 0.12938811915268122466 -0.23112498279715601446 -0.049632664945543386592 -0.24029011439594119559 -0.013984687557078219478 0.022474420345111913166 -0.23822721583402142742 0.19753685371433962747 -0.077862340372256713672 0.12256833283080868779 0.030371012755899640806 0.074138362236672722405 -0.14637718776599603632 -0.070050598917632767026 -0.072490333341588927829 0.13331226070382293236 0.054208338070915601525 -0.042371628259762150748 0.20373756151272851 0.17328276398617184495 0.082305810755725600236 0.084287028216090423283 0.18853193384011113221 -0.1214059291865852569 -0.054955039068055683282 0.076222384329772324696 -0.17401275411371450175 -0.20201148520895143013 0.11517191843282063857 -0.077054257004814497023 0.10648255784653590239 0.12486040482086845083 0.11717362585767462924 -0.16007355391879887763 -0.16931316819709288368 -0.082269972859776580032 0.092595748131730742925 0.14350613854182261986 0.054060482634754949971 -0.053187841583676537249 0.092470157658476104245 -0.12801501841860266073 -0.19415360590817920539 -0.22931134160183494486 -0.13578068751295924166 -0.04978555012888929987 0.046140150558502950051 0.025135432605422620977 -0.061985503346906271893 -0.029515314474020219737 -0.11022002721876156262 0.067427092702360982845 -0.21051338536300709392 -0.18740043325293137544 -0.10890951758464947896 0.12625172733297113092 -0.096133000362111947767 0.11216038794958516078 -0.025116895187433964376 -0.026024142684099121209 -0.11401085942665591111 0.10832456145017045623 -0.10775603705471674398 -0.019879676779955168797 0.19947546522986692175;0.087649923248563355038 0.013997226953720376744 -0.18135908282157933713 0.23947366561602179136 -0.048721081505655586263 0.14879703332742527655 -0.13842337970437029737 -0.18526594934352233479 0.076845058312962413738 -0.19300445479592559517 0.18989037226171912032 -0.13617420388746886983 0.17975031495536131221 -0.038542713392102377623 -0.029571558992515248332 -0.051001163191416745701 -0.016593897498461476769 -0.21446204215392095094 0.065529332389974062623 0.209659086773472364 0.049944639427633025219 -0.10709697104558627001 0.12651787021846852554 0.14508372010143005815 -0.16003402057325546992 -0.15352159306479834511 0.017821122736767013722 -0.20721167087656683359 -0.099895003191028661216 0.1526029112786643771 0.20456667229104266714 0.06251878124897991551 0.10946565012826708907 0.069190403429608665631 0.0038331958832101354143 0.13008625888715305563 -0.075838782627678541504 0.021233580960766045009 -0.093096954528531963846 0.11331277837472368553 0.13489828106096873883 -0.073331725190211541343 0.098852021733264267001 -0.11350297027349619261 -0.19027196056445511152 -0.079137948377921027432 -0.021235885799292638504 -0.013896364123599857371 0.21559183422064404079 -0.1898936205622008544 -0.11909886850447923279 -0.10751025880191744655 -0.16741744119480503339 0.028128980320245203228 -0.18229721835716009015 -0.028161974543814267263 0.20641478107016542065 0.17000629789443441608 0.10879907652583742372 -0.03840483032484929421 0.096199434892704022149 0.071441670480209579219 0.19854710954089285768 -0.089872817297234841583 -0.0086910738758097794143 0.060484537006793029357 0.17906457960031330057 -0.15102223172207990265 -0.040747421320723058169 0.18764352606849166172 -0.15823694609054231308 0.20753907842482213764 -0.13252717200016664312 -0.16942275966098299667 0.14590444403956681629 0.18381968933042561187 -0.053399162914418950299 0.02933135283405232524 -0.13926760147360794928 -0.23696129282857603116 0.019463734850520140324 0.22154116143502425307 -0.15861817421413249019 -0.086235454192991847777 0.18397561172457313483 0.19537010981947100507 -0.1999998814178419182 0.11008278448557262674 0.13023305990759001527 0.040927242629489143932 0.0163883052384933732 0.18657895951631697784 0.041153212893882414047 -0.1297396741444393764 0.13174578200038103426 -0.075374085433868850958 -0.01450829125553885178 -0.0287832684815010377 0.070049700075961271462 -0.12129095199005977823;-0.051705253006907613 0.14674568599504878019 -0.14844681456235686579 -0.19305513120830386509 -0.2084955355714391001 -0.062876114254179063523 -0.029233019066413887255 0.06713713780059334113 -0.13296717829208679063 0.20659647363662575481 -0.0094617342260989063807 0.16989493547026612852 -0.11954759495023654925 0.10667830471902925438 -0.15637748606819390496 0.0010647369667691399409 -0.13812805851130433021 0.10162411708511796815 0.0028198960677610898293 -0.029075164710230340381 -0.037991438329835203191 0.089258115328208958994 -0.1722173742121051454 -0.13856225930302523697 0.076324048415041215176 -0.040277441000528227399 0.046042839976255273138 -0.13004630175627651667 -0.21886917424176233204 0.0017259953945319601865 -0.16155444824492296019 0.082108263239550699497 -0.12537643037878859475 0.11435801936458864225 0.071325365814651084384 -0.10124056389852245652 -0.21480391920704078323 -0.28853609898074905615 0.11275595544730428188 -0.11504518071875095842 -0.17252121487580560077 -0.13465604339902817466 0.10825277016737591684 -0.20676323500275067824 0.058452816908344459867 -0.024105127077526034701 -0.27581985465870417773 0.057714876113248415879 0.010381837295772140817 -0.29754683254933556036 -0.29385178884959634038 0.11164284253002043634 0.028810824980208739332 0.074073375764548948785 -0.1812930216625054658 -0.10232189836233274161 -0.056795797292031074965 0.1405384429976616889 0.046413255778666250018 0.14120382603428591195 0.14260801561772770696 0.14343978672514162698 -0.2295242622716618941 0.0074553084321417545724 0.15035488888043971323 -0.067145811698403848333 0.1749712174696782252 0.096348478476529234027 -0.12357384932411814848 -0.13462972427345046289 0.037587447365903685348 -0.13884837733492752521 0.096371979411006739036 0.015347120165642996401 -0.11439284790047278551 -0.15358194721517953729 0.17903264100506996459 -0.025397301031610589744 0.10489144898494423552 -0.020915233376182222613 -0.087476568881418373391 -0.16591595823519278419 0.17996631747873476082 -0.17974696552417790407 -0.19152878679842297305 -0.072581919936247629721 -0.098315070153447245427 0.059050230569704376116 0.089386123201047162912 -0.17469282318217910221 0.19049646228369485068 -0.17554420285103272681 -0.20616767809323960359 -0.051032677282216852566 -0.15732976688866132098 0.067006703258331148931 0.064866918104393739286 -0.03907335698990405809 -0.17128732377956909505 0.12215799630721170532;-0.1277252740600203218 -0.1438861244857723154 0.17863763478279026664 -0.10271621080269845161 -0.052996276774513850771 -0.20226938672371630457 -0.12973447211782698774 0.030692347048283122324 -0.049348717391571102209 0.0034825041279505936781 -0.11709595999935332178 0.18569250934068110004 0.13958433627112876163 -0.072924022777849331622 0.19358525577648841298 -0.12561406738062363964 -0.16848917533538970703 -0.093633279577577790964 -0.12884636385937564551 -0.030010548234754623464 0.090767338720226325988 0.024257865332842791506 -0.031464201687044057731 -0.058763046790540597597 0.22339800073801963087 -0.17056161517216716916 0.078611869645405452189 -0.084737057623580774868 0.16893260721860683948 0.23700769197225554641 0.13307324957192689929 0.1997954260781924507 0.08798484148239912872 0.01271459031330943526 0.18133112911705823178 -0.026381010477494665212 0.25095408272311564568 0.0055804334821329439065 -0.12611168735851704947 -0.088164485005397405515 0.1276428612314402522 0.21688924696981168316 0.23014839196125494447 0.17164284900896747965 -0.19278680421464719497 0.20273982302057563798 0.21307733960167560272 0.072964955260627031852 0.051265400732133592498 0.051938896838795683975 -0.042805758262548510018 0.072505493707589546704 -0.063113192594068556751 -0.052849771837877097813 0.066106805221053568933 0.19521851595123759782 0.13407524808338877609 -0.14317144384127206136 0.018395806082692336275 -0.20947608259039077194 0.031755908983309009963 -0.18825484620707419459 -0.10273442644547596536 -0.086434660552801509392 0.2023378695938411187 -0.054722912828352746062 0.25664642801517817405 -0.053542041782212841661 0.15078654776986769037 0.18317479889215254607 0.042835811988423302954 -0.14794701399215157145 -0.1275853607153805136 -0.19148523800364478098 0.13822441087619069533 -0.15064670945139363445 0.055277285602139618337 0.021802879174452904215 -0.14790153311137685388 -0.17086475513422744177 0.18874579867768526142 0.10807689627577889147 0.17541156155579043507 -0.20363929547682990684 0.050164487127370462061 0.17861888704577977283 0.17576790620564011758 0.17833628175136082006 -0.19921906443433076705 -0.049958249114060368501 0.20436917055504333351 -0.11991742468829313939 0.20727175999616101465 -0.19535537814783085486 0.014399137590390570854 -0.0056790728946973078467 0.099118924733597985055 -0.19042710763341147429 0.063774519610638125133 -0.077531576486865261266;-0.09025734573247846948 -0.17758984095940608117 -0.19689723935846276115 -0.0038909600260341285771 -0.21503743142914702458 -0.19357944072246888179 -0.055724631664570319078 -0.0096161894550937012521 0.12137686427346436324 -0.022629056395865709828 0.059431685928355688919 0.23484260833389894452 -0.20674009041485094662 -0.16718444328557824363 -0.10319155569101974568 -0.14666302307056386378 0.011574085197119013402 -0.058347063232815625511 0.20163670666089625327 0.040044611710290202444 0.14632133735606228653 -0.096023352499381361969 -0.13543397407948998268 0.15060306116978158797 0.032896800252573493717 -0.080871770587167490785 -0.029798672011149048705 0.15295264783267931152 -0.15859494837839133163 0.22231632079814622749 -0.15881262845829954844 0.027957721622453114707 0.17620060445657045878 0.272475449643411749 0.074327418120729474293 0.10188618099170373976 -0.11266058487246251307 0.10494403917394320991 -0.000155679981925654215 0.17905256693498722287 -0.16638061455147429291 0.19885081978907578892 0.11417455023686982896 0.25912668396488081068 -0.19791335443699187291 0.19367499995755524389 -0.16006963003719915095 0.018535420191901769149 -0.085255516457309638012 0.13241386926263393198 0.079460737049173640889 0.22150122520674447868 -0.07346041114259176108 -0.1953124347468238875 -0.13241323618278139085 0.1565750533864462557 0.12465092792154737478 0.12886352662574679373 -0.08257888141384260583 -0.00078563450899580156844 -0.095253243059627151768 0.060487692022250252877 -0.17321667172809157575 -0.18793920212545173198 -0.023609206867636983729 -0.16359237555479011483 0.23040027947348942772 0.16450661893086709897 -0.064325302588852301122 -0.16107473774647304565 -0.16698607903096249205 -0.091417162565658932616 0.19530869298661085454 -0.03879117321455145817 0.057180229185994267682 0.19105314252781302464 0.24296922481920141257 0.054086239052616613687 -0.14971456165338445365 -0.1158885796364326759 -0.029140831417116569435 0.13266843890290613839 0.089717580539774965942 0.1545189779658732443 0.067185705884601071292 -0.0075695911629065013027 -0.23634500482964618251 0.05387224026206604427 0.16186307298412636047 0.090650428528158064068 0.17408464800133791051 -0.079695667878180678767 0.14183243897408007173 0.11692523122958511927 0.051373940686797292532 -0.20141971192584640082 -0.084096785457904790761 -0.2223493523847182296 0.19131635442130326408 -0.073189895600293264355;-0.11909627036021727675 0.17845904215132088466 0.15786530173987670111 0.15249224853214257691 0.18077858967397877898 0.075634715718391004602 0.049894673099361352975 -0.019110577791216852572 -0.1931224124489325511 0.20657792277152367544 0.0072309922867316717143 -0.069353809074272465551 -0.17551834200177984791 0.10993604506418373778 0.10891557117590548731 0.058271516791405783553 0.22817414557513704398 0.26717073457970930139 -0.20831480959699252842 -0.14644490161033787978 -0.16442780838175710678 -0.21276188388092906467 0.080412902115184467511 -0.13147418980928349264 -0.084200709288768812999 0.14556158441336564113 0.01434364844701645561 -0.0010696640275953874649 0.18709297758962717406 -0.085672007572433303557 0.16384078928198214653 -0.069808611804050096916 0.10113156954087137995 -0.06076224557974597984 0.22059711135829415674 -0.11715286617837304683 0.03508260279019616984 0.20916734296539848947 0.11034827898389611145 0.02648530484078875924 -0.012590369372023652028 0.017866826268526331961 -0.18671013574235068022 0.20023330143000708792 0.080530155486837118328 0.15411620548089405291 0.27620525608639878712 -0.046638904108978897212 0.12701066205596922565 0.24027658586933725582 0.062439618881599864841 0.1397631239267152492 -0.065474810679392314583 0.20988902690999688971 0.16214557106825716604 -0.17791571022450472506 0.13954572545224003255 0.22005193581895035604 0.14814143593996129122 -0.22139594896957318082 -0.11971635788841358816 0.09461951622333940326 0.010798405568441337907 0.15334580228374777855 0.038669548557314206705 0.16523432936996063081 0.20161657057982085295 -0.092353131460134796349 -0.11750147684298849204 0.21990348665966796826 -0.16323441209808406405 0.017538152194178389942 0.18946708030243594734 -0.057162870670599864875 0.18982601078991206967 -0.051761694728290778833 -0.079564214174274339175 -0.25226086584277340741 0.15618004315069350385 -0.14316746012869169258 -0.014812460507204167071 0.23350779458019316204 0.22560806216987228101 -0.063086301727290100549 0.091148415477401087403 0.19058860513786463065 -0.21396986853851149291 -0.22671272539141318347 0.023486061298119691176 -0.12247445360205375109 -0.20641630354961720828 0.09906009971280013704 0.016940976799575350326 -0.07518559968900287438 -0.1624010816253497469 0.15594565364257573226 0.11050170703816510065 0.13331228980907122716 0.14775168439126082354 0.12803081269796845465];

% Layer 2
b2 = [-0.95255891368922995799;-0.51780113005404826421;-0.99539304506587988897;0.28540826199027485854;0.044630755970445121217;-0.062316617016029876575;-0.16907469191173915557;-0.61107767346630470495;-0.011598790816378655097;0.27330555637837672389;0.81707922381773001597;0.61786983353179103506;0.68188663373991076355;-0.84304812756928704243;0.97230165149793046364;-0.024038447286979472417;-0.79003064382877474792;-0.78317518318332524085;0.95665976780646910793;0.046443797338899923954;0.085160768996413171994;0.5625082397635391418;0.045925002816394951133;0.42048889052072468964;-0.30566738182734742857;0.6940436589671252765;-0.10124904598108745712;0.64376734034541838181;-0.49768390977351056881;0.024013518032828407717;0.22120171949058564653;0.76117575203950293972;0.21877951431580272557;0.86126149972039456326;-0.28948363759988510191;-0.26088327011241074782;-0.64781170130265730567;0.83742861724538320001;-0.6854203360358233077;-0.23100988242642464532;-0.75336690542482553923;-0.63412525131676733547;0.50173331981418767267;0.026725740944040968228;-0.88247234998895529579;-0.70731243655907793944;0.74903711952048801503;-0.20086486545248563584;-0.50695696946744117639;-0.26339390640299176205;0.23263723243266165586;-0.4184808960756017937;0.21779550138029155071;0.99885914808773390572;-0.42804995315014227053;-0.00045448241513005010334;-0.93446614306076092316;-0.9336637597227585017;-0.89674797957407004212;-0.20135494712847057386;0.18377228266943212986;0.2175223692046741597;-0.46434704483156430399;0.87846861542465892736;0.17294741934685775586;0.4114380187859658089;0.064042156366125410627;0.66502113959427022749;-0.81394017447659605669;0.39293448860609159201;-0.52054720279773314395;-0.89215685444664305503;5.1437104906658740746e-05;-0.87290476593627375212;0.36684981918683634561;-0.56486959526721858271;-0.6499418163615012789;0.24573937198169568119;-0.50629716331790364237];
LW2_1 = [0.91537218501099415491 0.53745975141959523302 -0.90589654559813070911 0.28201361997060675479 0.82306326888829728361 -0.13915725143648266515 0.35959747891633819794 -0.12938955742568963858 -0.051618579754879372057 -0.24200276502368023301;-0.29231332485231215079 0.62472122984506439636 -0.52376802028381963527 -0.15160194615092514869 0.57764014626175275158 0.71837359999847483216 -0.48952927583110439347 -0.56330792027554899004 0.14804490861243999045 -0.87699044717735130661;0.23972432535499518802 0.54073689397455770855 0.33989107621348757515 0.12329894652008696609 0.5510684033599206888 -0.98989486927335623712 0.079223020820949396903 -0.42196378059821432194 -0.1831552005234348135 -0.90142743907417910432;-0.15385156009430123181 0.3423333577387305815 -0.41856170615617716013 -0.89180982544756226549 -0.64429083303677447958 0.46024239715476128465 -0.19375949751996426884 -0.33565727575814280348 -0.79093194838020741688 -0.32299718065278903989;0.69565277565861161069 -0.38954304775816239736 -0.91677083949201076951 -0.31820232335650938671 0.21456582465337867283 -0.025490537577445012557 -0.062748346664573573239 0.68907036689015899178 0.93345998551068221083 0.21182450963069526795;-0.91509744780777513284 -0.71536652657829014057 -0.919360645988079761 0.79233293532288551209 -0.93421652620752460017 -0.85823081092857222973 0.039675006184259939412 -0.19278101953028650706 0.50174794464989613818 -0.20248790300020735877;-0.85815285114350603468 -0.2531706124858288387 -0.043237512193110255732 -0.7549792607980971848 -0.57795011376658611546 0.94732080186110523279 0.57025280579594517238 0.93628275288635776086 0.93163143707995488274 0.31962191438349618622;0.11699334954266149555 -0.040863733219912143357 0.34819493543745849706 -0.30227555128160732423 -0.44078805576322610538 -0.18366048490268493953 0.95152379500013639646 0.12814254452786347227 0.34991440453620403783 0.68665276691128740438;0.74686037346660083536 -0.81497328796957535513 -0.0420913433842023052 -0.72722337271373183043 -0.22618182753922563832 0.12100729304566776312 -0.048700740786352926526 -0.72958040637444010468 -0.44362265892411195667 -0.1335329679670604619;0.21001794795501216306 -0.36373335398576728261 -0.23456221755346456925 -0.47439752860563888515 0.69272785715785645255 0.94714728669241243786 0.89902046082630659996 -0.308105376785237417 0.81716432825547602459 0.32624999353811878766;-0.02107876193882407545 -0.64453344425000314022 0.54928516567745444554 -0.36730164841183016167 -0.89972312425778233624 -0.98236658523549902355 0.32745955855419422997 -0.53721693918227575448 0.35479119438163497779 0.81024509500287622554;-0.27507219571860985763 0.22779899110611037671 -0.95527442876944779204 0.79465285427865817169 0.63868609491973782344 -0.20115908879420585365 -0.32843111680182485168 -0.42376038336266336204 -0.48328768426436330419 -0.5577924632264787963;-0.060714787688242996544 0.42059902885145028506 0.12760913206415677723 0.52800105348209303013 -0.75493672306761960833 0.22534443299566245256 -0.10652192376652344641 -0.45279145734770170906 0.40792875651767124268 1.0036426180836466315;-0.55243655829095217324 0.92363968620452974179 0.81434454949951828873 -0.061127425788149156172 0.10693796544085136524 -0.50130451084654903404 -0.13580714422388484586 0.8554778821395581101 0.30127069957814267553 0.18926555965407534932;-0.61112037606642088949 0.7737959627121999695 0.056839280320124932477 0.19153750662376059499 -0.24827867582275245373 -0.58381423860727865716 -0.38761188386833606012 0.66946032651761344656 0.81596719101951153963 -0.0039081192607296174127;-0.63414126427115657947 0.14346433672976113827 0.23243667271596490931 -0.54282742045435838918 0.77497335594161775862 -0.83622970878673952289 0.74744745485442964927 -0.22161698962065698448 0.47723730131478803163 -0.16605183322937178136;0.51796783873513707608 -0.63235027208742922156 0.95764308270859299643 -0.7824070376160225937 0.629584666940914639 0.29415467564157482538 -0.30761706955424861221 -0.85663187743230240212 -0.052240281961395129695 -0.67218920200545939636;-0.45183664032342446548 0.34440279344549962204 0.0061417277124190088056 -0.62473799192345791376 0.87908220659695091026 0.68902730520539079428 -0.15615521605137894223 -0.85084015730961048973 -0.77451668174876631134 -0.47295913193700661603;-0.42497789029742255584 -0.48556645723526958847 0.71549842105749728027 1.0077021903845442274 -0.020075494615674129018 0.24042818609536753538 -1.0099938007865585377 0.83466259455378288834 0.86382878517278305353 0.78084780408090526116;-0.40533370581344768668 0.45830888663645175107 0.18189740226015990721 -0.62036209755682636402 0.0011431021754717061827 0.51736811828520568035 -0.14211490119197375814 0.2913447831263828447 -0.67015308941318230129 -0.22507764212761366407;-0.61983490179950861965 -0.60972012312244505683 -0.23085363039490536252 0.90611933302577463145 -1.0377703948205878604 -0.46307254921500101696 0.69342962285798914746 0.82127451956180674841 -0.42657918741092881731 0.35970169976771670939;-0.11452340532053466304 0.32548707921141961652 0.55720434909975502524 -0.88600252659279599143 0.42669345367532457436 -0.38062151197542165582 0.80659667506441268259 0.56815518800700592905 -0.54797547870021956484 0.60791704509890265307;-0.51234426217320772068 -0.6406361472349443309 0.76641962381968931073 0.22715598865650299398 0.58604399961413489173 -0.80828267356014182887 -0.17218617394820404098 -0.24691492778045695533 -0.1241703641647934897 -0.89254450140449781426;-0.057547792462710356531 1.055659629784008624 -0.67196740294914525382 0.098074162752817453659 -0.00089784072639096518254 0.66194748246446655227 0.31150002414993938071 0.88764324053105914114 -0.35109499475540656421 0.83063063570826900506;-0.052845241728614184007 -0.61227267367304016865 0.60212090590225808562 -0.37960478274112235963 0.22617492744289000028 -0.21050529661592495834 -0.69347733119728416362 -0.088334885843136104477 -0.51313773797487860495 -0.13732255867713663577;0.83229924841516444989 -0.22381392620565776497 -0.073091378027477643675 -0.75546802512296029608 -0.51900125949000697201 -0.6456873027056684311 0.095044164771236200329 0.14846310088966221952 0.62569571477583052488 0.42036384530121284619;0.04906020492128503746 0.7750254165829544295 -0.732248744786103134 0.24239943121855705987 0.70342142933483065015 -0.19400165173207828406 -0.21895740292135776328 -0.50164413847407751668 -0.27802115968464008455 0.077077658872870519202;-0.85021679582864795321 -0.0066714825951404016502 0.91265223318760468896 -0.1353809548432952925 -0.1350473167188531165 0.12371945714056231669 -0.36401508854010972138 0.21219535861857449777 0.28106082859305137056 0.0082959334839699909458;1.1494399436389564073 -0.51642091911455101361 -0.38776002579708940265 0.077002602544365222892 -0.10178082560180926053 -0.47610856428372971827 0.61234675633517288151 0.19892599256154921972 -0.19520663926973153002 -0.52595455658187195702;0.79486412537299222514 -0.15958429245285479792 0.30875148426358128839 -0.92365139735057544268 -0.059349666641419551727 0.43217577270389412325 0.52601327075027737301 -0.67174509032123597141 0.89341881834323066958 -0.63028991804509859609;0.57774860164762720238 -0.26430558268213427686 0.5369061515584698796 -0.40135862027033680777 0.77377806865241327561 0.43532557071384037073 -0.44956847265062782615 -0.48907126281272511603 0.89282506771837977233 -0.46665623967311925524;-0.40385467480101860938 -1.0397006871278513529 0.35249659124760429618 0.10057152280332833094 -0.30384349163573187713 -0.6816090904124683103 -0.11289050918678925073 -0.74861851812630630931 0.64073421111261708027 -0.45891299380650912854;0.071237251692193304109 -0.26880761932918034729 -0.90069644746108890043 0.88785209760477479257 -0.89163647343094631914 0.38571584914389506205 0.37569127584592693081 0.63522205476113935418 0.046470235964535117068 -0.81328626960877048457;-0.27098810578471427268 0.47931940498307962217 -0.13546649352083534046 0.27117144633064582671 -0.82269257850433785695 -0.14230690649882352106 0.56572787080190189979 -0.55015323640163205088 0.54522977673559669398 0.775191552324532962;-0.32072843814088780601 0.14791637513283148464 -0.12011057658265356096 -0.82526726675808437239 -0.49196331881153648746 -0.22282310292381113381 -0.96117946408645704715 0.10424679492334723574 -0.60720477393927518861 -0.069421023891774569226;0.49171999912221842077 -0.65783100201526878426 0.23269722073038398569 -0.43420766395289128736 0.42021106111848255393 0.62685217246157975968 -0.47024736708142172992 0.52939334937373039303 -0.49793438981757803807 -0.49299593287019066734;0.65945919260799745754 -0.6302877612162842702 0.53021468902635549014 -0.14531543598916152327 -0.61527803524283941616 -0.23975613123099984159 -0.7206196544381443525 0.45609715018427532396 0.056066999077486696923 -0.30418162388991931699;-0.70511742429405321886 0.71196401475405723946 0.69052243653158285053 0.68591862902236311328 0.47318111826209169335 -0.92493745383456105191 -0.59588787467386228336 0.20163649946063466611 0.6939780799249374299 0.67893298302487981033;-0.064338247848444607424 0.84297372866132147529 0.93978974549126648164 0.47309326281733055097 0.16060886067893481721 -0.60195463758166412038 -0.91218592514386820369 0.75077082594223198964 0.003913920811476359618 0.25387318292504323924;0.2338756574458767945 0.25577902412403674681 -0.78169972520329844556 -0.47520038121600605141 -0.17013598961565648549 0.12830749137065594612 -0.25531994891513121182 0.13692953543127198146 -0.70370996138120989194 -0.04707204838214557735;0.74879561636176683592 0.68543456755463327834 0.62242598416614980383 0.55358018863263680487 -0.31628049015225156992 -0.28560574719496800711 -0.47677192054440326041 0.72817015133455664788 0.21276838601821637664 0.58139958985070949726;1.0113242979599610383 -0.10898274408264971291 0.77164334433682679748 0.025751743230653090927 0.81557164651356828244 0.74543046393155387719 -0.9124753011195110286 -0.054664292296315891706 0.79963557893305248214 -0.57336145986948217068;-0.34013763211306591305 -0.63967094615450492689 0.68661046830761329751 0.81549144262580808284 0.49290823535769989761 0.58524582976927264077 0.095249347788348981414 0.37464448144953405029 -0.34229189753412858632 -0.14375638983399938176;0.31698894761412266252 -0.56525558694259403492 0.62044372968725647333 0.75036197844453733641 -0.65330667019548560592 -0.35592246114938969059 0.64115508895212813822 0.92770945876350285886 -0.14542487263469691672 -0.30349499387408918061;0.14910406822501964808 0.30070927991650908684 -0.32546407087094675337 0.19926818989214750699 -0.83937417994265417498 -0.45417961873513584825 -0.9739372342125846016 -0.033806123217537217829 -0.78074811112048969619 0.50746490759846529794;0.068350731710312667699 -0.28401198229269014606 0.19662347278440020504 0.11001615997324230845 -0.69333164433060623377 -0.88921146361500602584 -0.891658084192986089 0.058715475914538989288 -0.056897614815933507393 -0.05631525933575178694;0.36709291039080260699 -0.68689824775732166717 -0.087864575918701046109 0.76814695727436999029 0.94172143660952245536 -0.95228605309782565769 -0.79691772317576270446 0.38357113041685203525 0.9258744424020405317 -0.72332029396942354449;0.056314580335669731093 -0.63261437344247262171 -0.85277799184242986108 0.11968938283269614509 -0.5744418961482506969 0.30645098272939830242 -0.8292407006057108676 -0.28815455622545205205 -0.91118948457283510667 0.66240223107799489632;0.60177774042450371539 -0.59928700874605034254 0.18259886583885856504 -0.86119686810001916388 -0.57681867020071997398 0.47978239440391762249 -0.41007396512280464007 0.64692082428501862523 -0.61317278025356247717 -0.095738533157495406267;0.65367837053334909569 -0.94811882467630792526 -0.66069077380666618726 0.22780008927855416312 -0.8879965454220000165 -0.44972860410393333819 0.31627742590360768959 0.0097003618643811094502 -0.30335512981586471026 -0.3145290269929010285;-0.17924496713385912328 -0.86015947785748858578 0.051711501273991093697 -0.81233748230632663034 0.57266436617915494889 0.17281182677003928405 -0.80662896528794758577 0.52502776956394336949 -0.25332938855398468014 0.19477856563625209341;-0.24242233489173214966 0.43115917114129054255 0.98392064569419479536 0.25721844287856415745 -0.73699549555705645698 0.65799686030636894696 -0.5309519106484236195 0.16071438963331841077 0.61272571369967454569 0.46159142403270914112;0.5014140894994747466 0.54005915419032102243 -0.014156019896851078366 0.33724908140343629048 0.88697421231244322204 -0.20918263554527957715 0.064774388320088888138 0.1637136766848479863 -0.91434210327914355876 0.64403668131788649465;0.1460871934017870799 -0.33902947477346501159 -0.42307240923449923597 0.79415084970606530934 0.66125886095670238785 0.26899891078212678774 0.82826467957329019676 0.29356643782805141862 0.94136394179479854216 0.42752583055742920948;0.7953671374322252019 -0.76964285201408078052 -0.81425661564009077509 -0.49474561483674678319 0.76207997329091903271 0.86834030699018260879 0.34635829579967103431 0.27650985388942850296 0.26340059865274167983 -0.38461797829190108589;0.76411511001664356169 0.49714614348683067169 -0.39777606805286541691 -0.85680621031139692079 0.64891194134393004322 0.23487766058570105909 0.10590161292285250882 -0.95418047968352914801 0.37899882067140122643 -0.66942162648487379961;0.5042458986182064562 0.46869354668903251415 0.44225858662807993049 0.08304558670421050004 -0.56501155797867141928 -0.76967447884267181646 -0.2992563983167886299 -0.17335144586630032992 -0.56654381631596184565 -0.11260935111507204553;0.85808733848762086538 -0.49524863432896509829 0.59465489002298543841 -0.48275729082655827185 -0.9889556425752976665 0.59944151827937075527 0.27035882061360150264 -0.64768584883315938328 -0.80267487429317518899 -0.5840410480374881308;-0.12927472368676534709 -0.23624661651699258025 -0.29219890330174791426 0.0072167702287902696714 -0.63474292015963407199 0.050579008988462702268 0.44363885025082522295 -0.085498271179533569253 0.28437536125164675216 -0.84393151301822744159;0.68258479813645545065 0.033545632511685928578 -0.66626797391134484627 -0.52378212427304515764 -0.72343461195662084329 0.76333673300946203177 0.31691107828326503526 -0.46454289923601399526 0.9235176592641995974 -0.54843540149292890895;0.5245047468072666641 0.78839484871196208182 0.83632267300421503364 0.79171313828366429721 0.54674046063220238523 0.32347117155943483358 -0.22667810260698217917 0.90989308716943628763 -0.48488517585175017199 0.78243113416958387507;-0.86801500846987189597 -0.98016817009974177566 0.66976123951169130866 -0.78587831265259477931 0.064658831723219220566 0.79249278550412560751 0.64722468551293443895 -0.68192016922415277236 0.2348181391812617369 -0.30726540549641745415;-0.019594647104703294405 -0.25703762566713955762 0.27561995732312360996 -0.74758039411108379024 0.69372457268979503819 -0.8061162973711052393 0.77521938615184493582 0.34007359376921098004 -0.28402590829805268724 0.36954466651852829751;-0.40378899421720831908 -0.41939744208481943843 0.31029208184224804645 0.46523731990890837551 0.15261545733729817154 -0.34893140491581942086 -0.11882885249837135677 -0.20658121389081707253 0.075916919125390905365 0.65226865407752165904;-0.03683552809283067303 -0.83207548904433814574 0.89114048810891233199 -0.37070155636736734639 0.28634858546145663949 -0.26484313167019435387 -0.11648764434520302025 0.34425277310192292646 0.94487521271429575354 0.50407328777901105887;0.30013267846526547888 -0.046690021642960204129 0.70936800697703683571 0.32241927264596209612 0.4431798867910244355 0.29806616097166060975 -0.31496126414734637589 0.45184125621655168992 -0.6536930138436333193 0.72197382467072146461;-0.85361937421171496521 0.4705734183099431478 0.6095281794489625371 -0.66393756908253598326 -0.18314701426108209725 -0.3502924569158498147 -0.80424833123002648083 0.57676560048507063971 -0.51405325531091594637 -0.73496655348150663478;0.90855060858186331707 -0.8629598303033132467 -0.49279371345639760849 0.57924994621998027178 0.87626005446023891299 0.15286571529971712535 0.79453383861666704302 -0.69732724353158714869 0.97780974327459146966 -0.57666564028824407462;-0.17144938282753635628 0.58059166384680926942 -0.84699017017168753974 -0.50714714369274260797 0.52598273986678967251 -0.44988262351733526723 -0.72679626902711147451 -0.95742567122785593448 -0.43542540329444512359 -0.69566951477595828646;0.54508990933706880089 0.20656741543267329031 0.46156128865388673654 -0.40812958991871184367 0.92558197295457877996 -0.21796547727567266994 0.71037289130379821511 -0.61472242290053558111 -0.45874538376983386989 -0.18430720488065993612;0.059414805411011094305 -0.92883476089959327027 -0.27553570415445910458 -0.27354248736730429892 -0.2376466492309484424 0.91401816133111501994 -0.39138379826756447555 0.94166667545137805462 -0.89788082867623475458 -0.11142649482481697953;0.77923716264301512435 0.2843640694142840486 -0.37800357345954688215 0.83168863715916629964 -0.86163269771545702991 0.58054113794101647184 -0.71539413829937381628 0.037507896647748256713 -0.6814055513938959141 -0.95747265776444612229;0.91526947627469790181 0.70550476837392483986 -0.72344138753436648681 0.88733169062784200687 0.28100558330351310676 -0.91341926240329729403 -0.23362667241474585622 0.42440672408614510402 -0.85711134661737820029 -0.63910895558404856587;0.60256942135846291997 -0.27830296130641912766 0.80841941718695775609 -0.43068218238786187824 0.15194080362783909943 -0.9305933061770526038 0.077169378694754417469 -0.27892410916896043238 -0.074642376642626559469 -0.60152307150971529026;-0.34948893449162504732 -0.50240511716419256061 -0.89277589016881087058 -0.81794020313115489706 0.71029428473648636988 0.80411597544732504872 0.69895432365760334914 0.75781451255243492682 -0.14167789215082496335 -0.49670297851919664733;-0.05849492140660709355 -0.58341304621654210827 -0.69010819868213224559 -0.59722938067487585379 -0.21845106732159053076 0.095335601846133877224 0.7321723701281878105 0.10128959280178458091 -0.90863318613507859656 -0.10088996897926116869;-0.93110568041737717948 0.017521162784548013208 0.17417681690741662615 -0.51964364533650120315 -0.80998957182877595606 -0.54078031489997357983 0.58436833910560515015 -0.37019318429813247162 0.47578111134111861213 0.487929724520902941;-0.2945350686185436162 -0.49206247484710441409 0.64189466666769112724 -0.71616129918910742536 0.81836647547226659682 0.71321272444616412578 -0.20075892579289691953 -0.12959350102870187404 -0.81588115205684241804 0.042285006934164516557;-0.53520147526030492635 0.41402141763398453422 -0.1313079582321105554 0.024664426938001627471 -0.27311927616185333045 0.73070222873094903271 0.9572797783902624591 -0.098083701923589172722 0.90409687507249603122 -0.82921558194456512769];

% Output 1
y1_step2.ymin = -1;
y1_step2.gain = [11037.6421052632;5592.40533333333;3780.35511491663;2873.3029628361;2329.84529926399;1967.54028380439;1708.99623102781;1515.14639212499;1364.55599837332;1244.13911753801;1145.74991463498;1063.86911857958;994.617974863647;935.341249930312;884.081572429783;799.867270560191;733.590555312637;680.203365092236;636.295976030644;599.614581844174;568.545731810634;541.95225635559;518.952519409818;481.301738481841;451.911542087542;428.525861408393;409.6;394.099645298443;381.291697915956;370.644338893185;361.741650315876;348.067799423248;338.536986964769;332.070858816777;327.955431319272;325.695294300357;324.950920007747;325.461522046984;327.034872614569;332.868060791238;341.666992505702;352.959333515663;366.450778673307;381.968809052205;399.40046660001;418.708128478375;439.861989408002;487.823214701093;543.550055076784;607.649981890619;680.810615590634;763.95501115614;858.03794814095;964.263233519168;1083.93952707068;1369.68046371132;1729.25334982478;2179.4253052741;2740.479581836;3438.6587415454;4304.05746536685;5372.14729426833;6692.14838452333;10299.0890116636;15694.3086997194;23730.1499292786;35544.9491525424;52924.9716088328;78033.5627906977;114912.438356164;167772.16;349525.333333333;762600.727272727;1525201.45454545;3355443.2;8388608;8388608;16777216;16777216];
y1_step2.xoffset = [1.49820220470428;1.49641561508179;1.49464023113251;1.49287557601929;1.49112176895142;1.48937845230103;1.48764562606812;1.48592305183411;1.48421049118042;1.48250794410706;1.48081529140472;1.47913229465485;1.47745883464813;1.47579479217529;1.47414016723633;1.47085821628571;1.46761214733124;1.4644011259079;1.46122419834137;1.45808064937592;1.4549697637558;1.45189082622528;1.44884300231934;1.44283878803253;1.43695199489594;1.43117833137512;1.42551362514496;1.41995394229889;1.41449594497681;1.40913617610931;1.40387153625488;1.3936163187027;1.38370895385742;1.37413048744202;1.36486375331879;1.3558931350708;1.34720468521118;1.33878529071808;1.33062279224396;1.31502544879913;1.30033254623413;1.28647398948669;1.27338778972626;1.26101851463318;1.24931633472443;1.23823642730713;1.22773766517639;1.2083375453949;1.19085240364075;1.17505860328674;1.160764336586;1.14780414104462;1.13603389263153;1.12532818317413;1.11557686328888;1.09856069087982;1.0843368768692;1.07239413261414;1.06232583522797;1.05380606651306;1.04657161235809;1.04040861129761;1.0351425409317;1.02675247192383;1.0205283164978;1.01586711406708;1.0123462677002;1.00966596603394;1.00761067867279;1.00602424144745;1.00479221343994;1.00307393074036;1.0020045042038;1.00132632255554;1.00088930130005;1.00060343742371;1.00041389465332;1.00028681755066;1.00020051002502];
y1_step1.xrows = 100;
y1_step1.keep = [2 3 4 5 6 7 8 9 10 11 12 13 14 15 16 17 18 19 20 21 22 23 24 25 26 27 28 29 30 31 32 33 34 35 36 37 38 39 40 41 42 43 44 45 46 47 48 49 50 51 52 53 54 55 56 57 58 59 60 61 62 63 64 65 66 67 68 69 70 71 72 73 74 75 76 77 78 79 80];
y1_step1.remove = [1 81 82 83 84 85 86 87 88 89 90 91 92 93 94 95 96 97 98 99 100];
y1_step1.constants = [1.5;1.00010061264038;1.00005197525024;1.00002753734589;1.00001490116119;1.00000822544098;1.00000464916229;1.00000262260437;1.00000154972076;1.00000059604645;1.00000023841858;1.00000011920929;1;1;1;1;1;1;1;1;1];

% ===== SIMULATION ========

% Dimensions
Q = size(x1,1); % samples

% Input 1
x1 = x1';
xp1 = mapminmax_apply(x1,x1_step1);

% Layer 1
a1 = tansig_apply(repmat(b1,1,Q) + IW1_1*xp1);

% Layer 2
a2 = repmat(b2,1,Q) + LW2_1*a1;

% Output 1
y1 = mapminmax_reverse(a2,y1_step2);
y1 = removeconstantrows_reverse(y1,y1_step1);
y1 = y1';
end

% ===== MODULE FUNCTIONS ========

% Map Minimum and Maximum Input Processing Function
function y = mapminmax_apply(x,settings)
y = bsxfun(@minus,x,settings.xoffset);
y = bsxfun(@times,y,settings.gain);
y = bsxfun(@plus,y,settings.ymin);
end

% Sigmoid Symmetric Transfer Function
function a = tansig_apply(n,~)
a = 2 ./ (1 + exp(-2*n)) - 1;
end

% Map Minimum and Maximum Output Reverse-Processing Function
function x = mapminmax_reverse(y,settings)
x = bsxfun(@minus,y,settings.ymin);
x = bsxfun(@rdivide,x,settings.gain);
x = bsxfun(@plus,x,settings.xoffset);
end

% Remove Constants Output Reverse-Processing Function
function x = removeconstantrows_reverse(y,settings)
Q = size(y,2);
x = nan(settings.xrows,Q,'like',y);
x(settings.keep,:) = y;
x(settings.remove,:) = repmat(settings.constants,1,Q);
end
