function [y1] = myNeuralNetworkFunction(x1)
%MYNEURALNETWORKFUNCTION neural network simulation function.
%
% Generated by Neural Network Toolbox function genFunction, 09-Aug-2018 11:07:56.
%
% [y1] = myNeuralNetworkFunction(x1) takes these arguments:
%   x = Qx100 matrix, input #1
% and returns:
%   y = Qx100 matrix, output #1
% where Q is the number of samples.

%#ok<*RPMT0>

% ===== NEURAL NETWORK CONSTANTS =====

% Input 1
x1_step1.xoffset = [1.42060220241547;1.41984069347382;1.42000067234039;1.42097580432892;1.418541431427;1.40869045257568;1.41579711437225;1.41475939750671;1.41143560409546;1.41509389877319;1.41521227359772;1.40842819213867;1.41563653945923;1.41273975372314;1.40975713729858;1.43086338043213;1.42914927005768;1.42293274402618;1.42588901519775;1.42166078090668;1.42107248306274;1.42253363132477;1.41867685317993;1.43107008934021;1.42574608325958;1.42412972450256;1.41926848888397;1.41740238666534;1.41552317142487;1.40850615501404;1.40699398517609;1.41392862796783;1.40585911273956;1.40017342567444;1.38803350925446;1.38712179660797;1.38045072555542;1.37569522857666;1.36633253097534;1.36907207965851;1.35702633857727;1.34527111053467;1.33435320854187;1.32461988925934;1.31416308879852;1.30447018146515;1.2948305606842;1.28936421871185;1.27324616909027;1.25853669643402;1.24300110340118;1.22879946231842;1.21408092975616;1.20206570625305;1.19059324264526;1.18352031707764;1.16478788852692;1.14801967144012;1.13142025470734;1.11890006065369;1.10670137405396;1.09573519229889;1.08587968349457;1.07950758934021;1.06455373764038;1.05343699455261;1.04331052303314;1.03525984287262;1.02865767478943;1.02339768409729;1.01941025257111;1.01704633235931;1.01135575771332;1.00737273693085;1.00416612625122;1.00253367424011;1.00065732002258;0.999801754951477;0.99894767999649;0.999450206756592;0.998329401016235;0.997754216194153;0.997153162956238;0.997443914413452;0.997577548027039;0.997168660163879;0.997157990932465;0.998126685619354;0.998071670532227;0.997831165790558;0.998070120811462;0.998005092144012;0.997812807559967;0.998037338256836;0.997883319854736;0.998684704303741;0.998632907867432;0.99865460395813;0.998598337173462;0.998671352863312];
x1_step1.gain = [12.575699836144;12.8794055759117;11.8113309030902;12.796397498568;12.9119074005664;11.4976147742139;12.9622256079659;12.6643628496676;12.5901292916164;12.8057740878952;12.894332699782;12.6575504103824;13.0962114600718;13.4025695982796;13.0907955967678;18.8482631555296;17.7959071107401;16.6749982606621;18.712708907746;17.7873790432449;18.4323285058547;19.2452896850843;18.8669155683505;24.9220736585822;24.7991438589023;25.4562415315123;25.9567789687353;25.9426507335659;25.6966132431505;24.4565474394352;25.1710595803927;34.8305538312701;34.4890862370233;34.1399318308999;31.9327587782075;34.2795822836279;31.6843578320375;35.734523829809;32.7575073609235;44.1613763368403;43.4878366784088;41.8175872382851;41.9838693129068;40.1778271635686;40.4311183300479;39.5275136413755;39.4985721180445;46.9225816736633;48.7308870899812;48.5126188438317;49.6244010364288;48.668546431348;47.0738548044063;47.9181999417346;47.6918108839515;55.107181217092;58.2443125995924;58.3717764943289;60.1392106046105;62.8927833737568;63.361416389084;62.5350504128073;62.6401179830866;79.5656644218913;83.0534689735403;90.5242211358952;95.2147283830106;96.2310847008483;101.73435529252;108.333059980499;120.667275617282;148.664333247676;166.816302586181;177.864173186608;187.185129812895;212.407464613982;210.280328382528;224.62165455008;237.239421085006;320.108679475683;325.707940205785;322.180281906518;320.923065151689;356.105873113578;372.752471727877;351.105307215804;345.84710526587;481.018851154723;502.296817460555;491.186626264401;501.03676272958;506.64258859412;476.740576559681;492.853206427543;484.23286287413;745.703758028313;700.334613458006;697.655355954757;728.905417734718;721.523105042469];
x1_step1.ymin = -1;

% Layer 1
b1 = [1.6142197773329227672;-1.2221394648358463453;-1.2042345152157911681;-1.4070289343183459696;-1.3829481280740179017;0.49827233003909454645;-0.15004687496146798531;-0.51135596210318157162;0.26772130182103615059;-0.32581376129655492679;0.17130487595272006485;-0.23113631302062367934;0.46954373548379518821;-0.54486488505428809503;-1.0216325616948915833;-0.94107713040267515492;-0.78225343700148641801;1.1524993104895446816;-0.90682751226758495644;1.5654956076688149036];
IW1_1 = [-0.061684529233919246916 0.0057582577161300807153 0.01929535561534628102 0.1417503211669165486 -0.080024564930327793388 0.1303608308618089684 -0.00255326669319515644 -0.057624393880533267276 0.038090831894927644485 -0.11935569017008805515 -0.078614740038465288907 -0.041479119996039870433 0.055449462961113145376 -0.091377279436740593832 0.12463807513768809798 0.043054461214532262214 0.023321692321339810433 -0.015040119388059092903 0.023030375821198746655 -0.089046013434212104021 -0.10847609269144727062 0.01159202716385216575 0.071526026508227591449 -0.024323112619525015521 -0.016401112045523549149 -0.026178263099622161442 -0.052125712073008152736 -0.08872291583854680086 0.034382664811984271769 0.01804383416795425979 -0.0346736251088195363 0.13657764853632212154 0.069488200230443719629 0.058675166308640794299 0.0093150358375869417998 0.068740184873495147055 0.17775219201794270618 -0.086471861378169090351 0.092385777362414434055 0.014363428249029048384 0.090417476814089334236 -0.067001101445170699322 0.02655407262846237737 -0.072374065018294284068 0.2082715118233644247 0.15812992317870314118 0.13568003071271439453 0.064871034036087724117 0.16512321017980463589 0.16779174331357793459 0.15089043412801858568 -0.074043198111028135644 0.18363778999021590499 0.01185702958981096726 0.084904858671660532465 -0.083586775491433298879 0.22043359382399377311 -0.0051067152027315506832 -0.041565727727688024651 -0.016258125464421121359 0.047942606310640303868 -0.053908094842535517199 -0.077362953600102410401 0.11975068294136743952 0.20469818874568707079 0.16162936378017483952 -0.086431904227070296964 -0.11053744722122268995 0.11055497762313090671 -0.042515017789037337637 0.023544613966316359221 -0.10258247450871341155 0.17387752537855366564 0.1717387162319591043 0.10546440451204110167 -0.054276122533428228234 -0.085815435903737344314 -0.081263579674861641244 -0.11698246217852506512 0.090735622554216910363 -0.059720915493143608699 0.11812982160521254271 -0.057158666952103115433 -0.11212263099290191437 0.022667053037221600309 -0.082255568835172473974 -0.056068711400401052836 0.087066852464579291837 0.029130898186821036627 0.069229661317269722276 -0.12047996611009340051 -0.07586671762956642695 -0.0072892580310876574703 -0.0096106481927852576569 -0.020213952541887375558 -0.10981968924418189504 -0.14587737353749680169 -0.0038890814239280180852 0.10923564726372859968 -0.070147467134491339746;-0.0019548428919970071115 0.10913955234359370983 0.057793626767930331156 -0.084722886609534017732 0.049608183797878221966 -0.068357744011474763646 0.049423189844977670482 -0.1114444415652980358 0.018585160742992316851 -0.042174902400900313171 -0.023462029777938174513 0.025165875181308184488 0.026785493779491832689 0.12908416865232846815 0.010158027379038758742 0.021853159016063376796 0.05441473986848743144 -0.018384591770642839947 -0.016885234826472715619 -0.076730719162892688234 0.11693077914926038041 0.073710271465222326759 -0.10480604281701451364 0.0067132915748143347223 -0.13025908231030605688 0.062258498996479970378 0.033945939758893484139 0.0022552654617668905709 0.10694097433709962019 0.039536198880059152116 0.010685189608308607798 -0.032319921889934342951 -0.056637552019084866362 -0.075554261299939862173 -0.11935319738051151928 -0.016496018370392030727 0.010752133273029613331 -0.040274799104464409361 -0.033138684999075261606 0.068347315368029529226 0.066694174217684643047 0.066018762487077220502 0.043724498459508411019 0.093343424849817807631 0.052703301963818678655 -0.086161878532667712793 -0.060719203565120498378 -0.027135129276076325883 -0.043227650598333763887 -0.026453466196003413285 0.0056619531325534490709 -0.09311913036871927174 -0.013784351403144767811 0.13754290482922904015 0.1329249973233212756 0.2015116628724321346 0.11476465017396342283 0.041548434745307998017 0.1251509363843446021 0.058603990294372680647 -0.011663294388942415866 0.056067619261829182431 -0.0095878947664902840209 0.25359768823957345996 -0.033934770508474439155 -0.0050883233079831472964 0.14308613816028392662 -0.0043231717591992882901 0.082490222481654912334 0.19541983629105394438 0.16606177855216849859 -0.014534307189315818012 0.051077479616672395724 -0.039370146708806209868 0.0033040667999636955804 -0.06291552021868956901 0.044324369735050911379 0.18086618124549344588 -0.025289964496698069674 0.051435148046714368464 0.10960326219563236438 -0.13111127066631789173 0.11933476044499730095 0.093247396846630359324 -0.018634125916129982287 0.080078805158473861936 0.074198688473671864374 0.021561909786448812953 0.10877290167272499199 -0.021507482437641455703 -0.044871909142889868094 -0.070020141208901071073 -0.028269040938336341406 -0.083286118494908606413 -0.051678044838857351007 -0.031702724724098886588 -0.072079726351946329932 -0.009959020248704569811 -0.091635988431320716807 0.083986203378380905327;-0.015505437214433591062 0.0093907262429749529392 0.040871443663753927178 -0.067005710690907688276 0.0036896448545827866504 -0.024473477189995995057 0.022043058993270341767 -0.042030024323269979392 0.0073847392597118990953 0.015625504503733730205 -0.018269093485305670788 0.028660896340829508655 0.063259976009080939874 0.046120967232899615085 -0.10306340549657323769 -0.052169246704188813879 0.043858561885283316173 0.02161444849959429787 0.039683860319394789751 0.081364823569150465654 0.009598758928829002196 0.046047711941691146786 -0.089517394483959913942 0.0060725170169000242809 0.005720609002147956923 0.051073533149356593885 -0.0044028783725630609575 -0.032229575917299337073 0.032277761476006826269 -0.027745004356655073724 0.041751561111703715257 -0.040250501757827766847 -0.013483398320348064653 -0.03967582493749464978 0.020576595481958344369 -0.073952124484073442079 0.033816333511427085212 0.027795212159766775895 -0.065033636461168484177 0.080546522411814008846 0.0077008276022522579793 0.10576286243300460355 -0.060605923155964240567 -0.065872293044473034795 0.013873968081519952658 -0.11838573119008924395 0.15827954487169185183 0.079670166543562556671 0.10750644717587223842 0.12401427425043054509 -0.067052412970562233485 0.093763932104950042934 0.11293237850854513649 0.096742504977390536558 -0.0099026403651658150007 0.12447915654961193288 0.023892144512704514836 -0.083796965998556641186 -0.13929734679686406329 0.021512336755002456345 -0.041172432030244704437 0.090051858833937001303 -0.1031093776960852193 0.20427682608453309743 -0.10149517722926414132 0.12525642106692691513 -0.057076872428352166955 0.12028694200570511086 0.014461070621953016346 0.13568387499833131637 -0.10112229110122160358 -0.095635357791104616543 0.011462607444276660257 0.10260558149892187729 0.046430753872809524263 -0.025211027426537076929 0.01362058337420649079 0.01749627876152509004 0.12112298683030942037 0.068368759408950610656 0.069827806648305429382 -0.051094030502112405823 -0.033026507108758144937 0.02153060871905683113 0.024800701620993164526 0.052173929324218534798 0.044813490584648882353 -0.0078274019464210399522 0.0011318559718048409966 0.055615755770348496156 -0.058092573127175244074 0.033907847208940654349 -0.019713083130953767963 0.064767687023559714077 0.064123796026244447854 -0.038564503089260598889 -0.041122155033707814831 -0.052470866624691317459 -0.021355322555833795156 0.011384215119642613137;-0.030381431027407281714 -0.081237092492657175802 0.023129563961086788831 -0.012533186991976502656 -0.06636787689669387813 0.080680486360775599541 -0.022763720850882792485 -0.072432309845478839994 0.013498806508135455934 -0.0048834976173295525925 -0.05959374439056366185 0.012940795309464002763 0.11999019276647922283 -0.058989953049324798939 -0.14812534109480765543 -0.0083407883195369836998 0.041788526984323025315 0.087991927820210535938 0.0046702531994708982102 0.10740844749832434424 -0.073775009227051047134 0.081603746153867659507 -0.043951567825652737564 0.1038048165594396971 -0.040493213216985908531 0.062561517914393127704 0.020626376548257732702 -0.02262707070594588768 -0.0063317268918579357878 -0.073284519330719125052 0.047382771057998790409 0.0057211924806193827781 0.087543463076133129497 -0.013556355184114498788 -0.018032897071388033494 -0.068463420286012655058 0.042758301538664715558 -0.045279030812881287948 -0.063293572341565698669 -0.075380437570993552576 -0.039145282031154846059 0.10205360511407816915 -0.01916062251013197007 0.08003965398023549227 0.09359403630657152362 0.030665025022563050655 0.12560523843505580488 0.16574842889504792787 0.19563725232654557984 0.060268069906077609277 -0.045486267089447474099 0.035173170879624723884 -0.10302153130693129934 0.073851211008103365141 0.00460782387798536891 -0.098180234466960475403 0.18004732613486382209 0.0019335032433854511605 -0.028658019073352605094 0.10642976406423904079 0.081648810735299712227 0.06253280801491070684 -0.032125987532570635108 -0.024908359232611587686 -0.05795106772299821879 -0.061443912207030125516 0.13642921416088127362 -0.10479210362739846407 0.0014842628128467843206 0.06797489812111255636 -0.0066587610053396445453 -0.042336029843820198459 -0.021962871151999900643 0.11045389873170059769 0.10438414204874028879 0.0084290604123113746504 -0.047455537303171854702 -0.037041355505025810868 0.092224403825708400895 0.064558060279383502889 0.0047599297521929715207 -0.075898652113636611016 -0.021013366839056985685 -0.036867781695971470202 0.037830871175452966682 -0.015871542534732083901 -0.0056877082352183487915 -0.03696513688741880771 -0.035350330057877542289 0.16377674840453557148 -0.048473032837436459686 0.071537753395982131566 -0.030657427937253099032 0.1000843465377164454 0.050884397303256091727 -0.022961581491913518605 -0.049183498136987947869 -0.072712277233910743712 0.10580947751919086985 0.019182398293411194456;-0.059730164908913210842 -0.032062204239214936452 -0.17800043971244572383 0.031101129897764208387 -0.019421899715631022604 0.044051043389775723647 -0.014839818746109102732 0.056108526953676997329 0.025266154768652251961 0.083476528796590440673 -0.0058238300029712633185 0.073998970341537906314 0.075009211572813067059 0.059945623444403198232 -0.14768975435315054301 -0.05487099117758037492 -0.056589937374347358545 0.068418482276673311948 -0.097892561399553087997 -0.022485220614963306179 0.061289188129854559051 0.076857576284010686862 -0.012389061871314770158 0.035339769737709331165 0.079102108445018984306 -0.11101191416228621545 0.10942496906262162704 -0.0001976349868005591523 0.04073750116873760263 -0.13992892259139902422 0.013426201221790664414 0.097469530609608334704 -0.13516171409233146417 -0.064190035176697884944 -0.22824844638640803818 -0.016785959686237281879 -0.062787014319472103652 0.027066715055983774779 0.12120614391223502593 -0.081009496328542360266 -0.031105323529304708396 -0.032609420607095984668 -0.053466654056149004459 -0.14490036202548609023 0.040869213061308862223 0.10573639954214571202 -0.056715350379584687779 -0.10965591456874086707 0.17227255848754396972 0.12709202478042164186 -0.12520993800557081443 0.078111954585702109144 -0.2103318875403948629 0.067854987272053995939 -0.049247921742827382996 -0.0016081447900354547444 -0.21401051564965667406 -0.10912795402237447651 0.22527234943113363941 0.2355757568947530467 -0.04452101712808911177 0.04856948669454860118 0.15657400390306563942 0.23749470352598486822 0.012558838323552810531 0.033008578433507934635 0.011254042302015355992 -0.13436265769644112344 -0.012704548537431742741 0.093126039721223782819 0.13315065416061616643 0.001341796724741828534 -0.13103049136452055157 0.020667049131179279081 0.092233578738585828005 0.16909606428073120643 -0.094841183606797122008 -0.016501246547617164084 0.13902592925249687705 0.059856902214129752149 0.065776292707326683429 -0.073243538652393469501 -0.0960068943547710274 -0.047921331475506229181 -0.049019232822287088502 0.053462473407569953421 0.031124761598537234453 -0.076597607342329787627 -0.01842854315644114338 0.029557850159556177394 -0.026128523046658590906 -0.10714332389500422216 0.051338441225806968893 -0.058453789556588850451 -0.011444629322832900603 -0.0088889505296052100103 0.012409318776617335456 0.064709191446418790061 -0.012297135826426629224 0.096637957992588452427;-0.023708108106028615014 -0.032147728938072932248 0.0011250097506143475357 0.035306002983884532398 -0.010857807487579007252 0.017664354774030045087 -0.0077155522909327723183 0.0066939868974820824349 -0.012406712378729679858 0.037675168038549408656 0.0090202116139366586567 -0.016266888541221241615 0.011182617643550179024 -0.038285317122297421455 0.0068232887943319294952 -0.0067485797149130994158 -0.052176204919986868269 -0.023357988299470874849 0.0041804008382984158415 0.031500215050753108126 0.0058603993602598589141 0.0092888508342041497395 0.052577773750835103683 0.004130806514058256787 0.036789037884177672177 -0.024963892288437889572 0.023118998207153410723 0.019750083741110605051 -0.0022180203929649468415 0.021773099908426598453 0.023029300468936794721 0.071453937423458444012 0.061532704436597071562 0.058577842736641426435 0.035027587217398320485 0.022565407130733999147 0.0055985867441234894032 0.035460339008634482461 0.075618171506607059773 0.0044253552318462762924 0.026056041812466981117 0.048743104868935252516 0.084747916777935070054 0.029211033274996300868 0.064091254784390594423 0.082974817185713020673 0.03388649141384354746 0.063281245543768641082 0.042270355092934308594 0.1183624419518789217 0.081042469203826461577 0.030103570339613229534 0.035135768249777175887 0.016226814283236672826 0.033457434711821519568 0.04307313915615264277 0.0022347018547693971516 0.04210654332908257691 0.019307684718852930611 0.12590480009410975892 0.052518868058638527863 -0.025369654087133045733 -0.0028226028055965725339 0.041538191176520009029 -0.050369494774619119615 0.06462322252671640066 -0.04878612241610699729 -0.05146400813195543128 -0.013751656967911416937 -0.017611569201061071099 -0.015622511417054792127 0.051438717401739969537 -0.026722298905187142487 -0.0015454654507672332085 -0.01579166704756660225 0.031757253544586125371 -0.0059901731006635041202 -0.054663293616299728217 -0.0015638650780329596546 -0.023930006396805134083 -0.016429207065578151775 0.012356690523447413921 -0.0072126749339348015383 -0.034334246882041542792 -0.014627784941045423456 -0.035638955020372627136 -0.020509242133405505837 -0.050831797585743486445 -0.012617340663134394077 0.010367189701403456761 0.014342354730654222755 -0.0025632089967958693495 0.032901998598942903962 0.02091362746632765765 -0.0022799423381560587898 0.024783784294637470347 -0.0061228145215068505852 0.024181043576259067529 0.042932952039131173916 -0.022958744594207575185;0.020963236399217041045 0.020617467444738770549 -0.0019277973487986414195 -0.010416909936741455475 0.013708741859235550747 -0.025447993588374063362 0.034615544512213686223 -0.0063786615398348772005 0.01486860311313958731 -0.0015415097283882832173 -0.018933076976524552265 0.010057068297265698772 -0.03383208079213456676 -0.010172301566060477918 -0.0056837024723908492058 0.011530622430373480697 0.0049317935556192488145 0.00084110466293227403346 -0.010521252747239496009 0.008940404438194958503 -0.0087392432781764062266 0.002189706240548570243 -0.0071215173397771881075 -0.0050576758812142484645 -0.0039586411191485093575 0.00013351171575046660248 -0.034188254826763207761 -0.020489853945326080148 -0.022234012710419342324 -0.03512893038369511306 -0.0093086289249718120326 -0.067122627804558701592 -0.021891841069851182555 -0.01937383804262214973 0.0068701725614885170504 -0.032863387170488075895 -0.026455083763642854577 -0.02223650516117405343 -0.021660368054128090187 -0.014334352036254060375 -0.035713510366799962326 -0.056972816102889775602 -0.052611910085943854043 -0.031136042695188267254 -0.023803565921451077386 -0.077006274680797862087 -0.023216935999495928039 -0.11883541871624478392 -0.022114762608739246125 -0.067862146741755322021 -0.093167589689473653825 -0.03619977269366134176 -0.070464360280912782808 -0.062623278565579920674 -0.038872333398911114444 -0.098367125379747316627 -0.10839346151269663165 -0.053485875220599096713 -0.10499802974254947296 -0.072278211895468402748 0.017569226487603721576 -0.040031403786883322515 -0.045264804727473809121 -0.082279486530991541304 -0.036191516260651888925 0.046282522194037903351 0.03698257844616738288 0.0045469187252766569279 0.051756855845830944396 -0.025429550246173569794 -0.010283930323102279461 -0.04151868785112741711 0.018571386982495285273 0.058468929443132248991 0.036204820400345741338 -0.039609889956693587754 -0.0050677486957191684308 -0.03329301759494621149 0.016419455695766464742 -0.018708250857621695068 0.0036358863512405961357 0.02083483725762529104 -0.0088161319611410552538 0.017416934927431189373 0.012292700364864503348 0.027120709193239906504 0.0018023213735036769465 0.0033520855816290282339 5.6554729927943284476e-05 0.018835822179708784641 -0.0088722419140560421225 0.027198724144725915791 0.0075614997313764031883 -0.0038230079297846032704 0.0043790159966309860629 0.0012011191813902334039 0.0063743344782631805243 -0.014448375465976064438 0.0080912508335099723317 0.018219444072425410724;-0.022133605139176101839 -0.0048220450790234748936 -0.018450886548418574118 0.02393487061801247151 -0.012487023375138973577 -0.039818153434783308542 -0.043897154753249609249 -0.043505801050142303699 0.001105890573578691919 0.049601889932967074825 -0.0069958225592095316103 -0.012054233988705120514 0.041826551206123774307 -0.017376091371606540437 0.0037178670739052392669 -0.0019237414594356358824 -0.031292764021533372998 0.046673748365039652297 0.011658967812927866631 -0.0096491628747010973338 0.038716033327939491926 0.031558750281382053071 -0.019053129482604406336 -0.034743996293000088682 0.0086644385497506269667 0.038219236187980981656 0.10166323697034625184 -0.015172377940302567492 0.074432018971140198604 0.040100802711149872992 -0.0022312746023568524358 0.070551318019911560264 0.073404034965585396311 0.082655220166479859145 -0.049914972033719640088 -0.0052896068628562279562 0.053872226002817553969 -0.032806957984679578633 0.026104526244021191567 -0.068757848109780250745 0.019842534446676742682 0.10112383266149689576 0.002334315205655668711 -0.0014895617892351506809 0.019441618804123071002 0.08446254721422959133 0.015898891671306120132 0.23078835798975946836 -0.067113324453264538993 0.11507222693953310377 -0.037070848571744530187 -0.011532973555820984907 0.048741983552634031429 -0.012119781295911607327 0.020877072342223697288 0.017626905770492966308 -0.048198935597766973116 0.043581264970419815452 -0.04691977090966693853 0.067129349568382137847 -0.063388977224616935291 -0.030332116585540198905 -0.076480494305551635636 0.049253514201570605668 -0.14073901664125973432 0.076751654831391291633 -0.088745460682342222625 -0.1490024015719870476 -0.002019647320458700223 0.08777651344850978532 -0.041152770560740507821 0.077377675194264125547 -0.037483892397429982579 -0.080634731767371917166 -0.047430553962184443528 0.041043979444970672688 -0.022978307831365639424 -0.0071449674397785654587 0.0095842116009213149108 -0.0010019608169948644293 0.0086089542212746481692 -0.030959819132802587904 0.043410699521761644815 -0.06923075666323263988 0.0018697030841926538369 -0.028663512964590371485 -0.012738153490500149501 -0.021337303725430353113 -0.0097951142379292012452 -0.017076143298441280594 -0.015094603745717388721 -0.021371582240789274015 0.016343187136054499603 0.0011920274334736471848 -0.051642611551445692653 -0.00010811075257305164006 -0.029826448208493467479 0.040300621077651553603 -0.0099485155513303925867 -0.026006489544139331505;0.01824058450474918755 0.00057032630294196005188 0.016185418690386223911 -0.0017553263555618817821 0.0009680573019238014219 -0.0023106285671787890786 -0.010988542133839779985 0.0048399241582932697736 -0.00064694556822743635657 0.0028987242995584853143 -0.0079058496344687877871 0.0048504112370805780446 -0.011879813450973761291 0.010229572347737485652 0.016498631750297528681 0.0072762121498954283189 -0.01049422268117037628 -0.0057480266856437985112 0.0042745176370701052498 0.0034750574420803885013 0.019693475135421432964 0.02560492651929906216 -0.0043446200326689304871 -0.01063111649215894329 -0.0066611763565058955405 -0.0029244425440468329452 0.024491250839245689436 -0.0035240073664445127621 0.0074537607597172624366 0.029148111463082368444 0.011510115392120904773 0.037429307537621692159 0.0095456273722537253457 -0.0023994401962920616778 0.026586835928710857851 -0.0054837211680194182517 0.0073439036282183520546 -0.0061210726153819207396 0.014561778532250312448 0.026698813216751094562 0.024262107571658128591 0.041132905090680793592 0.01486385928493788415 -0.014362610924667272919 0.0011720262210158003367 0.018893595501452458557 -0.0018238383120153542436 0.036761413868108994141 0.006196703504685772794 0.01762095994998491566 0.0097300802855387440171 -0.021985043705990459789 0.014583984976998929164 0.025591378013320790347 0.024431742443462956677 0.0053245304280248127032 -0.026726697008762255459 -0.044869998025902642358 0.021477309879931454073 0.011549198296610961589 -0.036743032705667942606 -0.075581211609715356903 -0.041721042666332440463 0.016866627493598362192 -0.063273835074650439103 0.0025679863532411628495 -0.015729669224820868462 -0.038363700409826492765 -0.016996782561691806124 -0.0048010286730070898809 -0.027480630887632331166 0.020762296537894752574 -0.032841900729526474212 -0.016891315933079339984 -0.0075029345064466183152 0.013856770610341831787 0.0033482709885545771517 0.013935149334133619184 -0.018758126443743517592 0.014241228962213399109 -0.00057665416137196267958 -0.0027645734729875087385 0.022249239323246024214 0.0018382267162500029803 0.014710816336866680207 -0.013848760317135137485 -0.011736137215364046693 -0.019871494068663321519 -0.0035154914466793106553 -0.013625722645202105118 0.010061785299065102717 0.002036136771360772587 -0.002381401980985409228 -0.0067021845524774924935 -0.003446367183438860983 0.0090990394874150733184 0.015986655394031216298 0.0078182062494525170898 -0.00083546916479984795548 -0.0053653616691437342606;-0.0020644578743616304184 0.026019593454060456483 0.01157545882135267365 -0.021280144314463046717 -0.004338142401541983384 0.036677550165521405345 0.013745092031818898631 -0.011432865244297839291 -0.0088725402650169475638 -0.020824258183175559794 -0.010990030776797632753 -0.018602577335569806666 -0.0061807475345153975455 0.0052093715466594962826 -0.015430643890062562679 -0.00065048738478382063175 -0.0043302735658080938885 -0.017193620837907590271 0.0085424886774257916683 0.0248421700091834112 -0.030192022126200600968 -0.042462001974025720408 -0.0079744862028506644652 0.026456629757958569776 0.0010449561338826424822 0.00047732367102120559776 -0.036357901474310880263 -0.013720308303519033327 -0.051341216334537087551 -0.014938692053539200794 -0.004465820749792142122 -0.035439036874171749025 -0.033898147091110504558 -0.031262001490799717907 0.00078664531054998100904 -0.030686498370922656725 -0.046841309794940048927 0.023564192546964689984 -0.026248925737170948624 0.022062318642978084871 -0.062499255304584805382 -0.021165574154924902267 0.0074647573120399605268 -0.027749431618011133338 0.015234072670620029538 -0.055868465210761102113 0.022878124546400199074 -0.13012220930960397003 -0.022638723369681246905 -0.11852411874042287354 -0.022720482419690407605 0.019759178963088909475 -0.030494844169017008839 -0.053702660731435335195 -0.039398434989078578994 -0.089490040638539769535 -0.0035756154397190032662 0.010290722748677674087 -0.10744190239643684748 -0.019978485862163414266 -0.001628231973681313477 0.0543700703889686901 0.076623461166043335679 -0.1291741074544782153 0.04077774287333723463 0.024919033113319069561 0.026832349906306167397 0.10101316311217120592 -0.010568539735182557252 -0.03231159893051437082 -0.0050670745970342922007 -0.069346897055781911434 0.034092507713353023546 0.062767825119146858359 0.034942672091047601024 0.0071238997731220884274 0.020638956772507065229 -0.011799542252878878965 0.0022667295466975772786 -0.0065798372468464146751 -0.019182355576298590338 0.0098499814198282058947 -0.033770954402878076983 0.023555992022471557157 -0.02681421259017187364 0.02307520981294089446 0.00019830989476682771636 0.010516944881736732531 -0.016268840379681442226 0.040888229280500058838 0.033686298945563561413 0.034447208645299758067 -0.016063088370957129269 0.0096020600182908227849 0.0074852293051278434924 0.0020458981029753877529 0.011966427393852216432 -0.017892714769888483362 0.0069510400856293841354 0.0048870382711286904781;-0.0003074499975031808616 -0.040590347649931454721 -0.024115471953100570124 0.041922716813906073241 -0.016560130657565730328 -0.010461621195872726833 -0.0068697389271505024388 0.02065094592777857313 0.0051852624286877454021 0.015125951573455772778 0.0083357438474312376547 0.0044560464533348002197 0.0096266581874855771533 -0.020134330674260240285 0.0098628707960867114529 0.00023871803585331311665 -0.0060187173730038090805 0.016817751270405245645 -0.009769418024202013856 -0.014827799774371050803 -0.012158638744634030909 0.0092819035085563664916 0.020579364935537396847 -0.020977400600007661824 0.0067796139741389026614 -0.024740095056019567599 0.022399903377843113222 -0.0018750964394014446243 0.011319613360922095233 -0.012210634593684578653 -0.014980396168157177408 0.026353653312285282156 0.011018147412634935606 0.017114906721311575616 -0.035519667351849311399 -0.0037867329883659885635 0.02506143823691819178 -0.021189691493004654543 0.018295320109986901863 -0.080620213950779659462 -0.0021924554740153914464 -0.030978454580811099622 -0.024484517524914858888 -0.011662185676019667588 -0.011137345258156655659 0.06690070108796064563 -0.046576336615616720227 0.0611261684042391229 0.028863766028701713651 0.034178563714627713255 -0.04063353593980918721 -0.041578939289146965574 -0.05965231602561030938 -0.022315410521540651745 -0.012858614981864208843 -0.037682429288181815141 0.047680404933592865357 -0.030769033953470064507 0.079312241728137874985 0.017845692193697079014 0.023202189709623528141 -0.010992480784344614217 -0.013902580985235507213 -0.083733583629549440674 -0.00096962268204057371155 -0.067749878182850067909 -0.019986070853699525879 -0.082940733860275978051 -0.017958002846517231998 0.03135739379192691717 0.025637393296379682589 0.05511091478436828256 0.013913803671221670888 -0.041169034780241475779 -0.0061274931937979632696 0.021795234549240784933 -0.029120901218301360747 -0.0065696145740740952146 -0.012563144136578515905 -0.0082910050284935692122 -0.012921994476642131161 -0.013223033072706780189 0.013378783103844982955 -0.040347696884283953955 0.0050731177096510369703 -0.042176893492736108882 -0.025416095320400670932 -0.0026332876993412019165 -0.0087023730491950432309 -0.023944199244491461143 -0.0024202746110233777643 -0.019508277333622869865 0.0030450083129086331218 0.0037497010611814741987 -0.024738016684382590354 0.00014889643377038368557 -0.010796759784479898966 0.024823933739344054145 0.015713101656974658854 -0.010942642764909867037;0.023821325684395024125 -0.0016817153621660836573 0.0092927363133749277951 0.0006341120634565681688 0.017946508740276242988 -0.031928323724487839286 0.02108723265744939443 0.0095400708865181066409 -0.00015542050522863309903 0.018721254767386313889 0.015383755523157375752 0.022454833588658931059 -0.023233951030575829277 0.00685980863997071727 0.010608263904243889555 0.013202740257194764753 0.0050453700938325107481 0.013863798957204695808 -0.0086251518815211696001 0.00088384762314016067017 0.02646416538687546699 0.013684488994581141263 0.0060450052224659293551 -0.019206986784170404503 -0.010204426958458362104 -0.0015240487937502908249 0.026433188132371263079 0.0033569170733896715707 0.027202577359510614341 0.01810566494579860311 -0.00086832289685192230212 -0.0096457154825795466541 0.024683593159024210667 -0.0031398083159589794747 0.0013111769620045522419 -0.011944387910015310389 0.01417532726995713796 -0.0065016495153041231267 -0.0071418879772623773336 0.0068024827401486883185 0.05685437800903291039 0.035197068950638843443 0.027973955703765190223 0.040340119036768991301 0.028380658195919637732 -0.00012148197389683567868 -0.049648473930140185617 0.066557513777903198893 0.024842202913343280207 0.091030580032201047214 0.058409243027288365591 -0.015219874962535344387 0.0059594294038942856664 0.056794671080791718498 0.053754601224217116173 0.056824917543207981163 0.065150056922668994619 0.064072812249838198562 0.058157136283124084841 0.048258715032818470803 0.016880943428968023245 -0.039757285701467158512 -0.020039594891395468707 0.052863770789914034387 -0.040576371099280750254 -0.010049403180201322769 0.082978183587792297971 -0.015060781101952098321 0.040899917482850593753 0.030210469810902092214 0.031962514168467411058 0.072050155717189770521 -0.045222544192200710145 0.0050356345312469012743 -0.012607094309661392995 -0.018080992007782861752 -0.021184646138972203222 0.019408066300485679601 -0.011885313846562422374 0.0064815882324640670259 0.029712768654898278481 -0.0088258894924998897852 0.045125319246382765426 0.0080441846616770631972 0.021496753802360376445 -0.0053355566762745918613 -0.017140893826565958835 -0.0030696739443846882654 0.013352569076672936993 -0.030187130543861299264 0.0071060777799424072396 -0.0092350075685992093211 -0.005827547818643010781 -0.012217921356370719035 -0.0035099204887162416613 -0.0046176675080952297309 -0.017491380743268052089 -0.0026246319799955171274 -0.0058290478824180218601 0.007805319091866956549;0.016634727232566801081 -0.0037083469980755475078 0.015165655002129818998 -0.016300696817788590254 0.0024965975577478372038 0.016949703196350904277 0.0046241677786699950103 0.013927952823942303662 0.0094965711671722522619 -0.0074402093914550989501 0.0016170195019251155412 -0.0057805738073206294064 -0.013264769577837627612 0.00079072360133207973687 0.0043958928044615704772 -0.022943568324173647249 0.014654334490013793194 -0.053739367955053483905 0.020652982414364546432 0.041175757073624981441 -0.0025837673942480186146 -0.0084775890700217494678 0.0088597526535572242168 0.0056763661833739613785 0.015958379906276715099 0.0040085268263412290532 -0.046788536961499475886 -0.0063551332707033510172 -0.014375829689184738483 -0.03047467635806321018 0.009161983285599110613 -0.010850195286799518141 -0.018466733830897218149 0.0008285105724814684474 0.071197934226563411308 0.00080503054016356403316 0.032156427619929033035 0.022198837666044239636 -0.0056775704199641969377 0.065772170415054190262 0.012007203957390296528 -0.031272402816331285047 -0.047705141908238893333 -0.082203610586212796929 -0.019449801696789406624 -0.066851789424563601294 0.059174694978243735921 -0.037680251352456339831 0.032414688588558247806 0.02149305156359386515 -0.012558390761461164092 0.017661647309880814521 0.072294014624124602886 0.029503156807789525373 -0.020288088991167785996 0.046010672174602917917 -0.065238829081084179218 -0.084169415321423829424 -0.087309794498967766008 -0.071269481753607158425 -0.053279207861656463496 -0.029735402337302738879 -0.10254499780611092685 0.1328924290903130967 0.0229414395560015201 0.031508964805264168263 -0.034052940969244431535 0.051595716230625157661 0.018147860858776104082 -0.054117409188971683787 -0.10488600376542264736 -0.087360249177579216151 -0.0077140272982365969134 0.060961019801227547821 -0.020748171974780099669 -0.035081965096263573178 0.014617169553091190204 -0.036941539050888441698 0.035646264071979433252 -0.012670878713487345596 -0.010020333616232836652 0.030491353929253162819 -0.036462059792927790924 0.0095538535639661664733 0.014701256467510009224 0.015755941788804753156 0.021506753570497312567 -0.011921381748251587418 0.0057047304091163708595 0.021763095976744140092 -0.022202318985318152122 0.016945177338285113966 0.021750884147895985232 0.030785453186480904453 0.049940741948138599182 -0.0082561826371835636551 0.014900445353803372026 -0.034392467473684969204 0.033320342681616203773 -0.0011749721503030085765;-0.017084347302301090138 -0.027661584431424475483 -0.018555481600887182431 0.045684866495817343102 -0.018837414413000339031 0.016448995397566505 -0.01589403742886761825 -0.028682859444420932132 -0.013047513196076108641 0.018069379331116935949 -0.0075798270249111451141 -0.017210673210781884251 0.04418696799627640226 -0.024980063189343110902 -0.0099709801395039820981 0.0089171246692113844551 -0.04404131266111899895 0.046108974060136094508 -0.0061244078865054299432 -0.0022877476605263316785 -0.0064676832038549694759 0.041015401885512670077 -0.021448430127468384038 -0.0022138824678276649779 0.0082921881631441030774 0.016037266466499333628 0.087559925433709842602 0.0072535216195895929267 0.011794085495730216584 0.040609882002034192183 -0.0093918245987624129206 0.052951366065292999885 0.072096345801665573383 0.038885649389113402519 -0.05469649485204874928 -0.032003262067860152595 -0.020645809268468786474 0.002452713991030417047 0.0042770363035238723876 -0.076416973191878234672 -0.012159483939454216253 0.066759379468021393111 0.08038562816602456973 0.051318053150755049696 0.02893268915279690115 0.055846880142647596645 0.012192416801784400349 0.11073083410479371558 -0.037106598146137280414 0.027791888504293246753 0.10389042833912280617 -0.0058480212520358211548 -0.029439427205145755201 0.028847942516608403307 0.0066139981510375525295 -0.088299755007518965222 0.12071766413996821987 0.10168889517797642663 -0.041304686907821831776 0.17673540820336053336 -0.032004938924791677402 0.03080755755796822648 0.099922372725916683289 -0.088767487202387071465 -0.056953045605392133011 0.011159688106764176566 -0.050014797871491031844 -0.03373755740969561906 -0.085132547198979363623 0.070231271331368791411 0.066110135543828177362 0.10349341887717525279 -0.051450815971717363262 -0.056042236294395801621 -0.040773079563522884872 0.044346780478357571142 -0.018671961305458291414 0.0010503206718952332304 -0.0012058039832842423061 -0.012269655302366478181 0.016510176125797464131 -0.02925402164759197815 0.024178383643587930685 -0.051446473750138756176 -0.015265685622140675107 -0.037976408835514667561 -0.016659647012800784388 -0.0062489431733660861026 -0.0040584922899008762237 -0.0061250933898148764156 0.038607347373188272144 -0.011193801734394112982 0.0135949885600292978 0.018852017191886148023 -0.028168786003589858791 0.003596363415259307833 -0.027921050575613146766 0.050269393442817944528 -0.012102363796025653042 -0.019260994512188725492;0.0086518265053393012681 0.0082398591052817906494 -0.0035113229089132986724 0.029657054512998132223 0.0021464473445680907517 0.036804055715067049426 0.015487546444118496791 -0.035468406437154015309 0.059591643503211513822 -0.017570084357664290248 -0.053581885099475513867 0.041959106442462555664 0.017656994185691034238 0.020541234497329786957 0.0022140331907636702849 -0.016754284207608979851 0.041911189305273467698 0.02736269217909208587 -0.031907898125375602771 -0.031771032631820031455 0.008873765640335968749 0.051165551284764035356 -0.024034657330520740187 0.041331797859882758728 -0.055324315123526701665 -0.0061575678473866305579 -0.015167270384567586167 -0.040025477110860060992 -0.0010699763772653312147 -0.082129170497088135883 -0.014186887010228535488 -0.015098967651395537801 -0.036880130805208209688 -0.059821892100105376888 -0.07741446884401870232 -0.03506814640753556922 0.0017146419623421285498 -0.041186766449745948471 -0.028583938885013617653 -0.030476172540750173096 -0.073133435171309782441 -0.018553845071424251295 -0.023270403482808631884 -0.11931768969174358364 -0.058059086627125833235 -0.088255778208829571696 0.047731657575291193407 -0.055129919065601565298 -0.014598965049495133892 0.062964677515605138591 -0.062669084063880359237 -0.019754860223178925815 0.018030378375537295388 0.018023469749208292923 0.047692729403323461113 -0.13700923035775836034 -0.038052813698625481686 -0.018417559704558477546 -0.16437943130035970185 0.029593251901152507755 -0.12715271741636521852 -0.075027604355502028333 0.12428778012171760869 0.081590804420184459556 -0.034427203427295223481 0.030062458848718030119 0.083885729507186840292 -0.079084236302010516018 -0.049639515631044239807 0.015896668594432825095 -0.025024027139560880983 -0.10081827857139119553 -0.028469133119313705382 0.030854995101660506046 -0.0022609223293783616698 -0.015330254469134428977 -0.032221297609079650737 0.013571082362613257066 0.035162667531139481236 0.036224481180675817404 0.0037574349235583231685 -0.017865524807851584921 -0.026685265426656196164 -0.044697180825148272176 0.018884706708632993666 0.022530426214842681071 0.041473051554673297237 0.0091181580938725220742 0.039729954047553618646 0.0096180854013986020329 -0.059455208149057393874 -0.070339902556691258351 -0.00016253898890250995015 -0.011169438025177065577 0.032816081021197207601 -0.02943803382507000424 -0.039682754065574712965 0.026597302937125772565 0.026651317609331565128 0.072090573281623451796;-0.012849110336017729658 -0.024325091666995753842 0.040512189236610637866 0.015205770485154670307 0.021005408785320058701 -0.026385937924979591118 0.01858504166320245482 -0.060245962966467253574 -0.018818536373116513671 0.069964901679452226602 -0.0049013142186645659859 -0.019918863778014737898 0.041853550548621616667 -0.00070292206777825580293 -0.050067839462842801679 0.003040904052677873004 -0.050885141023045955821 -0.016253828287370170741 -0.021195480183301376731 0.05343752884290337013 0.039707651805120813826 0.058784648992702977222 -0.038694055910933521092 -0.008014912627018314778 -0.012467842845388104819 0.038547594010505670248 0.061077155050553777471 -0.011222612460069406048 0.036028317223303109318 0.033736427123889717317 0.020127446054227518535 -0.024189021758735863854 0.068371487219341151031 0.030865216619039882728 -0.050398836397562180034 -0.10024194297333645365 -0.029696739668458014411 -0.03200503421636739787 -0.036907736377261621263 -0.1120941026916170008 -0.033489031417125426915 0.05341951837557665228 0.055625666654821652457 -0.03078471866073973634 -0.035300845620102293265 -0.11262816631821921665 0.071886710682670398875 -0.10783800543120573845 -0.11785325402085508606 -0.058887884501280254868 0.060024989904774880833 -0.079758126096140122274 -0.15021687777594364133 0.085245150492794977137 -0.0096673325146881677883 -0.057688385772076876401 0.0023032415351330547647 -0.04575332824790338121 -0.16699102434026422137 0.076088696140410569391 -0.12483878521576136089 -0.045767628284622725865 0.061876992883422417269 0.030955333014497248695 -0.12609518145813791712 -0.016389820206968594429 -0.022720788956333996811 -0.021445136696902730028 -0.025937942917008589144 0.026239621218424009214 -0.028414433421328356977 0.036065337768786627504 -0.064927267257283372004 0.057690747173632046796 -0.082473636069584951858 0.0043954432311772186071 0.012955555517693867484 -0.029402737237699018424 0.087227848810714880834 -0.02542945121189352925 0.075643423118431876717 -0.054486673005774657885 0.016546886759011499718 -0.031699619560007143149 0.0099723635464022443442 0.0020257676477242417962 0.030328840864880048794 -0.043650331440128302407 0.049134449865879413488 -0.00055742393267117491644 0.0037242121846265325603 -0.00020402371923238459515 0.058476348375205072783 0.053295293459084666643 0.038851589156379137679 -0.014620908920851190607 -0.04294104805846440942 0.03519928459442028118 0.0037283523876830313923 0.0012098768339100429356;0.0029920026358937852271 -8.3584617320143833261e-05 0.021582866390741889395 -0.013785721742330812184 0.008265278941520241146 -0.041469424953237882248 -0.012867463608033841149 -0.0229581906664710865 0.020139503936311614618 0.032579091980662680528 -0.013074155322905447671 0.0049455550879856568711 0.016820336151521418644 0.0074706766628763856056 0.00087507422096883740251 -0.018705690007139588044 -0.045835579236734959319 0.030903990617298128518 0.00064819962101581138532 0.015845787759157070607 0.027463586044183051216 0.0050181814472547141975 -0.036543202334340156578 -0.02516256354119468519 -0.0045077193792029904978 0.0071238971512749393183 0.052885678995616421105 -0.0016811689851944384283 0.019255748911150616376 0.013714362493104714086 -0.011259676343919600844 0.012770793545052106649 0.040230152301718884178 0.016026432326836703712 -0.027315580663634410341 -0.017881882664280684264 -0.029076332454205405798 -0.0047677456643909366801 -0.012613154966077682814 -0.088317370752610355189 -0.0234145397040671846 0.012339771948037646029 0.0054673903770898662005 0.034421929264078554578 0.024084048225073598909 -0.014069274374064074523 -0.065593785061037621076 -0.0099009338832534987684 -0.047190102640973917436 -0.11552350460780452801 -0.0052353473028555475022 -0.067901050773431392837 -0.1693927542563441746 0.015560889774361590099 -0.074866233548436383893 -0.10317901464962113411 -0.14273143073972788253 -0.01244956878170265166 0.042868269383157936447 -0.038123668147952663454 -0.12171985996284723219 -0.046323685113177560935 -0.13003907352842028478 0.022083320311711694683 -0.16211522119267754438 -0.052933707634046492374 -0.1154303632489813991 -0.031294489104914065269 -0.045964177284924488676 0.03329661212842323359 0.035058817512109131942 0.077803345070623031177 -0.040733263763166376037 -0.043818583752581824475 -0.011079995153651375078 0.04119841060047207959 0.0020305422383675615638 0.0125482570535498765 0.02573973807316163806 -0.0038675357424543276887 0.042809537350919538157 -0.03182962871446148867 0.020336360033108701051 -0.040275383259017194515 -0.021337230463477404457 -0.0045079822386888609986 0.014379842285114749836 -0.036893261865590873394 0.0013838318528670483318 -0.019463848312397849516 0.012636293878800081147 -0.016906165664940398657 0.040643689227221779792 0.011858166188434833554 -0.036157976973425348666 0.010167316175655409516 0.010095872951526587216 0.043222392300928426379 -0.027534828885744523641 0.017789701721927213968;0.060030180430060309238 -0.074202060929757673868 0.079976450458275685773 0.033384762821675649513 0.028959878508502477634 -0.0023577110970339253473 0.051713024884816050086 0.064414966350249527882 -0.0049628100941854266098 -0.028624434353140514042 0.016516790068755154292 -0.0098648855529485119514 -0.066728447332698337391 -0.067465600218052132475 0.011857991970913302898 0.022642944340440691181 -0.041495540749641200706 -0.026343198126558851901 -0.0076798860408388500143 0.10284937027717200309 -0.071566831339778702592 -0.038733713498443352041 0.08901283012456019661 0.09353953023407821088 0.084970319162585392081 -0.023560915175492882362 -0.087095115931533934051 0.05854431543330662624 -0.067489300561363138597 -0.042389305122612630505 0.051979481549498995907 -0.046545274591329614811 0.094373157694513196136 0.073255976662608413008 0.14857103479426528314 0.069692831219100248585 -0.038718930503002464694 0.12674031422057024932 0.066320836079127518103 0.028356936978520739384 -0.031327868474241606089 -0.032825823243021440279 0.12445354350417672795 0.1676363315246711394 0.044296685995536301539 0.032860425659436226509 0.06160446513978111438 -0.073586940652456897527 0.1539192012289099798 0.028562891235139196283 0.11264856728901635752 0.18882063495579060053 -0.036619002424015105468 -0.058095037859896593579 -0.010824007010936994438 0.02994397348006863982 0.10780707549480418594 0.053724095537835934999 -0.090552559982554611806 0.059097640572120531399 0.17770368172321301947 0.054841597025446012226 -0.04771785887903828155 -0.13548435645758413748 0.0017720839349095200612 0.042010475949427958375 -0.015667912739391005872 0.16701595679187630772 0.03259128506591456309 -0.14972766242550747395 -0.05565108006801654239 0.057746329061515090653 0.017615906280774189241 0.15132174946356369283 0.017748454148467020242 -0.02841298863207751893 0.0316243622215513151 -0.13563662429721751179 0.060447359385210806815 -0.096938858356875642897 -0.0056305308520844437117 0.075890728318255079587 -0.089914696974167998555 -0.031539264117983419056 -0.016468731251579327157 -0.0038260563434932091248 0.013643524190587820455 -0.025780957635536363298 0.031723106311461940487 0.033078620714461576258 0.060349400357557182739 0.039255729708796149868 0.095200559796343703356 0.093154551133832919074 0.089590857788382230464 0.0099187514495143128818 0.071456274291063784365 0.0064364960975365533707 0.095499761229836777066 0.027754614649663694737;-0.0042594419134814789224 0.017272508895894444353 -0.0016556092259127888535 -0.025918476370354534555 0.02485873494365680586 -0.046770449686767669173 0.017041152209606783702 -0.018905384812430856001 0.0068417889694554886656 0.048798415574009545992 0.0053314476633489135682 0.0087850895184677438299 0.0050336737681747276141 0.048614194141222567824 -0.0071164492179493542626 -0.0049513101438921607728 -0.013687116891573390676 -0.023923160476103075972 0.00010806439166868690455 0.019205229010263665662 0.080301001040831918032 0.048102684290425502811 -0.031786250086941851556 -0.046020686961550691385 -0.017660070249330542258 0.016160059998257869651 0.065548474959967531484 -0.0034973446143843566446 0.068407211162898176604 0.043937702242126182306 0.037338351349110114608 0.018475897901216561253 -0.0010676973234304545576 0.025166152704949474456 -0.019908182296663301525 -0.012579074850014778167 0.050639307093244066704 -0.004020438273840259806 0.048616278299416490483 0.049350360306344209782 0.014091680948285754266 0.091983138578237283456 0.018681435528427062231 0.030936658584101866393 0.0620752455453548041 0.031066961761388751234 0.082252907160323046609 0.10942299438030196612 0.025544760266391294129 0.075270341155836126279 0.0094390443133800256553 0.12616803647843985448 0.036833092883815317375 0.14024473949668997408 0.12004463730782509445 0.28100235689313685095 -0.03744782346601809031 -0.033954538230604215665 0.19907375215895953269 -0.031635729055381353603 0.028710439894355756912 0.091221141786498677329 0.016222226440140225662 0.062929921027214452689 -0.077594950990206287833 0.10526134428263170251 -0.096705867280437368683 -0.00035470320893091829718 0.02307014248787581448 0.12388918974009709151 0.014610167430759888121 0.045904975124230015804 0.016197222445106296274 -0.10293972594592895597 -0.015467605554477032587 -0.0041659152681562498788 -0.0050846921683352017118 0.04006904536192441163 0.026428206226211198304 0.0018583534963836315524 0.052468955057875799053 -0.066265087774836237133 0.014406081579267582954 0.013052606420735350656 0.012067387413044821168 0.025588316990651463478 0.016751184553162327268 -0.029076086898165810074 0.036093300155569496557 -0.045077028042752938231 -0.021951298997889674702 -0.024924328717130145999 0.018091254369742657687 -0.0097250536104754453648 -0.011427833596664696905 -0.0045378658473920509275 -0.028175865450551576541 0.012164157653487887162 -0.037531688285519219928 0.0074844970652261757008;0.13383440925982831304 -0.18791507025237835782 0.047324084531074984972 0.13571547904938327522 0.09585435179039068776 -0.18052812150297589677 0.0028064803977532371167 -0.00093976363516374921379 0.076836031770549442776 0.021602968655293999789 -0.012247467135136955174 0.061023664051895971927 -0.12741503837987139258 -0.063467437081040981028 0.19779110220950205101 -0.067508117914990534159 0.0030740062513829732524 -0.13068313853768587229 0.054509031069819829929 -0.028930301246075314919 0.10468140726570068777 0.070023474669445834317 0.1432151360254375061 -0.073603576526800787438 0.017057519490056932687 -0.078868731021359508859 0.015683593317053035748 -0.060361665291534971622 0.11806971645338085186 -0.12622019730588995845 -0.012995920334960798029 0.066891583719208141945 0.14209902755947259601 0.13150383596066361758 0.095725694175489664528 0.032275691647092298597 0.23210357500936382169 -0.086650968421476917691 0.13405376529836826593 -0.23606356663821903563 0.04501506814840772891 -0.091733142640696013759 0.024587726304732372001 0.071428887538442495386 -0.10227883037656813892 0.071742244812973476886 -0.088676127909853089126 0.19916506277359030674 0.1738270129309268941 0.23341134035104074695 0.13895413637169801158 -0.036688482396430084631 -0.16319836321314773464 0.24119690081385822267 -0.058157875886897934803 0.099000123619964977562 0.21268270595667343459 -0.062481329014082570561 -0.012558794627878986511 0.088801448008662187128 0.11189018324880947719 0.06031474963147516466 0.046791279721317691198 0.25069773758102731342 -0.12398522079935150875 -0.11277859326066236312 -0.11089526419713277572 0.028379107268970017036 -0.073473647316059209622 0.046572500091040178183 0.0004727802962784628197 0.044985776269352552303 0.080643144837073618691 0.018215176019191977458 -0.096903046789507840675 -0.15777577869327963356 -0.067614979323501758768 -0.014441219460106494502 0.039560109493149066273 -0.06559773345243215259 -0.013554518185642600026 0.046713001172874940581 0.095767922420543730166 -0.26087352355818010929 0.092884920589168917804 -0.058139267613727299566 0.015064099101672535908 -0.069117867146246361743 0.14496416626139904671 -0.17081639576663895652 -0.13539974467550816573 -0.1467704477715366107 0.12408508284447847259 0.10544541572927848549 0.04824570744048203158 0.0046721401727369297682 -0.10987412638123900122 0.085900054588304172731 0.17846025170404691829 -0.037236179321290564792];

% Layer 2
b2 = [0.80045222098355750528;0.043197537734122853914;0.137539980457532518;-0.024175604525332197725;0.27258324657144333836;0.075027501238084007285;-0.094373437517575070599;-0.71707320074350267003;0.34710943381921172124;-0.47105855587820866237;-0.1015058232443212527;1.0008615078766489592;-0.34250136484729065689;0.31107181396812877416;0.16938620639399812329;0.036145145535185954633;-0.53598887171594755685;-0.95394566417933324143;-0.65546992489798927561;0.30870822574379908065;-0.37892157934375508832;-0.067316786654924978817;-0.22735929052829303987;0.6855887188595977122;0.074237209015677568802;0.24376896373642392701;-0.68652018356568622615;0.13518073275001449285;-0.083747874544355116466;0.50118192146788342889;0.9992664749199933194;-0.53066408188295044468;-0.62203261687680433401;0.66515034404505879451;-0.6754918014095363521;0.26213294108223539336;-0.49694122011342795053;-0.055875793455931195564;1.0612960768288597357;0.11346542305828154207;-0.54714257360026896659;-0.88337592695597633163;0.30118796933408847893;-0.3966953620731824004;0.26587260323891220848;-0.37334364493420008069;0.2189480595256184936;-0.36058585670150206104;-0.2603347164654096213;-0.35165542901343849191;-0.7514497657021725896;0.091986749596906447479;0.47301052438298551994;0.63853857890070520043;0.47734038007120410674;1.0251895559942747482;0.26739766935548575644;-0.4492102183153547923;0.34530799736439338199;-0.70346611288097360415;0.068573090149206233912;-0.49398859413726442513;-0.82026902132287216052;0.43986444422946940902;-0.22883855273839814881;-0.44957795341798673094;0.13894765093232813724;0.39369703610741096922;0.010150033667762901543;-0.7047276941190455668;0.19877039990217715282;0.41827747991048697118;-0.72770592717640891767;0.95241847948550217851;0.027476878598746198173;-0.46410360411169027106;0.19667138203320966294;-0.38731299524108131482;-0.25868849070897387277;-0.52349293751236958272;0.86488829371663977774;-0.30719991733067053552;0.69150240746700852856;0.87590543319806768441;0.32175928756977367762;0.69277257615242149313;-0.44031634041729933449;0.26217260961702987254;0.11967511031911497177;-0.10330750530891820438;-0.27751753667331013897;0.51209759918333830342;0.88841065535914787166;0.88924963588404015713;0.28440890818738329138;0.88887804602971620671;-0.69445618756898808144];
LW2_1 = [-0.055289125748239659197 0.14409828873957633566 0.79443781998253082399 0.19879661587841368497 -0.64476022467184168629 0.060382950183483719009 0.099676320461368775327 -0.40337439754850212825 0.55580247443385999429 0.44497282507570090626 -0.47442230304103993888 0.39138396700521627114 -0.12369388487207295946 0.88283484479929652533 0.29132359773246424561 -0.054246225586848613454 -0.90040525541300231449 -0.44485789475007159188 0.72436442587647820179 0.97482262839501876428;-0.70400771720045107749 0.31157809581353551609 0.023056952953003789081 -0.3490515809667982805 -0.36071162352589281053 0.083774362977286201404 0.73707304902452597251 0.87585973182662069103 -0.32350226012961458277 0.80338101032285713643 0.97347897480556322414 0.71278128277043883987 -0.64547827177565941792 -0.65699839248753744148 0.81447985547149892582 0.48404543450365228319 -0.2230249136421619538 0.20446545099803692391 -0.42633344304687503801 -0.77592151372986539748;0.84646750168673912107 -0.97629463669786720192 0.8892931169627596999 -0.30901946989787559827 0.41689209802685334161 0.63272418552928511026 0.033455305830446306625 -0.55526856519566025749 -0.67026234602850187638 0.0086744686816238297106 -0.97144267141965834345 -0.26279127492464543492 -0.97318075591080410724 0.52723804150485620301 -0.66109258058514897005 -0.042086947428274679162 0.25907750405478630062 0.86882312922815807532 -0.6711410179601846604 -0.82640094285126131091;-0.96624934533930717517 0.89294698881446654681 -0.66990274440299968362 -0.60585301785811684905 0.60980189420553876367 0.14097887044413767721 -0.10441323746742593725 0.049050679957859978642 0.08893162752620166478 0.80656553815590337209 0.70948883399505180414 0.42537756295334078205 0.23224763026228953389 -0.13074231988418602568 -0.79198075483465257829 -0.99321235595376611283 -0.79477557657702224692 0.23806449147281091849 -0.47861074705158340725 -0.75869295575661377384;-0.038591708564975797657 -0.23876806123293922712 0.48765631780521961902 -0.19171876557717404399 0.18445575046101372885 -0.20951834473402661252 0.73497513363198041514 -0.34117092314941982467 -0.38476266622155708141 -0.65331773154283190319 -0.9134696681719132183 -0.86756356771243992032 -0.63635777259487458224 -0.35372421486589572526 -0.80422221806409932565 -0.7114574158531633552 -0.64563815452632455916 -0.85558051937351975447 -0.81382788371322234422 -0.8630331280131104954;-0.38034060292056026675 0.38409246819434500475 -0.18421584954355413322 -0.75918949967069537799 0.14057780998443752951 0.96822744635833124516 0.023090425963087597011 0.90486157467207839478 -0.42776425243323479286 0.82710204550659593981 -0.71402716723387371633 0.30438962145939191251 0.65940542712067695685 -0.63128193144764432887 0.269476416016174114 -0.75288194705272859508 -0.19862837595060495177 -0.22493107588707278444 0.52040809872020932225 -0.86045169087860640111;0.13664669782533184206 0.38464590330085712822 0.60544890073581092427 0.91487535710803080669 -0.38370433178131696517 0.31669995023242042409 0.67221244024322934774 0.28752984925191565901 -0.14278980916377634336 0.32385946998670839259 0.93906458697094596921 0.093094860625530642673 0.54648216740578303696 0.34884868925308165633 -0.85090251945313022386 0.014445305900263027618 -0.1627803482996348361 0.58581612978204256059 0.53154402165750547216 -0.002761699077829475775;1.0613797005157432629 0.64329972622316677899 -0.25809278625910792027 -0.073271998011288017039 0.15753329312348313129 -0.79579649170015975823 0.32283424039970604058 -0.83323788404192622448 0.47324075063693432641 0.56342487471451285774 0.31891927388629698337 0.27647108353214222554 -0.2205857081352589899 -0.88229605781753817073 -0.57634518732559358867 0.43604259124625888155 0.12750561064964816005 -0.06510665473888750665 0.097437988210049425453 -0.038482800364214482525;-0.99180790562689324918 -0.82281376432999242532 -0.82153389041356328359 0.02396977408822813238 -0.31407276915153037322 -0.89604044705950802729 0.10649534157014385605 0.63422785994239805341 0.51286459851524845988 -0.38017475643542197883 -0.11074970028728502169 -0.66004653697897974762 -0.48526424262502648732 0.24704682004976899479 -0.53224069548066166302 -0.2484620527011498492 0.61013819390135892728 0.58162459195921600852 0.1472513715749371177 -0.69033480075744868554;0.079807394968824288406 0.57293852712241954972 -0.19184611522406827544 -0.60822519099498240092 -0.92085040971510678798 0.97327688354650976343 0.5018732040325578625 0.64832298919738917675 0.88973550874794882226 0.72511313317923475896 -0.47819241665930156682 -0.53668922931788543007 -0.78300531700575937144 -0.047386318393716819752 -0.07539298020414679502 0.47358316620865709146 -0.37973127633853331897 -0.27106481377698754542 -0.21266046147319114801 -0.293706831961394077;0.83476182205445870199 -0.59357814985936407925 0.32844785272809268184 -0.23976369312900133735 0.17467185682915786771 -0.077741643669186399901 -0.23515075678310237706 0.55696349958222290955 -0.12055388218419722801 -0.78883642439182322104 0.42072040330330034985 -0.64218356678704402452 -0.2456613451641453949 -0.18504843969476875154 0.29664863776990929578 0.98789741261860464228 0.32541938668963998893 0.22567784137306132197 -0.037623652376181170032 0.00012905123148395226777;0.23038004295079217432 -0.68607526122852724448 0.71805546694913324757 -0.21071165783778009195 -0.662247222333434582 0.49852271957035382277 0.38673366295889016753 -0.15184855156383295083 0.85283168112093987734 -0.014611052018615004744 0.039419163513826502299 0.94765268049788420335 -0.391219496716530446 0.52777883813141890368 0.40587626648682018082 -0.4001258634190791863 -0.21926391622930516134 -0.38910685554379209616 0.93570668605898688064 -0.77247632237993790749;0.1077261545962714534 0.25606429967080190924 -0.094284247630521997308 -0.20359792158825734676 -0.33660502567257966078 0.77605428914293073106 -0.8490048822540897655 -0.95516797756542004549 -0.11141360890684255669 0.67326744795225124118 0.73811450597669070461 -0.69414585477374146638 0.96628526223299426867 0.11109838735444951818 0.76206693591317609116 0.64582740983683095681 0.32156071678977954376 -0.057783172976967507595 -0.55347609203464120942 -0.03290070891565819583;0.036429746523739994779 0.88018096435259884913 0.37363006973073203953 0.39901831191311859515 -0.60897457928574505459 0.42421147850493451381 -0.40880028194357831417 0.18839352666153588722 -0.17366261213343137104 0.94636987438179109855 -0.25142876882140197115 -0.74547697414329616716 -0.29198896146559283338 0.80649341799004647946 0.039272449471805852272 -0.24337723669853736363 -0.10366382032143002523 0.82730461813852507191 0.030245142751799940911 0.49265086817880437975;-0.28444041955322574289 -1.0118342322492066554 -0.042085408852029486393 -0.92094038920592391495 -0.68278571398336207476 -0.68735881570111756478 -0.67570845289164094272 -0.17731260796351300257 -0.81086959443824879745 -0.40413239481022583677 -0.22760995784936521869 0.72165703877029296898 -0.89061131586687958261 0.64001247729180510415 -0.29559792650426097715 -0.10164855172253668691 0.81651612234317383354 -0.83952296082936572752 0.60419940947875794279 0.57366389752124413715;1.0275356572489899865 -0.8129760592406013453 0.47194903081890471341 0.61756202337090881915 0.12455591088616731199 -0.11467967476989822384 -0.94918759760709403572 0.48383603464576646624 -0.024464014031809817873 0.65629953040845701029 -0.5168580510266771455 -0.57310899790165781287 -0.68304784405133667224 -0.19694055132749224701 0.031708611330805464013 0.42894633063647519267 0.20335915100320337001 -0.37984613890374396838 -0.33766394003041338978 1.0438193217290125947;-0.0077363933973060702506 0.15696773256564269805 0.63543753022863369573 -0.92142630269986536273 0.81357571960994079507 0.42788639982205406431 -0.16240474509408903137 0.29772383330443369376 -0.82102711130030936459 0.25658175647179853884 -0.11777339013939350232 -0.78035492948392548573 0.43849120492094684209 -0.063696995232500788764 0.78005091146651239775 -0.85878070664284389402 -0.87860708250354080384 -0.83539867798120215348 -0.76867130691053997538 0.79467607430341835606;0.64781460878027008476 0.4176169489062340201 -0.81951651802541269909 0.049095777961266490186 -0.65755937988416324202 0.31386732840656311749 -0.1230770502894149715 0.94478208268931962444 0.58739222385386047343 -0.60711227665105316209 0.22041066087660984851 0.61363060806663694002 -0.23574468966727160635 -0.1967033287231176597 -0.61280445281778705979 0.70965622722502652575 0.19944533749752624274 -0.86727967082283652367 -0.35135930633578110749 0.51673707251599243495;-0.59961196259441273959 0.060996542433516910686 -0.6988789642650052869 -0.3287037924855333304 0.22779123709388998664 0.27354134045141453857 -0.23376362605782816106 0.49458788864146141506 0.43465301507758036248 -0.10115141235744648518 0.52019000727766306902 -0.22418125263062541053 0.70576676161616624938 1.0729264462665499824 0.098411570198909045781 -0.083919208399783437602 0.33846533404034673254 0.8355007173752654337 -0.43655579025445806485 0.18531039959020348395;0.65298326862926503455 0.51013075764995685635 -0.0076640513169809292016 0.87831461703448676648 0.5214202094627468087 -0.23632058084230195272 0.0020275671613269354021 -0.26055382810873856103 0.69659434579907808516 -1.0398046820982063121 -0.25012033224371810203 -0.79040285148020184014 -0.66184882446570969527 0.2007455744965526423 0.29761554883404012228 0.76055914871872998262 0.13338255481493763166 0.81727453284358686503 -0.064683634990530328168 0.81219290315723180473;-0.91685700299147177006 0.32080729877262070815 0.23308671578113429601 -0.14663956700876931705 -0.82103342153368186196 0.4434191636982160456 -0.74638577914154324855 -0.22580933910030642764 -0.10248623954627790467 -0.08066620977610629295 0.2848725616586255116 0.63770735301090597513 -0.45318276654286476779 -0.45444481228104433024 -0.67429750071011962387 -0.23228056732336815893 -0.02213436454476370302 -0.26677917483486546235 0.29836760442444049124 0.3869096200846088851;0.88720882767736508612 0.17410265816855152732 0.61008112867999797491 -0.42213709818069899971 0.86075221181181471586 0.8920324939622987781 0.83897894123119631793 -0.23012042778662894493 -0.98972151508084160731 -0.37335849425354877829 -0.49279512172768941136 -0.0073070743281916199219 -0.7366994540894341581 0.1720585773477962821 0.58891926823633788946 0.039365409548249477578 -0.50812800916384348593 0.53260413410780682586 -0.59072478644486570154 0.10536902548947271741;0.38857455516226224734 0.51257716902819949745 0.32636387171003411467 -0.28424140081673066049 -1.264484928609420189 -0.04678456350856884105 0.55330327986258409645 0.0088488470342958126802 -0.15850590753755008921 -0.96123502627931145526 0.4004085852958236269 0.053786334875540312006 0.0048436736955360729096 0.48971618136218636463 0.046622354138405007473 -0.1933694369033835958 -0.65296977752378815296 -0.53825602984043485755 0.33626448161352545663 -0.32161966520312185169;-0.71778688622011355136 0.81656972031799224254 0.25907930817475888219 0.67734399919556798064 -0.29548696664279139323 0.79600155872486066944 0.084966664583469048155 0.21733228452548922216 0.81698380315095586734 -0.76885565223769702925 0.47136821919743837617 -0.90187787333699909187 0.64856846732524042753 0.39985577707349395649 -0.9589782319599223781 0.77083447707220997813 -0.13725764036226822951 0.14700643815706915252 0.57000826578037933068 0.41534120785859313107;0.69819111673665523732 0.094944862180415007247 0.42482920791581663122 0.24173638189864862791 -0.50273167029356724544 -0.6010880422797220124 -0.41270917190014194675 0.56839593202188687382 -0.80190145116617217447 0.61527887099241984625 -0.5924358373543705536 -0.53419845115634667643 -0.15385571536680861526 0.42016629326018106738 -0.9114848340399182014 0.16663581609335334499 0.22234484453277625349 0.099305693088906063504 0.38895641708726647057 0.67963663674399976689;0.34273197717974118737 -0.22461185045432008334 0.67504491958851053912 0.57129208612188930871 0.14905618916228560722 -0.23626073513741518983 -0.93485563033165297586 -0.16284168016986472205 0.090309915360332476686 -0.13666482038706462276 0.051914271632357109065 0.14075111369960532914 0.47110374365660795393 -0.8652140820762114215 0.41633054781400752331 0.87797611016513232851 -0.69928765329478936863 0.96839203347821578571 -0.19441154160897233805 -0.62648594887136754839;0.18518983322685250714 -0.54530105396016970154 -0.67159872080863436405 -0.69393287641420209333 0.59159660114471424031 -0.067969382678174455892 -0.72761165003462435763 -0.70447971462508895968 -0.5864256495291645388 -0.79921119135241391884 -0.32153823512831081199 0.56331827388856792194 0.16738761180959871311 -0.0093263691207051743065 0.43266833629757467383 0.3068912927273885205 -0.077312628493599128143 -0.47093269657000352835 0.58452519764688803949 0.56693399490092599713;0.76977877934242378011 0.17957879039798763099 -0.22685639849062916307 0.28869873365450315905 -0.67932722668772471675 -0.94047392254274408963 -0.34022747011790765992 -0.044574587544574467701 -0.7859368961236504747 0.58114709220905225173 0.33918220346875360693 0.32296321398011551551 0.34525571068036359224 0.71927459528196402427 0.44834476859468791465 -0.38483714503003468854 -0.017471493056567175689 0.65375059415098546456 0.56282933414814684259 -0.1233164051391563848;0.31734830364430527405 -0.37033056727509977568 0.81679709059499161494 -0.45586295138530968929 0.69428871275352310732 0.040443557825617322543 -0.69580862418247146906 -0.60513519427420048302 -0.37884939103487674794 -0.81824636970532615976 -0.18809762131426530085 0.28259892302425820843 -0.14823172396742170798 0.49658371917844279508 -0.18754732552132893919 0.2599019902450441788 -0.12296019528908967711 -0.46659067433419437743 -0.57626579501174057807 0.39362827188182181182;-0.050882277404325056136 0.31858699771711090909 -0.12801127120343630539 1.0036242353870665767 -0.64385882494649859797 0.57145915202281438727 -0.12627320887065568433 0.73505367563274315312 -0.29886002358436414283 -0.52291680352940084209 0.13078189702362125191 -0.46895634918451190032 -0.36558618022775285494 -0.65713362540173225756 -0.31364007104075047883 0.09716743635232548415 0.0013285785696721921952 0.2678937138716066535 0.61622758524957799153 -0.14894233465512929371;0.38005548006453609977 0.1496803617369451278 -0.21152032293408967734 0.8708705114415178361 0.26089094508767035618 0.51877532476923648996 -0.17098275531000495242 -0.36018823427952684213 -0.32540447333888805614 -0.76654600285448248886 -0.80969028831475031716 -0.33623522485576334828 0.44260019926793536804 -0.63375558926404962357 0.4823023430888770946 0.28430878241331880574 0.14886418320548133742 0.86326351002644619026 0.97202565267358687073 -0.65606128545322905943;0.69194022396330601143 0.15379069865362149372 0.34303786628459032038 0.69998912634711785152 0.44890010858586548714 0.8315747952296098644 0.82522324406504987682 0.017428637889775343978 -0.30153987017285660555 -0.94106708110960646252 -0.78996544654638090055 0.64450475815453123207 0.10416221513068354976 0.18374404535465616028 -0.67318175367804355957 -0.96380453483697259287 0.64746539586647844366 0.16294536699437503491 -0.55391125012848285714 0.022866671143075712608;0.80776172555465508562 0.69815097268001180542 -0.2827149861702622502 -0.086996740088668964019 -0.88830183933656392536 0.47258547151301311118 0.11908665925735496816 0.42679282944659502341 -0.73208154517787182858 -0.38222905974872950496 -0.1935615016604374794 -0.14371862852137162747 0.43378116060977239821 0.72904585909246921727 -0.18850409145684202117 -0.89805009788605849597 0.6933556658401295314 0.31919415082048174792 0.40774818896414299907 -0.6386631540001868057;-0.16887216911180291667 0.78097330701237410722 0.13972079538721726699 -0.83200296489164082825 0.61972237167093435772 -0.49013932299043116991 -0.40792847395348386108 0.70926503427608855734 0.81789352788736569 0.82201955385778613383 0.13310992372595500943 -0.39834765725028004058 0.9653573609141613554 0.7421392229686447628 -0.56233455254248276844 -0.041245320790663814181 -0.71601245278979519515 0.39426423813858280099 0.91224247887862008888 -0.090129718441444642285;-0.25323577521385898237 0.15444182801620237599 0.4047646297983921726 0.75289354961244681075 -0.32438726856421240541 -0.1871933186331732335 -0.14127558278861679364 -0.23430121356747304895 0.45086815883110609171 -0.7533487881546552245 -0.12045620569357574914 -0.8628443733564447049 -0.18356670714218897844 -0.24660791234954598794 -0.025636867427891198851 -0.89645648855827997359 -0.5633789512219793405 0.50948187461992078262 0.45603864687135764466 0.16611601960911129283;0.46841770749782368766 0.89248840898833181612 0.79606026653926986736 -0.24975489971040032433 0.23439699242191885942 0.22289201404623024128 -0.79052910344732096881 0.044307308835028542948 0.14671216128418115843 0.46960222161903758531 0.62933006682758618755 -0.026342020531423024354 0.29283697209809456119 -0.50283729143857225363 -1.0121657971558317701 0.24509777663402088077 0.5235042112565732042 0.37527139482613347532 0.24186486113472097093 -0.20589346658373197663;0.51019159629639954101 -0.51466803775651948083 0.25088272821301360604 -0.81524148571599763802 0.52088847604549359804 0.040964670849011571019 -0.70558331222844039576 0.5369669289486614927 0.66241906016841778371 -0.14371953023246339387 -0.21262133112923384259 0.75963448321256077378 -0.02153507748574324393 0.043548261919548157672 0.78874868637976414121 -0.84139435311523980143 0.10540673232135000514 0.76668373889582819292 -0.067840617079779327869 -0.81913749860874562891;0.73550968165331254145 -0.074862321105052073711 -0.10632086964599429812 -0.38787560041193436255 -0.37186807540644956083 0.8546149044003557016 -0.03002212429848701708 0.69785349458879841755 -0.22848581222897401677 0.68695413385985071297 0.22632100517430739361 0.63395069861674391287 -0.12039046293830860113 -0.50235375549520588923 0.78862551787762935618 -0.18640642944536461867 -0.39328951413947832449 -0.2107148783892905386 0.76315289394914576082 -0.27063034620033898925;-0.57123158021771081039 -0.012915612495304611487 0.13568416489299653382 0.83276721379786311505 -0.30817582490978095988 -0.28230319029836209443 -0.62041904824485183401 0.50010586815445667863 0.68144597116197769271 -0.39423326934562397117 -0.11081390168500758475 0.55321770446506457475 -0.73680923281061039276 -0.61338690140443652421 0.42708404410157180253 -0.099814891869322019957 -0.4946382702179320523 0.61737552416819674317 -0.12700889057241546154 -0.38720122489655356413;0.32426194858781315356 -0.74157277566052404172 -0.3586738649660910494 1.1171759680080077803 -0.47154279583947972254 0.6619778037068697607 -0.18848311827678226882 -0.71287009899434361504 0.68955075616922756332 0.056620298663623891411 -0.75380844320160755867 0.4482702170955724652 -0.77983845449469157973 0.04591295020793746684 0.29356638176602911638 0.018963548723004274715 0.0085324169338191792333 -0.42850300762284954104 0.79505409037600738298 0.28313120027709004489;0.1769703204615231118 -0.26913271980765601787 1.0689921941312379161 -0.66364415939268450728 0.13610724669516086061 -0.18666946153859909074 -0.041934561204766261644 -0.53676994606238181973 -0.018643064084381474887 -0.93917547925616406967 0.51814148395063674979 -0.38078162937016207801 -0.82621619688079628308 0.58676510120211367028 -1.0196042608197457557 0.61579428040537065314 -0.87440340278870809509 0.70649445794438292534 0.24879341852489145204 -0.56334846775178737399;0.76432367472561701938 -0.33638964476623450794 -0.16088208027859518534 -0.55538024966403898297 -0.73582695215012328127 0.57071908462147380448 -1.0731642399642242758 -0.34323837965672504557 -0.70442270327212863634 0.76906259150348410536 -0.34675718730618404484 0.86661328457052444474 -0.50618133048991642564 -0.63429351744908424315 0.06344026625861846902 -0.10979740911100836775 0.53269123013102115394 -0.62638173532041141467 0.29000921890822339844 -0.22518411841458971234;-0.37962995776704316908 -0.7255601152956970834 -0.67576410530715924629 0.68344704507071973865 0.39010304845845011901 -0.59598784680286720494 -0.93637587030332358751 0.68336695189061580358 -0.43482331463499257485 0.79592248499393492001 -0.76534450362779726795 0.60833314478912769996 0.72302711683253406694 0.6320798920629937534 0.19046674111892797354 -0.69788517959666751533 -0.32431280605719675636 0.067125913309677986973 0.30085966478514480915 0.72907674258397336953;-0.10246021953752487699 0.43931198394380605032 -0.39395337283230447145 0.7157349269679675885 -0.31456961434775898567 -0.4205984245506647623 -0.38318978515906193527 0.15754550260264324479 -0.20136689311702410388 -0.060390166484499567534 0.44745177774158217954 0.83824194942136864839 0.56434189554238067821 -0.19573483659347654107 -0.30321629329133986674 -0.442712510320826369 -0.32236329278074216109 0.24432940758194229836 0.11481478460961211385 0.11266253035396595061;1.0115253955592466983 0.04204440789009435131 -0.69829579488434256884 0.50315713893390656697 0.37598893156213109012 -0.51572055458670995609 -0.71461705294375299502 0.5358933259436832186 -0.77854425793029691238 -0.00027517473383370169571 0.047855437486680765802 0.5039397128900042766 -0.084717990948723065348 -0.45485084240885903517 -0.35933132513613963432 0.55702771873378109646 -0.14742110563284324676 0.6713634019723017099 0.38948656599477721185 -0.66089832334130704794;0.6694122338633855529 0.44608828199949634996 0.25964776297036151753 0.72878340495759774686 0.22134421519672281553 -0.023545081932467744334 -0.073530188193793782903 0.14340109797952929616 0.74559131967864133994 0.29253932224738393719 -0.59067259994731113881 -0.26955652232368260135 -0.13427632047841303597 0.37973212230096747843 -0.36030835035069197492 -0.28328071258547410372 -0.27575976812848035369 0.78600756234518276422 0.14186912380460570127 0.38428376138680531149;-0.58975461939815787549 0.24483913433345477761 0.49768496772053627542 0.91085163283525438782 -0.77850048577380148718 1.0175386681004809919 -0.1065353825680022265 -0.80874351257295418183 -0.16959510717307274552 -0.78412549826854860413 -0.36179405072580284042 -0.28076488025887547106 0.19835032511672198718 0.58106169742389535138 -0.5147194770648511053 -0.10924098600212978072 -0.27403806876668090897 -0.60963361295064910639 -0.20251483040815004832 -0.017352078082496901618;0.72763024454892044623 -0.69476187266517186458 0.9191225412434012032 -0.20737872237721810542 0.3563037286117119451 -0.32828370761481895368 0.28026474958969244122 -0.3969775729106205242 0.19930918678566372781 -0.057235014291680610943 -0.57350753285588473851 0.65310225491798035158 0.028537328594925304159 0.75088507184355979263 -0.77962280874140243991 -0.57050890135054177499 0.19157395874547150649 -0.060080194941211764736 0.81850448743034898147 0.38743784579532675183;-0.19443309210717985014 0.39385388627423956187 0.40514498932763681749 -0.13658197238641761606 -0.33061320717748171605 0.79592162555190892892 -0.71012655510712707763 -0.65225553778472189492 0.18399034601802258249 0.11610166672595331749 0.73925553144365863112 -0.040580142233808499941 0.51847609427810148475 -0.070085715736942971743 0.37038020247335440294 -0.47556281769088076805 0.3681766388127462597 0.59042244810373512021 0.72872599514832792078 -0.27958332255843043601;-0.48388920555485659403 0.63762296597605250259 -0.41715950702126786132 0.2903238795360988389 0.29772807998867723001 0.25366965113200301563 0.099928663319874239113 0.27556190657900203611 0.41117219828638967849 0.52916642207951691823 0.70116287555439948953 0.11458338932217136674 0.06419084235228067481 0.016579940428183406742 -1.0021661737748608356 0.27103447652797812983 -1.3694490176860873998 0.36177909838047639379 0.30039157607982286402 0.0082049627364664656087;0.52053964062630542209 -0.22588401788836340311 -0.43477417188522304858 0.93320795407263812393 -0.2236548625735205742 0.087753622735952871436 0.35924384433903339131 -0.77524420124210191574 0.65484484089632255532 -0.74897072579883217092 -0.096427617868227691322 -0.29020339694063890246 0.40806963528069611913 0.95704163732616942539 -0.22522100716332960069 -0.4945084603229648601 -0.95590467553893510022 -0.19331708121808940937 1.1371022863725117613 -0.33858448496510196168;0.81701184554049854913 -0.58618051782971425379 1.0145272025939151561 -0.15426497010377115959 -0.33093796547174292311 0.47249842997919710985 -0.20305234622438195213 0.13601295644661146045 -0.63235794049342586298 0.59172747014189075454 0.43712890412691696174 0.98714599283968806898 -0.24638809872424091707 -0.24015718945921446514 0.0035729597727004805408 0.22588079462799481867 -0.3560409113458432584 -0.17996814652617229568 0.42145122058428602374 -0.17581020889686072017;-0.49906004167130263438 0.80998969267193110522 -0.43967517184665494412 0.52968039483339368623 0.79801089414796677612 0.44518466382776938906 0.45760418735384905675 -0.32240598079089499706 -0.40260057913084473791 -0.3121601950507058576 -0.32419390915412638066 0.03139044579107722055 0.62700397813307795492 1.0193794429936808843 -0.86523794323251634886 -0.37428734625360982058 -0.87744263053022442111 -0.38172972571671071051 -0.04345209966647864408 0.33176479156645677371;-0.15397658378236098176 -0.66851888166047979123 -0.52501220147992277987 0.12514392080678829466 0.24827593572121461896 -0.26125633587327840024 -0.50764537335535142581 0.34891649388387840913 -0.42211361554783205507 0.29860573566435438808 -0.46439721988823579046 1.0409908039393209744 -0.14435536931201078947 -0.52911857760560354613 0.33355228746081222457 0.19129795172372851542 -0.5008931135291697645 0.3437459724341441758 0.89537495573843262076 -0.17521934016608087248;0.40349430712256367793 0.63349712678475944561 -0.12850004745730209121 0.046746238118202797229 -0.016003776386481531613 0.6862353685748168175 0.057471051572945262842 -0.59465428338147152676 -0.80811846589428693033 -0.66839397948750645106 0.27761499574447562333 0.26614768379539588405 0.55955418204372098234 0.55945403691718231798 0.30785371278718193233 -0.4204179739630929391 0.16523498950454804102 0.51198978921403037745 0.44566230909264858973 -1.1040238779186479778;-0.51836588127751137556 -0.23815643826571980535 -0.042900380929924347706 0.61674708122211241434 0.12731159066943451008 0.37221705068129096183 -0.19127633846674485518 -0.3549270344139967559 -0.39236517818864208307 0.64564073459630866303 -0.023513657870303440733 0.45094533845616902035 -0.47174121433148280547 0.33986472636510506318 -0.13239222871155756356 -0.76387116087279038901 -0.079428855225345554314 -0.28731470650154206092 0.89967521986943554957 0.49804897512921741942;0.48217801633496731872 0.56374634612512342091 -0.65337443311271370394 1.0339068706684118037 0.95277127146726237061 -0.5736376725799818832 -0.93621090123308736697 0.2897969601245749538 0.50842850986067922303 -0.11985987326675624776 -0.48563342569640521873 0.21471696001447937441 0.024950892831386024817 -0.36793576292867558042 -0.53695453932582726253 0.11354969117940602596 0.12905735551833377728 0.92220427533491278194 -0.030948166917345518168 -0.02456349058935565835;0.7907424483091805012 0.02402663934453226971 -0.55274517235854891961 0.50970713203686623949 0.36591051817167691285 0.18591666858483218983 -0.71739709824224329182 -0.032232427803350081896 -0.32031919270023545554 0.28616590546973286191 -0.28624340663284075781 0.66756394124808171586 0.64000820725980900328 -0.40075800389805699142 -0.59053941712376123441 0.71103574318474305205 -0.58309448545715958367 -0.18896303835944491811 0.33243205977783402139 -0.17019930158655807717;-0.68220499979293003356 0.87603667224727277407 0.78918237724690853963 -0.20131471565466246831 -0.33804743742541226714 0.6959971194437005737 -0.26119161596410711557 0.048281615894243977427 -0.67211185855935640099 -0.15649506332632170946 0.0836618305338296675 0.031708104343272251746 0.012198863767289083726 -0.15134318479760500153 0.20554327497806906822 0.30656090969371913024 -0.83358159695459943528 0.21045231058556368442 -0.21362681271489900037 0.47548969799870649533;0.26829826293000119675 0.33586149396232106712 0.48022064517337414991 0.36957019959661691066 0.65638030589391249681 -0.2448325551674100653 -0.14316012989721899062 0.044055035166256424628 -0.44417833311552601394 -0.64217317697300579926 -0.55192100836108859419 -0.76119335189891113025 -0.64509550815985261529 -0.28724316125440568781 -0.80143678730711997993 -0.29799514074655408802 -0.49882994966392912861 0.30071338263357610954 0.26434118150043345308 1.0759626490338558558;0.41558516732625461199 0.19739130648427402615 0.85442239115148077566 0.35166497184234990492 0.90526910775581881374 0.49310720144503844553 -1.0390094531150722013 -0.088939607881837995373 -0.13702488135332629993 0.81606551559175566357 0.12655341276625053926 0.012098247844721443309 -0.42592496813123398303 -0.59472691076452877113 -0.42911835955229210571 -0.77338933684540411839 -0.018602356216659229199 -0.72233178093299577061 -0.285793860818638501 0.85937350089252473317;1.0999512595812517279 0.15508035055341071184 0.34629891960399566964 -0.16803196762924874075 0.099068770052189267239 -0.23994717624791755961 -0.29481659693602718653 -0.12137086120106799214 -0.21926720242148142748 -0.62852999894296146532 -0.011495835078252348432 0.081062335611829808291 -0.059444239387337588498 0.71516717290958009556 -0.40651882007100087479 -0.028618980805302729475 -0.3912860971617143635 0.071189838874027258631 0.23658277969307428545 -0.39043183370783540731;0.099407465946455011996 0.34635245207206866169 0.83658790241810221389 -0.47988670836010893783 -0.27284436628015756865 -0.16995210589711787219 -1.0760277069817203444 -0.16974538269212199881 -0.4656646362323875743 0.47243356159187654963 0.78695064786027901782 0.92162553072495911888 0.48692939705201160328 0.49272976875789165074 0.28002558263855109599 -0.16136261170212595761 -0.038082045573941333827 0.52422965290459799803 -0.41143601105297694653 0.69152598041350499258;-0.70280513221418905445 0.45184433858323774791 0.53083275323027190318 -0.57187629935100481315 -0.74604591014818677497 0.2585569446641533542 -0.81592111487895313537 0.55562631832024056422 -0.42144053177454476877 -0.23902007666210303705 -0.23230201614442741453 -0.0095332480576474226686 -0.40459460227798810239 -0.11582065273040699493 0.091621303807586998436 -0.58295438265985566328 0.08150055540606106208 0.80910287235682909479 0.32100012647719006198 -0.76337639322795225461;0.64128483549625503457 0.902382914990160101 -0.072495122412088081054 -0.055182626355689913533 0.65699548822484810096 -0.28383089713078779592 -0.013474830860832129678 -0.091002497275679342104 -0.27006758841834682672 0.7455498383670576823 -0.22344998143680586122 0.37219224631016739613 -0.91606801806730864257 -0.42734535488014274707 -0.46674668336795516188 0.19752246063742118221 -0.50976009850336789775 0.92576868980276161292 0.28069491423811959718 0.51110425118078706141;0.46537648951096499683 -0.027937888098815959886 0.80219044678566275852 0.099266720151539561412 0.0021403038803557939904 -0.21960936116637139182 0.50663058026610419127 -0.098679895998157837744 0.10748552244383993703 -0.48046556210173146928 -0.26344952730151283138 0.74570220466342540533 -0.60726220549747811361 -0.070095153885467234578 -0.12534496455755081423 -0.82141744584713061172 -0.0030652127500619083013 0.90372679740876660226 0.5330698334539228922 0.06135109893224575256;0.65916711046902043414 0.30362957906287207921 0.34810338006478080963 0.26237121162560800292 -0.65035640726970278536 0.46131066720046798313 0.38385698709952870145 0.18981659792303079426 0.50828406359387312552 -0.51576307765806006511 -0.26997924875732132177 -0.50156000851374638039 -0.33482195704417450077 -0.023753348980366392751 0.44586343797229466279 -0.72256158634893197235 -1.1670510722257596559 -0.76207573275285311887 1.3270192800947984146 -0.25833316507372822146;0.79949842962549777514 0.96156434118773137509 -0.31309452828291550741 -0.35449224462066780683 0.24215392027137797037 0.1063513663952122823 -0.059630471122400906248 -0.4725956724612468407 0.25984195846642443861 0.66330570612031791722 -0.1934352568256139937 0.75293997701050785487 -0.39289154940165565977 0.7693591965780445241 0.68325985707321701401 0.93810520348760395581 -0.78252330575670348001 0.91754499565635416758 0.04750527173286245991 -0.029979320992550868158;-0.086583471967783653955 0.70918762777581856316 -0.93921464765302131728 0.90970988098001592803 0.019290758553463002722 0.085154548403996999095 0.4369366019813430424 0.80637652589997499408 0.69667947584999434518 0.796507522198459883 -0.41896977971456628165 1.0384739430103178126 0.46742066914668417565 -0.20765451193621342618 -1.0422024483264311634 -0.51756492256341468661 -0.072153594337373352929 -0.31569804365212555952 0.81739626408160803717 0.60251579059119519943;-0.13959918672343488155 -0.051626437638812895659 -0.20461870829813935679 -0.92323629685762875763 0.032187354371864991542 -0.65118851986599446402 -0.94998704629953401035 0.18432630358974019802 -0.41499618086233736047 0.72949359012987102791 -0.29449858924204486144 0.79370839523597336296 0.90998484878279251031 -0.34213464493763218188 0.20037335594357696955 0.62881554290653729478 -1.2566453286860455041 0.028774424781121715755 0.55929215555389544257 0.31607620489945759124;0.48628692324061750796 0.96777349526127975921 0.13082239702496498146 0.033520472943810587785 -0.69182187311284759623 -0.055582427768646198996 -0.0051333444787117453456 -0.88168878161959407525 0.011608193154406884137 -0.92011911094520371091 0.6558266592074434298 0.4800519725618921929 -0.9429746222203486683 0.33425792444988083885 0.44383854480717976898 -0.060112955421812545864 0.021754236997059583913 -0.24755272837545691522 -0.23366361371860219776 -0.039023969751404985473;-0.28695085410999493503 0.53778166034726371247 -0.13508395886980495426 0.81206155948377445331 -0.065142270333768875767 0.38001810287343412709 -0.42448287979334298203 -0.18992429426166049233 -0.1853011321215536078 0.077011379751116201819 -0.99039463118522186313 0.19346564885601574835 -0.36585028486456366847 -0.25182627956748626641 0.23364525118078871557 -0.81397358268517328028 -0.53133682139311011472 -0.25604963705897759718 -0.36811055823567440104 -0.063398008781611073226;-0.19851909143664003832 0.01123413019641186783 0.034251179292264621878 -0.5765741544491785886 0.40809160175543363058 -0.74100687700728162799 -0.10321001146038760732 0.35004120674060212881 -0.84045482768979240529 -0.70416799063060042663 -0.71460125625858261778 -0.28162145242212893725 0.84230049015802188617 0.39027128184218573548 -0.11930111017969158294 -0.96166656795428573368 0.22569963479583893262 0.024289415819102242594 -0.33041517781580626023 0.30906597005766234254;-0.57024208484616778492 0.54669355901702076928 -0.19047381128066756539 0.39948198428660697257 -0.22789247242329047083 -0.37473742300105133962 0.84173263449020885307 -0.04868752664019299764 0.26828586578908691918 0.95485365696046509143 0.077795899022135128753 0.23099132973458974538 -0.68697947548249016503 -0.5374735894065389985 -0.16566641131810092014 0.18455640397738654057 0.27832573727930753904 0.48041153916309314864 -0.18224248945006227274 0.18652777065252476585;0.78604722360940770809 0.7621468899008820852 -0.28402823075374622475 -0.17286562724031806493 0.26938579947807844706 -0.67172289273773577722 -0.78685495851757458752 -0.81594694066428408163 -0.87399246015555309697 0.19889465085341095918 -0.32978022041731647196 0.9261757959172650656 0.77371322243815721098 0.74297765873013132953 -0.73354648861976823326 0.26007143412140065752 0.95625369030029283568 0.72225519121166392722 0.37199720031676436482 -0.056436699957356173396;-0.042431975195483237484 -0.72702212248885511592 -0.75648337583928693117 0.066255915194422185244 -0.82818151065940370792 0.29979597622113729471 -0.29060327795616730517 -0.40582733995945435845 -0.69478551045830605482 -0.10588943850955252757 0.74268434979610753466 0.81608350111992034037 0.35847651142183584172 -0.41581836001344479881 0.77903252091140728908 0.81236296648250505559 0.69437379453288794462 0.30318438878691128524 0.59430161547517623699 -0.127467539154564935;0.42958561706460507423 0.47198571799573030283 -0.67771076670657515173 1.0045207014830679348 0.0040521925469053747537 0.062325246307341194973 -0.63336341533758122591 0.44286190664998315025 0.66424756613654478699 -0.70032296228979828978 0.77949985477745842299 -0.83226780642485609363 0.081321034796465754835 -0.76061960867471889447 0.70892408800381723211 -0.75269584420375179601 0.1286436323473389709 0.28869843315322912813 0.040217157903694435162 -0.010114859397752497955;-1.0120037624983619917 0.017109911830934201871 -0.89422518597097921944 0.80050087730458441282 -0.69942630303651742718 -0.89264686402003778909 -0.53368062508583957726 -0.42393105205028747129 0.5114235593945269942 -0.10373818012264959809 -0.23741529726516988341 0.81091561636827813597 0.47969837425564443301 -0.53063300823958559072 -0.39914366969273051833 -0.45471850422774817702 0.12277346763880636615 0.96088728291853042762 0.14461775326174722278 -0.83960037631897355137;0.70242033065880016274 0.48171133647802721889 -0.71433230355445365145 0.63384382342732936699 -0.31055273334238031602 0.89627732595595310805 -0.32216687605766797242 -0.75686628690132096153 0.968597169048751927 0.69341922589500326612 0.32252118907333959807 0.23632767706871285474 -0.22031441353187070087 -0.51515993100056922671 0.42500975887162245614 0.3046147316205822797 -0.46430194051028406133 0.15274514075023024051 -0.73262095218228029392 -0.66956524949982976214;0.33126620634838438439 0.6415071936635837746 -0.10393209071656267506 -0.72703738864534761532 -0.021063553374204999069 0.63747487970500538168 0.15007124293812440508 0.43779728095475306526 -0.55732196320645721599 0.3773209180100141058 -0.25160838854502143302 -0.67210095227398847229 0.071375738235881475147 -0.29594941977089389562 0.98250758046394326417 0.93833082939114575982 -0.84986739975731617758 -0.054459152465803364884 -0.59086637330627145293 0.1140633884753687044;-0.052874937392376697431 -0.74354360142618192153 -0.246556245310041805 0.41277016421605539076 0.17646371628578555457 -0.47138048746011079748 0.96362328989788836875 -0.83550891368740243248 0.66109676222892443942 -0.2933202849995364403 -0.18391853021186177486 0.85656880037056171151 0.15345898300064769737 0.71054619733667112591 0.1327116690216525452 -0.5633004241286970748 -0.25500424624180750843 -0.70563944869142869454 -0.68523046193015779703 0.086313132972241010665;-0.0020928051919490587435 -0.26360562121458169793 0.42377114404730514829 0.36783416887066827661 -0.49629174216679611265 0.56292742148173235961 -0.47807619921101446314 -0.75093567016994788865 -0.049806950146267417456 0.13387618927295974469 0.81432514672373657039 0.36979645760753920847 -0.56494995520112878395 -0.604908836936903338 -0.79109443079005026256 0.96868737731943743707 0.1280221929638742373 -0.062142840316298235404 -0.68840958472494362397 0.028318484956270775776;0.86741883421199383886 0.23197346943768323846 0.3164103317551852923 0.66614280170908624079 0.1056443849654206818 -0.017086448155149754763 0.67189145576811615257 -0.24026548851695139764 0.56411918812668315759 0.061030656070158520454 0.34141398035209641337 -0.016776933493188712909 0.39515021731257976567 -0.61149732403083878474 -0.70279301447958009152 -0.92428330003418990302 0.59346854964411810407 -0.26927850999762942275 -0.5949339471585511907 0.88764644958523664098;0.71608568610940304122 -0.89135272754021455111 0.69343461372033288193 0.68857149680465257191 -0.11193397953966055525 -0.78121527888262931594 -0.81889730886511136188 -0.4880083666431571654 -0.19912443425940384856 0.43416502164503828487 0.39827271840307137962 0.043583795391470288305 -0.90528963208182067213 0.2109245144434401531 0.35118726623761592487 0.12761768600772613325 0.86308587749840937065 -0.98698372847827453569 -0.52452790840160279373 -0.33681270980163585671;0.56995720517326520227 0.47995937540800587273 -0.92778215693062238145 -0.43280142341098082337 0.28403845640965491581 0.31396870968349827047 0.39800926807124320517 -0.90460521871630972246 -0.86439373908142391745 -0.78657965634993864956 0.80427986610352086849 0.9467243264516614909 0.19855260742388872175 -0.8067411176217773594 -0.51973354800103377382 0.46037985304976936085 0.079793713263668325508 0.55275277299198077863 -0.12392088523543080825 0.2198186536870344876;0.62903187397395599056 -0.76254163549852860271 0.9579441323593134161 0.40221761307414571895 0.69129413499627578865 -0.14688425436113811129 -0.098882501609606751614 -0.36522872310622106484 0.52027667110767872316 0.43389245318200070356 -0.28913131006936598766 0.60637401562979453828 0.5682324712963776614 0.61337296091927551167 0.65989664573263528968 0.24336055277633641958 -0.37560786833868831103 -0.15921145719893309289 0.40538520932805627295 -0.14682891750588869528;0.5920508837454206974 -0.46173315471557707657 -0.3197910233943142555 0.71884914582441183928 0.24432117625604424238 0.99416257730988821795 0.52777381198813200225 0.77565446090373824095 -0.55026330942101187027 -0.61661065727863706432 0.92308173112236657776 0.447809235945981432 0.050128423705225730322 0.74006967000852985628 0.92327991370150452877 -0.46699008138566988624 0.83445447907921688202 -0.16105323536188417832 0.037919983152239211677 0.71624732720804007435;-0.90928734974491420839 -0.13655015013208926522 0.56174629556249100482 0.57027212298746909891 -0.11517645179256297272 0.51887867407377974427 -0.21932315563612655995 0.42295622030712243244 -0.69376356668314465015 0.3819167915615967468 -0.60752998870385166441 0.37275654744468489366 0.026460970750549046848 0.4795824542477920005 -0.10865776403777634151 -0.62930070813035221544 0.30486144773011175646 -0.81570164386796339961 0.46661057425322677306 0.50071822729710868671;-0.94616608888215847362 -0.32668435610903301392 -0.082711043776878240275 -0.031383473212490471671 -0.9799679631862172613 -0.032235515228173729219 -0.73392360850311222364 -0.41673294425655882378 0.35730606076828069773 0.012347413663411728121 -0.83567980497723493016 -0.81795868297223428556 -0.96533164257848458334 -0.08096217022844266753 0.86910332743752716222 0.89068201825893655865 0.32718276184186634303 0.22358281954621786469 -0.67191986302384298924 -0.75645171005083478022;0.78526008942512959266 -0.95829627885545387578 0.25367939118116061836 -0.50729137507460386747 0.81756520505145802158 -0.20329648927900401123 -0.31938912801258206864 0.14288702949811435405 0.62792195990716481724 -0.022434842105505618109 0.38129237538004290275 -0.3011365303738899879 -0.23323387768384909458 0.51528554640151769117 0.61999410041384239722 -0.19213192662347472472 0.052115057231668017457 -0.35625481761434218964 -0.96825102433547383107 -0.89412686828459164712;-0.35165450140385501321 0.37061650602798357212 -0.31206218367583182793 0.83884742889175156755 -0.47370966790582064165 0.82160515890263130512 0.87451888335313154865 0.70635501543622924991 -0.91621548387573836791 0.72942342801318427181 0.22295402857130011687 0.46141615689872916839 0.84431139668734844772 -0.8931539004236437318 -0.024786313214158375851 0.78596075522378172629 -0.7903972989820814421 -0.18030630823953983088 -0.53793286612381885359 0.73502134263541551995;-0.43302610848484734962 0.80961263849618925192 0.92979908024590240956 0.32599491762488458368 -0.36680488414153089582 0.8586546361769269442 -0.12340379074323648556 -0.11162093493649008491 -0.29531178611272201895 0.55238538897381939119 0.24527087682308279515 -0.50889289902870660232 0.68234097007492999776 0.39819198882350259616 0.85470542659356241177 0.23799717910523593423 -0.73816000118911329064 0.22350576851071751738 -0.70999621436852811129 -0.50599264635791907363;-0.91134749696379302453 0.79216391005409381165 0.33436350615863219549 -0.30645364265592928144 -0.76020415218636872012 -0.89889825378712917558 0.095988493523596882251 0.49863033667175127306 0.83440037858576598939 0.018627738638945349342 0.62562793196480204205 -0.59381639286084797469 0.11968357895654448131 0.32522639978564615859 -0.54744131213704994021 -0.51824329489086851108 0.55408912876378790813 0.52402878286473220104 -0.31072597100771842671 -0.94983476297741109562;0.43838249763008596549 -0.75039494935989736746 -0.19405992867813062763 -0.77340573809399870697 0.71964594305132445484 -0.88664853316541636374 -0.66364151658777970066 0.83167271554765531683 0.045194387499605838399 -0.48433304426114870411 0.26622863877322183734 -0.59659851087655668689 0.68653922751327911556 0.23247022011449905432 -0.21718171905940564237 0.49076361870098594853 0.43544401235839791386 0.22767532197912959679 -0.43722632074614686815 -0.75935807735077820446;0.09818679601777523247 -0.18119124886296975041 -0.48346694823024854992 0.5617624770492510855 0.60522008792771608832 -0.79116543298939823181 -0.99975937234175005219 