function [y1] = myNeuralNetworkFunction(x1)
%MYNEURALNETWORKFUNCTION neural network simulation function.
%
% Generated by Neural Network Toolbox function genFunction, 17-Aug-2018 13:16:33.
%
% [y1] = myNeuralNetworkFunction(x1) takes these arguments:
%   x = Qx80 matrix, input #1
% and returns:
%   y = Qx80 matrix, output #1
% where Q is the number of samples.

%#ok<*RPMT0>

% ===== NEURAL NETWORK CONSTANTS =====

% Input 1
x1_step1.xoffset = [1.48614513874054;1.48511433601379;1.4821435213089;1.48093569278717;1.47999238967896;1.47827243804932;1.4759007692337;1.47506999969482;1.47362291812897;1.47085416316986;1.46935832500458;1.46805119514465;1.46637380123138;1.46522736549377;1.46448647975922;1.46614480018616;1.46235764026642;1.45995795726776;1.45656907558441;1.45368349552155;1.45015096664429;1.44682228565216;1.44462072849274;1.44324111938477;1.43809473514557;1.43232095241547;1.42600691318512;1.42004883289337;1.41383504867554;1.41012489795685;1.40340411663055;1.40067517757416;1.39073383808136;1.38088715076447;1.37024092674255;1.36157310009003;1.35258853435516;1.34447240829468;1.33570718765259;1.32895934581757;1.31284165382385;1.29806697368622;1.2839812040329;1.27042639255524;1.25883269309998;1.24719083309174;1.23626434803009;1.22615146636963;1.20701622962952;1.18948757648468;1.17347192764282;1.15956914424896;1.14648544788361;1.13449025154114;1.12381529808044;1.1144996881485;1.09753108024597;1.08296585083008;1.07124292850494;1.06115162372589;1.05253851413727;1.04526603221893;1.03903830051422;1.03429329395294;1.02587962150574;1.01964604854584;1.0148378610611;1.01138114929199;1.00859832763672;1.00643742084503;1.00498366355896;1.00409734249115;1.00242269039154;1.00124609470367;1.00064873695374;1.00019931793213;0.999920308589935;0.999597191810608;0.999641001224518;0.999686300754547];
x1_step1.gain = [75.8055837953361;76.4417957234699;74.6357278858302;73.8027757615748;73.5207561887317;74.9200259003729;72.8089294703769;74.9863276972517;75.4771686416354;75.065507536879;74.2564974151972;70.8129476665414;71.1100863380706;71.4590022190893;75.6985272884782;102.107711689561;98.1163907294451;97.6123251646536;95.3413422742513;95.484050151673;97.8874049698646;101.299456587369;97.7095367053959;124.571878318075;134.077215078598;126.508788466034;128.916674350699;121.673660316056;117.51548688063;125.282574767576;113.456158621529;159.358054711246;154.039535417527;152.6283728462;141.944025178517;153.449210675545;147.242182494756;148.187676653477;151.966159726814;191.92166283446;185.127900689655;188.565250132063;184.934038800705;178.287560306901;195.773667689651;212.316071880537;210.663184329483;264.099990555048;274.892122165421;290.348649256702;299.968102985875;345.444767022876;342.896010464356;355.660476553888;372.918179999555;465.284153308558;523.519081349268;513.976349488389;569.781490915266;624.477629717859;655.411204000313;627.561008453654;630.674986843095;930.98141057655;978.434478334403;958.095825481126;963.875445248765;1039.15862496129;1006.55243580514;899.823866988469;997.752958667856;1368.78648935302;1452.95020351606;1392.99368980405;1486.28773919206;1425.1797485559;1467.88713417035;1317.5134286163;1494.16360154963;2004.08720062116];
x1_step1.ymin = -1;

% Layer 1
b1 = [-1.5000761420413375458;-1.5312101982384056509;1.510288685434006295;1.3901974470072058221;-1.2894736659409173907;-1.4487979573107760967;1.3160129548092303065;-1.194873514864091657;1.3982717096836114745;1.4050703511244919675;1.2158033682230326988;-1.1971411863101213413;-1.122457179493643542;1.1957088686157824053;1.3317969290402145166;-1.1735353241869490581;-1.277584393235080551;0.91478822055164066285;0.86855320815520131728;-0.95818778755722411322;-0.88995811668460489408;-0.85232635444242987877;-1.0236754738788877983;1.0135259831775800254;0.8108993499460986909;1.0113468382717696326;1.1330247500143602046;-0.77268062915999968787;0.24359776818439390911;0.76249753488964300274;0.8711716308674551934;-0.76574082937084919642;-0.85432756894877526221;0.78345114378287483703;0.77335369609906534638;-0.16126101269233744651;-0.53412813653263946367;-0.3566559881557492262;-0.84057107546370957163;0.094173535750585887771;0.39028196504626477825;0.085029421360061419044;0.12391324177313312038;-0.44374082710926782136;0.5355563908235497772;-0.074613517719902336389;-0.63202973495830105932;-0.6175421116540180666;0.086974239739327829923;0.038450013316139397546;-0.0025180832100426542297;0.16406353179272512022;-0.23191225840073598219;-0.27181066683167282028;-0.52469020356279139072;0.56022416681940778727;-0.26255551094628376552;-0.55145334308008775448;0.031884515004138178074;-0.50099123878495888107;0.46354962207795263884;-0.20836513830560801641;-0.84040768265556242689;-0.28294214006499140979;0.50165377776893893547;0.64439150318511317916;0.20858193983864495302;-0.55892267954056418233;-0.92041496013883350447;-0.85658795898752060349;-0.58817715558520644592;-0.94575338580454726412;-0.75896393720517973946;-1.003858243550635132;-0.8505310564963571851;0.71985651856097065959;0.93396961545090828594;1.3352910175695564821;-0.9532188077135391735;-1.0245525614036341544;-1.0859351786688133945;-1.0019708047648105964;-1.3099924348559124354;1.2863459311348581782;1.1523554714692056944;-1.2758819376962928782;-1.263513104427958611;-1.3408728218134025045;-1.2657978103205977938;1.2721808071596767409;1.5980658470594464315;-1.2473444830632256508;-1.4330033888935815867;-1.2759136800734085515;1.3744619174574359555;1.4525156407156285532;1.3782316869598438824;-1.4904786162456358234;-1.4464399817952031668;-1.4840168110293294745];
IW1_1 = [0.075486798580880407061 0.080368379483581969813 -0.2374882101475055407 0.059240935756521867495 0.053666048771324546818 0.025997467664225570178 0.093615811021439856998 0.19038285427931100902 -0.25231434813016145879 0.079135901180871506821 0.01293342381737769102 -0.09312442188540205612 0.21818775705208151572 -0.1305037210024959371 0.081653959847697951679 0.19361574409910659034 0.12068478631444383431 0.13679844699090773497 -0.16406057676097318687 0.18522088850594489728 0.14808755725950911719 -0.092874445037793476598 -0.011016782254027954191 0.065526606242900173327 0.12599296187858088913 0.21868043630243430564 -0.20611938892956835345 -0.27276821960781366672 -0.13735694974029405424 -0.24937335467063709293 0.087066314181082793411 -0.11350635281949537914 0.043087604066812890125 -0.24705406710765268063 -0.098367017366836909109 0.23750833959129857842 -0.064382784091383343794 0.21546210968584919576 0.15841673327105421087 -0.19223222599397046806 0.18810184934428986203 0.040439294345808396436 -0.18399220720003878204 -0.13935278585443289234 0.17876965649472259523 -0.18491376134214049243 -0.22835739290396647738 -0.095077606235790534939 0.04191947893239823808 0.21977719498100020679 -0.16529317682764663178 0.22973814879709589243 0.011394442926084819359 -0.20453987625319641763 -0.25099861246317739516 -0.10333250464759566323 0.17766975833304343713 -0.10798310925041089414 -0.081869859262618763229 0.12897913240753147712 0.19604292317866817141 0.20409458746880562718 0.22311034708755617118 -0.03550351461017042104 0.20620565341717778107 -0.25226405041480426394 -0.23200236047570438336 0.20188940363950150236 0.15990843786791864023 -0.17773608983898683822 -0.25661495935312822469 -0.12330099387663193133 -0.14830752087942059014 -0.22799116105195990634 0.21814185639419694795 0.085207257281806600413 -0.10175870125770092312 0.0947020928172707388 -0.059041165338374446137 0.19173178042516364483;0.0084992754592127083696 -0.15990487004566750207 0.11212142104160174871 -0.040420422547951480319 -0.078766863225064015497 -0.081812857539209041247 -0.093585419033624522855 0.24939899523117264879 0.23065192758185776301 -0.2617163037759717148 0.18076507189304183432 0.14554040818098765153 -0.2700483020796582978 -0.2705472046610912229 -0.13878595383674088848 -0.13354367166317415716 0.21651319786670200629 -0.077521948588540792735 0.19867119661611032377 0.22765833941053423284 -0.20552849452102661676 -0.10438008106210407144 -0.29963323159523230776 0.086910905055317760892 -0.099432922895386841033 -0.14170028510969481794 0.12041678218285119251 0.10940145161731645862 0.16624055832501591357 0.069500386220864421305 -0.25042692231786795043 0.12498600019530189953 -0.16736349444917550389 0.067282680272439984726 0.11192347439520490548 0.19525170584633180781 -0.099832741958332818499 -0.20105465706050548724 0.074182160719021103534 -0.2062331525593387449 0.033709299438625731082 -0.18748605070363572045 0.027416260629491134154 0.26002796796894034337 -0.035475958722678481438 0.11955622031759710611 -0.064558022208561605115 0.21619363411896283522 -0.023615540767987611842 0.046234969483983291705 -0.19123954622061947739 -0.079161637939819132215 0.17090858533471933733 -0.0046746087750786256484 -0.019486859300217523189 0.1038886550898883987 -0.27547309222916882554 0.02506467915941728089 0.10440522192366684384 -0.001058203906207854381 -0.018659893657839494996 0.061804150162263746249 -0.2175740571980945004 0.11271345935193965992 -0.23559018272809564842 -0.18247682903220938111 0.22065565666355227425 -0.099929875552757466139 0.14524716093223996594 -0.17219382588178691607 0.0087632307533233658181 0.25911103509838034897 0.12414443619354650905 0.076745727419844367301 -0.10925836451463286081 -0.2439866558130122931 0.24451697240305447778 0.06999834516542247087 0.070205497254708287835 -0.020905685942254340765;-0.10231407276429139996 -0.040318438061608084799 0.12637784497018686447 0.097900923783411336609 0.24404505300282708369 -0.11327251417302501568 0.0012672446780494788128 0.019829387549967970872 0.20385723678497674749 -0.023652658486977971852 0.11740218170747987458 0.042379686797207917481 -0.14009455980400575825 -0.020317592525087899147 0.06345839215704542069 0.098902481768651684391 -0.1784162578410279365 -0.19251607583326824091 -0.25905052742039724745 -0.17012902557857761954 0.039541067529119677815 0.11401318110153076113 0.15155615801115740471 0.095709459806372756963 -0.15553694113501426166 -0.18212162470617251908 0.20787342805278077873 -0.2751416433758147595 0.21315331519100857993 0.2558162787978284225 0.15672928975088837311 0.19559842794666065791 -0.042635997844552436797 0.10630210190857290742 -0.1041792186222996186 -0.12083337527686102697 -0.1624781215384622779 -0.16593302200314610784 -0.1321705528366983462 -0.21895098311787150602 0.074244165171880024956 0.016486002710231012491 0.23180877324046486598 0.021605527327963589684 0.10849121611523698805 0.040864122290192365916 0.011310202797373535358 -0.0036793002139612158638 0.27212394423773389462 0.24406891077826783909 -0.2734934892882620594 0.20092850588707972248 0.031543002264222755326 -0.037615247982743481303 -0.098393670581177636314 0.042877913705587168691 0.13115446895213145329 -0.24056363812124526014 0.18320864149541549182 -0.28376616899544149231 -0.20289614372614386828 -0.23307378395470765287 0.25386663336323428419 -0.10536536736309018436 -0.04212888687483278688 -0.10450153460921420001 -0.099985492558904140448 -0.19936356489911627454 0.146023822248545182 0.22564482690841100587 -0.22951630130911221395 0.073430197346194880925 0.14281818634206924767 0.20590617170341363185 0.14557342219826610585 0.093868267751454570469 -0.20284506161904572452 0.16522774328091216489 -0.084241867637492584553 0.25216310360977906013;-0.1263259571476695875 0.21746614309714987212 -0.16057491279558863684 0.15018593286436884848 0.017530180164686503391 -0.1133443877094892499 0.16788427315397133621 -0.16823390906510504728 0.1865251539786613455 -0.10532849147437597925 0.1417438979641322816 0.1249209616872593992 -0.15317465052808287851 -0.080509412057164025933 -0.12645192812237823765 -0.20824905171291335781 0.13803946556324669936 -0.210432577897966544 0.21585761205054326828 -0.23480449969193264992 0.066478512060276870321 0.16701704955884993931 -0.095544153721153143866 -0.11575529327111748479 0.030193761916846455912 0.26752857240118305127 0.11617123089509359679 0.12812113978982000995 -0.11864117348122478479 0.061419522027944345455 0.12174140021836861447 0.1084480814010754246 -0.15864183194776412811 0.23662048660085296947 0.19691219555365749305 -0.047084653366109480155 0.26854792055051479593 0.14721824663797999921 0.15072055914435525392 -0.18013281311344006563 -0.077726500920035357378 0.039551663809462060672 -0.21943591377000185028 -0.083709335284720520765 -0.17963379609570598316 0.10767669499912919939 0.28419793918507030295 -0.28837064611357854371 0.17245334271893789091 -0.12749117188361677733 -0.013879590221794056021 0.0964085692936903077 -0.015055838256773415237 0.19026951038713360576 0.014106678127447005305 -0.27854358532663248127 0.16169520151311370104 -0.082410388036433065984 0.054092961285224117063 -0.1694967259759443956 -0.26851911253272747748 0.048542168834150044299 -0.28486717954523183005 -0.12025297229186564241 -0.045156284553532093085 0.15125255006555413106 -0.18355965691865056 -0.17882237981760784606 -0.05388271224154578265 -0.011930220310275265611 0.12666107537557902418 0.15141395785924982587 -0.14981166239752305436 -0.060763285273168300693 -0.11271031185908397809 0.16946988828536410643 0.12402655385035873947 -0.28232701072861643432 -0.22274197122273955984 -0.068833956023051201534;0.097516843603387470818 -0.076968166532035892091 0.23900769010821767968 0.27285739565282057795 0.2131277547348776058 -0.081120121914562803855 0.23990026424772534219 -0.11154310460688600382 -0.063169748219937857381 -0.029624670827148376351 -0.073774771024998880842 0.060849824306413134722 0.21623722198726413879 -0.0015909755492586200379 -0.16605296118347315226 -0.043686281733054735388 0.091730005685409593541 0.15651751680827705182 -0.2053134840553979823 0.17157737277209747506 -0.15452039465418510034 0.24196771259513383256 0.039805605118137278586 -0.19539592707921804582 0.083504114155584188706 0.16447561588021081258 0.027784584769219709821 -0.28285603326262809265 0.20114938346022598337 -0.061619802800078039839 -0.24580825922223048519 -0.097125730238719648613 -0.13049331943496178532 -0.29947414795521809516 -0.224349630728731958 -0.27047109327768353859 -0.028921748684188411382 0.1822194391296285132 0.17488910306746899281 -0.18112153413975501381 -0.29682011295247373583 0.020299721025979107492 -0.11659692324469438096 0.20557756338749613723 0.19867874416952616135 -0.244494057498959666 -0.15769391252753561794 0.10435764258346261202 -0.21989198160371828394 -0.12799605241428849145 -0.18385208536490638132 0.058729466023580298439 -0.073135191653910303078 -0.24270986137018946138 0.23465772053717962042 0.0071632969802044336657 0.077527018632716396263 -0.005733763124871298425 -0.13324760671176491544 0.060330799185929519235 0.16852886425390720126 0.22089207429143478678 -0.029493705791942482347 0.13450005651762550474 -0.10774525489480538121 -0.1890124751569385031 0.064488960530558428474 0.019430876432396208819 0.18487429345983671936 -0.26633015251431269022 0.091999107487547526762 -0.032382666168991013078 0.18148986799548649795 0.18208017557697503408 0.15442120787908497626 0.19705628263119703836 -0.1263076779807837946 -0.2321940027847925192 -0.019772636659448551005 -0.02161756624391275583;0.12360302085924940174 0.081226040646281083557 -0.055077258586188899969 0.036609582678579763448 0.050883311596372424179 -0.027997161328197670005 -0.099320379411214923526 -0.24177309233547639167 -0.10372646818362159238 -0.14606965686304751451 0.048775535804375540205 0.16105373074529943933 -0.076799546095217496866 0.20412606834513530307 -0.13425893842861699734 -0.21039295948517436341 -0.18151045037420804329 0.15577952416125345758 -0.17565327296025268211 -0.14657358880066426177 0.077308334024941277596 -0.023339451409051501646 -0.16942136510458324916 -0.14481243071149338397 -0.017687313347607352271 -0.010404339945948637425 -0.039405179090614715631 -0.20578964041655067874 -0.093276280831171717867 0.24330416164294874082 -0.19653622079481780638 0.034547082418830921124 -0.0025689305933906344571 0.15247151154233912207 -0.048981302254815069219 0.21608655986213795575 -0.048277751835883266074 -0.20007428771549345958 -0.10743013649376915997 0.19782703582805180598 0.26342581801766123961 -0.25160484353244055855 -0.25087312475856343719 0.14877295114133079479 0.24098370589388862228 -0.10405362202964577034 -0.24739187001074139372 0.2283817333937392946 -0.23554593342402913025 -0.18846937189997478579 0.19804911198210600753 -0.11939624613975675926 -0.095290672037460971699 -0.11478332304318171475 0.24038581556069801848 0.12058809448042109858 -0.25691098932487810291 0.042063189523688718219 -0.16681322489103586615 0.19767282907196398467 -0.26398202069142284731 -0.26832313396790530291 0.012978971344824985143 0.10067170044428687403 0.21348135536843057536 -0.040365948877436261255 0.032855465214903324667 0.25374499123821026014 -0.035612255197688368058 0.024901192066353904087 0.17160660238608707595 -0.035529556688476508775 -0.2824209683152816841 -0.01646672501304417488 0.22954432130064983397 0.05488953815567401695 0.055144272317221458557 0.16421225926620200419 -0.17889562950715554024 0.0986242736379243784;-0.073072633456959495968 -0.054517156086163337525 0.15349658700769591713 0.19473674780151992159 -0.12117233794611030617 0.28191839008397101551 0.26230327270720721344 0.20343598919024935556 0.18594892228907725085 0.18518366453666379456 -0.035362925013846274735 0.071491652994306861824 -0.075446235198381284004 -0.07940335424697698985 0.10823513168706674903 0.24289188179652443367 0.19154826267936891915 -0.21001382068018870086 -0.085359714869036137919 -0.25171406918457883695 0.24298737510333343059 0.19848429117088206564 0.037958386143763976628 -0.10803583649898126917 -0.17984183824989952161 0.11007521680462567515 -0.019327124300748500102 -0.066849929147651129813 0.0041790111474605800418 0.013987510435232575548 0.053093102286094026598 0.225856837668437338 -0.25670097646720807516 -0.10364690537595729058 -0.19781960421984132181 -0.17705608452849228018 0.070067506318935657283 -0.21822468440081058128 0.29216830544850874718 0.075224945188539213414 0.16755450839439053889 0.16651375061626796925 -0.1434602338134737809 -0.038360670831810307624 0.043021900894508940949 -0.24100159504110235664 0.14995378897194136525 -0.17560596045728060766 0.16615206011846386791 -0.13086070809587388442 -0.13237670976129689571 0.21801336804407753234 -0.045277703631871842049 -0.078538617997235160573 0.19121144205099036006 0.13663057045889981378 0.16060080892335007463 0.097581341693634318646 -0.11677099621662444251 -0.2905004972963706189 -0.13736190760013675116 0.23080769370123754847 0.14193145426806624831 -0.25752725841886470182 0.082284044585085022727 -0.02989850512221123649 -0.070922784380520464964 0.11886338979204716382 0.1203992586156607536 -0.0076420524350392128599 0.11324899069649194128 0.14661736571494685122 -0.013463802691476524018 -0.15902739148872582775 -0.10009720645600918287 -0.017454159152333857674 0.25001591053315991298 0.19423952388084206322 -0.19245203552874207142 0.055087027866849311297;0.25454588404890682307 0.11986358502840047113 0.13983400531006195955 0.17570022796848666635 -0.046615094744336740828 -0.16388771717709454956 0.016629896227124491004 0.016959815037702052898 -0.10330248203011335728 0.082877933160227762466 -0.15765482964928409504 0.30288324788679488186 -0.17686048047104990788 -0.20898936996222347573 -0.30033137888972138985 0.22012102338702016491 0.20118933058751781173 -0.10195259207049633954 -0.021792345424965806761 0.17393590561291236152 0.1610192479633957563 -0.10810447284890857544 -0.018249015114151959094 0.20698175373855190462 -0.049951547474164796625 0.089775702773361429343 -0.033399010803658438218 0.15395470500263258584 0.16422053417696022559 0.20112386501601606237 -0.13712709121063498818 0.18706452956094957174 -0.14241674101051468582 -0.1792852645726510652 -0.18312703406875716072 0.12500942843303730623 -0.147623137034597951 -0.21612279746355597676 -0.18573261373320393286 0.17959934569184990427 -0.16628130208585387151 0.29422031157225186915 -0.0064404314475969993287 -0.27550261273838932974 -0.18588870671949725422 -0.17528469324482781611 -0.061028015600871524104 0.20101895869033076236 -0.039692292560564251813 0.02262612814645894796 0.17327641511124505791 -0.29586810491159881709 -0.15172391900959486533 -0.044176577231279191837 -0.1513881405794932633 0.16053576630837751438 -0.2291178112129302058 0.01211107204579660486 0.1075777948884731744 0.022638206478324651716 0.12444957417752515461 -0.20095774372135991048 -0.17937911495555483588 -0.039367414124419790322 -0.0042587881995371466848 -0.25228116873919986807 0.080808102429171829728 0.024983303901137253467 -0.14043737992466157061 -0.14174738259382552164 0.2913634790029216437 -0.1397078374982024529 0.037196082705561558934 -0.18278463454179039172 0.14134225838655409269 -0.12496295712186322735 -0.021153781290487016359 -0.051169543838353884202 -0.075813332768812038975 -0.18565084950510241102;-0.23374953183046956462 0.22547743620225776939 -0.24993611621403710732 0.28106512666788174837 -0.065408320256909749379 0.16180697276289610076 -0.05455582593202436964 0.10603952573241104407 0.1779746595132451481 0.17144469640696799462 0.0016738679647688573578 -0.075923550041716927894 0.22827456711610827345 0.15729169168020623593 0.073000080602112521477 -0.23307648224637148027 -0.21326459042429254942 0.095378020639003913139 -0.24070216049405676606 -0.13920068023207826657 0.03972177328705840671 0.048075866784860116221 -0.08985509560733999368 -0.25390902309333113207 0.10672384555967799613 -0.25592983484393583282 -0.062814605921634472652 0.19951356369390868539 0.083406510260935665113 -0.12499540052211614849 -0.11503733699860640982 -0.0053205937401875069703 -0.20191271065769164639 -0.18851162351228700764 0.021515194001998506901 0.10737738697546063416 -0.2055933055827884326 0.18516786400641382926 0.10365871175057446429 -0.086548556628832123971 0.048084624768374141512 -0.11090794873289400169 -0.19119838537060127037 -0.0060454493542257568481 0.17643293365288784114 0.17004661242882335159 0.29598941179950033487 -0.21588166530882643701 -0.13059730102682559627 -0.027109718861043800159 -0.17854330175075106002 0.16709607791553432454 -0.16089592865930998911 0.12513115430474155976 0.077432586442790857229 -0.021120684435769795928 -0.067211800044539027343 -0.03966389822705881224 0.14918758725349318128 0.13675373168763263476 0.015683319671671396706 0.03078441387734185547 0.025540865497700179082 0.070130296890912754981 -0.00020012553749822783707 0.045196882382819686397 0.17955485764533118953 0.20457693995016387745 0.037307706194024757573 0.21198625273965876481 -0.11507969604745720005 -0.084043078107797236642 -0.12010861795940988572 -0.022817099653578053198 0.10811672667496613487 0.0061609131700419315567 -0.16522270649097556272 0.17120668760004878473 -0.23939837983171236013 -0.13614096806684516938;-0.21081934941451696552 0.14033067397713674951 0.17816104523631451362 0.13001858911159258625 -0.17189925560453422904 -0.19792615701391866323 0.035992286679419886741 0.18124119373767558216 -0.13497755768061286963 -0.063163442608066819317 0.030729967067452432922 0.092854657921718833369 0.044852386921278054877 0.23950596564728557358 0.14525922805920743475 -0.018100134010568345172 -0.050338658014234378968 -0.17213589458542505328 0.11307543937969755099 0.14488101011396886664 -0.20287860703690577258 0.049470000997481299032 -0.2190385986182924738 -0.23394725285515552415 0.11208403416028552002 0.214324659565372444 0.16040680796842163303 0.10752899690831183022 0.17641389913580712845 0.087744593288491865013 -0.022684222086983774763 -0.012377733651768351233 -0.088894184298507206154 0.22660461539558729438 0.17010350504699014995 0.043098655027563603781 0.25692414568248833628 0.19207907908684254683 -0.22767471320279736302 0.0554321073263563599 -0.017592238018742038796 -0.0091369197178955627314 -0.12520743659742644693 -0.019261693516037931007 -0.21296078445825239456 0.11801819453056054676 -0.18565178010522087604 -0.0051703163748347390899 -0.23021709868504292018 -0.21432167562005061123 -0.24315380617477003189 0.077476833069458836412 0.24290909762711657138 0.19413194929634167152 0.0099516533618015275142 -0.17285461935134366351 -0.19781356570196326206 -0.20447220249279862703 0.24504983161619836585 0.18636897140260474948 -0.068814000893497748179 -0.072508541706502546709 -0.17596886218728416407 -0.20706017697776993303 -0.20638958511405960938 0.17158178549472724583 -0.13460118694082295887 0.016997548759923899325 0.19999326438820957952 -0.19117319002130789274 -0.030391092774518773528 0.11936095445188582564 0.10821048593296264673 0.16022481483927999979 -0.2059600852918431757 -0.12679036893962319921 -0.093609819904171290283 0.10824219564476190991 -0.16633576001656111276 0.21051422779851430844;-0.19386558586124941206 -0.22091138586115563469 -0.21334025764202499409 0.031419902040660765974 0.10224869804171035637 0.167827303348700968 0.16118162857517387421 -0.031998176199259723007 0.27471438306424583731 0.040348028652326214938 0.13660871514493302947 -0.21298386412713915528 -0.15233263729086815585 -0.07883947228426189946 0.26862363129824512464 -0.060812578286676202688 0.13979050943718340783 0.031928972290842183579 0.10298643141911746623 -0.28097130480410192899 0.052658898879775796475 0.0023809880333103459159 -0.15158646989499879876 -0.01376853165328812377 0.0054134103438732037936 0.204410657047309402 0.11869523394548685269 -0.1602059973075272703 0.074216401791638325625 0.1274473436689063377 -0.12345806210252370516 -0.15147938688347062364 -0.26437657018343857507 0.078628643374836659774 0.053621328432323485391 0.091188261214280377787 -0.19932364071086458579 -0.15369612547904476507 0.10000298693227104019 -0.014017137359248968073 0.15593923485097205273 0.23961510358802820542 0.24719420391873930809 -0.024544618014247548271 -0.22721443712003280835 -0.020206529751132015077 -0.026082879045612870905 -0.14036745189876542739 -0.25527145695174585649 0.13452635804850754386 0.23091250125542292504 0.11522152576205660357 0.25188126597586346644 0.15729592300582970199 -0.13464654511897378164 0.038399795194287801581 0.083469467929190549471 -0.18616973752754628624 -0.068813639805847953701 -0.20969776890206712205 0.17061748869291123998 -0.18715820694987017614 -0.17941887587190324949 -0.25951069276744981318 -0.091581606680775279328 -0.16839505024962919677 0.032439145398085830752 0.10888386232908163487 0.13667832899601375929 0.08722616911815132823 -0.17813834462417890703 -0.095364361554611851157 0.22508944160583529981 0.22356263350659094646 0.023843876861326801508 -0.21590835877809796961 -0.14989911059823837758 -0.27309299920887752933 0.18741011335195242871 -0.0060387428062011437591;0.24320561093151812915 -0.062987970602495876871 -0.078178475111299758349 0.005222762743836547629 0.17946770763683073113 -0.14746678715894726008 0.23720494760458188388 -0.16847499513881991628 0.076637996917317291468 -0.11952991831461393102 -0.23270139233251088684 0.22186387199989673902 -0.15998387433665148261 -0.1648345866706502072 0.16825225112929170779 0.14229950656172168921 0.14098784378143885965 0.16306943999922762778 0.14175353753615990704 -0.20880510252840317476 0.13922245030933763643 0.059146391213249098484 -0.10435716007573263286 0.018531440830379407314 -0.1567146847073923599 -0.19180367367108425158 0.24655265202867193697 0.16630753177188792313 0.056054669169212728574 -0.035904799903492531921 -0.19534675817088398286 -0.11008763319371675515 -0.18254943364560227703 0.02358785992974565468 -0.2473631577476276544 0.20457695047792781584 0.15420038475411299017 -0.22371766860015393497 -0.010285480924901814481 0.014013263966305920458 -0.22755237937915911983 -0.087885857363923070018 0.035208233049532321191 -0.12108317069178682612 0.083461777530616398924 -0.065816844828373563536 0.040177523362957170971 0.16510073793213581039 -0.004406511115567544358 -0.16887182486154822536 0.27087040270979889645 0.1943043908480644455 -0.17864888966586731089 -0.014824395470579697365 0.13575884895107773187 0.040859105352403751743 0.13461146880176005913 -0.063197379190821190154 -0.18996907233165161166 0.14997587060753711508 -0.27172817462064596805 0.21774534385058211261 -0.2270153493962911162 -0.00090736379373858051106 0.20617060814581344985 -0.18217481550965575199 0.0064462169457650819737 -0.18585194047755240754 -0.14174935064422461428 -0.14707524419355053058 -0.095861728321617226123 0.12352451185462372252 -0.11986777345016284835 -0.11302970593226496776 -0.2546006636222071795 0.16570712471018470002 -0.18881346955833971935 0.18621291224683245158 -0.2728519196808623648 -0.1089718280547619933;0.081785851839191375801 -0.13427086494027892782 0.034679690855342372446 -0.016480726803017847759 0.21781385487269389056 0.15313280160454453838 -0.0014750180343594022914 -0.18461097600107034822 0.063172902391180660309 -0.15883238827332155085 -0.0232213540487708342 -0.062928408523592299639 -0.25148119100848725926 -0.043635296210027409158 0.030851207113951773647 0.036906720067863454937 -0.083533514511803089175 -0.15202982941350945412 -0.078796704972145470425 -0.06047944791110275442 0.0029267838113642918006 0.23743600955906460359 0.16940232166254221013 -0.016586957576843561896 -0.24659214502647996969 -0.093197812701408436209 -0.21196740193909444083 0.12921763326644913894 0.084894844559340099099 -0.098540084146176834534 0.0033782095022695272576 0.20682255193969267815 -0.16693853740813330289 0.14119515136803928446 0.17712162503482195564 -0.095234550847690876973 -0.19788581946924174715 -0.10036596390966570636 0.07931633649357272553 0.25622106447410136765 0.089575071794217947518 -0.015023279135629164643 0.038097813448202053066 -0.2495885704361468227 -0.26188808370323657382 0.21762891409085796668 0.063405775825272028823 0.21261357859685153793 0.19705477531371554112 0.25075581401941055004 -0.28626394623245915438 0.077424107386068460879 -0.1814929652949158756 -0.25375781842576922154 -0.22090828622198788178 -0.14254553196014638217 0.12943943366892335378 0.0079399207248744135823 -0.023091819577232403776 -0.087763224770624898019 -0.056684962966136238915 0.12348329201867432048 -0.077422953646707967645 0.151364085608810095 0.11980828479209117143 0.14317906484039574777 -0.13657310151918056196 -0.013218908160646138453 -0.17233984461146928391 -0.045419144300822320015 -0.059993475240362428846 0.22969378164344564364 -0.1991853061259719615 -0.24406436603711154087 0.11062541376542778249 -0.22708804317581288146 0.046528801942989361784 -0.11972435338053605269 0.11952338673627536936 0.066292836614467082201;-0.042572474803314740155 0.2249449561762512928 -0.28593220877322295115 0.11068892524135484634 0.16428510385243116909 -0.1544337968380991577 -0.1244716793083788936 -0.075578281306894923297 -0.13818873203099599212 0.010218996192984627566 0.076002118012968383765 -0.12805346558566255144 0.11620965381113004811 -0.26440036434100383511 -0.28859627675980625838 -0.041042995728076105133 -0.083138289373922619196 0.24179544497561636374 -0.06921903656740652222 0.082381034738511008109 -0.1974023238078994047 -0.14998462382822635997 -0.026157619456807137265 0.12026181156451522247 0.096736151643807416489 0.21313618643694193233 -0.19109166334467594939 0.07317321150437669508 0.13281883651386480749 -0.10802557186441670567 -0.014351764758328203545 -0.16215631970568988862 -0.18185194214214087105 -0.24955684701720776131 -0.076345989298186048289 -0.11006021652349698425 -0.078554589217978781912 0.11176753688112033014 -0.071981451293615078546 0.20804345450248520888 -0.23687591249895909029 -0.097868470707117696805 -0.12053101837926483153 0.15215195110755611041 0.16527487889765396512 -0.12328006051234097207 0.19505199564065570095 -0.13856714412722417884 0.078663293633960573725 0.1625288371810682253 -0.17937958459942551781 -0.20958716435493798813 -0.047457947996077831654 0.28564655848289827178 0.090083731117416521172 -0.050251771131058241282 -0.22927541670200091151 0.068806342917335491793 0.18760337881617575317 -0.065819582840348875297 -0.039871504922207826049 0.20017719603895903213 0.020351159511147395853 -0.039456970596062339307 0.14016787828622576106 -0.17070923848005953305 0.11218873081499611266 0.043644117701378097596 -0.11947879935361657711 0.16706247528287371251 0.072557853034664901437 0.049195898841561336301 0.084582033155120972534 -0.10993732276210908816 -0.013716411816755823966 -0.10900190388405474329 -0.14921398538067254247 0.11180057902861229024 -0.20053221304420698612 -0.12786770554486176499;-0.094873665588151093186 -0.22713105836716807051 -0.071906169365158381646 -0.11927096423541388992 -0.27372853513804284997 0.0041752800682159797035 -0.07406246402605380641 -0.24853254593320842081 -0.21552592019306932025 0.08842492095683979203 0.085002936689132807535 -0.013633645804179249025 -0.10869347707057551433 0.053673410026297357911 0.034231059243291936389 0.046256330424432424986 0.055889292668793444374 -0.25572700461139746819 -0.081172702480810335346 0.1398230613770486408 0.074849340076790504828 0.17118315352145932473 0.1707663091700175606 0.16772816999343559408 -0.21671894292973328811 0.070293565697015600313 0.13266076249767094763 0.13294092054085193677 0.14428770918591360406 -0.25329989866052898817 -0.050224829709376264675 0.10230164691101430174 0.13240041469692573339 -0.061944663566939832389 0.072921634734209400674 -0.23308271635377725284 -0.035289231263973729058 0.076580409195700527292 0.05470156403609473944 0.16991563755994504303 0.14589988170613377161 -0.30435893970771510375 0.1820461715891774912 -0.01143159851440667639 -0.14044584067380852521 -0.2092451269184485152 -0.068658717963953799779 -0.16367853236549004259 -0.30574158024119985066 0.0098739320855289105378 0.23941063978023355285 -0.039652220993212472511 0.17798613766169307793 -0.13139210249783983553 0.093042536642728448926 0.093175451354471361398 0.013850924534137437974 -0.20216854483680951615 0.036370245382314779492 -0.032094670550736954795 0.069812564413116118267 0.074420047091038526998 -0.2911842822696957267 0.025433377008368569794 0.13337960669793957891 -0.12028559400058067008 -0.19050368029748515619 -0.19014357177279267441 -0.10692767430597530098 0.10268029610341342095 0.088855577510456806856 0.23061192084990131401 0.011896716796593861942 0.12924897639430471541 0.24968737075420169291 -0.13483110131068076765 0.050537504819595457928 -0.24142349187322173498 0.051942484545172945554 -0.12901682522677598852;0.043468345647926384667 -0.10282623171445892662 0.22181268061528572333 -0.19511833944202600089 0.24358574589224810114 0.23976656022136824675 -0.23301663117899953925 -0.072261008955461461523 0.094310241681648337986 -0.23335863277200094568 0.1179680982740162476 -0.19364927093102973776 -0.13206639879576886898 0.077672419031783804244 0.12288353826396306023 -0.052509845199073132416 -0.00027380850041406907397 -0.045848896088055444975 0.12720864364731920837 -0.20728495990477227573 -0.056855323308053942744 0.067095381927710112668 0.31390657027378465749 0.013132900458134139435 0.012474029106836564962 -0.068259057703902795144 -0.20060239592571327272 -0.0096278763215154501698 -0.14534258850880435454 -0.10602540402822265009 -0.22750504814104202667 0.060335417857943711428 -0.097007776029799999695 0.041589716144821861632 0.033006097083654449553 -0.047159251397844749454 -0.16172658936176384503 0.03387158359160352683 0.20530461483205436624 -0.25814118654344830883 0.12110025365682657028 -0.22496984604389735907 0.10887238642862136218 0.10328636354516716744 -0.19921853284461427114 -0.10992476301184506138 0.24566748667554377805 0.0021149832491629549924 0.12286119993960280261 0.17027928811215495286 0.2576924336565471485 -0.16675763906298513017 -0.09853396053460232451 -0.05178241613871732707 -0.073634055393617905971 -0.052127296997472968854 -0.071649111348791205689 0.0090170895211977210998 0.054111390183255211883 -0.036115318540098799438 0.20028334362081803843 0.26399222150222123595 0.24975756980964095022 0.21653663328156863566 0.19994426245328414393 -0.081297895763071281738 -0.2329892632022318999 0.01905640114745643654 -0.26269806307711224269 -0.25523693163639066261 -0.14375375498505876815 0.067834720596974484863 0.16940961979435767426 -0.095701816993540703149 0.19663940364726703591 -0.24500055062519324189 0.24920895184705418868 0.088604632221809226378 0.0036286279768054903808 0.035377021860243412776;0.071810918216260177793 -0.18197021683671860126 0.12304134396244087446 0.11198863277230160229 0.1802341896720152381 -0.22538454293476511969 -0.13692833120576008987 -0.06984109281090386534 -0.20304058944804820319 0.045517856413297044793 0.11478892441909378797 -0.24857753450995057065 0.10605668295206255314 0.19691083885690827127 0.13027684551223625564 0.086884105600805949798 -0.2654713470476076087 -0.22384469760844050157 -0.10957941875395536824 -0.075010254874690471261 0.026886712108347917555 0.16183019437327816892 -0.16891675599568667376 -0.29534981989395037161 0.086490977420206144322 -0.14631763493576432911 -0.24876129457791748556 -0.057666161159823453586 -0.13405742507950083042 0.23930799994410975606 -0.21454810642372734719 0.12166988522275627715 -0.097840191050268365824 -0.052480042948882858755 0.22276056897756146835 -0.25900260535177505039 -0.125618189659937457 -0.092814890544472949951 0.14060988547140085281 0.11636656502253896195 -0.13366787865319562645 0.063248634852642926507 -0.079637017922430136663 0.026487814656948209524 0.036715614389689760211 -0.25175125754228444563 0.065119968669399549976 -0.043587778002882097972 0.17274766666455276809 -0.026550064231440406726 0.031946776474552851521 0.095387820232955777833 0.0060262046068652198177 -0.12810666689967750709 0.080555076612117776369 -0.0022807353981687838486 0.25789725451419481805 0.11101263618539189415 0.079598165255112068861 -0.2258024438141489898 -0.109820686940546558 -0.16795279261347342836 -0.18696504851841405648 0.15801414263191876364 0.22828242380918153942 -0.11227312614477079344 -0.16412701651542405124 0.029791729749488165407 -0.23380822743528847929 -0.21114427073996769324 -0.25503912591581079372 0.031957416903834114097 -0.13533288025684489519 0.043755224626602723381 0.15046356279829678493 0.022772236566820737436 0.074163866481167600719 -0.001942864322237817902 0.22874212074131761163 -0.025604925562596067556;-0.075708283983854346433 -0.12267157944732517971 -0.17483735527944213595 0.11035182322056788506 -0.25885663533175268247 -0.18477062907219718446 -0.27106848344293854591 -0.11388010917412966228 -0.0069730742780084401661 -0.13127479435684502596 -0.0030912559646470369468 0.079042399562961898618 -0.10117777514617634638 0.012825195405159377574 0.20510230200614051888 -0.06050137665499118883 -0.17927595223912512479 0.0011508136673275084529 -0.0045350224742684210749 -0.18144532146010136642 0.069893013027162290141 0.063500609472898913999 -0.097505273977186210366 -0.19155972002392432363 -0.10947494923998121741 -0.15912090410338791679 -0.12153989441743552613 -0.20690122995932719308 -0.16779613311654026364 -0.16777471433205068396 0.15563631439423605829 -0.17087350528062461574 -0.16586542011370150607 0.16313197578858518177 0.061090804618752755917 0.26098138383185576217 0.26871546180823541183 -0.13184792056987484909 -0.12403472770102426381 0.20690061869041462272 -0.15157164395122951772 -0.22878648126885578473 0.14114682782662335558 0.25284745133143221585 0.18819394825505394997 -0.23820557635783706774 0.1176067843226457077 0.051382758720692228716 -0.071124518601929601069 -0.086354509875406909591 -0.17167089263609008887 -0.10757525078214211223 0.046076403892146129693 0.14712342841189915421 -0.07542926961953769216 -0.10823330926379209904 -0.069629628755808567475 -0.18694010056542140208 0.046028906085673192139 0.014257371618197779012 0.21477477758517335427 -0.015143766572525849123 -0.17384636123367594451 0.15817982158917334723 -0.070949255848700432114 0.14463206747131354679 -0.21083867278699780501 0.023852158762505897005 -0.11704578847954769105 -0.074848518046084833166 0.15229977200376698665 0.016121484226143255325 -0.0075101733439957660959 -0.054630820397553139789 -0.18283787356822311931 0.20311154597017447299 0.095739006143284635653 0.13794259403633590821 0.024862328880395578867 0.20000251690362169654;-0.20625059036624848741 -0.035458547016779258521 0.20915414584085137428 0.053848315302976221264 -0.0030836548000130114752 0.061292009936859410957 -0.015627404390198499501 0.21959383534255455528 0.18314369161542237707 0.025087807121581821163 -0.096957223966598116149 0.18400989559054062306 -0.05675623747529626173 0.084736010607619288715 0.061811027848567873244 0.11620973239795752419 0.18088209474778924046 0.17141105536992792824 -0.081677142644203754029 -0.011479127809911348485 0.054876621194613131594 0.12372837942914817477 -0.10951610551266713345 -0.14869613573174489396 -0.16262034261906990751 -0.092515756237121063443 0.18025759477369010519 0.1283684791627235644 -0.14238514451760830859 -0.16790809073760004644 -0.056321411741713463261 0.013668964930811365946 -0.21240090585857465677 -0.15794541605700146425 0.19018833983103636265 -0.15822061305654355756 -0.10811226717477354087 0.11512135785367197394 0.12996752809859782318 0.06966135450344941582 0.2796583888735022505 -0.11601000022510213339 0.10133749619515407259 0.13075652633642234624 -0.056527769098031442618 0.02622101012632417974 0.22461065274397354341 -0.074377384663558906985 0.0057441659657718026691 -0.15487579269764137346 -0.13893242809754274836 0.17578037068415339195 -0.19157892471758308783 -0.10283614212854687298 0.22312878801712610066 -0.010007739182461616867 0.083296205553981345071 -0.12907592621631364116 0.0012288071172842337034 0.15058545502351480816 0.16251816033114199755 -0.20671757839276508339 0.28906343559286518108 0.070849012736626401643 0.15249414209590561597 -0.24191016965692271889 0.17842462394432495598 -0.22640498481626397664 -0.10735444505477487187 -0.096845248888705978696 0.28848153592052089289 -0.30280977024159616562 0.1464111030586113249 0.25289104879750101684 -0.1819048930641755657 0.27639475318124645531 -0.26686354158334318898 0.056184489348041155576 -0.1343855209125802419 0.2556225475855204432;0.1406884947882147685 0.014328921164354121998 -0.15353612843329625393 -0.16007422795557499362 0.010902328815319186489 0.037791735357189083777 -0.18135565557552707494 0.1374509056971607579 0.071133252154555945412 -0.11946811361095210913 0.049901936678793119839 -0.18154264864102109822 -0.27558242038681596275 -0.20186926859399476064 -0.19518587237884982288 0.12558386457886686061 -0.033041784573603370789 -0.082441510714589216757 0.15339635062462878001 0.15237327136076925238 -0.026018723388685431608 0.032174784115726537403 -0.027420259072265543154 0.14436854610655577846 -0.051677487386801210234 -0.067797100384665673345 -0.01122444757283038233 -0.11801880653003105071 0.10247023635813382048 0.077783997808807153751 -0.17959003458180564095 -0.11128104578550999937 0.19188715236531408981 0.012454961185730572051 0.067670243619940548263 0.2106936507630203792 0.20626324425521294637 -0.14483863047077302766 -0.21905522877010361049 0.005484592222850544381 -0.11391501225411258813 0.1305567872096874138 -0.026277628686644571854 -0.12615141840887086899 0.076249250762183432006 0.15886982853541595229 0.2703366611114231266 -0.1482078228546552523 -0.042500649472515125704 -0.12754615251821901922 -0.259134635018157089 -0.2629799460909671982 0.036840181110242946338 0.13426023075045823152 0.1301168049780048741 -0.15806158168512085549 0.088094377216316022139 0.11893168957778539607 0.14574229656184320425 -0.15282011257759525735 -0.21832884829863613563 -0.04909009028925585133 0.21858651254246552753 -0.24284250541146609748 -0.084262836450063979821 -0.022693012714661713741 -0.17478923893069822637 -0.18035969820352051873 -0.094880815098298099119 0.085857052730272082064 0.036468979828762598805 0.22710211719585629564 -0.1452699333284548644 -0.26981906001958089192 -0.26520967423511365713 -0.075737064110209154078 -0.22636365224253776618 0.012328439113613691436 0.13330228087994966391 -0.16450434674092509479;0.064276188520854773967 0.0035769654555566406801 -0.041842050333944169616 -0.24236448999668341875 -0.12415991182854567432 0.17791936112930717417 -0.10915042399512815685 -0.22793523575049989827 -0.092579712118589951864 -0.095859481910185437292 0.10307871561347896339 0.12214355912939144078 0.27373861244368619117 0.0062753677045062836171 0.17417042016931921777 0.048709519174935024532 0.15517439759860490733 0.024682971718014586754 0.15443093404387389644 -0.10847143677723762589 0.17859755822139045112 -0.15852077583623339074 -0.048901824687119919977 -0.16540977708172693861 -0.12490510240208035908 -0.27820167045946242457 -0.057621264250377647598 0.063684633948480548482 -0.23326180054102957362 0.18658551550580035339 -0.10103579851794944333 -0.085677862125752152211 -0.060365726997488773631 0.19593696480995989595 -0.099227822855010999747 0.18085449105157108685 0.13081365638234859761 -0.11762013921388431159 -0.14060742014586843918 0.21677564257378167945 -0.0032358539545995772431 -0.16807632486830104135 -0.10517737791989018037 0.20032890515094098349 -0.12147806854459139436 0.034614632694458913331 -0.042565263650428987463 0.11798895553768952438 0.049446613932449097473 -0.12605711767404001455 0.18233001799491899142 -0.20854097943174776386 -0.10168923980206945323 0.038066011720982902145 -0.1093981233785103202 -0.025561830620507451639 -0.0213472321620014234 0.058265841419869179862 -0.02392459611810767231 -0.10645607765372980258 0.014110033724985388687 -0.037314378911011775175 -0.17456569241542527204 0.25267489985925672968 0.23482094270784742429 0.13452265137178168186 -0.16919085214207948975 -0.057058328900812124718 0.27177436733575366379 -0.061177486769891417651 0.2004458526705350796 0.19724136656062590811 0.097967784710832409023 0.1445969765328776746 -0.064111705006821284591 0.13559657714322009836 0.0022472956076889883878 -0.053109713983480931476 -0.031419490962024801406 -0.30857338487774138569;0.094628421146816452114 0.12199053222328812285 -0.22874976288568288352 0.083465227062751209952 -0.21020042906983568698 -0.11120776770925876187 0.030603604264073824837 0.10074689003114485619 0.013176137175149508704 0.055185143590343842257 -0.13453018159706872647 0.14011538651052585225 -0.0041360735944452947307 0.11184828700153293113 -0.055076841521971321713 0.016390975611843713183 -0.14849087851994147158 0.051848195694600966721 -0.2004831825183864269 -0.11069791668512343752 -0.029518208033427483644 0.15738571459486497273 -0.022750638278438928275 -0.15323019643075358465 -0.10909121598708790279 -0.14321429421295511775 0.20598568211538267891 -0.20331318460560304784 0.24787875918108798201 -0.13245228187870478065 -0.060412998758509549313 -0.2337057306330934392 -0.02347433613851655082 -0.13285404172746650975 0.24563719388771876329 0.20686838359240514174 0.16630314747395019692 0.080575683529257591253 0.16190960035643339743 0.26098916006504208065 -0.19064242679460896568 0.13028202609329370132 -0.13833606660734645843 -0.09297500376969285163 0.15112973468869808635 0.17153237746453675605 0.17082953204862300067 0.14556746418803828691 0.10404120893075820276 -0.11575461944300191597 -0.16242691406818032807 0.019336996600210085151 -0.035032625631885701278 -0.10394468515402323361 0.024048985352534302251 0.13855402168309768896 -0.13068713160379702432 0.18818045831767094 -0.13435679397645941546 -0.13349684231409855717 -0.16517520891760889556 0.02376938211932751524 0.040129825387787157465 -0.19526019009844797214 0.21836833721510212625 -0.0069033507924309922901 0.078263641236132150403 0.086825064212462346735 -0.0076362434726719285311 -0.1993597769029153699 0.038176154262794928518 0.26402561644463462542 -0.16276776127876277367 0.069908213775870170492 0.18907027759115105359 0.12971323896307257462 0.34110307957200847184 0.19184157320802147639 0.0086766851572851536045 0.30539088104112160904;0.19683872862081608357 -0.17810758907965792974 -0.096736665060307772124 0.20028623295307512731 0.1249256102585720174 -0.30720996531265992724 0.055773477159088882815 0.057195156532949785466 -0.033612582827428440224 -0.21924695564048091168 -0.21619433874658633421 0.049964800843028851773 0.19679520312551088135 -0.048039409043283611001 0.20190396430373913628 0.2334433643671201819 0.087393386709664233614 0.17147617316511848395 -0.090869313781407182185 0.11832150476085100121 -0.17051998334344628527 0.20916021545258045577 -0.010394560689810634566 -0.24327807614068286401 -0.041465099803816157786 0.057127921212001428475 0.04814208917345019767 0.18257932774891050265 -0.24426709224059367509 0.10142232954410729251 0.016131152774764762059 -0.12641161297052314061 0.22339459952203014059 -0.23873992882213429523 -0.061940273552451644012 -0.059511565798180447728 -0.028166617864589401504 -0.22654169098472057287 0.12019907744318768239 -0.073404774151999668819 0.048515044674284364679 0.1559924951032453655 -0.19180702560692969305 -0.17988116365466513824 0.068015566489711964948 -0.23834697604785620717 -0.23016674500846201479 0.0031805295901374160128 0.013858743847581279224 -0.050153264371583301806 -0.14731668831124786201 0.15566148191632345199 0.010399254536036477495 -0.25017332190233820821 0.10865155627696339302 0.035416761185023140635 -0.075403324831477158696 -0.25480831091623717954 -0.10462216750703842716 -0.19813994695827730208 0.19244306366217753257 -0.033472759518257136357 0.16293341422017151854 0.15023176000019983212 -0.028876331141026098659 0.046507396468730040351 0.058898031489732147192 0.060913476492747496704 -0.010326826003069557516 0.069393179569961049857 0.12661082354311983811 0.055352143941087172951 -0.13705724754352274775 0.10543407768010754078 0.13578574745428537152 -0.22366058597320048751 0.18551230776772142939 0.14975179839933092096 -0.18097409681462156561 -0.13719237775306258875;0.15476118464850599499 0.057491651997657253204 0.11868253518641494471 -0.13752186637092839172 -0.085236666561040216883 -0.075569366863139933455 -0.15991191098617965616 -0.21292271281179345199 0.15699404174043693483 0.18750557599231953976 0.13225239245684672351 -0.10160890536924258032 -0.089364898050806371166 0.20485094547591142788 0.12414940843954128114 -0.19564811899709008691 0.027635699826096822573 -0.075692241386623740351 0.070194797651905296854 0.1609574266318455904 0.072122344956233000457 0.0045937322321832670807 0.12377018725896667128 -0.13264437837897966044 0.20770864906058847388 -0.16074161066010086985 0.19134828813125867586 0.19127137609211933289 -0.15973016877949094972 -0.096403459234889979368 0.032901527232492858155 -0.011447151065557206392 0.076286602950351417585 0.01460647368454654621 0.34632811503974725298 0.080222539688068889019 0.06701154067560682881 0.344999011384360732 -0.034693511826543017851 0.25892615773549931824 -0.098737112223436784841 0.24969182526381586418 -0.0079229994852447974824 0.0079908959344392217761 0.15296718896840932889 -0.071783084259695970064 -0.028980831983299901872 -0.10512645427101784124 -0.048938337995242532641 0.094473947813040484722 0.043192836492806668813 0.23372473806745383551 -0.0262188881958679669 0.27875618129002943668 -0.097549971560495468692 -0.045424795118437874542 -0.087316076240689141641 -0.19217375152532578664 0.076162092729785760281 -0.050690547309622732697 -0.17122746076815553717 -0.17356845327436531967 0.26498837369196331926 0.086301584685752136261 0.029811141319818879047 0.25318328887514257586 -0.062886864319067481421 -0.05468663918241416233 0.16921663864773606178 0.036463035085004570635 0.13572108808834398852 0.063490803641620491282 0.01534669164190902331 0.22234453311178817292 -0.032501339957341925102 0.027248194763171383614 -0.033205439213268982124 0.25740207432885398031 -0.10881291158369646443 0.015419741412765770178;0.046459971513315753699 -0.058951022397441696365 -0.022715761347358753852 -0.15383327011237724058 -0.086779997527573746186 0.13061609045846170329 -0.014223002174308345749 0.0003958026681007164628 -0.032554357276278207689 -0.031725219629295461909 -0.22192684738572482361 -0.031530185718605593936 0.11083798935058318536 0.13262908128289532805 0.065887665060591696364 -0.1445917210799574637 -0.0092515478517380816958 -0.056723665138716822254 -0.005634033148340716543 -0.13859102282131460782 0.022240004633115980498 0.17455587083247059432 -0.14610818180076831641 0.10860614020573655658 -0.05058707637114344402 0.072099028654296543062 0.23165059844906413233 -0.016687932115133564948 -0.095074526632402761583 0.13711628619047180888 0.055273771729686428655 -0.032232686379340846905 0.080382235506578456063 0.15940299358838797006 0.0242253122379033764 0.13785527303317476888 -0.024235642234011301605 -0.18425580001848346212 0.11062670321922983552 0.10529405328398959429 0.19319580125963004003 -0.075431981801435468715 0.19208122549467909757 0.14731241665808361696 -0.17958310338998628719 -0.082422888115242856633 -0.10384600418484669915 -0.13540095260412940426 0.12976460674189169153 -0.13641034419778336195 0.19851928834050655559 -0.11110168900000626235 0.21062725471429774582 -0.011612021918577252605 0.17576314546854912568 0.15340748115026822673 0.096494296266963180964 0.011968185972826806199 0.16913126669400893598 -0.22498520144761896544 -0.16442582119024162779 -0.22661719163209384509 0.11366610592713635719 -0.11483067272293057126 0.28170483340193297472 0.14814017040793539537 0.012487681253083682958 -0.14573550359193501724 -0.24862510944714652505 -0.13485309811191248386 0.16029494498480939546 -0.23387816114789541921 0.056921979165579020266 0.23829195608004649642 0.0044538893465251583326 0.064291727785364752301 -0.20904593046567240822 0.045998919565743943971 0.031528809112173553086 0.15796723877301224737;-0.012024503925241665156 0.010597908796007195556 -0.19751678270090905487 0.22721643158089704917 -0.10246137866083253332 -0.028034042459499350364 -0.19991516281694524104 0.1155171707792235769 0.13540638785594666382 0.21977797977467578017 0.047401991694901626784 0.085388593162773057665 0.23128121560884232211 -0.26596275402531133203 -0.053905544194273340153 -0.0016635914998415996056 -0.037594638916953034002 -0.18444053407309896064 -0.13088969094306898699 -0.24009476247346256406 0.22182456274347822633 0.1693082832575571739 -0.023661095139271670629 -0.090512970015070803864 0.1905091132678851662 -0.18708675025146007109 0.059723878724218290581 -0.047359053312987293982 -0.034508690821361556744 -0.17321301192242491429 0.14277409837334040232 0.036498881603374166982 0.29852343050853746842 -0.11681678300005365889 -0.016922060280327826109 -0.14456571200946879974 -0.067867769905400873731 -0.043883770555776441258 -0.12982113754392501925 -0.17101200723464099474 0.28109720529666132327 0.013881528888258181167 -0.0032799716013801518549 -0.077195584016590795828 0.20870330385250498995 0.30569178687852138765 0.18849151928214288865 0.058050539077565535551 0.16162775007683199968 0.31040784654952913169 0.28982268292844187707 -0.069884876721111738318 0.029573430847855644577 0.15078132823195697365 0.14006931653998144771 0.085848739816180227868 -0.074228821393955618513 0.094385893378497995321 0.15450515037907508464 -0.01484516772160498696 -0.13525955061489688958 0.2090610939511848565 -0.073478755519592861556 -0.082195435057882682006 -0.18261272370518177866 -0.17848381282174705098 -0.031628409483557558268 0.23046458496757682433 0.20814744699921927662 0.0042595750699136562811 -0.019133895062316896157 0.091257455796808759074 -0.047026675944681170516 0.12674863281008705296 -0.13088146240329909253 -0.075668668908179359534 0.053937377743472222913 -0.09946466445032503545 0.16148476177441217772 0.04369575526305601032;-0.042799811344508734146 -0.013734038179778484262 0.074239447682158940522 0.13533700481334617893 0.07067623536486714042 0.18626880389291328166 -0.014738219473762598916 -0.17373475242878708147 -0.073880209871575314162 0.13072160397882223726 -0.111939411067652414 0.030210813237531788933 0.059727100123146484312 -0.066431938133653709033 -0.10369246194542151851 0.16044648864371308106 -0.24500839227867923786 -0.095050925954331316747 -0.22863848477841230977 -0.26646380160469568255 0.23127238870082855726 -0.22360100605085447834 0.14617656054597544246 0.14981115183857751649 0.27698221637808539963 0.23033277228081561194 -0.11429823314838177817 0.17027117833490201804 -0.070939140766337435706 -0.025929174758032795534 0.030300571839206154323 0.1420709788934431117 0.010314889521773446326 -0.16108006009699205041 -0.0047061521894702171981 -0.081750438299902264405 0.13881065503733158728 0.10189695176377183694 0.066977716416222771167 -0.062237001253015108992 -0.098390732751212475748 0.21512092939154589533 0.334549755986753794 -0.076042451593799506582 0.12008696244383715301 0.12002302138285442235 0.08179111712176730109 0.11536764307804420193 -0.045254704669861527122 -0.12007707885280549664 0.18886174044681725004 0.01369242586233857667 -0.22427676287577139047 0.05890289147662307323 0.21205166257067517566 0.22434299313089087202 -0.19765508160093173129 0.03735356169613645444 0.13646305930015042995 0.28920609861521112682 0.070075771456849234031 0.036554119175440616396 -0.12101730668758781118 0.11019350663026000747 0.083538222604481085498 0.15959691533840256183 0.26434287379437099164 0.26236014807251556435 -0.11737603739067038744 -0.23792392440750342875 -0.010529462931599231634 0.12400529184489762768 -0.17287942994259106189 -0.12560262779744715833 -0.048503966865729754299 0.098696026512900381089 -0.1437901234344016177 0.22410871185997519039 -0.051581621845581994423 0.16601108586777157949;0.024392477618668226974 -0.15548716651023616886 0.10716662622011143002 0.13734808603725220943 -0.080001103085545199889 0.25045267848000102306 0.085828975717147912294 0.049262624360607937257 -0.032425625148091372085 -0.13743078918253248677 -0.12023992912272625511 -0.014571479412437061962 0.22198556972340210969 0.17849972989842180504 0.17179657316181234927 -0.046142510153518848104 -0.17907623671174666136 -0.10366819825856284087 -0.099860744823820873917 -0.0050672856462067820266 -0.16719101804792427246 0.16639408207161784925 -0.0055442661640349505045 -0.12511529257311562735 -0.11494928815676844214 -0.00061036902980436289964 -0.14253555252587093993 0.12660557709549630223 -0.054706966779359114672 0.033556471746436902781 0.00226445998241830114 -0.019602268929515248574 0.25656146411236169236 -0.19644242939165912354 -0.034273128634130053949 0.14517216005054778272 0.24363794387754161841 -0.23992000653214359818 -0.22636702618107834573 -0.08958999947177709311 -0.03761534022737878652 -0.0069596574757321352789 -0.039179264420200608787 -0.075775427144275223079 0.17853970032723776029 0.26369673008362848332 0.24713881679240859435 0.2014728366592844766 -0.013843123435330987117 -0.10137640584558478551 -0.20020728374033255892 0.12693084998377057726 -0.011469649104535210513 -0.22611841356231271449 0.15317293781494631388 0.098705135781246317039 -0.14587054519667438934 0.15437763688972325204 -0.047682256047238510965 -0.094748601955268740848 0.086014023091731714454 0.18170528811166816729 0.12109751906280702416 -0.25440632120691614171 -0.1112906583826585305 0.22822964353630834089 -0.1576960739594609473 0.25188772709330226052 -0.1131787470619957936 0.055775651000045486927 -0.20287117763242787372 -0.14436457238443398121 -0.12219173234998588484 0.19539415403998156018 0.19100253366954969558 0.23884138663374593348 0.16122737987306670626 -0.13673229319085677957 0.14236658010358471671 -0.17848181518882194618;-0.054261309992670390956 -0.1660612589301741493 0.079670386495099276836 -0.061357052978284087885 0.014321431995528256104 -0.25982537412948342181 0.0499488012019181013 -0.2790415959186403061 0.18725078587297450117 -0.27414658083787973863 0.078888811240525130719 -0.011297228857298665522 -0.023175741121687767204 -0.15507897000669357279 -0.206274549957100789 0.033387014100668827021 0.041009513853449433562 -0.12841592360629847103 -0.10125570728707733448 -0.053808476360535803518 0.12414078407496484391 0.042636608868144118545 -0.18232422884831256393 0.17475577835142452887 -0.011638545215506761882 -0.080348508098425461266 -0.19117001411624803819 0.052243383558311991266 0.13515509791966864861 0.23928294873958586009 -0.082531640473436515548 0.13386365626190332989 -0.18117661132822998615 0.055893814476331536711 -0.24879897640680756488 -0.2793756568042387034 0.15547862245040158791 -0.055996104540869284794 0.099276568146098823076 -0.071179035653541042339 0.26693070029756593708 0.036473967091578615718 -0.13407091554247824172 -0.28303037394370472724 0.19961534145558817999 -0.20850997045795174878 0.1255378629726769113 0.023871050097489094483 -0.26699013521590247988 0.15433036194325408519 -0.189079333805157207 -0.10883055074617746516 0.11305194039237709269 -0.20494640119349419316 0.053000497864136297821 -0.15643972381906759428 -0.030538950052434836457 0.14640374373444700606 0.15419642865615290628 -0.13008622494614477394 -0.13674374482627080218 0.13158999791999501094 -0.040194762516937952712 -0.021307287048705634419 0.085321771665383031036 0.11252986487748137256 -0.0056956145266287509094 -0.069032702473729112835 -0.24887518780878215008 0.1318736228186960513 -0.24329991670229622613 0.11053014281410859787 0.060959137328168939984 -0.1311257444431143393 0.0014785055248258040933 0.21533414349994212111 -0.14632281021791374021 0.11645885974659805906 0.10404572557869377902 0.0094287690830108863982;-0.20257622960674714907 0.05984375600788845867 -0.027130021024946507358 0.15861154087719256389 -0.23172543676261020407 -0.024743710649030574433 -0.093158592261602654605 -0.10423429223034492985 0.20015243942945395994 0.23981177039976078746 -0.28049346819617204662 -0.030275217336473789903 0.1723860309488045861 -0.001319765142088535903 -0.24743040197646878897 -0.27045521357025187337 -0.17608888723941021337 -0.02895981215945643561 -0.17241525237961971562 0.15636945800412913044 -0.12917527484669522053 0.2976616829557769961 -0.26967636019141738579 0.17249471038601751904 0.32602846166183785392 -0.23670436286924978475 0.08494620649183592942 0.08490523491930108968 0.1113989995367432595 0.094694176712283417707 0.11941925281776580303 0.10332901639611008493 0.18279529210298608999 0.091413209899410152737 -0.13938762315535974112 0.20468325188932731673 -0.1731901006803679699 0.044373139970375410912 0.14826486188514917397 0.1980508851057615205 -0.14042848365804030952 0.096028918119359568673 0.087528011343124184629 -0.01132865209564546706 0.086900795347205073149 0.11888548703533546869 -0.040927110513319577001 -0.13439520697273013572 0.076187439967209211189 0.052313529341316590549 -0.013727172348876135605 0.22578272580036276573 -0.1440600085952365994 0.06614084160139412083 0.12924118459300740214 0.18331316351006160525 -0.081796329042265247811 0.26403024359547205835 -0.053969141689686583874 0.10628551002165172179 0.078164451419405076016 -0.14323503702594911347 -0.1251150177178751155 -0.054155276588515967318 0.13739917517223701471 -0.11877869383597466912 -0.065904329617155171794 0.06093262148247308857 0.065934739587674054406 -0.058351480908708550088 0.18475863819993215698 -0.017979393370733461055 0.088555215685719501639 0.028902323112913314712 0.045672540642370966502 0.25839942611569527431 0.15265872410980899088 0.23486478853863781979 0.143958967848909547 0.074860550152147931069;-0.15487847081378736114 0.18767081995192183563 0.23705860620174168396 -0.16840585811416960982 0.1731978993575217507 0.037380496095859187811 0.25549440561370312386 0.14592305180279649401 -0.1260024303376709176 0.018617545547237310255 -0.11730561720009946569 0.06506124467142228307 0.056037105691781573247 0.23388341356000030835 0.036566709266884794838 0.048969780353283948182 0.10285700986887107156 -0.24670087146343022688 0.19032934688397096235 0.25760407676813285027 -0.043032009970912048213 0.24069373591009124436 -0.063334344353565247276 -0.15889746192478937381 -0.29407020030068337091 0.075742171832216487193 0.18381233531752327881 0.18556878394558684597 -0.12410120554436686324 0.06389350636027915642 0.16721086448650898659 0.23806896254361892273 0.12454388809327035514 -0.20782357758755370947 0.10074117067536930703 0.084400722722246843133 0.11286527422096101492 0.017352661318162980464 -0.25919240396813814087 0.2467077227717547061 0.031766366879507353105 -0.242065916454743707 0.13940466504244086732 -0.14855247527801984653 -0.055487266896146025807 -0.04528426557975342992 -0.096033438858909803137 0.017105600513528718132 0.20860392899190022264 -0.23236342556834616024 0.18227937993665593863 0.028185476376425072642 0.15888390433056118201 -0.077187657066243559045 0.041830348001584860551 0.10510643665443777928 -0.054299875022164142968 0.012931805765797398794 -0.18952262794537755308 -0.1845290791166085409 0.13660811813475384757 -0.28152305905102525951 -0.18697559985781853076 0.018119211332905657552 0.063454517147549641121 0.020698570667628934244 -0.12291641352036049295 0.19256278591422323898 0.1076353509516667778 0.049853110488831488267 -0.16487359272187090964 -0.0055244375273807598201 0.10713864946582918325 0.23145314431094501928 0.065626747150514419538 -0.049994589034657081761 -0.18277031435836910145 0.10574930409257979336 0.082546793396959111666 0.050144666323899148019;0.13848449066227366822 -0.07852854041585295708 0.031657404514147287344 0.12514254172322691883 -0.17138740994386666983 -0.20325701252728861634 0.071840088544151026184 -0.0091119108232799953667 0.12963182561841898877 0.16937557832824748361 -0.077718716024211750848 0.065000865367093305092 0.12495905149911988585 0.23279978915484106361 -0.015445006830491939814 0.0055347652463362644049 0.034355488806489462017 0.10357311647996153559 0.051712098490622540603 0.20635276682478451149 -0.16178609462383988782 0.07409802198463512346 -0.0095870819987602714368 0.21136655940740950443 0.044037567399799422418 0.18669001388514289141 0.23597822786458988453 0.0047410785658127058487 0.043811657251907963617 0.32211615566860457571 -0.16610097830793268958 -0.073770037848238739775 -0.19259561275801787006 0.012181353973696235418 0.22967892531134781464 0.064237298443132070935 -0.21837827371285692402 -0.19256580320513774773 -0.020965180804343116344 0.095141660982897863219 0.19133973987953953322 0.20732140817304473002 -0.26069805142393914776 0.13504825666935924011 0.24521688070385799785 0.12395884489253149174 -0.14437073782253251331 -0.15671531288867579512 -0.15182716045067820576 0.20475891206666932409 -0.079336755670196767998 0.18668130226692328244 0.17745200277866796101 0.23120057829219783918 -0.060983966638776879177 0.12949275176500138484 -0.001240331278989818993 -0.038339733661746179527 -0.086245435786236696041 0.17206252625892606845 -0.18515552344828117848 -0.13901723601919663276 -0.20579403184966646445 -0.067734046514078674606 -0.042986840846967806773 -0.026157477295489180158 0.033707282128976175095 -0.23677532690222394263 -0.094517746197643748296 -0.058995690279669089906 -0.22065570633899375674 0.066288451858499006231 0.17362255216114119705 -0.15743456795536214798 0.040331142302009063971 -0.079880135157338050256 0.082735313442272834239 0.076854083598931269283 0.070992964591060706003 -0.02966308619471831956;0.28403006649111728343 0.074696738567765125216 0.13104674469759911015 0.16768295417054096541 0.076621650483281719679 -0.072577767378821975153 0.076218378031983918808 0.11888531575737772139 0.095179214829008068621 -0.11209853664824277752 0.053974440426454536879 0.18435208261002722363 -0.060406006723340802123 0.23339631614826034101 0.18634903247236284107 0.093640576676357833996 -0.10430631212083729675 0.15973642554841147034 0.21925938236840933349 0.26516244956627871288 0.0966993876998763352 -0.17410241261446052219 0.14312203713868551502 -0.13794704984458708297 0.21810100159895895455 -0.086330761040586859179 0.23777973734627799729 -0.018618599669994496948 -0.13100467535840043531 0.013821878149119209284 -0.073463617500911349012 0.021389456983799192552 0.20183293605217200728 0.20253707929663083975 0.094387697254992158902 0.11250973279762202517 0.11243923613128646577 -0.15638959180037800833 -0.12215361905430043021 -0.10337467397985269923 -0.058004352065871615796 0.21376628297695385306 -0.3502648627581142482 0.060779443464441258727 0.16422964793296573882 -0.12925249565944424424 -0.1574675020573713391 -0.082602284942991405225 -0.22345701077725105277 -0.070109616199942048631 -0.073871418790389067888 -0.19711965437948830715 -0.0098967010010145330112 -0.075170831718069597294 0.19342016582394425117 -0.030968926858839854188 0.17595096766449946912 -0.059248502634772624853 0.13863979653689181837 0.045276625009276059985 -0.060765898552788029374 -0.16052674553415421932 0.034751131944855802314 -0.18543897663570652057 -0.20161200415310118195 -0.17238316587191854223 -0.29133821726433628552 -0.16041501999076901441 0.076933373310624691976 -0.098795390319805775903 -0.20995019842109255426 -0.073739361701286393336 -0.20726017177894612287 0.034993757555239861368 -0.17216839787205426293 -0.0249862383290139628 0.31979111279040078886 0.11150113112350719391 0.02781824789982463228 0.0610954376586609893;-0.17337021572571539862 0.10605121809866216442 -0.015713489473265864621 0.11643148355124759152 0.013748538770347096261 -0.22522501499724356666 0.041980040956071364155 0.26330257440887161469 -0.058104989515269572786 -0.11715261543129543154 -0.25039688270082427479 0.013772691779064909906 -0.010109592075797875499 -0.1587470214471272123 0.018617771653548151334 -0.18243469772014861419 0.072455797094637619526 -0.18127896120841954786 -0.25465310584858574794 0.17162718226362966289 -0.12900668422150776693 -0.0099633775451502901849 -0.090436619353044769842 -0.026654694718309845242 -0.035781920753820653514 0.14501797105794070331 0.26569401858037350328 0.10090054535260331581 -0.19562021099932958013 -0.26307091388282421995 0.043406143962589863183 0.16817341969179305794 0.067897024843908151959 -0.15420124537893725725 0.041074401986847981771 0.10887027835593303393 0.28797164365460858892 -0.27400629947247845397 0.076264069007885737506 -0.15857960611464447243 0.073146086818607070068 -0.099409413690192641178 -0.25460040803648786856 0.20233618111690548913 -0.15526629173498276981 0.22519524066414914332 0.027358418676165504463 0.09634457934313271632 -0.18124619742352851559 -0.052379700021362655959 -0.09189138107989514026 -0.034242047752015614126 0.061015110087406142225 0.099647967865743092286 0.12418646996069804267 -0.029855706490780072049 0.20255008189181664124 -0.1527288260486248106 -0.17116423596782345817 0.1496742327854393706 0.021752049908793771871 0.091303849237025613839 0.11606370042601397985 0.10602224667531123803 -0.21556855623294493562 0.084750628577425574095 0.22610671129011378211 0.1918314678906753723 -0.23454555835346246884 -0.082972697651517879347 0.22901568790985529778 -0.11047661661904796537 0.14532652201564616457 0.017064955362586037291 0.11824416811322130405 -0.31503680834807556987 -0.23990897495932639316 0.12679647943234412244 0.0053750303886390456837 -0.17503179802746104965;-0.090047461454275015691 -0.016106366199011328683 0.099058328303860770925 0.18200072957590862632 -0.038105247832754443604 0.048156728159795297861 0.23385501701119312812 -0.24515302308226880057 -0.16041962256692562927 0.070399088993609540421 -0.30514250859000852101 0.17482881097746996724 -0.14564914101705500604 0.093718136561675866036 0.012488796572395835516 -0.16296380276153149547 -0.20988535661453189274 -0.14288719352841874888 0.04851369171120091528 -0.19486066673666938009 -0.01797256718394872263 0.069961331912983079628 0.011502216809637371905 -0.072285383738216052452 -0.12120990127332847974 0.16228962909563485195 -0.20616736055441134412 0.23933112376252235753 0.22075055442814364715 -0.055122642992402416662 -0.15350703593418224546 -0.087523980857458577587 0.0086998841932108602476 -0.14116923831819411239 0.12681158503192754838 0.10537105518914872959 0.22240666814051893163 -0.15194645072581017264 0.18534052964173144962 0.051765183855609783747 -0.042449450691587363449 0.29723735987961735772 0.0042664714336109691578 0.0030941666220611675243 -0.027800537527410119215 0.16588774090072211376 0.030788817200950398256 -0.18730168715576842042 -0.17207780186095253394 0.1327386063007330308 0.015267074693881096947 0.22252396312190156347 -0.23627860087249713539 -0.056018540491478460708 0.060646494842018644489 -0.045627110296732553696 0.18316654589899120098 -0.13727632450337115544 -0.14715947713319155188 -0.2211948916456762948 -0.18570382124418050029 0.11722655860924244275 0.0092098272365347538804 0.24179675439070730247 0.29310257361447200619 -0.064867906946444134353 -0.030557903056802296349 0.0089542829046846683649 0.2067475725754211735 -0.0021746476916877088836 -0.1495487274929905297 0.13871710226945910271 0.0036444639632192145882 0.099364880943782610268 -0.01741705936340262606 0.043912927152260673724 0.085444818101908306951 -0.25184814304619868031 0.17132972509170654729 0.16747287081281142518;0.28315832148297370718 0.20918438022539262433 -0.1222979394313682272 0.021937646577256275648 0.12391321764913160175 0.13441438103294817141 0.19078621574449552978 -0.098147027818958301748 0.024257991675408027699 -0.10480432670076873791 0.094937799613075579686 -0.15041085675626367224 -0.035011247198329049912 0.078434550805395991668 -0.12750200712017212279 0.058208985457013091847 -0.054691167538576238027 -0.21595007162408924595 -0.12375234729254283583 -0.21527182276153664087 -0.066525083090061457036 -0.088613732130159869604 -0.14456007284377497824 -0.02027843215046319994 -0.13823966204703136418 -0.15208597645342514237 0.18734311372695280906 0.27283237184591985214 -0.065757716112817388154 -0.020250495739551552243 0.038577434141523869737 -0.081759135318459186248 0.089792553517593784451 0.12350246266894972236 0.29674616185125501922 0.16779358565163798866 0.20105247448683521982 0.17309411250045503294 -0.18950624833353404974 0.079234422800309831092 0.14925519358410443971 -0.15349140304923775124 -0.1306569854401219144 0.19003022677250389072 0.17524844423453944664 -0.0099750380747830325046 0.1757546195112812959 0.26662044661430861492 -0.046141172412325029417 0.26200508267143890473 -0.1478835858737424791 0.014066030675315185916 -0.11938186044429072163 -0.00070759408554247303635 0.07594454853905910352 -0.061670604455323317639 -0.22151417943854206927 -0.01858754071607786329 -0.068443923347423343828 -0.02289770553335124248 0.27717376904719009945 0.13555982777216010748 0.025881622455408166 -0.10882008427663181216 0.25728675294545866326 -0.059850971518925738524 -0.0071501024525517792307 -0.015478321427481683478 -0.16999038579623057532 0.10121007418742400397 -0.025033451383099869503 -0.20024739483578429811 -0.047564516447228907814 0.030664184217165033064 0.16670853118347039867 0.16815867325827549283 0.11403611548047358493 0.17932181159130292092 -0.022689086275121547742 -0.20033236108760307803;0.070810285602171924024 0.026930660799015109647 0.074833612603162957821 0.073208561924179349489 -0.21377814074808623723 -0.010932535009101091578 -0.1186406612527207971 -0.12677322790134037955 0.037912379076643160092 0.048542140916712606113 -0.20439435378108322672 0.15896526412051964483 0.13929981915659650493 -0.0039829568586397644941 0.069971851986017644109 0.05124144520722541396 -0.033542911306940689786 -0.0095485617671813675933 0.23108969018793110162 0.13483568092645698 0.11034498745238897899 0.070940646358184117348 0.19407511496321916411 -0.19702221889450208248 0.18381024202375598198 -0.08010748429059028064 0.00095808734603252624501 -0.02521737589318777048 0.10716314180070986295 0.1188567272261819574 0.24688237878841617912 -0.21112585354621316025 -0.087855190330920512887 -0.18545941529555529104 -0.13096311313137612431 -0.0035904325550662925803 -0.19106699224761095057 0.15498339809942060508 -0.25553982564765770347 -0.24413289342695798645 0.11246298560836294478 0.0022574803393415206719 -0.23349710681057009309 -0.12721361552424753638 -0.097494092382848396294 0.025722462075017982902 0.10545579874176870538 -0.24051960775304184748 -0.14755776136302389823 0.086780524021104837873 -0.059785896679692876465 0.26107388863735836448 -0.036282484072872892011 -0.16005337922672610573 -0.090154272198088580836 -0.23358671782144518891 -0.14970506705390052016 -0.24164546073725767794 -0.10899167877564766571 -0.14669452037335126149 0.050580483592385601377 -0.093194194718026354685 -0.11162424945395314768 0.14836648545801137122 -0.088496174538321731307 -0.085805924795433599628 -0.038780700729144489125 0.03428692494265946078 -0.022075522139511936925 0.028531011925171701621 -0.1202614985602361436 -0.13822210081061514497 0.16751310215835971129 -0.053655549333104735066 0.036365209186258122542 0.16524693722269789831 -0.0026693748484717992955 -0.15101017664925603379 -0.0078141995196156117942 -0.088116876424433027148;0.27196743964859293463 0.1731073480024124811 -0.041635932685961676847 -0.09112696819298439499 0.054363416073301938647 -0.082871933151223070579 -0.05125685659015193768 -0.036351544862707516059 -0.0673230264149240476 0.082367389936529145089 -0.20661311704556656332 -0.0033671291862396005197 0.062002813753934918339 -0.1209721798252420405 -0.11394999234284949874 -0.012463786522243754454 0.18234217960029816541 0.12308165777906047988 0.15861278936884637414 0.099083409144835363214 0.061565601720763092619 -0.27722176053867242373 -0.016500629714841688611 -0.20532368066862441425 -0.022019394168754306829 0.06306970744147341601 0.013304584962272285667 0.1887877425475340265 0.19728647953065625575 -0.23154594469275444069 -0.026965886807690297999 0.13029877000838424594 0.029582626745773922539 -0.039305934029860829793 -0.28047630362612246957 -0.20146576520003986466 0.055238705613349071977 -0.026045905588554872645 0.051043887882679529755 -0.18700936145306959468 -0.33349166795332441104 -0.24432451136458890883 0.028043654784953572084 0.13377843941025688301 -0.04597002053965505014 0.15731184449766905109 0.041678519007121897499 -0.2909219953623472521 -0.09903759735661617214 0.21680757451094151422 -0.15052848018857428736 -0.11802112438994666332 0.12132524016058050809 0.16917388940666411301 -0.14597978755933521677 -0.13060345043171531221 -0.11880533031652013021 -0.031708067228887783229 0.24806054146976727615 -0.2477117835032214832 -0.18122149973677928458 0.062963861825453881771 -0.038943158450132103754 -0.076901681317485703904 -0.13598132274101887296 0.074300915201602674154 0.045379001016476343267 -0.045949029390593913724 -0.0036582697284356889555 -0.081946138235014093221 0.16454712411706906572 -0.17964648330849955493 -0.20241204955286956624 0.014265126079800368938 0.15902915198959338694 0.040482603927529822729 -0.19494104840746240281 -0.084418362707256763833 0.10678732318319002215 0.098345780741183094764;0.086518810864076034495 -0.10938009309122354029 0.06664061907613834379 -0.019691053673570976801 0.092737877695008796852 0.22180306198552898755 0.05945278397968062345 0.0070576591842372252833 0.026408838427098783874 -0.21492155227991988076 -0.14783601705012416883 0.29251940367774609264 0.031776127006660118135 0.077739620607360296334 -0.05530161450546886015 0.17967203910315299176 -0.10133105606518373609 0.07552186463348849188 0.15438053407727311828 0.10430112116897652386 0.16170299125937995233 -0.12490053371489469314 0.18299014682112674235 -0.058766997416904040441 -0.13512002968847217077 -0.1541391829209330655 -0.12875709452959835377 0.13781828823225417135 0.094543927978823105729 -0.14685509917243352862 -0.24815639590351781796 0.095731202056124606314 0.21398460468005026103 -0.21584253454862467603 0.059635010802568236277 -0.24984032695695426729 -0.14685838970265982506 0.14954664826594646354 -0.01562798638530256759 0.032892587220154763383 -0.22296730762882283061 -0.053125846677374306826 -0.10777762697784404322 0.035494563636377589322 -0.15335115185576350672 0.13773671973837200988 0.03857228336915513589 0.049092227519054884577 0.22597901916089738195 0.098775583664811372753 0.16737995519921394783 -0.014305334226305130296 -0.16829214713800755288 0.073713994133266569353 0.054377213844780426799 0.014184121515741400163 -0.039281090373227106616 0.014624701382363738261 0.042392791994403183908 -0.065548528477193321318 0.14450367111462467107 -0.31266908912941293597 -0.12503933644095657773 -0.187404506832127421 -0.063564450095963592746 -0.081644599309035545409 -0.14666848772274443391 -0.17598559700880675449 -0.14506831699816871706 -0.18933425064542847016 -0.017878481170896916297 0.21839277606407672683 -0.22009053519428853352 -0.24449904988132351025 0.10078644380389704949 0.12350664844771071238 -0.24834749663307423284 -0.12539872662760739863 0.060869774006162696844 -0.024230016762825646454;-0.12562260349049367281 0.16901819790375141594 -0.042178813476624409107 -0.13636669528518380323 0.25206947503952153999 0.1327428475271192343 -0.1002163140679749459 0.15215022223401708512 0.2113765990895649094 0.21714588480216440169 0.082596186124374748605 0.13630705002813581217 0.01896280477775232759 0.12775953848014345859 -0.059600254082978379455 0.0052879332518336683716 -0.033101376593577230834 -0.12034042279039407208 0.15240702429741295743 -0.15299528887890578854 -0.07456500686455552751 0.082086808530619670421 -0.015716826876938132934 0.0142951651107364585 0.19954203098128109328 -0.0148657845486942497 0.30603796900061752684 0.072006332721378324413 -0.13869133120197166265 0.26025848920258320973 -0.037178310932868212368 -0.26084442432732918293 0.12144113497229780396 -0.080308297841795051042 0.091174955179859296095 0.12370311006582923596 -0.038998822354824602687 -0.026093208211806717678 0.0016756570321614251001 -0.10085745115280794759 -0.040297266821740507226 -0.0058154906046516937138 -0.21750407896090728777 -0.070313878518140596197 0.15647892769709684235 0.077594786783068137037 0.015926917035117900412 0.1036653268170704828 -0.028230511652588875099 -0.15941873453945429318 -0.0021404306751117039773 0.01376791609840225146 0.040380189422629372831 -0.18534223026593832362 0.059032993491959756538 0.052842095558697184388 -0.05530784149936529559 -0.039407472269018424538 -0.15414954082533183222 0.031522771161972822085 0.0036187978191112414941 0.15601182365270518937 -0.077028635340955928235 -0.037073449189975717089 0.1787438086680545879 -0.14248355195405096318 -0.17508488940362759712 0.11050871271186657463 0.034110403044205275802 -0.1207869823939151932 0.23549108423377915211 -0.1562082602443949364 0.052130966016106158878 0.14110806516753143791 0.28431587092864862854 0.12709091292875995816 -0.005690207514495923373 0.042929033167467281484 0.017559127468962650725 -0.05052700710264399625;-0.22635355260649608899 0.064279011227153140529 -0.1140192843059037453 0.31028794109238583276 -0.095745819193004427783 0.022911300106196887116 -0.11247504931145144158 -0.26390626387563814736 -0.14496174263926447923 -0.23802173462586737052 -0.10869041115947770948 -0.13418138821576022779 0.088326092047166820942 -0.062123557993290806634 -0.14514453185724340845 -0.14153489279214059859 -0.11415979780066211335 0.10940504645465665146 -0.085334364434587417492 -0.19132651086147162145 -0.035300720729206695736 -0.037142253971001348845 -0.19112548024425071724 0.13360329723320704676 -0.12781538098132880221 -0.13209278268044008509 0.016391752756466246299 -0.027214791443993014558 -0.092735841685863670825 0.14438954069501835908 0.2507109058402608448 0.13382262381998913381 0.14978234801527132158 0.26197880507540161066 0.097453046799444109638 0.049539560027983209345 0.18097280842297785997 -0.032419004983289465005 0.14793888993325290948 -0.20834551888949912057 -0.088863901142778811693 0.20771904626190559884 0.10377405765079227018 -0.012006572507944431386 0.15053776639379792823 0.043934847905896141917 -0.093861065389413647631 0.079981192897855088453 -0.18921802697408604543 0.01595682616833325046 0.075070664752002191911 0.014385509190221312109 -0.032113946341236862536 0.10358137909137704602 0.21778315797409020238 0.03398560246778097732 0.012421254110762872461 0.0074907717183102856193 -0.089461217729078279515 -0.10938148088817163661 0.16098212559313057612 -0.012804636947223703436 -0.099415326305056894718 0.15515995459659789879 -0.15488762834460229056 -0.096852896152365822169 0.099960248037446991498 -0.16326266629424585064 -0.13912028555022837306 0.22215478743160183006 -0.26024001983158062679 0.12202970034853639902 -0.0011863696113938262434 -0.1557695284072349029 0.085776481097572992995 -0.049887624644023936815 -0.086993819462083996075 0.080948169854080542773 -0.15372142178997702522 -0.082284081876708908831;-0.18661632691720969612 -0.044624116171613444071 -0.16368363455029191766 0.032492893703101211056 -0.19404885578105376953 0.054512560327871627253 0.11197081446685572259 -0.10305821665086020711 -0.25356324775856625697 -0.072568864027641524772 0.020837603036554588898 -0.033578865692947733324 0.017344331932763610432 0.050449927285719696479 -0.072282843467013288552 0.069386867591894066387 0.24122067932500798615 0.041945106187097659645 0.16374640270722648494 -0.15085924016275248372 -0.06203526367913775319 0.055068883564646807505 0.099392601554016135612 -0.050222590100445593797 0.13157148868230097993 0.26838421953198249303 -0.075146817069817739565 0.085422281839916514024 -0.14424652801631665522 -0.0050401905714884424545 -0.12198779260440720251 -0.11166235362106766149 0.075309950087083535331 -0.095427673783746336245 -0.17609301069187788258 -0.00039341820375381458125 0.052656197466691818942 -0.07595273127580361161 0.22242459833039768258 0.14336186556644170409 0.21925881804054553337 -0.23589774194250998085 -0.066524573823589547295 -0.1675743539950511618 0.21289714215045771328 0.133914975997419472 -0.17438738241665477369 0.20040810627842878255 0.11142709536594580522 -0.030238004564061407575 0.039227765676370436598 0.075690518618853813715 -0.077483572133221240152 -0.12120672586980803243 -0.21364978492092187579 -0.078946436175348480568 0.24961055909288262789 0.079774758423063682478 -0.13261438020765786705 -0.05833561806759524071 -0.14130562389365949882 0.21815425543117578089 -0.21293917006048243556 0.22814358744324556016 0.057288152473053757796 -0.11356857339153562936 -0.099994416890748769045 0.11557884565565371138 0.1204761512573240545 -0.18296839583816587593 0.16760968127978589925 -0.061212117008145994212 0.23112417314189009909 0.056782542914639917708 0.044220499733965239197 0.088227621206771161821 -0.085897135766644691635 -0.21824978131523847802 -0.13269787262329507671 0.086166590540752596716;0.13680810556790365395 0.033849280526989503071 -0.063355440042548935575 0.048819030645451483297 0.17531265952791025287 -0.09523197823471761525 0.25473844741778928213 0.14800924004365478837 -0.10422552311364888245 -0.051340740399644119174 0.16565384503422506124 0.056602616323201376813 -0.0069436924424019731347 -0.13013819778358273749 0.18796333311573459879 -0.020778825958759541276 -0.19089485949380663454 -0.058381943175816276848 -0.22201324939636760125 0.053745200531973937041 -0.21388623714578275381 0.035401026270757161851 0.15007260997634136457 0.063952851163604607088 -0.15910581505598553331 -0.36997156560983041063 -0.066179993848429083392 0.15067969989497051464 0.069619044941114038849 -0.12895411752873323086 -0.11424785285174877958 0.0033927926957707881493 0.15382801562198686329 -0.11041664316490357178 0.086301972256513564963 0.1923321793722019557 0.22599102764020118084 0.0027942211440056003574 -0.051180320743205338918 0.11218612593155391499 0.13215513277223669975 0.10249807129386921678 -0.15459147941332951337 -0.11658734258050046373 -0.026440470785206726667 -0.10603488766388183273 -0.050086146375693869903 -0.17124942619358948792 0.16497058694872349105 0.19985088083161103856 0.058487072708335051396 -0.26658302879319456524 -0.21038694547088793163 0.15236357278845014118 0.043052267606738851835 -0.07352804308659847965 -0.17839895039943648447 0.090909868760572831725 -0.040709148835062408667 -0.18932830938733910542 0.11984331942303493024 -0.015860021439537880239 0.29455762587580008871 -0.23059492654613369944 0.03737849146655389948 0.10552303752744693344 -0.097024212480266852632 -0.063774319978780705243 -0.057455927257262125185 -0.12805377706427362172 0.3096573118296808147 0.17377646267036669925 -0.10574153338525102419 -0.052839260787258028607 0.29265640030020628748 -0.15154584875817675438 -0.19178228060324725712 0.1637954829192886097 -0.060890565329847851084 -0.0011029386085281128044;-0.045710872696569739004 -0.0057407747961706777004 -0.03478915766764005546 -0.065138458878895993953 0.0018923190153588911877 -0.043126722350667785755 0.12149960469076358238 0.18827919828048345074 -0.15561939348101802572 0.069791776514921188834 0.024309312185203775514 0.1711512597769586641 -0.12285928144999251621 -0.23520671427752765092 -0.016378338174278812833 -0.036843513243852994699 0.077669219790921104063 -0.10118520686243745454 0.036685805801659733538 0.1209989875390208719 0.12558566570369630866 -0.31387663116262376484 0.091886647162475867945 0.10947912660560496501 0.0375672364716951937 -0.046934373844530780095 -0.055051774272918435615 0.24500115728278154537 -0.089944560497055972559 -0.037761628619998412193 -0.089243962406517440833 -0.075117847015046035342 -0.040200477717471046202 -0.16601723388168990181 -0.26262900072128075868 -0.13367048644605267205 -0.21996376995929511899 -0.24152661627307339676 0.16202234335518994612 -0.036095164310347684078 -0.013462207862372453301 0.13949485627510221919 -0.13844298226418705333 -0.070851066967171805189 0.095854384228960684555 -0.22331540057633492147 0.067530307263200917145 -0.03642103702739511728 0.095820781767299439968 -0.006862621137397427809 0.013608104673824426151 0.0067598742290525190568 -0.15107209796493814569 -0.18410157092210646668 -0.063203705502551846274 -0.17201425151219973397 0.11877620374079407572 -0.02890044969270012809 -0.0046876963221731734327 -0.10784329045473656228 -0.20732780965411337637 -0.011394198724558882857 0.2341954925149608846 -0.10672293997279264088 0.091141094797436206232 0.061998221667725436634 0.12328861869350610236 -0.1024346978572796274 0.14316543178217047694 0.057373353405954077844 0.19855181590042655926 0.22347600548022247824 -0.21458935265108669554 0.16760600889232871169 0.13150029021868531176 -0.023046620388433417675 0.11117765762678580299 -0.0068129799587394370558 0.35292325137641339383 -0.071443365316577023272;-0.069286038103953562217 -0.29952848039473090047 0.21528373203930500912 -0.16535789423333527304 0.16948060896908126449 -0.19148710217332315375 0.16180329825799924515 0.030060477284832267525 0.15773986618770838297 0.071371858019460929223 0.061776500379675330921 0.18103869275869599598 0.074462705865545208983 -0.02259256616530494477 -0.018421531994027018353 -0.13453813046849680268 -0.020413958960307919399 -0.11017432225982398686 -0.18578100150306237071 -0.14228068210778385683 -0.14542879875159570036 0.11391961902512924565 -0.17359586811657642946 0.18063100630264511404 0.1506035912967852719 -0.16026515107255617787 -0.18246330342375760569 -0.073996503601418642249 -0.1704846116193577954 0.063360781564246251851 -0.06571117982817847869 0.19676562808224637435 -0.071098555927134418631 0.049678316067125971589 0.084850023854373485266 -0.19222530903693746396 0.087553693546746053089 -0.26969590586661057463 0.13573892016410679662 0.174533725000452139 0.22950631782228683719 -0.1460703673331951169 0.15902510324822455301 0.11953246709645745649 0.030071507866239591267 -0.17209124707224854323 -0.24594768055241719718 0.036339537383909020773 -0.19962410893394361144 -0.22891878206169619103 0.02079451463650761403 -0.0090782942615444811585 0.14618794429853013139 0.064057988441017982284 0.20655151729253620752 -0.15973943756804209748 0.079017953459296047525 -0.059446001249193414218 0.12718165286799706926 0.020740606661351735501 0.11093819678277511143 0.031139543522769722039 0.075065662784076031544 -0.13557818383265099471 0.098125915050059450695 0.057572029959031517654 -0.04208935993142925297 -0.066991010295043673661 0.26692510885991443947 0.065171079680288498959 0.23440306324250256842 -0.12081946531230884634 -0.10202431828210759002 0.19601804167079667218 0.031855846213657862398 -0.073455490358604325074 0.23864413515791135789 0.010333498216673311226 -0.14838279414006652623 -0.19895460113131802071;0.08486900346228049008 -0.13737056689694704392 0.28920608591027580081 0.12921075733686901432 0.037344143925133757578 0.14155534464459357258 0.27041615133238744439 0.15127744870385417819 0.18640699226520060505 0.10383759063797259881 0.089502268877359361654 -0.17546390434390643498 0.080483179521413636404 -0.05420942612807744948 -0.049860914739641694349 0.045323871940376993239 -0.11467437035578720295 0.036669283408093542032 -0.21520966335104246836 0.026571055295837597149 -0.22720087527881446809 0.080126340373571372511 0.17697744827710129578 0.054244934294806673725 0.24487111045188328373 -0.10935681472382073609 -0.11207733353008471344 -0.028761271115745237759 -0.26446480327887356143 -0.11122472805158062359 -0.20763811949603616647 -0.14178041575457428491 0.06733882069506953727 -0.12897108276847965569 -0.029188710184003197751 -0.12093631351163648679 0.058011053216052148318 -0.19429048972043505561 0.13294520523653521882 0.079053511413743449143 0.29754854482267212301 0.042555386199626350774 0.1618880754707475722 -0.086124147687203500556 0.16779721888267176699 0.022727306517564053318 -0.076314516997295064882 0.26853709977207729231 0.11057812574930603322 0.16157656400450437495 0.1778269547450591348 0.096802998306973378484 -0.015029046391315867628 -0.051609308431453872201 -0.045740324359802866927 -0.05541201027509913557 -0.055836673969266066575 -0.020326400019277338083 0.091576790388408255139 0.039595034328404818402 -0.086574405437275028796 -0.068208971011865252021 0.14738051121989992343 -0.18414136143249260069 0.12467266228630949354 -0.031040354884233380128 -0.11343077839776632976 0.12531337685159738005 0.28733962925709005676 -0.044752294372475222295 0.037241192435738902644 -0.058974337137846798151 -0.047197736357705764865 0.1793657030305847444 0.087479244638050360217 0.10657848521595050806 0.040052146445615749437 -0.18315458893218564129 -0.022073343469850251197 -0.020168697564318344845;-0.068385296493072442181 0.21658956660993194943 0.085672717615733237628 0.21682415526835721598 -0.17515426289502344925 -0.019926318386657967952 0.11112352483586500351 0.10345348669613989301 -0.018679601442317450566 -0.21849743953519651374 0.05245381808557577491 -0.04390764838686612298 0.05454843464377404777 0.10799246633126693973 -0.0063529476282127156361 -0.05130247048727086534 -0.20851769369774150742 0.027167247784130800492 0.24882116416367930367 0.18436841540662571304 -0.011954950692540548124 0.094574449317316233721 -0.070555160241641323715 -0.11362093717912107038 0.054882293215551616883 -0.079364686380045249003 -0.10142905332279003594 0.013198910177280609793 -0.1339848403535478516 -0.13394591918774623185 -0.13981851929605071394 -0.043401860317369561626 0.0058641814250060047761 0.10008929267270065544 0.024860587669777962222 0.038462652816888952267 -0.2118847326348270721 -0.12031593009432700603 -0.11461312837423781597 -0.035852199450447715112 -0.3068410847386061624 0.12322523307567920248 -0.25303304447551061562 0.13356659260361417041 0.096731151254018044039 -0.0052869898372508317835 -0.16595967120858973187 0.18355000691323816731 0.13579493957601143639 -0.066825290839616316441 -0.26872870822098837706 0.14159538251917083707 -0.12614722026731600701 0.028571201523988246085 -0.1424365703161243335 0.073543026211949483195 -0.17164622872036600087 0.080867597588929918118 0.097984830867799022069 -0.11407626260718062294 0.0074200758745387434406 0.13923551701269631931 -0.080836707388386358497 -0.049923723830643154664 0.15509712878248094192 0.22620350773623607021 -0.094335255543639737197 0.028493547349034652888 -0.15837248911445023225 -0.26669652494448270463 0.11280392397812137595 0.11020615469836551881 -0.11240991300527621022 0.087724186400016349041 -0.1917933977713582594 -0.12208029592471081326 0.21280398858298149589 -0.23250512062425510162 -0.066775806209324620188 0.20643973187518302459;0.23846399432096684889 -0.058341784878111167811 -0.18575155655257039045 -0.059862127778213945761 -0.30421180469064296181 -0.1943266763181884238 0.11736399078173578858 0.038444692640950996199 0.1144298849406225338 -0.061543695706389699163 0.10242508455194113126 0.19924767854906938469 -0.16432790192294091658 -0.23409053225954845612 0.17315975439743844233 0.21856595030311140593 0.013374933088499314088 -0.096177478223719442552 -0.035603420103189814538 -0.07841806607164944487 0.019293630608032179274 0.1685090866842429147 0.14314960278559218931 -0.22131386017233223296 -0.063033616632913264111 0.12056115499910843858 0.058386724818370885903 -0.0077874146492522746538 0.015702332266860408172 -0.10551773530185983019 -0.10684109132398286746 -0.13256518462692334914 -0.075674894239082413083 -0.1512056359918165227 -0.27729333942180739436 0.25969320102230719627 0.16728444930722335959 0.1453954274593207141 -0.055485255350890404225 0.088099100114152187335 0.014777083917151758938 -0.1366141652247494509 -0.19418946798657937824 -0.2333809225604697446 -0.26871885225013247833 -0.21988068824628834164 -0.21983718915693781226 -0.2412472572212363553 -0.096576487015554879356 -0.19080599666317180074 0.029960593862559604245 0.127730705461174876 -0.099518024210531727536 -0.059492712285853115162 -0.1823944309601204794 0.20914111114788533352 0.088790774222544777139 -0.13285614460773739753 0.23832840655225964732 0.074641021906041327139 -0.13709998480035015533 0.13552912435226580068 0.11796175780550405277 0.157125421809525323 0.13072666392553175529 -0.11448999121258202072 0.052309648525168478406 -0.18735685885532363248 0.10083766240080715981 0.13131888513977812982 0.024008239188908608169 -0.22862353498707096988 0.18157570284972898711 -0.043036667278324447494 -0.16718447939247030321 -0.066710089320955290315 -0.021254060105952807258 -0.19362674151782890974 0.15312428329275618033 0.20718074181990175919;-0.05521010399493310461 -0.049454310987043614833 -0.071368844499044820084 0.02534807718014469094 0.01579813887936644054 0.18538043797884593 0.035155829769605094481 -0.12279427299812289975 0.13777776068607183735 0.04566476788689126376 0.031290413744570741428 0.085168169718321071193 0.095994712876274077007 0.093636962022566536112 0.14172695986188757478 0.05994298087114813961 -0.19919420953745300973 -0.031991854302716025982 -0.17984632559582530709 0.00068504320095589925355 -0.16807930043008001419 0.0082007410041861541344 -0.14339735759169899842 0.17719807259484815498 0.19637244659742481012 -0.040446466592164040388 0.16105794288523439528 0.13437041120347817391 -0.018309867786870423489 -0.036137940138628074638 -0.10841032227758141959 0.099139017479795324417 0.036414906669997755551 0.072535315359065002938 0.20297743164326567666 0.10129821366545394001 0.13195527926088213011 -0.22972331574163257217 0.11965265194967253382 0.053071019079236204929 0.25617381306036107746 0.13172497797865073688 0.10248785843541889651 -0.1585337733579090802 0.26153152332334789198 0.0055820793890295769893 -0.27792000546835921027 -0.14659626565238395579 -0.113995898744603405 0.24009616748098941419 0.32927448538557169133 0.053159067622490431548 0.26903416937484209148 -0.043278207122977460641 0.30797419834018124885 0.14971213929387744423 0.13321863641600642514 -0.13194047218794194287 0.1685208427087957761 -0.088468894340297352108 -0.2038951677312630939 0.053414006712362932516 0.10032217478824456691 -0.1179327371110157896 0.16671423084374514811 0.15586025326490413057 -0.061692725338041314032 -0.11654369861818750231 0.19227587739609325324 -0.21594703218804092715 -0.15765173342511185073 -0.1545731030435506248 0.0047676396276114894196 0.27400497336238271995 -0.074209206901597532524 0.050822079554367571852 -0.22062563090154521661 0.26141744941660166601 -0.0007105231365565373592 -0.29269216163949995924;-0.044959040380890082089 0.12665748547486924136 -0.037763157304508201961 0.027526551204988515542 0.088115587740708045672 0.046926170689742002784 -0.15587506163415107419 0.028911260660462574645 0.09028296841669761208 -0.064248577710776744176 0.1047119102289406356 -0.12038057767731753789 0.095741490023948050414 0.090609123155585238885 -0.10584351506504388607 0.1945999047986935182 -0.0095591505269660877186 -0.12049092307535159974 -0.07360017713641374415 0.18667979642372253823 -0.10600081957983337189 -0.089421646808421142993 0.13756805995714471713 -0.12934272734164842245 -0.19677844149603856971 0.11759082642718483858 0.043165423120574551719 -0.11996285685196260429 -0.24287388246426205862 -0.0074344877477759106765 -0.044532517748825141413 0.12322541213235979618 0.065134342867901789953 -0.091639077770106242005 -0.14715258636262865122 -0.11769230337591148061 -0.21682925539364181211 -0.16364644618159529532 0.14849020672186399872 -0.14779245863983214715 0.00640727910069382664 0.037284106691134272227 -0.013242982435929938345 0.26066687760600776302 