function [y1] = myNeuralNetworkFunction(x1)
%MYNEURALNETWORKFUNCTION neural network simulation function.
%
% Generated by Neural Network Toolbox function genFunction, 05-Sep-2018 12:38:55.
%
% [y1] = myNeuralNetworkFunction(x1) takes these arguments:
%   x = Qx120 matrix, input #1
% and returns:
%   y = Qx1 matrix, output #1
% where Q is the number of samples.

%#ok<*RPMT0>

% ===== NEURAL NETWORK CONSTANTS =====

% Input 1
x1_step1.xoffset = [1.49528622627258;1.36195814609528;1.27292883396149;1.20996487140656;1.16479861736298;1.12988841533661;1.10420179367065;1.08355259895325;1.06753706932068;1.05463755130768;1.04444873332977;1.03620493412018;1.02895069122314;1.02335703372955;1.01889669895172;1.01531636714935;1.01266002655029;1.0095089673996;1.00742077827454;1.00591063499451;1.00441908836365;1.00275564193726;1.00207030773163;1.00075697898865;0.999875009059906;0.999556183815002;0.99930739402771;0.998439311981201;0.998492538928986;0.997782945632935;0.997745335102081;0.997477054595947;0.997275173664093;0.996791064739227;0.996980726718903;0.99695235490799;0.996256649494171;0.996520340442657;0.996451377868652;0.996589124202728;0.996193468570709;0.996573090553284;0.996315836906433;0.996181428432465;0.995970845222473;0.995982348918915;0.996031641960144;0.995967268943787;0.996082544326782;0.996136367321014;0.995812833309174;0.99625825881958;0.996219396591187;0.995957612991333;0.995725035667419;0.995837271213531;0.996111869812012;0.996063888072968;0.996217727661133;0.996112644672394;1.49706172943115;1.4576358795166;1.42226159572601;1.39022660255432;1.36074328422546;1.33459615707397;1.31044495105743;1.28852653503418;1.2685524225235;1.24981725215912;1.23287904262543;1.21727764606476;1.20279812812805;1.18927001953125;1.17660248279572;1.16555845737457;1.15498542785645;1.1447571516037;1.13594555854797;1.12692677974701;1.11926627159119;1.11202108860016;1.10532367229462;1.09862232208252;1.0928840637207;1.08724319934845;1.08190298080444;1.07717537879944;1.07229709625244;1.06779384613037;1.06436562538147;1.06040728092194;1.05679821968079;1.05366122722626;1.05036532878876;1.04792308807373;1.04523301124573;1.04232585430145;1.03989350795746;1.0378086566925;1.0356537103653;1.03341579437256;1.031773686409;1.02973687648773;1.02825319766998;1.02672672271729;1.02526485919952;1.02389681339264;1.02256512641907;1.02124869823456;1.02005052566528;1.01875495910645;1.01790916919708;1.01661694049835;1.01587116718292;1.01492023468018;1.01433002948761;1.01321136951447;1.0122994184494;1.01182353496552];
x1_step1.gain = [210.304051343763;53.7946805611222;44.7441346920597;44.5826683354725;48.9250051761797;55.1338021689123;62.8473133746891;74.2430247326055;85.4859495457487;100.39624199629;111.330050830137;124.086327529843;137.808465373779;153.195598776423;166.781478020558;186.254160329496;196.449919205639;202.084002842654;209.998698242628;227.546296673041;233.539108283801;224.396329882567;218.004833805452;218.274280212846;233.083252870609;245.996627615431;246.133767586521;237.795926466628;254.105915228438;238.465155283917;245.282728674917;240.206399885461;253.296434691366;247.665256895699;231.635121048744;251.443884088814;235.94821778906;246.740093094396;247.119883342417;240.974052928292;245.922707650814;256.968493927001;259.416077806813;251.893130344046;243.99674229203;242.237036074474;236.50534269362;239.271171453835;241.062344641292;258.486815447073;247.482590000221;256.039068461374;252.939377949313;255.85945220521;231.400300677213;241.842459187718;255.886768855334;237.192464567207;249.653522216601;262.48235616224;344.367002606786;290.680666008282;266.23740002539;236.552027522418;227.969888849634;237.66118453671;237.466079744094;254.308130722125;262.107141183271;252.893625359883;274.919149215089;288.749565426914;295.113737906772;286.378806500068;293.215701352721;324.028352357224;324.843959958952;307.641257907766;335.135454745211;331.061743986424;337.705636070853;356.385759197893;371.456759509365;371.292347187182;388.829517011217;377.76312708277;367.566733853299;362.139872215507;370.006748560969;356.734339783117;389.995490364723;377.797153666006;380.125430487584;389.118100009277;362.74277312923;395.77306503739;392.183454498703;378.359478598169;390.013622521329;398.717049289415;397.413682016297;364.92041326808;412.469969268592;387.071244001477;385.94929836669;407.976460861318;391.698169592828;407.560208915341;406.119822807485;390.612931014412;406.454345034765;385.116518226058;409.890205467738;371.736594877249;392.440317185563;402.099894545106;422.068327044025;407.55030850702;374.583402174641;394.990370806357];
x1_step1.ymin = -1;

% Layer 1
b1 = [-1.7644961776518013341;0.49508753374779618239;-1.1453831699187579929;0.46034358690516902213;0.7997988431300990797;0.0024671552175099258249;-0.49571192346342279889;0.67468942517604335585;-0.97676767320087776181;-1.5831530927251282748];
IW1_1 = [-0.0062731515084525988485 0.66690113752802526736 0.35091139500421669739 0.008093610441847693196 -0.28028836727939049345 -0.41652784612821236454 -0.36369590239510735108 -0.38413539655962303243 -0.34905897702823562856 -0.28996733304637167805 -0.22163774976734396116 -0.18972956367585017134 -0.16993441190615796166 -0.15323112660755092151 -0.12682916752015604978 -0.079540154678553937062 -0.096922648456006205153 -0.037727803026021737576 -0.045175967094376143218 -0.04308952703712096155 -0.047321180628084838493 -0.041154979008924945372 -0.050434429576668708683 -0.028342773414216017314 -0.0047481590387625054184 -0.033661665881378158294 -0.018446865892494657829 -0.017972986347574861077 -0.012619207617581833236 -0.034973782458785213079 -0.0013080758117857364115 -0.0069033522781635691876 0.00095511803930542569369 0.010735679254308128083 -0.033940119807121117701 0.0093493686177431849921 0.0031109744166154390532 0.0040790960623793550907 -0.016359975409544764979 0.01340463579924906605 0.01317405568648783408 0.01139755397996695431 0.009032692767331899561 0.0043373617149797165718 -0.015866766841545577177 -0.008394927719749182074 -0.019078497650794331436 0.007609461248836268954 -0.0013597147479704264125 -0.021423221677467713109 0.0082070631306179007286 -0.00099177645679189877989 0.018302635273221769252 0.0015616742433197025857 -0.00024364793609460788193 -0.0003588471651265347619 -0.0011960070828479969253 -0.0039352433641823281185 -0.0070653163164509091843 0.01471720498925185687 0.017893189212850078157 0.022427426509516484865 0.027486979283879255098 -0.0081423628712468318347 -0.015184221627205639338 -0.042479005439069433825 -0.032467918872556261745 -0.0061765953595850093399 -0.010248796016987827065 -0.063374209635465694745 -0.03397004769039950467 -0.020444842422287265449 -0.040470788529032353242 -0.051131087886305305601 -0.03494264584973240384 -0.026673867723457762857 -0.04308218363083739233 -0.03933320770383896825 -0.022925351870172899077 -0.035965332942143511674 -0.024462095233095323965 -0.022310139076811973113 -0.011037125607191937415 0.0080555906344784954098 -0.0021209369066586031445 0.019031755036500317552 -0.020201720086069598764 -0.014316489094707432819 -0.006192478353170238238 0.0037244023111446711467 -0.024192280357146787872 -0.0048816370648789740236 -0.0023436904091431926857 -0.025745961747993366397 -0.022686027391909512757 0.013488557703540557386 -0.022951905460350401772 0.00044770210452481134979 0.0023101084279932380255 0.0043000082050767387057 -0.019380114074675620223 0.013113335799047356328 -0.0072013940209643169388 -0.010144692542657518172 0.011372558488132251259 0.0097242223206562127674 -0.01545663479156114857 -0.00060557634191862603872 -0.0052298088256176678348 -0.0067859626736808502379 0.00041561698124476485761 0.0095415624633693081613 0.014625822722279024912 0.0046543192688357007403 -0.03705952114111071144 0.0070016743122509007488 -0.010686288500798146392 -0.010602564541109303284 -0.0062838030635416364938 -0.010503949599788432734;-0.01341614681418349872 1.6487954788374963311 1.6423322091138570222 0.9350117352533304782 0.2746614099857407898 -0.074363199933151796772 -0.31992674913810925652 -0.41045583393546053452 -0.49570543390561877528 -0.40979073068523458323 -0.33603800491658081251 -0.26597202119275542564 -0.25015588084148526749 -0.20875937289523294194 -0.15625814792172751377 -0.14937671130420845933 -0.10811101943095625944 -0.08306872461123894491 -0.074376958295055375925 -0.066550172722287026517 -0.051869269329615080855 -0.067449625128553444831 -0.052755120904897034873 -0.025817453900578705983 -0.0213535788797042346 -0.039126986238078600988 -0.029021059257664971048 -0.012865602708910428911 -0.023029680121382539726 -0.021266889066672314129 -0.022202677873573030409 -0.0034976240914390802246 -0.025919910050542182417 0.0046618459018320365303 -0.0011210375279018607551 -0.0016952222020368810668 0.0062503591546419932576 -0.00088657855529595684836 -0.027652088533313575608 -0.0069959777880987386242 0.0023329495967949046877 -0.011255230981128738765 0.0062011106187183449162 -0.026247267159410846843 0.0043528002614485004212 -0.014049954781896297623 0.010012646847161419186 -0.0075294468386783624039 -0.0016714775762171807296 -0.032326381162811786141 -0.0048780359763839122728 -0.0068036596325126326434 0.019286945768988383171 -0.0041428822960452218321 0.0098356046581569885057 -0.0062944394982161607985 0.00053251367583257900283 0.0012351003153696791994 0.0010017463836169430893 0.0020806479025763475674 0.0096588470127675508242 0.043879973801722572946 0.038045884374490093749 0.0033317442459028304147 -0.011659720540797112107 -0.039676889871607841365 -0.043790192021652789289 -0.08002471362754985662 -0.08806636428794142879 -0.11645833216659365328 -0.10006564003512440075 -0.11017217913216341418 -0.073437042853797207531 -0.11478249373912433051 -0.11785759310028867675 -0.087712803548189652303 -0.065302866570677672864 -0.099909825977539293285 -0.085724073774675002557 -0.059087395244873247568 -0.067948642468938419414 -0.060533052355463662364 -0.063797536572796825771 -0.056909022216120160043 -0.051923532900786467659 -0.053758688045210140105 -0.059269591196220064444 -0.043330540755576553436 -0.055149680598568194545 -0.04875023825004078798 -0.037623554033334762059 -0.036067664109672631367 -0.038928773177695316643 -0.045259432730215688745 -0.033702138278082979794 -0.030255915212448504514 -0.032293065265188096447 -0.037520119776381463672 -0.022394493725129763217 -0.024166233059292246965 -0.020574471649578141702 -0.012825215716345577527 -0.01335137100082246786 -0.01216899480717055157 -0.022597552032238090586 -0.0019796060077438819985 -0.019682293355527909207 -0.022192027879410644586 -0.014628893085252439241 -0.0044953323813632668077 -0.00017005747257957474486 -0.017382338574062253245 -0.02765153676484888301 -0.02891951968094954098 -0.017540253542195780034 -0.0030353811702740892894 -0.0035874653044561414725 -0.0062481661286663513211 -0.01231182888557568432 -0.020191857482591179379;0.1918628416627521649 2.7227618004484006597 2.0673405317450415097 1.4809249414586522775 0.59821837001925604049 0.33532230603016122128 0.078085564402348470181 -0.26349796312172496515 -0.044072149237200840266 -0.8310607186252559897 -0.12972912244972459317 -0.3825004603644649448 -0.40979740557110033716 -0.57994314335774632685 -0.66126224757771490115 -0.6888299923946916703 -0.5549827364110228034 -0.52246154937263677986 -0.26526609562655295571 -0.51805282745748149065 -0.49999757773667002914 -0.26141286888538067812 -0.58600590893218340582 -0.61175012065462031075 0.086210269303061748403 0.21059413227723108863 -0.29820741497679381649 0.0050240271691711947677 0.29856784389530327539 -0.28270064754513968275 0.077062814095426479533 -0.5553050391512410755 -0.066393704881136106355 -0.090910293398249644725 0.1122670628481539784 -0.21590982780771955651 0.017817717732151662491 0.13813270534859742322 -0.42790757455315875379 0.1782283388571117011 0.12861273221732008598 0.035513322656367293795 0.37557021870080969927 0.14808398281837462096 -0.22875930670775804221 -0.035655415269679371915 -0.24280258006018010097 -0.017359690740306882306 -0.078724330013925050697 0.015564041566628446234 0.31770499446138977806 0.060521309959790076105 -0.030330168587097156713 0.19446467719718546485 -0.06020270351930205599 0.11784465951303781106 -0.033334508867541773336 0.0063189889990111543921 0.072523018448181306161 0.36884227695770099853 0.1197917450236855863 0.19627453873673669782 0.35458898449806458553 0.43125351961682861779 -0.005078809230870818224 -0.21434914959575443461 -0.4579123834992230857 -0.043505739077301847084 0.060683901530065177676 -0.39387813533480509065 0.076105223128078283712 0.074134520312995319524 -0.31736663892075939186 -0.10355988715476653617 -0.11447062796597719248 -0.061428086381836895236 -0.4430314392833869519 0.02391662015285724377 -0.35746865389144377723 -0.5978077899146897467 -0.36639995513881679079 -0.31717584950986821291 0.087457516890549924504 -0.057075094907425225066 0.092291083970933079916 0.053964749599824307635 -0.15378125938490791458 -0.14534620971274733736 -0.16184640180915060848 -0.3531703680212368579 0.079372450053602716658 -0.65800834411180730843 -0.068276795572054641004 -0.18394588082814763985 -0.4711246830476752967 0.052827804824655905103 -0.31918472850966628229 -0.20616644986065899015 -0.044284725086958687257 0.0017511960617768284471 -0.27193184213853222042 -0.099807317527259548084 -0.074757001075880402663 -0.22786601108035942076 -0.051734271327813018126 -0.3554808599884101139 0.025369119817497388231 -0.37462633906355069513 -0.123540853040476864 0.042621375977118604317 0.028771024128683920368 -0.024377975821265274181 -0.08045821229852012646 0.24798391966902519346 -0.21216338762986663991 0.090703152360955968669 -0.11708696402135451708 -0.14360626991682004516 -0.063158487784571545887 -0.11861946450624644145;0.01814577144047452989 -1.6098773207303040955 -1.4393774374882206679 -0.75452626191464577943 -0.098812591267764621206 0.41996305802957972775 0.57540143258829512529 0.68073849442402634136 0.67056622439350421772 0.55604343819334101084 0.53031209145169833086 0.45420316805190280585 0.39388975715225205132 0.32084513948235626746 0.25388178557477247832 0.20326633106458108502 0.18678284213734638874 0.15061125486508986082 0.13053825232192356465 0.11426907607446253057 0.083635662318488512845 0.079401711593275164924 0.066128731183911423908 0.059265182552151893236 0.033862522154656828077 0.060320712227496561808 0.021899583054737818688 0.027227467135305365858 0.043222420620377607903 0.027681165316369733126 0.010390955957376811838 0.0097664356297712563715 0.0054325754453971872651 0.0040579570390479454897 0.010536771062099008558 -0.0076708540443948388873 -0.005043777727798294877 0.0044996539972227038787 0.016868682809732069017 -0.0054129847099287954626 0.0080836976604598386603 0.0093950950264729514438 0.020619232888420192806 0.0077265459506050352539 -0.0030401905042723516466 0.0074564834866761783849 0.0093845065970132243716 0.011980240950767178168 -0.0028475283273893671303 0.027698916071598040506 -0.022330386394042878867 0.0080530123355350858444 -0.013988705798110304124 -0.017229908932725489235 -0.0015940325286205344994 -0.0091704800787671281875 -0.0059781672371180842249 -0.0021036434445647483882 0.00027252748645000153798 0.010030678760412675005 0.015961862999423325621 0.0086621417397866710963 0.013297636236576072799 0.072329739331736364605 0.083134549200751611808 0.10514199965054017716 0.1248282840885563405 0.12815922482698527407 0.13401855573638546404 0.18236839795831247257 0.16526668286285436937 0.16616461960963788136 0.16543894266221698119 0.18744501092605356241 0.16738477420042838228 0.13869447780322247121 0.14156808920881422398 0.13428278240750313177 0.11890130939567243595 0.10519798459342237507 0.11542246042393870809 0.082771445600057932945 0.076826029240119567132 0.08574105965705441923 0.085528113445171652374 0.053056636495758688343 0.089959010811809375641 0.074078110617673928462 0.049699356345024404968 0.067483087032462044097 0.064927643579704361065 0.051018580627528280214 0.044696476456894784768 0.068988764228643806309 0.047677149203193304461 0.042229981577748550159 0.052328061616470689099 0.036862764350139382019 0.030013268446834797526 0.021892576336445802171 0.041737825535497916074 0.018372200613323685231 0.017857432011078745032 0.022979685326649366972 0.016590994363026974334 0.011559222021452052881 0.025006471239914174198 0.0080969150267297743118 0.025599318548640264542 0.02676668106290621546 0.018111581795745755608 0.010709492679753077754 0.010072317581715286086 0.010846734800739731702 0.030091499956526355369 0.013022746556556889092 -0.0064086553032474558728 0.013137343360700682107 0.028417100572995779989 0.0063931653059884768764;0.085279446047260967778 -1.6051510794768446555 -1.3184916568918503277 -1.2406584960010154095 -1.025647238086659474 -0.49066454260282815758 -0.19152004903755945331 -0.43691303566878492148 -0.19848599742095043852 -0.12114169050726601717 -0.32425048298547703984 0.11709519688232648826 0.45069805395936118897 0.72431067745467836438 0.22574616853551304763 0.95172910847870473283 0.56900427502241490707 1.3293560692994408345 0.28431747520688638309 0.53064442186488580688 0.38967463216434961026 0.39914991248617126551 -0.11236208987602618048 0.40640707310954693465 -0.98813124717057820856 -0.028375090182311366038 -0.95950454914071980905 1.2459261287605725155 -0.43735848322462633764 0.55881651961588063582 -0.3619737898614705518 0.07850267769171420662 -0.26781353368392862846 -0.11157088157324637767 -0.070455431944407814759 0.36016273640460644279 0.80007377375440957845 -0.66452935125113488102 0.25553432395900299579 -0.13996726034704704 -0.54800584421865827789 1.0554497650029717182 0.34053439202811841557 -0.68612110833864070614 0.40554477318141773923 0.13731242392394951701 1.1040185587669641976 -0.5656021359971920015 0.2222844788631969104 -0.02652202060134374248 0.18628719336137206097 -0.35908293104573513199 0.88277117723206222077 -0.002796419975524993759 -0.9819168059065959131 -0.64693633138680839423 0.038852015607922334162 0.47593128915817917157 -0.46791103052636140447 -0.20410059038448757907 -0.59246744137362683524 0.023405200311800336554 -0.47941589220948754857 -0.23486646942364505786 -0.16086640324527579082 -0.30285372979415053907 0.16886852348375000488 -0.065780132786057043948 0.0095742182963660937833 -0.17095512163518664095 0.09579585612519371518 -0.019236783702325756934 -0.51295620886459236676 0.22779611912916591931 -0.037426705008049052092 0.042072326679397718807 0.56731971618850152161 -0.20134622157977771773 0.5194092172894433368 -0.12068550617721476859 -0.10428200248227366409 -0.096318291912564885093 0.16147657359833950119 1.0058330655201461745 0.41209931670560406847 -0.082574256559153777491 0.017673083647164185978 0.080611022236732263191 -0.57529673825762139838 0.67801440828123094029 0.38578631590499357085 0.18467271301751730928 -0.90261781731118517769 0.14499598834744920062 0.34020973340483329217 -0.78232872534590824909 0.97520213531239885452 0.12453011744166561647 0.19340912512706009974 -0.20927310575440072338 -0.2711478917021462598 -0.31073623919816906191 -0.66167587070149480599 0.72250245224435327707 0.021835673063143067052 0.49655548177278108213 0.46959164104782830096 0.37610791282631989008 -0.28067734680533756864 0.25608093263864861733 -0.0059402384773665382542 -0.60035124424801589171 -0.16571122127731496843 -0.36841807365386686213 0.51400954966745049379 0.29636819405692721441 -0.5995293203564532325 -0.26673101466802123793 0.40774606860386947149 -0.36377449662122829377;-0.048533733152063052163 -0.5501483554704276191 -1.0862203026473562506 -0.6996090536625315659 -0.2457222203901940627 -0.12573066325124485076 -0.096675790863081728643 -0.12921031439834482213 -0.20992966236697291338 -0.34228456041258653597 -0.19791755273452801833 -0.14421226100723666397 -0.1782871934837752248 -0.15341067167865310439 -0.12565318817854442823 -0.14827106038845333513 -0.065933209697333891586 -0.11026618929646642142 0.013370938431868954407 -0.053983345040491584332 0.0099997656951365757744 -0.024880233874161848673 -0.047449322710388014412 0.051515563648196635582 0.0047329285441420985286 -0.063292998464981459206 0.0090652503116179540543 -0.024606934993969223346 -0.035299135553071347982 -0.014670712736971618095 0.0039853723433346185945 0.052008860596584965963 0.016126547478006746789 0.006991952693884397052 0.047784490720111712225 0.036152559010178303422 0.071536285930407603195 -0.022759577177995315989 -0.10867400822017556083 0.008423211245103499889 0.010706795462105535982 -0.056010278351285115728 -0.059586368547382799477 -0.032831453143758605739 0.0055407760794853860159 -0.042959634456998713192 -0.010269122575846435091 -0.014386943838867956996 -0.0035772465122444847482 -0.08621113308031010114 0.038243261258461239138 -0.029200728316004068846 0.034741063190327214905 0.080682885832050327268 0.06469070354417152946 0.0042707930016090741437 0.046810447198303677119 0.047906677391332946891 -0.093621845851855151066 -0.021281149843724849607 -0.05309053240743626112 -0.14438221279528307139 -0.0024536017972022969302 -0.25876959180675668248 -0.10578857536276604911 -0.14437876066623003823 -0.11585669536442852467 -0.08179736731957792939 -0.030610997374034103202 -0.2005215883623937545 -0.083403408760841152292 -0.19982196047769332226 -0.090225664481115117055 -0.17257698528169110319 -0.17059384840721136811 -0.10003182087130368938 -0.13280158062570754374 0.0028131286086009515621 -0.082712141948837733518 0.023806275073715306434 -0.040070574121788098132 0.02178034875485587718 0.0066379590775533488592 -0.079551170450674738022 -0.10254640765975078787 0.075257990065857899298 -0.10524462028735948049 -0.035778924374380724482 -0.0080463816917485872504 -0.062997875412722115218 -0.037650475711993390548 -0.0102018094918929908 0.034047660429878501276 -0.061364892994086421563 -0.066106245805022528783 -0.032162793179014513567 -0.087897868764975420341 -0.016906557934544017702 -0.0029454374368045256778 0.020833087040181330618 -0.048201036466234095657 0.018846462038633614994 0.0021926054044447687227 0.023105175203307317527 0.13421128755551184342 -0.023309551597705351761 -0.027922088130259842265 -0.038400086965683505325 -0.031456283813150000273 -0.033963133040852855338 -0.040340419246260215969 -0.077376831013009197968 -0.020089105133773488276 0.077980806905333363566 -0.018133605440585356949 0.0020377507212655191632 0.0092164161750534056433 -0.021450909345435090897 -0.04045112948371446665 -0.049120697541481017634;0.0088011069907246233801 -0.74334504408920887286 -0.42971270883246776018 -0.022085975016178018004 0.27845531906663140154 0.43176882724751186604 0.43109119138608736899 0.42777467693604220855 0.3937632432472307209 0.30879403274598926643 0.26756819295172756812 0.21900346749936097646 0.18339179214347411939 0.15864151202177412259 0.12455050700763108107 0.093935898006121731907 0.091539243056992916636 0.065776096389012023158 0.060592066079186886196 0.056380153284059666974 0.043634231189571819065 0.029047237225114878184 0.031239266821190735113 0.034155997180243979905 0.0075427571798714291434 0.021381833679605131981 0.0066018761348827260937 0.013293919147960525304 0.013587689308640679003 0.0096197613154084538056 0.0032265919787939616875 0.014021023731089899203 -0.002201833157364409526 -0.00041674012630893637107 0.0060679621571049094722 -0.0018166352890403210125 -0.0044453812508085943644 0.0010507850343795595727 0.011715463702419430525 -0.0088813599880406910586 0.00028446518512475403541 0.0033812609760615307264 0.0068167417988744712087 0.0044258676254441114278 -0.00019580701954445247281 0.0068597883062866474302 0.011695472210448623965 0.0025260257446207837542 -0.0029360053658749689885 0.015154088237886664814 -0.014151194474573816628 0.006096093153009555024 -0.010037459997019500257 -0.0081445424082237441454 -0.0007788380809116698467 -0.0080028200431085782379 -0.0034344413738625618852 -0.00083612679573316596102 -0.0020724241015838457299 -0.0010736839730297543984 0.0030423370200926172328 -0.010770905171262707897 -0.013711199143249702334 0.014425784465998833794 0.018390909947170845651 0.041616822028452044036 0.041641996739438177921 0.045108049895912653848 0.044003956361745345804 0.068034231750947207762 0.054176698328760132528 0.056841639297687457377 0.072017619423252063338 0.080362840505290522586 0.067369345846453765336 0.054610414330426425289 0.053286583732847433992 0.054854145366708267906 0.050225366150181249836 0.054798599242572826329 0.045632973338247603823 0.037898323654448472231 0.030217010380535688774 0.025159011976922326242 0.028918234500629261263 0.010971081587327699211 0.040328210907896316906 0.03046499915249586618 0.019912456181016512796 0.026719194723115752971 0.026250654877567513451 0.026918973153201530141 0.016969174088468881589 0.036042374442673261181 0.023487232472118792226 0.017249152099366549945 0.028501646942735305024 0.020002086067423190813 0.011955676321236142004 0.0070555493092183847736 0.018198356854053555909 -0.0020423920441511693447 0.0032418694721851812335 0.012368004147798419487 0.0034155631238802740268 0.0028199645789302074834 0.013274698448707196105 0.0084712041315211459441 0.0086035025874689231851 0.013025163056081597024 0.0068317978017967788407 0.0027685058358729447425 0.0020469553028342724575 -0.0026906324602209092181 0.023812336887232905119 -0.001066947749703153021 -0.0033111744008448760167 0.0079210776323513192032 0.017636292975672131222 0.0061637307865897448048;0.16798107911448795226 0.65906426690549413383 0.91452991805949090942 0.49873290033079509254 0.20195965880620173061 0.11510183991246422663 -0.06298054467734104378 -0.33998459289667304351 0.0083604378698191473412 -0.14822125587416928871 -0.20229225185005084153 -0.064249171042625702333 0.049054920832600511227 -0.30494630597837235619 -0.24629677942758579356 0.16093853819172224129 -0.2150085547385467144 0.016767378222445741831 -0.072211006998385923739 -0.01747865913154031392 -0.054536570616868583483 0.14254860905961616591 0.1148630291878686982 -0.045731594467952017824 0.02518374121847751293 0.042554787928943280106 -0.065108738940210589274 -0.19800603813379463736 0.051779338244359415788 0.089999271161529309504 0.04357589153422872924 -0.26214269061081979517 0.12561437600188715691 -0.12127498429390426438 -0.20855350715054793431 -0.009169847448388682154 0.00082302753947107029284 -0.21929339441382933451 0.10239133332521796471 0.15926626965948306736 0.076055078063551856404 0.026651215613465999155 -0.047265746418857737532 0.12342847978471188641 -0.095122725675322095107 0.10406228235698837536 -0.25028095459511051635 -0.098976128460857681901 0.079685621455396177248 0.080068450132439822342 0.032506063412880252528 -0.008332381003673137998 0.04306370258919392513 -0.06363316313060762841 0.034368100500862114322 0.11837439562443950736 0.019635724281848697392 -0.012655990126375516597 -0.11169591888298802118 -0.020856564333834391733 0.037789691741875866549 -0.013533100733107645067 -0.025409660733333644389 -0.103598001903521586 0.080743550415571865853 -0.21173217549964096218 -0.039393621802454641123 0.13198151798804058643 0.074941373995104837435 -0.24094123740929224153 0.10038383415601254134 -0.11904650656715215495 -0.27076095493450796914 -0.1981761700515221325 0.048579529275867609772 -0.10141686574865153847 -0.17767993462309450425 -0.1619899813510652653 -0.060942887967145482897 -0.28238242183673267771 0.071981081713167791025 -0.12855090652987780087 -0.058005972552246556906 -0.030169865447840855249 -0.052989008530581027667 0.17251807752687881026 0.071023007878657867797 -0.12193219679904235275 0.042864896343026412384 0.088588451955580738151 -0.15552662428350566559 0.02256047588425818054 -0.011086840162567756715 0.010281719835761348944 0.068399355373482503828 0.019128574269540433994 0.0087837046729631780562 -0.0027463697398396073532 -0.14153156400482527766 0.16994276860898979709 0.046594177995601497588 0.14270504363838873441 -0.11926109657027474109 -0.035325415659084237474 0.2404019098675887478 0.0090152776448767478479 0.1232649914580751932 0.064471278575648022224 0.056244872522451271057 0.020652560957660517221 -0.092290875296171789866 0.11436156721219681298 0.13546803277638311269 0.22220921235459861753 -0.077327757726957963014 0.11723864790718849238 0.022820010423675811395 0.032298827511515935951 -0.066575251624985468113 -0.00043358174752289617079;0.010853354402850736229 -0.48498468139430916946 -0.4386024731740642002 -0.27202525931287580008 -0.16567154557995131259 -0.065149764102789040066 -0.054564175119023089477 0.0053311145870754035603 0.14075140355896259559 0.11040010982642275983 0.027082166412740759504 -0.046034259100432267653 0.017684009482837492744 0.061980179858166971341 0.18841557513556983494 0.081715729655875340987 -0.019260224334769541349 -0.016078589485441805579 0.12663947563250504968 0.059425989433006393137 0.11853349217608225019 -0.037407916995085728484 0.21850552960688574 -0.054208963846348996729 0.089785406412051863012 0.051919621489076452081 -0.0831232959857403364 0.073022634476497899625 -0.052264831475121772963 -0.053508315412358391228 0.11836861022706741953 -0.18788550153438823842 -0.057604593002569814963 -0.18854480381290467106 0.13095501729252179146 0.060424663774980208464 -0.035635853065703604337 0.0784064075306060565 -0.0466126364819186359 0.021723372140817858583 -0.036875452521580122378 -0.10816004638799504856 -0.010305682823107764276 -0.030359350741743541813 -0.13012342713775787439 0.058303398667473138595 -0.012251843292909507521 -0.12713474487230139176 0.047930605668420361853 0.049863943357350268282 0.060791051958681258105 0.096274000619842620141 0.012601424500120554303 0.012394201919601426781 0.057474004182316115741 0.12129353535336190317 0.031967088867000184593 -0.031803802676767550794 -0.12899036271319302971 0.10517783856710656576 0.031747765887972630161 0.029076318470488287521 -0.061787440798790047025 -0.044373788108576277256 0.053122440339830601097 0.19446403509876991622 0.1035358365909933992 0.17412049696430800805 -0.0033741230168347589868 -0.12530177369573253232 -0.075154679212540334565 -0.13278255878064826323 0.17912664784737813983 0.063134594934659893362 0.032556124791991131184 0.21002172593126741673 -0.047933330638729475248 -0.0062446492387866221058 -0.08426576341277412785 0.17467370530657180816 -0.01777667839496615762 0.18377905568761737642 0.095626267780087190196 -0.16845200374483834671 -0.025370390011248578066 -0.090811403798402509646 0.12357494447481656707 -0.047893682289561707865 -0.0022890515315758604327 -0.065405109194141636264 0.040593558579655387997 -0.08770044688443177916 -0.063143332462737525312 -0.024462239136218585228 0.17748424712828825278 0.12459611619879991384 0.10606086819722074233 -0.10281125772798423157 -0.15730301844040089909 0.085840292636466794529 -0.02599975880864901015 -0.025785161268599570555 -0.14720051588597554693 0.040686035496534815603 -0.056530908315569207423 -0.054142987020580284063 0.25773041159379161957 0.048250802687549061709 0.032974274580057472139 0.19443890369881286495 0.045411381900154847158 -0.021356749861326112389 -0.13399257542223613759 -0.19956643118087044608 0.11494476866327039966 -0.06287699941484130306 0.12314542848012180465 0.15305655884173630099 0.03659191663626304436 0.096112546313221580707;0.012818011382412118279 -0.89432081982511013596 -1.0620374393991847128 -0.81074936319596457857 -0.46387472988206818192 -0.24673940916080291941 0.038898512430601744905 0.2014973677420479059 0.33069155018081797248 0.22536625942341856343 0.24361879168564429254 0.1683719494759068902 0.17668946271005986359 0.15379334683957332497 0.10921767602110997453 0.10522406227723864192 0.075008523304555402289 0.062996214354150578685 0.072979789051907315023 0.05755620717908425249 0.035693497834271503688 0.035295234894536425818 0.037512452197688200828 0.011458624268852191097 0.0094809021227492407125 0.040397701971375266083 0.015125145453409477928 0.032494646467073666496 0.019408825067666640729 -0.0043082014829258965388 0.02558158676354198649 0.0050280197921558477531 0.012076554874998856118 -0.0064342356057046764736 0.0019471832262846423996 -0.0042905522741515204899 -0.025068185991539509994 0.025549403564399834204 0.020155142425515960164 0.0017113769693727980906 -0.0041189304267345901861 0.0095087380975862351856 0.014079050047066813192 0.020510834179494057128 -0.028671134677819353626 0.012598037024526217292 -0.0042806519877270710409 0.019099787443406051474 0.00078331537091603110207 0.038602849591672198926 0.0064614796612936535244 0.021704384410064406219 -0.025099726361626408661 0.0091333491255816239007 -0.01033266128682210766 -0.0032251476607959407919 -1.0540668665032703818e-05 -0.0059086010616568153744 -0.015484249885282269643 0.027162098573603653262 0.010774840409683655862 0.01353981371684827989 0.034070319694383927045 0.063544665007713233007 0.066325719129107341132 0.089371021894387003837 0.079762828950500103131 0.11794478662898591481 0.11314807351987188344 0.14851956597466292598 0.10322802180278076167 0.13518618741094939883 0.099704933844646126406 0.13157693776073942082 0.12022931704641760808 0.11259100586604095517 0.07475436776604579836 0.11179989034820758675 0.081946410032570388138 0.070473650367384566007 0.063129270810941037761 0.06218328111485852544 0.07260129648698272764 0.065980582911939519852 0.062529605616870334583 0.056941489218467714051 0.052835625397819135918 0.04151523071454767122 0.057231370165050830801 0.048048451356804092183 0.047806154177702453456 0.019304746527189227401 0.03508346801138574611 0.042031517591154275715 0.031268146296425533559 0.041859017787336763594 0.028757817049723063962 0.034012139126822313329 0.025253777949239396977 0.013417616317997007463 -0.0070573194111714938198 -0.0032516655638901536922 0.0032266918830840332633 0.012916577981339397163 0.023850539170955552259 -0.0065805089455147512331 0.013941371861409229682 0.015848835189699209819 0.015140059091300835797 0.0083277085513929587079 0.010679659266546681629 0.01027383713522400481 0.029847003940146828865 0.0078135164163732236109 0.018799949989960845764 0.0056554644871530728931 -0.012575251452909792099 0.0088315877326103978118 0.021111491381506843068 0.022559103712127236141];

% Layer 2
b2 = -0.30298989447829710597;
LW2_1 = [0.66284137567845402561 -0.75172053516041859034 -0.01692049073063828582 0.49649030474654215483 0.0020830707805877543906 0.087882189041028693777 -0.68465050965029550234 -0.044909446667434405054 0.053781951602724725747 -0.98742403025357694535];

% Output 1
y1_step1.ymin = -1;
y1_step1.gain = 0.0312315041769966;
y1_step1.xoffset = 15.9620981216431;

% ===== SIMULATION ========

% Dimensions
Q = size(x1,1); % samples

% Input 1
x1 = x1';
xp1 = mapminmax_apply(x1,x1_step1);

% Layer 1
a1 = tansig_apply(repmat(b1,1,Q) + IW1_1*xp1);

% Layer 2
a2 = repmat(b2,1,Q) + LW2_1*a1;

% Output 1
y1 = mapminmax_reverse(a2,y1_step1);
y1 = y1';
end

% ===== MODULE FUNCTIONS ========

% Map Minimum and Maximum Input Processing Function
function y = mapminmax_apply(x,settings)
y = bsxfun(@minus,x,settings.xoffset);
y = bsxfun(@times,y,settings.gain);
y = bsxfun(@plus,y,settings.ymin);
end

% Sigmoid Symmetric Transfer Function
function a = tansig_apply(n,~)
a = 2 ./ (1 + exp(-2*n)) - 1;
end

% Map Minimum and Maximum Output Reverse-Processing Function
function x = mapminmax_reverse(y,settings)
x = bsxfun(@minus,y,settings.ymin);
x = bsxfun(@rdivide,x,settings.gain);
x = bsxfun(@plus,x,settings.xoffset);
end
